{"learner":{"attributes":{"best_iteration":"99","best_ntree_limit":"100","scikit_learn":"{\"n_estimators\": 100, \"objective\": \"binary:logistic\", \"max_depth\": 10, \"max_leaves\": null, \"max_bin\": null, \"grow_policy\": null, \"learning_rate\": 0.05, \"verbosity\": null, \"booster\": null, \"tree_method\": null, \"gamma\": null, \"min_child_weight\": null, \"max_delta_step\": null, \"subsample\": null, \"sampling_method\": null, \"colsample_bytree\": null, \"colsample_bylevel\": null, \"colsample_bynode\": null, \"reg_alpha\": null, \"reg_lambda\": null, \"scale_pos_weight\": null, \"base_score\": null, \"missing\": NaN, \"num_parallel_tree\": null, \"random_state\": null, \"n_jobs\": null, \"monotone_constraints\": null, \"interaction_constraints\": null, \"importance_type\": null, \"gpu_id\": null, \"validate_parameters\": null, \"predictor\": null, \"enable_categorical\": false, \"feature_types\": null, \"max_cat_to_onehot\": null, \"max_cat_threshold\": null, \"eval_metric\": null, \"early_stopping_rounds\": null, \"callbacks\": null, \"_estimator_type\": \"regressor\"}"},"feature_names":[],"feature_types":[],"gradient_booster":{"model":{"gbtree_model_param":{"num_parallel_tree":"1","num_trees":"100","size_leaf_vector":"0"},"tree_info":[0,0,0,0,0,0,0,0,0,0,0,0,0,0,0,0,0,0,0,0,0,0,0,0,0,0,0,0,0,0,0,0,0,0,0,0,0,0,0,0,0,0,0,0,0,0,0,0,0,0,0,0,0,0,0,0,0,0,0,0,0,0,0,0,0,0,0,0,0,0,0,0,0,0,0,0,0,0,0,0,0,0,0,0,0,0,0,0,0,0,0,0,0,0,0,0,0,0,0,0],"trees":[{"base_weights":[-1.803232E0,-4.937751E-1,-1.9629642E0,8.6626416E-1,-1.9303331E0,-1.9747462E0,3.5468E-2,-2.3792207E-1,1.4475338E0,-1.1171125E0,-1.9770812E0,-1.6256876E0,-1.9876041E0,1.4265431E0,-1.7030717E0,8.3203536E-1,-1.282153E0,4.6225291E-1,1.9306773E0,-1.7191957E0,8.957668E-1,-1.9842445E0,-3.26734E-1,-3.9738625E-1,-1.9223721E0,-1.8952516E0,-1.99899E0,1.8356259E0,-1.396044E0,-1.5246227E-1,-1.7912015E0,1.1811365E0,-1.6691029E0,-1.631345E0,7.0471156E-1,9.717337E-1,-1.7650946E0,1.9477515E0,-3.0844942E-1,-1.8945947E0,-6.8272567E-1,-1.063823E0,1.7571449E0,1.1601927E0,-1.3582109E0,8.505851E-1,-1.9103314E0,-1.9765283E0,7.470081E-1,-1.953529E0,-9.7975135E-2,1.9432298E0,-6.474672E-1,-1.6174622E0,-1.7514916E-1,-6.854034E-1,4.4409966E-1,-1.8902613E0,-7.8458446E-1,-1.6152221E0,1.4808787E0,7.909708E-1,-1.883706E0,-1.9136922E0,-1.3051567E0,1.360002E0,-1.6370327E0,1.2687029E0,-1.864721E0,-1.8645071E0,5.560063E-1,1.9662664E0,2.1176535E-1,-1.16186E0,7.026131E-1,-6.7721844E-1,-1.9305307E0,1.1111786E0,-1.2904766E0,-1.3332622E0,-1.6269845E-1,-8.85944E-1,1.8094921E0,-1.950177E0,-5.007375E-1,1.5718943E0,-9.8564655E-1,-1.9744579E0,-1.08641E0,1.8020986E0,-1.8644838E0,7.12213E-1,-1.4506681E0,-1.733139E0,-1.53394E-1,1.6222644E0,-1.6414341E0,5.10791E-1,-1.6836461E0,1.7296151E0,-1.2969745E0,-9.983739E-3,1.8216852E0,-1.9356081E0,1.10435106E-1,3.9748454E-1,1.9757257E0,1.2006596E0,-1.0456371E0,-1.544939E0,-1.5608725E-1,1.0202551E0,-1.7087654E0,1.9156762E0,-5.799901E-1,5.001736E-1,-1.8848872E0,1.9062431E0,2.8806254E-1,-1.9149622E0,-4.471885E-1,-1.8161963E0,-4.4409966E-1,5.34753E-1,1.7931433E0,1.1563807E0,-1.4050299E0,-1.7792752E0,1.103377E0,1.6357838E-1,1.8268175E0,-1.7408819E0,1.0789282E0,1.8844143E0,-1.5886772E-1,1.1130284E0,-5.134973E-1,-5.3320646E-1,1.4993548E0,1.5142285E0,-1.5694337E0,1.2762266E0,-1.582126E0,1.8342094E0,-2.4183309E-1,-5.598402E-1,1.5047307E0,-1.8855093E0,-8.756472E-1,-1.798586E0,-4.4409966E-1,1.7753382E0,-1.477587E0,1.9210016E0,8.531092E-1,-8.0170965E-1,7.5530213E-1,4.6930605E-1,1.7196877E0,-2.9279372E-1,1.55222E0,5.9907883E-1,1.8758676E0,4.1500816E-1,1.6146408E0,5.2221004E-2,-1.5295374E0,-5.560063E-1,-1.862996E0,1.830271E0,3.9033985E-1,-4.60182E-1,-1.5975266E0,5.0394547E-1,1.9359298E0,-3.561416E-1,1.4391391E0],"categories":[],"categories_nodes":[],"categories_segments":[],"categories_sizes":[],"default_left":[1,1,1,1,1,1,1,1,1,1,1,1,1,1,1,1,1,1,1,1,1,0,1,1,1,1,0,1,1,1,1,1,1,1,1,1,1,1,1,1,1,1,0,0,0,1,1,0,1,1,1,0,0,0,0,0,0,0,1,1,1,0,0,0,1,1,0,1,0,1,0,1,1,0,0,0,0,0,1,0,0,1,1,0,0,0,0,0,1,1,1,0,0,1,0,1,0,1,1,1,0,1,1,0,0,1,0,0,0,0,0,1,0,0,0,1,0,0,0,0,0,0,0,1,1,1,0,1,0,0,0,1,1,1,1,0,0,0,0,1,0,1,0,1,0,0,1,0,1,1,0,1,1,1,1,0,0,0,0,0,0,0,0,0,0,0,0,0,0,0,0,0,0,0,0,0,0],"id":0,"left_children":[1,3,5,7,9,11,13,15,17,19,21,23,25,27,29,31,33,35,37,39,41,-1,43,45,47,49,-1,51,53,55,57,59,61,63,65,67,69,71,73,75,77,79,-1,-1,-1,81,83,-1,85,87,89,-1,-1,-1,-1,-1,-1,-1,91,93,95,-1,-1,-1,97,99,-1,101,-1,103,-1,105,107,-1,-1,-1,-1,-1,109,-1,-1,111,113,-1,-1,-1,-1,-1,115,117,119,-1,-1,121,-1,123,-1,125,127,129,-1,131,133,-1,-1,135,-1,-1,-1,-1,-1,137,-1,-1,-1,139,-1,-1,-1,-1,-1,-1,-1,141,143,145,-1,147,-1,-1,-1,149,151,153,155,-1,-1,-1,-1,157,-1,159,-1,161,-1,-1,163,-1,165,167,-1,169,171,173,175,-1,-1,-1,-1,-1,-1,-1,-1,-1,-1,-1,-1,-1,-1,-1,-1,-1,-1,-1,-1,-1,-1],"loss_changes":[3.195621E3,3.2506116E3,3.2078516E2,5.490396E2,2.854712E1,5.7539062E1,1.9787852E2,3.3143457E2,2.657821E2,5.762402E1,8.380859E0,1.7655115E2,9.9453125E0,5.502925E1,4.698097E0,1.3002043E2,1.0524484E2,2.1237064E2,1.4959106E1,5.244705E0,2.0964214E1,0E0,8.474181E0,1.8273708E2,5.8094604E1,1.5191064E2,0E0,1.1977509E1,1.4251451E0,1.2738862E0,1.9399719E0,1.1074875E2,1.1191631E1,9.282715E0,3.7713326E1,1.3016684E2,9.092545E0,1.1568237E1,4.013606E0,1.360321E-2,8.813459E0,7.730036E-1,0E0,0E0,0E0,9.028353E1,1.4760437E0,0E0,1.3717121E1,2.3380371E1,1.5997906E2,0E0,0E0,0E0,0E0,0E0,0E0,0E0,5.803924E0,1.9739456E0,5.4436737E1,0E0,0E0,0E0,4.381231E1,2.0524784E1,0E0,9.755243E1,0E0,4.9470444E0,0E0,4.6875E0,7.541621E0,0E0,0E0,0E0,0E0,0E0,1.351819E0,0E0,0E0,3.251233E1,9.899811E0,0E0,0E0,0E0,0E0,0E0,4.5752903E1,3.0758133E0,9.0875244E-1,0E0,0E0,4.7036362E-1,0E0,1.9985107E1,0E0,1.5904963E1,1.58081665E1,2.254055E0,0E0,8.22421E1,1.2263458E1,0E0,0E0,2.8284311E0,0E0,0E0,0E0,0E0,0E0,5.667625E0,0E0,0E0,0E0,2.8887167E1,0E0,0E0,0E0,0E0,0E0,0E0,0E0,2.8277403E1,8.547607E0,6.3331814E0,0E0,3.2069855E0,0E0,0E0,0E0,4.6197128E-1,5.0319725E1,1.8862E0,2.884891E0,0E0,0E0,0E0,0E0,1.1223335E0,0E0,6.0593166E0,0E0,3.7731934E0,0E0,0E0,2.7680206E-1,0E0,4.442661E0,2.2889328E-1,0E0,9.220123E-1,3.131962E-2,9.160156E-1,4.055518E0,0E0,0E0,0E0,0E0,0E0,0E0,0E0,0E0,0E0,0E0,0E0,0E0,0E0,0E0,0E0,0E0,0E0,0E0,0E0,0E0,0E0,0E0],"parents":[2147483647,0,0,1,1,2,2,3,3,4,4,5,5,6,6,7,7,8,8,9,9,10,10,11,11,12,12,13,13,14,14,15,15,16,16,17,17,18,18,19,19,20,20,22,22,23,23,24,24,25,25,27,27,28,28,29,29,30,30,31,31,32,32,33,33,34,34,35,35,36,36,37,37,38,38,39,39,40,40,41,41,45,45,46,46,48,48,49,49,50,50,58,58,59,59,60,60,64,64,65,65,67,67,69,69,71,71,72,72,78,78,81,81,82,82,88,88,89,89,90,90,93,93,95,95,97,97,98,98,99,99,101,101,102,102,105,105,111,111,115,115,123,123,124,124,125,125,127,127,131,131,132,132,133,133,134,134,139,139,141,141,143,143,146,146,148,148,149,149,151,151,152,152,153,153,154,154],"right_children":[2,4,6,8,10,12,14,16,18,20,22,24,26,28,30,32,34,36,38,40,42,-1,44,46,48,50,-1,52,54,56,58,60,62,64,66,68,70,72,74,76,78,80,-1,-1,-1,82,84,-1,86,88,90,-1,-1,-1,-1,-1,-1,-1,92,94,96,-1,-1,-1,98,100,-1,102,-1,104,-1,106,108,-1,-1,-1,-1,-1,110,-1,-1,112,114,-1,-1,-1,-1,-1,116,118,120,-1,-1,122,-1,124,-1,126,128,130,-1,132,134,-1,-1,136,-1,-1,-1,-1,-1,138,-1,-1,-1,140,-1,-1,-1,-1,-1,-1,-1,142,144,146,-1,148,-1,-1,-1,150,152,154,156,-1,-1,-1,-1,158,-1,160,-1,162,-1,-1,164,-1,166,168,-1,170,172,174,176,-1,-1,-1,-1,-1,-1,-1,-1,-1,-1,-1,-1,-1,-1,-1,-1,-1,-1,-1,-1,-1,-1],"split_conditions":[5.1521397E-1,6.2207794E-1,1.49964E-1,1.602682E-2,7.618543E-1,7.219704E-1,1.2427186E0,1.9664666E-1,5.496287E-1,7.86718E-2,5.46967E-1,5.48361E-1,1.3087227E0,8.666777E0,3.15421E-1,0E0,1.5244879E0,3.6726844E-1,0E0,1.3043592E0,2.6069761E1,-9.921222E-2,1.3587708E0,6.702546E0,3.398057E-2,1.2994715E0,-9.99495E-2,1.2329438E0,4.2227013E1,2.7604192E-1,5.0943794E1,2.0195302E-1,1.2895344E-2,8.326043E-2,3.004116E1,5.457822E-1,3.1571275E-1,2.9867062E1,3.4167673E-2,9.3140616E-4,1.5974627E-1,3.2139692E-1,8.785725E-2,5.8009636E-2,-6.7910545E-2,7.1087856E0,5.345735E0,-9.8826416E-2,4.3897572E-1,4.3328237E-2,1.3011155E0,9.7161494E-2,-3.237336E-2,-8.087311E-2,-8.757458E-3,-3.427017E-2,2.2204984E-2,-9.4513066E-2,5.4567175E0,9.054405E0,6.4466385E1,3.9548542E-2,-9.41853E-2,-9.568461E-2,1.586619E-1,0E0,-8.185164E-2,3.5376795E-2,-9.323605E-2,4.2891073E-1,2.7800316E-2,5.0218374E-2,1.0503002E-1,-5.8093E-2,3.5130657E-2,-3.386092E-2,-9.652653E-2,5.555893E-2,7.2439057E-1,-6.666311E-2,-8.134923E-3,1.6554509E-1,0E0,-9.750885E-2,-2.5036875E-2,7.8594714E-2,-4.9282327E-2,-9.87229E-2,1.515089E0,3.8275647E-1,4.874362E0,3.561065E-2,-7.253341E-2,8.151936E-3,-7.6697E-3,3.3495674E0,-8.207171E-2,0E0,1.4115696E-2,3.025474E0,-6.484873E-2,8.238242E-2,2.7996513E-1,-9.678041E-2,5.521755E-3,7.767948E-1,9.878629E-2,6.0032982E-2,-5.2281857E-2,-7.724696E-2,-7.8043626E-3,2.5734816E0,-8.5438274E-2,9.5783815E-2,-2.8999506E-2,1.0103743E0,-9.424436E-2,9.5312156E-2,1.4403127E-2,-9.574811E-2,-2.2359425E-2,-9.0809815E-2,-2.2204984E-2,3.181459E0,4.4431636E-1,4.8581594E-1,-7.0251495E-2,6.616624E-3,5.516885E-2,8.178919E-3,9.134088E-2,1.03263944E-1,0E0,1.317169E-1,3.1417856E-1,5.5651423E-2,-2.5674865E-2,-2.6660323E-2,7.496774E-2,1.043564E1,-7.847168E-2,1.4757128E0,-7.91063E-2,1.0859865E-3,-1.2091654E-2,-2.799201E-2,2.4040975E-3,-9.427547E-2,1.7369366E0,3.8406723E0,-2.2204984E-2,3.441565E0,2.0759644E-2,1.4925877E-3,1.4785184E-1,-4.0085483E-2,3.7765108E-2,2.3465304E-2,8.598439E-2,-1.4639686E-2,7.7611E-2,2.9953942E-2,9.3793385E-2,2.0750409E-2,8.073204E-2,2.6110501E-3,-7.647687E-2,-2.7800316E-2,-9.31498E-2,9.151355E-2,1.9516993E-2,-2.30091E-2,-7.9876326E-2,2.5197273E-2,9.679649E-2,-1.780708E-2,7.1956955E-2],"split_indices":[4,2,5,5,2,4,4,2,3,5,5,2,4,1,2,0,3,2,0,3,6,0,2,1,5,4,0,2,6,5,6,3,4,4,1,3,5,1,5,5,1,3,0,0,0,6,3,0,1,5,4,0,0,0,0,0,0,0,1,6,1,0,0,0,4,0,0,5,0,3,0,4,2,0,0,0,0,0,2,0,0,1,0,0,0,0,0,0,1,1,3,0,0,5,0,6,0,0,5,6,0,3,2,0,0,3,0,0,0,0,0,3,0,0,0,2,0,0,0,0,0,0,0,6,4,3,0,5,0,0,0,1,0,4,3,0,0,0,0,6,0,6,0,5,0,0,5,0,1,6,0,1,4,1,4,0,0,0,0,0,0,0,0,0,0,0,0,0,0,0,0,0,0,0,0,0,0],"split_type":[0,0,0,0,0,0,0,0,0,0,0,0,0,0,0,0,0,0,0,0,0,0,0,0,0,0,0,0,0,0,0,0,0,0,0,0,0,0,0,0,0,0,0,0,0,0,0,0,0,0,0,0,0,0,0,0,0,0,0,0,0,0,0,0,0,0,0,0,0,0,0,0,0,0,0,0,0,0,0,0,0,0,0,0,0,0,0,0,0,0,0,0,0,0,0,0,0,0,0,0,0,0,0,0,0,0,0,0,0,0,0,0,0,0,0,0,0,0,0,0,0,0,0,0,0,0,0,0,0,0,0,0,0,0,0,0,0,0,0,0,0,0,0,0,0,0,0,0,0,0,0,0,0,0,0,0,0,0,0,0,0,0,0,0,0,0,0,0,0,0,0,0,0,0,0,0,0],"sum_hessian":[1.52818125E4,1.6619034E3,1.3619909E4,8.5389166E2,8.080118E2,1.3540093E4,7.981618E1,2.9468863E2,5.59203E2,4.5276978E1,7.627348E2,4.8557028E2,1.3054523E4,4.4438564E1,3.5377613E1,1.4565172E2,1.4903691E2,1.8463373E2,3.7456927E2,3.496447E1,1.0312509E1,7.59237E2,3.4977877E0,9.492236E1,3.9064792E2,1.4511818E3,1.1603341E4,3.9118687E1,5.3198786E0,2.0493865E0,3.3328224E1,1.2827522E2,1.73765E1,1.2691117E2,2.2125736E1,1.5072157E2,3.3912148E1,3.7186383E2,2.705468E0,2.9195812E1,5.7686586E0,3.0771441E0,7.235365E0,1.3814988E0,2.116289E0,5.2256084E1,4.266628E1,3.8313446E2,7.513452E0,1.4055204E3,4.5661472E1,3.770229E1,1.4163995E0,4.22824E0,1.0916386E0,1.0037552E0,1.0456314E0,2.9543093E1,3.7851322E0,1.1993802E1,1.1628142E2,1.1787148E0,1.6197784E1,6.541841E1,6.149276E1,1.7615599E1,4.510138E0,1.3693732E2,1.3784251E1,3.270798E1,1.2041638E0,3.6780835E2,4.055472E0,1.3862361E0,1.3192319E0,1.4061407E0,2.778967E1,1.250171E0,4.5184875E0,1.9996797E0,1.0774643E0,1.861728E1,3.3638805E1,4.1120407E1,1.5458707E0,5.1529884E0,2.3604636E0,1.371149E3,3.437128E1,2.1989359E1,2.3672113E1,1.1443464E0,2.640786E0,1.09268055E1,1.0669966E0,1.1170364E2,4.577775E0,1.0545779E1,5.094698E1,1.5770751E1,1.844847E0,4.1637943E1,9.529938E1,3.1590586E1,1.1173959E0,2.462304E0,3.6534604E2,2.2953794E0,1.7600925E0,3.395016E0,1.1234715E0,5.540912E0,1.3076367E1,3.239741E1,1.2413919E0,1.1631982E1,2.2739298E1,2.033177E1,1.6575888E0,2.2518942E1,1.1531715E0,9.881174E0,1.0456314E0,1.5729157E1,9.597449E1,8.184266E0,2.3615134E0,4.9606453E1,1.340524E0,1.0784597E0,1.4692291E1,1.5847906E1,2.5790037E1,9.242072E1,2.8786578E0,1.2548636E0,1.2074405E0,1.2794411E0,4.261471E0,7.986936E0,3.6450455E0,1.1943026E1,3.7861323E0,9.417272E1,1.8017668E0,1.2784737E0,6.905792E0,4.3415726E1,6.1907277E0,1.4802275E1,1.0456314E0,2.0508865E1,5.2811728E0,8.842115E1,3.99957E0,1.7623774E0,1.1162804E0,1.852038E0,6.134898E0,1.7774372E0,1.0165588E1,3.5744364E0,9.059828E1,1.0702733E0,5.835519E0,2.9395926E0,3.2511349E0,1.2041638E0,1.359811E1,1.9417227E1,1.0916386E0,1.0669966E0,4.214176E0,1.2841223E0,8.713703E1,1.4336232E0,2.5659468E0],"tree_param":{"num_deleted":"0","num_feature":"7","num_nodes":"177","size_leaf_vector":"0"}},{"base_weights":[-1.7174512E0,-4.7059664E-1,-1.869573E0,8.2430536E-1,-1.8386574E0,-1.8807864E0,3.168322E-2,-2.2789101E-1,1.3783718E0,-1.06648E0,-1.8830589E0,-1.5484486E0,-1.8930297E0,1.3576007E0,-1.6250552E0,7.909012E-1,-1.2222563E0,4.3944705E-1,1.8389106E0,-1.6409854E0,8.533854E-1,-1.889881E0,-3.1285623E-1,-1.7418699E0,1.5105127E-1,-1.8050135E0,-1.9038789E0,1.7494212E0,-1.3419245E0,-1.755151E0,-5.235037E-1,1.1234605E0,-1.591829E0,-1.5546573E0,6.6862494E-1,9.2475194E-1,-1.6822963E0,1.8552587E0,-2.99356E-1,-1.8081462E0,-6.5354645E-1,-1.0295547E0,1.682855E0,1.1271007E0,-1.3131377E0,1.2910616E-1,-1.8236704E0,-1.7084991E0,1.4306066E0,-1.8605484E0,-8.188156E-2,1.8529065E0,-6.2858933E-1,-1.5588675E0,-1.7405169E-1,-2.921401E-1,-1.8050385E0,1.1442736E0,-1.4161832E0,-1.5116615E0,1.4138286E0,7.6974016E-1,-1.7988145E0,-1.8236252E0,-1.2439886E0,1.2961792E0,-1.5722262E0,1.2081023E0,-1.7814585E0,-1.7779558E0,5.408768E-1,1.8729069E0,2.0284554E-1,-1.1286744E0,6.827518E-1,1.0807818E0,-1.2425315E0,-1.2897935E0,-1.5848067E-1,1.3333415E0,-1.6010201E0,-1.3214332E0,-1.8869328E0,-1.8085163E0,-2.254852E-1,1.7816762E0,-1.4237376E0,-1.880458E0,-1.0358977E0,1.7202864E0,-1.7782786E0,-1.6688699E0,1.4960252E-1,1.5497106E0,-1.5762904E0,4.8608595E-1,-1.6048529E0,1.6521406E0,-1.2557913E0,-1.26706455E-2,1.7362348E0,-1.846054E0,1.0752155E-1,3.8640353E-1,1.8818603E0,1.1595838E0,-1.012746E0,-1.4870096E0,-1.5195936E-1,-4.897494E-1,1.6492369E0,-1.726489E0,7.2483045E-1,1.496008E-1,1.8418409E0,4.7828215E-1,-1.7984991E0,1.8194001E0,2.7908826E-1,-4.340289E-1,-1.8281195E0,-1.7405031E0,-5.533749E-1,5.0771177E-1,1.7141324E0,1.1077808E0,-1.3568726E0,-1.6970857E0,1.0722543E0,1.5933588E-1,1.7447594E0,-1.6653365E0,1.0271487E0,1.7961384E0,-1.5156698E-1,1.0825317E0,-4.9949935E-1,-1.7757802E0,-2.7187632E-2,1.4071753E0,-1.2467265E0,1.4526039E0,-1.5097092E0,1.21876E0,-1.5214617E0,1.7536874E0,-2.3406273E-1,-5.4419434E-1,1.4441191E0,-1.7973224E0,-8.4271103E-1,-1.7195994E0,-4.3277726E-1,1.6949983E0,-1.4216679E0,1.8305653E0,8.218647E-1,-7.763378E-1,7.355227E-1,-9.229439E-1,-1.8435818E0,1.6385186E-1,1.59824E0,4.5410964E-1,1.6484165E0,-2.8343487E-1,1.4836273E0,5.757756E-1,1.7935812E0,4.043036E-1,1.5479077E0,5.0272867E-2,-1.4727238E0,-5.408767E-1,-1.7798811E0,1.7467735E0,3.8017297E-1,-4.4833568E-1,-1.5349802E0,4.8982403E-1,1.8445711E0,-3.4566796E-1,1.3886758E0,-1.3893279E0,2.6911026E-1],"categories":[],"categories_nodes":[],"categories_segments":[],"categories_sizes":[],"default_left":[1,1,1,1,1,1,1,1,1,1,1,1,1,1,1,1,1,1,1,1,1,0,1,1,1,1,0,1,1,1,1,1,1,1,1,1,1,1,1,0,1,1,0,0,0,1,1,1,1,1,1,0,0,0,0,0,0,0,0,1,1,0,0,0,1,1,0,1,0,1,0,1,1,0,0,0,1,0,0,1,0,1,0,0,0,1,0,0,1,1,1,1,0,1,0,1,1,1,0,1,1,0,0,1,0,0,0,0,0,0,0,1,1,0,0,1,0,0,0,0,0,0,0,1,1,1,0,1,0,0,0,1,1,1,1,0,0,1,0,1,0,1,0,1,0,1,0,0,1,0,1,1,0,1,1,1,1,0,0,1,0,0,0,0,0,0,0,0,0,0,0,0,0,0,0,0,0,0,0,0,0,0,0,0,0],"id":1,"left_children":[1,3,5,7,9,11,13,15,17,19,21,23,25,27,29,31,33,35,37,39,41,-1,43,45,47,49,-1,51,53,55,57,59,61,63,65,67,69,71,73,-1,75,77,-1,-1,-1,79,81,83,85,87,89,-1,-1,-1,-1,-1,-1,-1,-1,91,93,-1,-1,-1,95,97,-1,99,-1,101,-1,103,105,-1,-1,-1,107,-1,-1,109,-1,111,-1,-1,-1,113,-1,-1,115,117,119,121,-1,123,-1,125,127,129,-1,131,133,-1,-1,135,-1,-1,-1,-1,-1,-1,-1,137,139,-1,-1,141,-1,-1,-1,-1,-1,-1,-1,143,145,147,-1,149,-1,-1,-1,151,153,155,157,-1,-1,159,-1,161,-1,163,-1,165,-1,167,-1,-1,169,-1,171,173,-1,175,177,179,181,-1,-1,183,-1,-1,-1,-1,-1,-1,-1,-1,-1,-1,-1,-1,-1,-1,-1,-1,-1,-1,-1,-1,-1,-1,-1,-1,-1],"loss_changes":[2.89075E3,2.9405684E3,2.8973047E2,4.9761096E2,2.5662354E1,5.2027344E1,1.7936969E2,2.9991666E2,2.408739E2,5.234641E1,7.569824E0,1.5983167E2,9.003906E0,5.0307632E1,4.284294E0,1.1776873E2,9.5150955E1,1.9229984E2,1.3652588E1,4.7428894E0,1.9375668E1,0E0,7.953297E0,6.694885E1,1.2265508E2,1.3844873E2,0E0,1.1015526E1,1.3281355E0,1.8116837E0,9.451705E0,1.0086206E2,1.0349487E1,8.397583E0,3.450219E1,1.1825102E2,8.370575E0,1.0467407E1,3.7873507E0,0E0,8.250874E0,7.1932125E-1,0E0,0E0,0E0,4.2124065E1,1.077832E1,2.7143745E0,3.307217E1,2.1089355E1,1.4451111E2,0E0,0E0,0E0,0E0,0E0,0E0,0E0,0E0,3.720459E0,4.9873108E1,0E0,0E0,0E0,3.972399E1,1.895563E1,0E0,8.876997E1,0E0,4.517029E0,0E0,4.1696777E0,7.0500903E0,0E0,0E0,0E0,1.2440262E0,0E0,0E0,7.639284E0,0E0,4.2748627E1,0E0,0E0,0E0,2.4325333E0,0E0,0E0,4.16259E1,2.7694855E0,8.363037E-1,1.3553619E-2,0E0,1.8346832E1,0E0,1.4717146E1,1.4621094E1,2.036522E0,0E0,7.484978E1,1.1138763E1,0E0,0E0,2.6752121E0,0E0,0E0,0E0,0E0,0E0,0E0,0E0,3.4771118E0,1.3831232E1,0E0,0E0,2.6627153E1,0E0,0E0,0E0,0E0,0E0,0E0,0E0,2.596106E1,7.843628E0,5.8833866E0,0E0,2.8106537E0,0E0,0E0,0E0,3.8062286E-1,4.6145477E1,1.6220398E0,2.7200608E0,0E0,0E0,6.6270447E-1,0E0,1.4339962E0,0E0,1.006279E0,0E0,5.564188E0,0E0,3.4153442E0,0E0,0E0,2.2633743E-1,0E0,4.1168027E0,1.580391E-1,0E0,7.9738235E-1,3.8108826E-3,7.7182007E-1,3.786317E0,0E0,0E0,3.1612525E0,0E0,0E0,0E0,0E0,0E0,0E0,0E0,0E0,0E0,0E0,0E0,0E0,0E0,0E0,0E0,0E0,0E0,0E0,0E0,0E0,0E0,0E0,0E0,0E0,0E0],"parents":[2147483647,0,0,1,1,2,2,3,3,4,4,5,5,6,6,7,7,8,8,9,9,10,10,11,11,12,12,13,13,14,14,15,15,16,16,17,17,18,18,19,19,20,20,22,22,23,23,24,24,25,25,27,27,28,28,29,29,30,30,31,31,32,32,33,33,34,34,35,35,36,36,37,37,38,38,40,40,41,41,45,45,46,46,47,47,48,48,49,49,50,50,59,59,60,60,64,64,65,65,67,67,69,69,71,71,72,72,76,76,79,79,81,81,85,85,88,88,89,89,90,90,91,91,93,93,95,95,96,96,97,97,99,99,100,100,103,103,111,111,112,112,115,115,123,123,124,124,125,125,127,127,131,131,132,132,133,133,134,134,137,137,139,139,141,141,143,143,145,145,148,148,150,150,151,151,153,153,154,154,155,155,156,156,159,159],"right_children":[2,4,6,8,10,12,14,16,18,20,22,24,26,28,30,32,34,36,38,40,42,-1,44,46,48,50,-1,52,54,56,58,60,62,64,66,68,70,72,74,-1,76,78,-1,-1,-1,80,82,84,86,88,90,-1,-1,-1,-1,-1,-1,-1,-1,92,94,-1,-1,-1,96,98,-1,100,-1,102,-1,104,106,-1,-1,-1,108,-1,-1,110,-1,112,-1,-1,-1,114,-1,-1,116,118,120,122,-1,124,-1,126,128,130,-1,132,134,-1,-1,136,-1,-1,-1,-1,-1,-1,-1,138,140,-1,-1,142,-1,-1,-1,-1,-1,-1,-1,144,146,148,-1,150,-1,-1,-1,152,154,156,158,-1,-1,160,-1,162,-1,164,-1,166,-1,168,-1,-1,170,-1,172,174,-1,176,178,180,182,-1,-1,184,-1,-1,-1,-1,-1,-1,-1,-1,-1,-1,-1,-1,-1,-1,-1,-1,-1,-1,-1,-1,-1,-1,-1,-1,-1],"split_conditions":[5.1521397E-1,6.2207794E-1,1.49964E-1,1.602682E-2,7.618543E-1,7.219704E-1,1.2427186E0,1.9664666E-1,5.496287E-1,7.86718E-2,5.46967E-1,1.9185856E-2,1.3087039E0,8.666777E0,5.0943794E1,0E0,1.5244879E0,3.6726844E-1,0E0,1.3043592E0,2.6069761E1,-9.449405E-2,1.3587708E0,9.987643E-2,1.4299453E0,1.2994715E0,-9.5193945E-2,1.2329438E0,2.3157316E-1,1.8943596E-1,2.1048183E0,2.0708798E-1,1.2895344E-2,8.326043E-2,3.004116E1,5.457822E-1,3.1571275E-1,2.9867062E1,3.4167673E-2,-9.040731E-2,1.5974627E-1,3.2139692E-1,8.414275E-2,5.6355037E-2,-6.5656886E-2,6.037324E-1,4.7894096E-1,1.2689404E0,1.0523622E0,4.3328237E-2,1.3011155E0,9.2645325E-2,-3.1429466E-2,-7.794338E-2,-8.702585E-3,-1.4607005E-2,-9.025192E-2,5.7213683E-2,-7.080916E-2,1.2198882E1,6.4466385E1,3.848701E-2,-8.994073E-2,-9.118126E-2,1.586619E-1,0E0,-7.861131E-2,3.5376795E-2,-8.907293E-2,4.2891073E-1,2.704384E-2,5.0218374E-2,1.0503002E-1,-5.643372E-2,3.4137588E-2,5.403909E-2,7.2439057E-1,-6.448968E-2,-7.924034E-3,2.09513E0,-8.0051005E-2,8.428239E-3,-9.434664E-2,-9.042581E-2,-1.12742605E-2,5.4659157E0,-7.1186885E-2,-9.40229E-2,1.515089E0,3.8275647E-1,3.9409137E-1,9.074578E-3,7.480126E-3,3.3495674E0,-7.881452E-2,0E0,1.4115696E-2,3.025474E0,-6.278957E-2,8.238242E-2,2.7996513E-1,-9.23027E-2,5.3760777E-3,7.767948E-1,9.409302E-2,5.7979193E-2,-5.06373E-2,-7.435048E-2,-7.597968E-3,-2.4487471E-2,8.246185E-2,4.6297583E-1,0E0,7.48004E-3,9.2092045E-2,1.0103743E0,-8.9924954E-2,9.097E-2,1.3954413E-2,-2.1701446E-2,-9.140598E-2,-8.702516E-2,-2.7668744E-2,3.181459E0,4.4431636E-1,4.8581594E-1,-6.784363E-2,6.616624E-3,5.3612716E-2,7.966794E-3,8.723798E-2,1.03263944E-1,0E0,1.317169E-1,3.1417856E-1,5.4126587E-2,-2.4974968E-2,9.027825E-1,-1.3593816E-3,6.92104E-2,-6.2336326E-2,1.043564E1,-7.548546E-2,1.4757128E0,-7.607309E-2,1.0859865E-3,-1.1703136E-2,-2.7209718E-2,2.4040975E-3,-8.9866124E-2,1.7369366E0,3.8406723E0,-2.1638863E-2,3.441565E0,2.0759644E-2,1.4925877E-3,1.4785184E-1,-3.881689E-2,3.6776137E-2,4.860767E0,-9.217909E-2,8.192593E-3,7.9912E-2,2.2705482E-2,8.2420826E-2,-1.4171744E-2,7.418137E-2,2.878878E-2,8.967906E-2,2.0215182E-2,7.739539E-2,2.5136434E-3,-7.36362E-2,-2.7043834E-2,-8.8994056E-2,8.733868E-2,1.900865E-2,-2.2416783E-2,-7.674901E-2,2.4491202E-2,9.2228554E-2,-1.7283399E-2,6.943379E-2,-6.94664E-2,1.3455513E-2],"split_indices":[4,2,5,5,2,4,4,2,3,5,5,5,4,1,6,0,3,2,0,3,6,0,2,1,3,4,0,2,5,2,1,3,4,4,1,3,5,1,5,0,1,3,0,0,0,2,2,3,2,5,4,0,0,0,0,0,0,0,0,6,1,0,0,0,4,0,0,5,0,3,0,4,2,0,0,0,2,0,0,3,0,5,0,0,0,6,0,0,1,1,2,5,0,6,0,0,5,6,0,3,2,0,0,3,0,0,0,0,0,0,0,2,0,0,0,2,0,0,0,0,0,0,0,6,4,3,0,5,0,0,0,1,0,4,3,0,0,1,0,2,0,6,0,6,0,5,0,0,5,0,1,6,0,1,4,1,4,0,0,6,0,0,0,0,0,0,0,0,0,0,0,0,0,0,0,0,0,0,0,0,0,0,0,0,0],"split_type":[0,0,0,0,0,0,0,0,0,0,0,0,0,0,0,0,0,0,0,0,0,0,0,0,0,0,0,0,0,0,0,0,0,0,0,0,0,0,0,0,0,0,0,0,0,0,0,0,0,0,0,0,0,0,0,0,0,0,0,0,0,0,0,0,0,0,0,0,0,0,0,0,0,0,0,0,0,0,0,0,0,0,0,0,0,0,0,0,0,0,0,0,0,0,0,0,0,0,0,0,0,0,0,0,0,0,0,0,0,0,0,0,0,0,0,0,0,0,0,0,0,0,0,0,0,0,0,0,0,0,0,0,0,0,0,0,0,0,0,0,0,0,0,0,0,0,0,0,0,0,0,0,0,0,0,0,0,0,0,0,0,0,0,0,0,0,0,0,0,0,0,0,0,0,0,0,0,0,0,0,0,0,0,0,0],"sum_hessian":[1.5244238E4,1.6580713E3,1.3586166E4,8.520157E2,8.0605566E2,1.3506517E4,7.96499E1,2.9409848E2,5.579172E2,4.518972E1,7.608659E2,4.844246E2,1.3022092E4,4.4342426E1,3.530748E1,1.4536607E2,1.4873242E2,1.842438E2,3.7367337E2,3.4893394E1,1.0296327E1,7.573717E2,3.494188E0,4.34903E2,4.952157E1,1.447386E3,1.1574706E4,3.9029472E1,5.3129516E0,3.1047369E1,4.2601104E0,1.280259E2,1.7340168E1,1.2664679E2,2.2085632E1,1.5040576E2,3.383805E1,3.7096948E2,2.7038922E0,2.9130777E1,5.762617E0,3.074906E0,7.2214203E0,1.3803372E0,2.1138506E0,1.819355E1,4.1670947E2,2.0049227E1,2.9472342E1,1.4021174E3,4.5268578E1,3.7613445E1,1.4160283E0,4.1982894E0,1.1146622E0,1.2498544E0,2.9797516E1,1.3869865E0,2.8731236E0,1.2289682E1,1.1573622E2,1.178254E0,1.6161915E1,6.5268906E1,6.1377888E1,1.758304E1,4.5025926E0,1.3665143E2,1.3754339E1,3.263412E1,1.2039312E0,3.669173E2,4.0522027E0,1.3850672E0,1.318825E0,1.2492068E0,4.5134106E0,1.9974598E0,1.0774463E0,1.0862303E1,7.3312473E0,4.9065964E1,3.676435E2,1.857688E1,1.4723471E0,2.6579056E1,2.8932846E0,1.3678137E3,3.4303677E1,2.1943167E1,2.332541E1,1.1223047E1,1.0666351E0,1.11166145E2,4.5700746E0,1.0533005E1,5.0844883E1,1.574013E1,1.842909E0,4.156057E1,9.509085E1,3.1516733E1,1.1173874E0,2.4611342E0,3.6445615E2,2.2933125E0,1.7588903E0,3.3899562E0,1.1234543E0,1.5229168E0,9.339386E0,4.108876E1,7.977205E0,1.0689298E0,2.5510126E1,1.1614796E1,2.268888E1,2.0285664E1,1.6575028E0,1.1810063E0,2.2144405E1,1.0019343E1,1.2037039E0,1.5707852E1,9.545829E1,8.174402E0,2.358602E0,4.950538E1,1.3395045E0,1.0784416E0,1.4661689E1,1.5818089E1,2.5742481E1,9.22133E1,2.8775523E0,1.2538925E0,1.2072415E0,3.9886765E1,1.2019948E0,6.1388464E0,1.8383586E0,7.9753556E0,3.63944E0,1.1927637E1,3.780215E0,9.365659E1,1.801701E0,1.2782234E0,6.896179E0,4.3319405E1,6.1859736E0,1.4772587E1,1.0455024E0,2.0468164E1,5.274317E0,8.821716E1,3.9961376E0,1.7616696E0,1.1158825E0,4.013661E0,3.5873104E1,1.0651461E0,5.0737E0,1.851783E0,6.1235723E0,1.777342E0,1.0150295E1,3.5736349E0,9.0082954E1,1.0701581E0,5.826021E0,2.9395876E0,3.246386E0,1.2039313E0,1.3568655E1,1.9376629E1,1.0915346E0,1.0668554E0,4.2074614E0,1.2839185E0,8.693324E1,1.4335096E0,2.562628E0,2.7659924E0,1.2476684E0],"tree_param":{"num_deleted":"0","num_feature":"7","num_nodes":"185","size_leaf_vector":"0"}},{"base_weights":[-1.6432458E0,-4.5041224E-1,-1.7888457E0,7.87605E-1,-1.7591836E0,-1.7995759E0,2.850381E-2,-2.1907371E-1,1.3181374E0,-1.0210116E0,-1.8016821E0,-1.4815443E0,-1.8112965E0,1.2970446E0,-1.5557601E0,7.5459737E-1,-1.1695952E0,4.1940686E-1,1.7592927E0,-1.571157E0,8.1516767E-1,-1.80823E0,-2.9999867E-1,-3.6196792E-1,-1.7523317E0,-1.72599E0,-1.8216236E0,1.6741828E0,-1.2924237E0,-1.6806253E0,-5.0115114E-1,1.0725223E0,-1.5237348E0,-1.4873047E0,6.364103E-1,8.834674E-1,-1.609734E0,1.7750577E0,-2.9078236E-1,-1.7314268E0,-6.266511E-1,-9.9746066E-1,1.6168566E0,1.0959969E0,-1.2714789E0,7.79156E-1,-1.7470725E0,-1.801848E0,6.790978E-1,-1.7799791E0,1.6245868E0,1.7743555E0,-6.104451E-1,-1.5029376E0,-1.5026462E-1,-2.840588E-1,-1.7283541E0,1.1121575E0,-1.3673059E0,-1.4506661E0,1.3508561E0,7.493905E-1,-1.7244632E0,-1.7632846E0,-1.2062176E0,1.2393904E0,-1.5139148E0,1.1548564E0,-1.7083744E0,-1.7023659E0,5.262678E-1,1.7920113E0,1.9453152E-1,-1.0974866E0,6.6367996E-1,-6.060537E-1,-1.7654144E0,1.0520998E0,-1.19849E0,-1.2495284E0,-1.543749E-1,-8.1063056E-1,1.6583475E0,-1.7840247E0,-4.5268413E-1,1.3279643E0,-1.1938301E0,-1.7990407E0,-9.912858E-1,1.7435387E0,1.5316498E-1,-1.6026164E0,1.4574514E-1,1.481427E0,-1.5177017E0,-1.6547886E0,-3.3475766E-1,1.5835528E0,-1.2175219E0,-1.5169204E-2,1.6614962E0,-1.7680986E0,1.0468567E-1,3.7589046E-1,1.8005645E0,1.1212671E0,-9.81719E-1,-1.4344004E0,-1.4794317E-1,9.350395E-1,-1.5661178E0,1.7581317E0,-5.587334E-1,4.5853606E-1,-1.722888E0,4.831538E-1,1.6392769E0,-9.34503E-1,-1.7806379E0,7.778766E-1,-1.6760594E0,1.5520626E-1,1.6724799E0,-1.5984123E0,9.811029E-1,1.7191013E0,-1.4463781E-1,1.0537599E0,-4.859688E-1,-5.2195376E-1,1.3902918E0,1.3969077E0,-1.4556007E0,1.1664823E0,-1.4665716E0,1.6774063E0,-2.2655234E-1,-9.36533E-2,-1.4759542E0,1.4076E0,-2.9745153E-1,-1.6499076E0,-4.217958E-1,1.6240455E0,-1.3707399E0,1.7518115E0,7.9282135E-1,-7.5214267E-1,7.165264E-1,4.3948138E-1,1.584843E0,-2.7439332E-1,1.4217144E0,5.535638E-1,1.7156283E0,-8.736104E-1,6.403928E-1,-1.1286366E0,1.1507782E0,-5.2626777E-1,-1.7069119E0,1.6732892E0,3.7030736E-1,4.7618172E-1,1.7650994E0,-3.355331E-1,1.3423793E0],"categories":[],"categories_nodes":[],"categories_segments":[],"categories_sizes":[],"default_left":[1,1,1,1,1,1,1,1,1,1,1,1,1,1,1,1,1,1,1,1,1,0,1,1,1,1,0,1,1,1,1,1,1,1,1,1,1,1,1,1,1,1,0,0,0,1,1,0,1,1,1,0,0,0,0,0,0,0,0,1,1,0,0,0,1,1,0,1,0,1,0,1,1,0,0,0,0,0,1,0,0,1,1,0,0,0,0,0,1,0,0,0,0,1,0,1,1,1,0,1,1,0,0,1,0,0,0,0,0,1,0,0,0,1,0,1,1,1,0,1,0,0,0,1,1,1,1,0,0,0,0,1,0,1,0,1,0,1,0,0,1,1,0,1,0,1,1,0,0,0,0,0,0,0,0,0,0,0,0,0,0,0,0,0,0,0,0],"id":2,"left_children":[1,3,5,7,9,11,13,15,17,19,21,23,25,27,29,31,33,35,37,39,41,-1,43,45,47,49,-1,51,53,55,57,59,61,63,65,67,69,71,73,75,77,79,-1,-1,-1,81,83,-1,85,87,89,-1,-1,-1,-1,-1,-1,-1,-1,91,93,-1,-1,-1,95,97,-1,99,-1,101,-1,103,105,-1,-1,-1,-1,-1,107,-1,-1,109,111,-1,-1,-1,-1,-1,113,-1,-1,-1,-1,115,-1,117,119,121,-1,123,125,-1,-1,127,-1,-1,-1,-1,-1,129,-1,-1,-1,131,-1,133,135,137,-1,139,-1,-1,-1,141,143,145,147,-1,-1,-1,-1,149,-1,151,-1,153,-1,155,-1,-1,157,159,-1,161,-1,163,165,-1,-1,-1,-1,-1,-1,-1,-1,-1,-1,-1,-1,-1,-1,-1,-1,-1,-1,-1,-1],"loss_changes":[2.6286953E3,2.6721794E3,2.6317578E2,4.5305872E2,2.3307129E1,4.7316406E1,1.6316347E2,2.7246295E2,2.1943549E2,4.769287E1,6.897705E0,1.4557312E2,8.25E0,4.61827E1,3.9127884E0,1.0707206E2,8.637105E1,1.7482726E2,1.2544189E1,4.318268E0,1.7961742E1,0E0,7.4744806E0,1.5181097E2,4.7946777E1,2.589619E2,0E0,1.0187019E1,1.2876215E0,1.632843E0,8.853568E0,9.208159E1,9.614037E0,7.717804E0,3.1662868E1,1.07848976E2,7.7479553E0,9.551636E0,3.5767648E0,7.557678E-2,7.7363605E0,6.7172E-1,0E0,0E0,0E0,7.525809E1,1.2637329E0,0E0,1.1881018E1,1.9167969E1,3.7534904E0,0E0,0E0,0E0,0E0,0E0,0E0,0E0,0E0,3.4432087E0,4.573163E1,0E0,0E0,0E0,2.5260551E1,1.7564013E1,0E0,8.1147675E1,0E0,4.1556625E0,0E0,3.7493896E0,6.5978413E0,0E0,0E0,0E0,0E0,0E0,1.1506319E0,0E0,0E0,2.718489E1,8.587967E0,0E0,0E0,0E0,0E0,0E0,3.8034912E1,0E0,0E0,0E0,0E0,1.678511E1,0E0,2.264885E0,3.6664303E1,1.8558121E0,0E0,6.83579E1,1.0185425E1,0E0,0E0,2.5322134E0,0E0,0E0,0E0,0E0,0E0,5.0483813E0,0E0,0E0,0E0,2.460437E1,0E0,2.3890583E1,7.202545E0,3.7548485E0,0E0,9.651089E0,0E0,0E0,0E0,3.1801224E-1,4.2461433E1,1.4178467E0,2.5658505E0,0E0,0E0,0E0,0E0,9.125824E-1,0E0,5.128418E0,0E0,3.0922852E0,0E0,3.0884027E0,0E0,0E0,8.353934E0,1.0663986E-1,0E0,6.987381E-1,0E0,6.6204834E-1,3.5424273E0,0E0,0E0,0E0,0E0,0E0,0E0,0E0,0E0,0E0,0E0,0E0,0E0,0E0,0E0,0E0,0E0,0E0,0E0,0E0,0E0],"parents":[2147483647,0,0,1,1,2,2,3,3,4,4,5,5,6,6,7,7,8,8,9,9,10,10,11,11,12,12,13,13,14,14,15,15,16,16,17,17,18,18,19,19,20,20,22,22,23,23,24,24,25,25,27,27,28,28,29,29,30,30,31,31,32,32,33,33,34,34,35,35,36,36,37,37,38,38,39,39,40,40,41,41,45,45,46,46,48,48,49,49,50,50,59,59,60,60,64,64,65,65,67,67,69,69,71,71,72,72,78,78,81,81,82,82,88,88,93,93,95,95,96,96,97,97,99,99,100,100,103,103,109,109,113,113,115,115,116,116,117,117,119,119,123,123,124,124,125,125,126,126,131,131,133,133,135,135,137,137,140,140,141,141,143,143,145,145,146,146],"right_children":[2,4,6,8,10,12,14,16,18,20,22,24,26,28,30,32,34,36,38,40,42,-1,44,46,48,50,-1,52,54,56,58,60,62,64,66,68,70,72,74,76,78,80,-1,-1,-1,82,84,-1,86,88,90,-1,-1,-1,-1,-1,-1,-1,-1,92,94,-1,-1,-1,96,98,-1,100,-1,102,-1,104,106,-1,-1,-1,-1,-1,108,-1,-1,110,112,-1,-1,-1,-1,-1,114,-1,-1,-1,-1,116,-1,118,120,122,-1,124,126,-1,-1,128,-1,-1,-1,-1,-1,130,-1,-1,-1,132,-1,134,136,138,-1,140,-1,-1,-1,142,144,146,148,-1,-1,-1,-1,150,-1,152,-1,154,-1,156,-1,-1,158,160,-1,162,-1,164,166,-1,-1,-1,-1,-1,-1,-1,-1,-1,-1,-1,-1,-1,-1,-1,-1,-1,-1,-1,-1],"split_conditions":[5.1521397E-1,6.2207794E-1,1.49964E-1,1.602682E-2,7.618543E-1,7.219704E-1,1.2427186E0,1.9664666E-1,5.496287E-1,7.86718E-2,5.46967E-1,5.48361E-1,1.3012065E0,8.666777E0,5.0943794E1,0E0,1.5244879E0,3.6726844E-1,0E0,1.3043592E0,2.6069761E1,-9.041151E-2,1.3587708E0,6.702546E0,3.398057E-2,1.2994715E0,-9.108118E-2,1.2329438E0,4.2227013E1,1.8943596E-1,2.1048183E0,2.0708798E-1,1.2895344E-2,4.4607174E-1,3.004116E1,5.457822E-1,3.1571275E-1,2.9867062E1,3.4167673E-2,9.3140616E-4,1.5974627E-1,3.2139692E-1,8.084283E-2,5.4799844E-2,-6.357395E-2,7.1087856E0,5.345735E0,-9.0092406E-2,1.1475501E0,4.3328237E-2,3.8275647E-1,8.871778E-2,-3.0522255E-2,-7.514688E-2,-7.513231E-3,-1.420294E-2,-8.6417705E-2,5.5607874E-2,-6.83653E-2,1.2198882E1,6.4466385E1,3.7469525E-2,-8.622316E-2,-8.816423E-2,4.3877186E-3,0E0,-7.5695746E-2,3.5376795E-2,-8.541872E-2,4.2891073E-1,2.6313392E-2,5.0218374E-2,1.0503002E-1,-5.487433E-2,3.3184E-2,-3.0302687E-2,-8.827072E-2,5.2604992E-2,7.2439057E-1,-6.2476423E-2,-7.718745E-3,1.6554509E-1,0E0,-8.9201234E-2,-2.2634206E-2,6.639822E-2,-5.9691507E-2,-8.995204E-2,1.515089E0,8.717694E-2,7.6582492E-3,-8.013082E-2,7.2872574E-3,3.3495674E0,-7.588509E-2,2.204499E-1,0E0,3.025474E0,-6.0876098E-2,8.238242E-2,2.7996513E-1,-8.840493E-2,5.234284E-3,7.767948E-1,9.002823E-2,5.6063354E-2,-4.9085952E-2,-7.172003E-2,-7.3971585E-3,2.5734816E0,-7.830589E-2,8.790659E-2,-2.793667E-2,1.0103743E0,-8.61444E-2,3.181459E0,4.4431636E-1,0E0,-8.90319E-2,2.3798236E-1,-8.380297E-2,7.7603133E-3,8.3624E-2,1.03263944E-1,0E0,1.317169E-1,3.1417856E-1,5.2688E-2,-2.429844E-2,-2.6097689E-2,6.9514595E-2,1.043564E1,-7.2780035E-2,1.4757128E0,-7.332858E-2,1.0859865E-3,-1.1327617E-2,4.004571E-1,-7.379771E-2,7.038E-2,1.1798544E-2,3.8406723E0,-2.108979E-2,3.441565E0,-6.8537E-2,1.4925877E-3,1.4785184E-1,-3.7607133E-2,3.582632E-2,2.197407E-2,7.9242155E-2,-1.3719666E-2,7.108572E-2,2.767819E-2,8.578142E-2,-4.368052E-2,3.201964E-2,-5.643183E-2,5.7538908E-2,-2.6313389E-2,-8.5345596E-2,8.366446E-2,1.8515369E-2,2.3809087E-2,8.825497E-2,-1.6776657E-2,6.7118965E-2],"split_indices":[4,2,5,5,2,4,4,2,3,5,5,2,4,1,6,0,3,2,0,3,6,0,2,1,5,4,0,2,6,2,1,3,4,3,1,3,5,1,5,5,1,3,0,0,0,6,3,0,2,5,1,0,0,0,0,0,0,0,0,6,1,0,0,0,5,0,0,5,0,3,0,4,2,0,0,0,0,0,2,0,0,1,0,0,0,0,0,0,1,0,0,0,0,6,0,4,0,6,0,3,2,0,0,3,0,0,0,0,0,3,0,0,0,2,0,6,4,0,0,4,0,0,0,1,0,4,3,0,0,0,0,6,0,6,0,5,0,1,0,0,5,6,0,1,0,1,4,0,0,0,0,0,0,0,0,0,0,0,0,0,0,0,0,0,0,0,0],"split_type":[0,0,0,0,0,0,0,0,0,0,0,0,0,0,0,0,0,0,0,0,0,0,0,0,0,0,0,0,0,0,0,0,0,0,0,0,0,0,0,0,0,0,0,0,0,0,0,0,0,0,0,0,0,0,0,0,0,0,0,0,0,0,0,0,0,0,0,0,0,0,0,0,0,0,0,0,0,0,0,0,0,0,0,0,0,0,0,0,0,0,0,0,0,0,0,0,0,0,0,0,0,0,0,0,0,0,0,0,0,0,0,0,0,0,0,0,0,0,0,0,0,0,0,0,0,0,0,0,0,0,0,0,0,0,0,0,0,0,0,0,0,0,0,0,0,0,0,0,0,0,0,0,0,0,0,0,0,0,0,0,0,0,0,0,0,0,0],"sum_hessian":[1.5139271E4,1.6473518E3,1.349192E4,8.4676373E2,8.0058813E2,1.3412736E4,7.9183754E1,2.9244327E2,5.5432043E2,4.4945057E1,7.556431E2,4.812666E2,1.293147E4,4.4074234E1,3.5109516E1,1.4456429E2,1.4787898E2,1.8315141E2,3.71169E2,3.4694443E1,1.0250615E1,7.5215924E2,3.4838693E0,9.418666E1,3.8707996E2,1.4145771E3,1.1516893E4,3.87797E1,5.2945323E0,3.0861887E1,4.2476315E0,1.27326096E2,1.7238194E1,1.25906235E2,2.1972748E1,1.4952089E2,3.3630524E1,3.6846967E2,2.6993513E0,2.894903E1,5.745414E0,3.0685E0,7.1821146E0,1.3769913E0,2.106878E0,5.188142E1,4.2305244E1,3.7960812E2,7.471836E0,1.3926063E3,2.197081E1,3.7364742E1,1.4149591E0,4.2038393E0,1.090693E0,1.2495968E0,2.961229E1,1.3846157E0,2.863016E0,1.22315E1,1.150946E2,1.1769222E0,1.6061272E1,6.0869553E1,6.503668E1,1.7491518E1,4.4812303E0,1.3585054E2,1.3670347E1,3.2427265E1,1.2032588E0,3.6442682E2,4.042846E0,1.3817005E0,1.3176507E0,1.4007261E0,2.7548304E1,1.2464243E0,4.498989E0,1.9911053E0,1.0773948E0,1.8502499E1,3.337892E1,4.0763252E1,1.5419893E0,5.7654085E0,1.7064279E0,1.3584926E3,3.411375E1,2.0156403E1,1.814408E0,1.1164909E1,1.0665908E0,1.1054632E2,4.548279E0,4.2342594E1,2.2694088E1,1.5654164E1,1.8373533E0,4.134322E1,9.4507324E1,3.13099E1,1.1173627E0,2.4577572E0,3.6196906E2,2.287406E0,1.75544E0,3.3755846E0,1.1234047E0,5.516986E0,1.2985512E1,3.2139427E1,1.2394931E0,1.1566188E1,2.2547562E1,1.5647755E1,9.489857E1,7.550967E0,3.4791626E1,1.26340065E1,1.00600815E1,1.0783895E0,1.4575775E1,1.5734335E1,2.5608887E1,9.163296E1,2.8743687E0,1.2510905E0,1.2066666E0,1.2785591E0,4.2384267E0,7.942657E0,3.6235313E0,1.1884324E1,3.76343E0,9.309705E1,1.8015115E0,3.4171896E0,4.1337776E0,7.773038E0,4.860969E0,1.4689206E1,1.0451292E0,2.0354004E1,5.254883E0,8.764661E1,3.9863472E0,1.7596374E0,1.1147313E0,1.8510513E0,6.0916057E0,1.7770684E0,1.0107256E1,3.5713546E0,8.9525696E1,1.5646006E0,1.8525889E0,3.2286325E0,1.6323364E0,1.2032589E0,1.3485947E1,1.926277E1,1.0912336E0,1.2833301E0,8.636328E1,1.4331819E0,2.5531652E0],"tree_param":{"num_deleted":"0","num_feature":"7","num_nodes":"167","size_leaf_vector":"0"}},{"base_weights":[-1.5784568E0,-4.327325E-1,-1.7184111E0,7.5514907E-1,-1.6897385E0,-1.7287254E0,2.5626868E-2,-2.114692E-1,1.2652518E0,-1.732664E0,-1.0065278E0,-1.4226825E0,-1.7400101E0,1.2434499E0,-1.4942228E0,7.224309E-1,-1.123336E0,4.0178788E-1,1.6895863E0,-1.7379031E0,-1.1886852E0,-1.5408348E0,9.741191E-1,-1.6009187E0,1.4000976E-1,-1.6582974E0,-1.750086E0,1.6079414E0,-1.2469885E0,-1.3435207E-1,-1.5725908E0,1.0273172E0,-1.4632428E0,-1.4280962E0,6.0742617E-1,8.470511E-1,-1.5455908E0,1.7048819E0,-2.8268892E-1,-1.5670699E0,8.175713E-1,-1.6906801E0,-2.121633E-1,1.4800265E0,-5.847189E-1,1.2135234E-1,-1.6765192E0,-1.5746093E0,1.3190625E0,-1.709526E0,-6.603876E-2,1.7054511E0,-5.929904E-1,-1.4547437E0,-1.4968506E-1,-6.511101E-1,4.3822035E-1,-1.658692E0,-6.9761753E-1,-1.4265283E0,1.2910925E0,7.298645E-1,-1.65882E0,-1.6785399E0,-1.1395241E0,1.1884681E0,-1.4611475E0,1.1078618E0,-1.6437201E0,-1.6357799E0,5.1215345E-1,1.7212772E0,1.867605E-1,-1.0681149E0,6.453485E-1,7.1077865E-1,-1.1621833E0,6.374094E-2,-9.650188E-1,1.2269723E0,-1.4723258E0,-1.2173208E0,-1.7344592E0,-2.2001137E-1,-1.6728697E0,1.6450962E0,-1.3220115E0,-1.7278752E0,-9.515705E-1,1.5850722E0,-1.6325017E0,6.596838E-1,-1.3082337E0,-1.5299468E0,-1.4770569E-1,1.4164706E0,-1.4647061E0,4.547608E-1,-1.4739251E0,1.5223545E0,-1.1818551E0,-1.686641E-2,1.5955473E0,-1.699659E0,1.0192559E-1,3.6590567E-1,1.7295136E0,1.0854121E0,-9.523854E-1,-4.7653502E-1,1.5267893E0,-1.5917991E0,6.687866E-1,1.23547204E-1,1.7024345E0,4.4061455E-1,-1.6561555E0,1.676724E0,2.6565498E-1,-1.6816726E0,-3.5090283E-1,-1.6072435E0,-3.7411228E-1,4.60707E-1,1.5675496E0,1.032683E0,-1.2605172E0,-1.5608133E0,1.0137458E0,1.51186E-1,1.6083083E0,-1.5386744E0,9.408513E-1,1.651275E0,-1.3805303E-1,1.0265654E0,-4.7288364E-1,-1.6372443E0,-3.3500485E-2,1.3074145E0,-1.1677659E0,1.3462635E0,-1.4063305E0,1.1186272E0,-1.4166472E0,1.604298E0,-2.1929213E-1,-5.0118834E-1,1.3461121E0,-1.6541436E0,-7.7251846E-1,-1.5879419E0,-4.1114166E-1,1.5608724E0,-1.3196715E0,1.6826158E0,7.657389E-1,-7.2903633E-1,6.982646E-1,-8.5242736E-1,-1.6997322E0,1.6936547E-1,1.4802938E0,4.2539215E-1,1.5277684E0,-2.6565674E-1,1.3654503E0,5.323678E-1,1.6408839E0,4.0253627E-1,1.4460654E0,6.690005E-2,-1.373526E0,-5.1215345E-1,-1.6423475E0,1.6080846E0,3.6073092E-1,-4.020898E-1,-1.430846E0,4.6299538E-1,1.695347E0,-3.25723E-1,1.2997351E0,-1.298006E0,2.7058694E-1],"categories":[],"categories_nodes":[],"categories_segments":[],"categories_sizes":[],"default_left":[1,1,1,1,1,1,1,1,1,1,1,1,1,1,1,1,1,1,1,0,1,1,1,1,1,1,0,1,1,1,1,1,1,1,1,1,1,1,1,0,0,0,1,0,1,1,1,1,1,1,1,0,0,0,0,0,0,0,1,1,1,0,0,0,1,1,0,1,0,1,0,1,1,0,0,0,0,0,0,1,0,1,0,0,0,1,0,0,1,1,1,0,0,1,0,1,0,1,1,1,0,1,1,0,0,1,0,0,0,0,0,1,1,0,0,1,0,0,0,0,0,0,0,1,1,1,0,1,0,0,0,1,1,1,1,0,0,1,0,1,0,1,0,1,0,1,0,0,1,0,1,1,0,1,1,1,1,0,0,1,0,0,0,0,0,0,0,0,0,0,0,0,0,0,0,0,0,0,0,0,0,0,0,0,0],"id":3,"left_children":[1,3,5,7,9,11,13,15,17,19,21,23,25,27,29,31,33,35,37,-1,39,41,43,45,47,49,-1,51,53,55,57,59,61,63,65,67,69,71,73,-1,-1,-1,75,-1,77,79,81,83,85,87,89,-1,-1,-1,-1,-1,-1,-1,91,93,95,-1,-1,-1,97,99,-1,101,-1,103,-1,105,107,-1,-1,-1,-1,-1,-1,109,-1,111,-1,-1,-1,113,-1,-1,115,117,119,-1,-1,121,-1,123,-1,125,127,129,-1,131,133,-1,-1,135,-1,-1,-1,-1,-1,137,139,-1,-1,141,-1,-1,-1,-1,-1,-1,-1,143,145,147,-1,149,-1,-1,-1,151,153,155,157,-1,-1,159,-1,161,-1,163,-1,165,-1,167,-1,-1,169,-1,171,173,-1,175,177,179,181,-1,-1,183,-1,-1,-1,-1,-1,-1,-1,-1,-1,-1,-1,-1,-1,-1,-1,-1,-1,-1,-1,-1,-1,-1,-1,-1,-1],"loss_changes":[2.4010156E3,2.4378713E3,2.4014453E2,4.142878E2,2.1516846E1,4.3351562E1,1.4892978E2,2.485429E2,2.0075446E2,5.7128906E-2,5.3645638E1,1.331803E2,7.6328125E0,4.254355E1,3.6040115E0,9.767821E1,7.871083E1,1.5952155E2,1.1592773E1,0E0,9.077341E0,7.4443283E0,9.6040945E0,5.600415E1,1.0273559E2,1.1598755E2,0E0,9.465691E0,1.2104378E0,1.1860393E0,1.3859711E0,8.4202225E1,8.965706E0,7.1776733E0,2.913727E1,9.871352E1,7.2051697E0,8.778564E0,3.3805058E0,0E0,0E0,0E0,5.3114758E0,0E0,9.0784097E-1,3.520267E1,8.8133545E0,2.392994E0,2.8047947E1,1.753418E1,1.20027534E2,0E0,0E0,0E0,0E0,0E0,0E0,0E0,4.799836E0,1.4702435E0,4.195372E1,0E0,0E0,0E0,3.3487885E1,1.6321337E1,0E0,7.4412186E1,0E0,3.8482819E0,0E0,3.4038086E0,6.180915E0,0E0,0E0,0E0,0E0,0E0,0E0,6.7214622E0,0E0,3.5926666E1,0E0,0E0,0E0,2.161911E0,0E0,0E0,3.4884308E1,2.289135E0,9.092865E-1,0E0,0E0,4.4929314E-1,0E0,1.5291946E1,0E0,1.2639222E1,1.2631691E1,1.7039566E0,0E0,6.267049E1,9.367813E0,0E0,0E0,2.3985896E0,0E0,0E0,0E0,0E0,0E0,2.8824615E0,1.1942609E1,0E0,0E0,2.2785572E1,0E0,0E0,0E0,0E0,0E0,0E0,0E0,2.2031548E1,6.6128235E0,5.051688E0,0E0,2.3851242E0,0E0,0E0,0E0,2.6952362E-1,3.906414E1,1.2575684E0,2.42146E0,0E0,0E0,5.2658844E-1,0E0,1.1385269E0,0E0,8.36277E-1,0E0,4.741972E0,0E0,2.7951813E0,0E0,0E0,1.5647316E-1,0E0,3.697466E0,6.957245E-2,0E0,6.198425E-1,5.9666634E-2,5.7780457E-1,3.3205862E0,0E0,0E0,2.8415515E0,0E0,0E0,0E0,0E0,0E0,0E0,0E0,0E0,0E0,0E0,0E0,0E0,0E0,0E0,0E0,0E0,0E0,0E0,0E0,0E0,0E0,0E0,0E0,0E0,0E0],"parents":[2147483647,0,0,1,1,2,2,3,3,4,4,5,5,6,6,7,7,8,8,9,9,10,10,11,11,12,12,13,13,14,14,15,15,16,16,17,17,18,18,20,20,21,21,22,22,23,23,24,24,25,25,27,27,28,28,29,29,30,30,31,31,32,32,33,33,34,34,35,35,36,36,37,37,38,38,42,42,44,44,45,45,46,46,47,47,48,48,49,49,50,50,58,58,59,59,60,60,64,64,65,65,67,67,69,69,71,71,72,72,79,79,81,81,85,85,88,88,89,89,90,90,93,93,95,95,97,97,98,98,99,99,101,101,102,102,105,105,111,111,112,112,115,115,123,123,124,124,125,125,127,127,131,131,132,132,133,133,134,134,137,137,139,139,141,141,143,143,145,145,148,148,150,150,151,151,153,153,154,154,155,155,156,156,159,159],"right_children":[2,4,6,8,10,12,14,16,18,20,22,24,26,28,30,32,34,36,38,-1,40,42,44,46,48,50,-1,52,54,56,58,60,62,64,66,68,70,72,74,-1,-1,-1,76,-1,78,80,82,84,86,88,90,-1,-1,-1,-1,-1,-1,-1,92,94,96,-1,-1,-1,98,100,-1,102,-1,104,-1,106,108,-1,-1,-1,-1,-1,-1,110,-1,112,-1,-1,-1,114,-1,-1,116,118,120,-1,-1,122,-1,124,-1,126,128,130,-1,132,134,-1,-1,136,-1,-1,-1,-1,-1,138,140,-1,-1,142,-1,-1,-1,-1,-1,-1,-1,144,146,148,-1,150,-1,-1,-1,152,154,156,158,-1,-1,160,-1,162,-1,164,-1,166,-1,168,-1,-1,170,-1,172,174,-1,176,178,180,182,-1,-1,184,-1,-1,-1,-1,-1,-1,-1,-1,-1,-1,-1,-1,-1,-1,-1,-1,-1,-1,-1,-1,-1,-1,-1,-1,-1],"split_conditions":[5.1521397E-1,6.2207794E-1,1.49964E-1,1.602682E-2,8.985175E-2,7.219704E-1,1.2427186E0,1.9664666E-1,5.496287E-1,2.4314778E0,2.5763319E1,1.9185856E-2,1.3085823E0,8.666777E0,3.15421E-1,0E0,1.5244879E0,3.6726844E-1,0E0,-8.689516E-2,1.1732239E-2,6.115059E-1,1.1195611E0,9.987643E-2,1.4299453E0,1.2994715E0,-8.75043E-2,1.2329438E0,2.3157316E-1,2.7604192E-1,5.0943794E1,2.0195302E-1,1.2895344E-2,8.326043E-2,3.004116E1,5.457822E-1,3.1571275E-1,2.9867062E1,3.4167673E-2,-7.8353494E-2,4.0878564E-2,-8.453401E-2,1.2142124E0,7.400133E-2,1.7805315E0,6.037324E-1,4.7894096E-1,5.5381894E-1,1.0523622E0,4.3328237E-2,1.3011155E0,8.527256E-2,-2.964952E-2,-7.273719E-2,-7.484253E-3,-3.2555506E-2,2.1911018E-2,-8.29346E-2,5.4567175E0,9.054405E0,6.4466385E1,3.6493223E-2,-8.2941E-2,-8.3927E-2,1.586619E-1,0E0,-7.3057376E-2,3.5376795E-2,-8.2186006E-2,4.2891073E-1,2.5607673E-2,5.0218374E-2,1.0503002E-1,-5.3405743E-2,3.2267425E-2,3.5538934E-2,-5.8109164E-2,3.187047E-3,-4.825094E-2,2.09513E0,-7.361629E-2,8.428239E-3,-8.672296E-2,-1.1000569E-2,-8.364349E-2,5.4659157E0,-6.6100575E-2,-8.6393766E-2,1.515089E0,3.8275647E-1,4.798321E0,3.2984193E-2,-6.541169E-2,8.151936E-3,-7.3852846E-3,3.3495674E0,-7.32353E-2,0E0,1.4115696E-2,3.025474E0,-5.9092756E-2,8.238242E-2,2.7996513E-1,-8.4982954E-2,5.0962796E-3,7.767948E-1,8.6475685E-2,5.4270606E-2,-4.7619272E-2,-2.3826752E-2,7.633947E-2,4.6297583E-1,0E0,6.17736E-3,8.512173E-2,1.0103743E0,-8.280777E-2,8.38362E-2,1.3282749E-2,-8.408363E-2,-1.7545141E-2,-8.036218E-2,-1.8705614E-2,3.181459E0,4.4431636E-1,4.8581594E-1,-6.302586E-2,6.616624E-3,5.068729E-2,7.5593004E-3,8.041542E-2,1.03263944E-1,0E0,1.317169E-1,3.1417856E-1,5.132827E-2,-2.3644183E-2,9.027825E-1,-1.6750243E-3,6.92104E-2,-5.8388293E-2,1.043564E1,-7.031652E-2,1.4757128E0,-7.0832364E-2,1.0859865E-3,-1.0964607E-2,-2.5059417E-2,4.004571E-1,-8.270718E-2,1.7369366E0,3.8406723E0,-2.0557083E-2,3.441565E0,2.0759644E-2,1.4925877E-3,1.4785184E-1,-3.6451817E-2,3.491323E-2,4.860767E0,-8.498661E-2,8.468273E-3,7.4014686E-2,2.1269608E-2,7.638842E-2,-1.3282837E-2,6.8272516E-2,2.6618391E-2,8.20442E-2,2.0126814E-2,7.230327E-2,3.3450027E-3,-6.86763E-2,-2.5607673E-2,-8.211737E-2,8.040423E-2,1.8036546E-2,-2.010449E-2,-7.15423E-2,2.314977E-2,8.476735E-2,-1.628615E-2,6.498676E-2,-6.49003E-2,1.3529347E-2],"split_indices":[4,2,5,5,5,4,4,2,3,3,6,5,4,1,2,0,3,2,0,0,5,3,2,1,3,4,0,2,5,5,6,3,4,4,1,3,5,1,5,0,0,0,2,0,2,2,2,1,2,5,4,0,0,0,0,0,0,0,1,6,1,0,0,0,4,0,0,5,0,3,0,4,2,0,0,0,0,0,0,3,0,5,0,0,0,6,0,0,1,1,3,0,0,5,0,6,0,0,5,6,0,3,2,0,0,3,0,0,0,0,0,2,0,0,0,2,0,0,0,0,0,0,0,6,4,3,0,5,0,0,0,1,0,4,3,0,0,1,0,2,0,6,0,6,0,5,0,0,1,0,1,6,0,1,4,1,4,0,0,6,0,0,0,0,0,0,0,0,0,0,0,0,0,0,0,0,0,0,0,0,0,0,0,0,0],"split_type":[0,0,0,0,0,0,0,0,0,0,0,0,0,0,0,0,0,0,0,0,0,0,0,0,0,0,0,0,0,0,0,0,0,0,0,0,0,0,0,0,0,0,0,0,0,0,0,0,0,0,0,0,0,0,0,0,0,0,0,0,0,0,0,0,0,0,0,0,0,0,0,0,0,0,0,0,0,0,0,0,0,0,0,0,0,0,0,0,0,0,0,0,0,0,0,0,0,0,0,0,0,0,0,0,0,0,0,0,0,0,0,0,0,0,0,0,0,0,0,0,0,0,0,0,0,0,0,0,0,0,0,0,0,0,0,0,0,0,0,0,0,0,0,0,0,0,0,0,0,0,0,0,0,0,0,0,0,0,0,0,0,0,0,0,0,0,0,0,0,0,0,0,0,0,0,0,0,0,0,0,0,0,0,0,0],"sum_hessian":[1.4977321E4,1.6308225E3,1.3346499E4,8.386707E2,7.9215186E2,1.326804E4,7.845927E1,2.8990366E2,5.48767E2,7.438785E2,4.827335E1,4.7635266E2,1.27916875E4,4.36585E1,3.4800762E1,1.4332414E2,1.4657951E2,1.8146233E2,3.6730472E2,7.346087E2,9.269758E0,3.819246E1,1.008089E1,4.2756177E2,4.8790894E1,1.4223407E3,1.1369347E4,3.8393696E1,5.2648063E0,2.044157E0,3.2756607E1,1.26243965E2,1.7080175E1,1.24782196E2,2.1797325E1,1.4815263E2,3.3309696E1,3.6461258E2,2.6921146E0,7.9830456E0,1.2867129E0,3.4076866E1,4.1155934E0,7.649023E0,2.4318664E0,1.795353E1,4.0960825E2,1.9743593E1,2.90473E1,1.3779341E3,4.440663E1,3.6980442E1,1.4132537E0,4.1528015E0,1.1120048E0,1.0023499E0,1.0418073E0,2.900653E1,3.7500758E0,1.1825529E1,1.14418434E2,1.1747922E0,1.5905383E1,6.4225746E1,6.0556446E1,1.7349491E1,4.447835E0,1.3461246E2,1.3540166E1,3.2107513E1,1.2021832E0,3.6058456E2,4.0280423E0,1.3763384E0,1.3157761E0,2.2152812E0,1.9003122E0,1.2066933E0,1.225173E0,1.07357E1,7.2178307E0,4.8358315E1,3.612499E2,1.5543743E0,1.8189219E1,2.6191177E1,2.8561225E0,1.3441149E3,3.381919E1,2.1613407E1,2.2793224E1,1.1386602E0,2.6114156E0,1.0759071E1,1.066458E0,1.0990422E2,4.5142117E0,1.0437039E1,5.0119408E1,1.5520937E1,1.8285532E0,4.100646E1,9.3606E1,3.0990189E1,1.1173233E0,2.4523659E0,3.5813217E2,2.278078E0,1.7499645E0,1.5184892E0,9.217211E0,4.0477688E1,7.8806276E0,1.0657138E0,2.5125463E1,1.1490275E1,2.2328918E1,1.9956356E1,1.6570514E0,2.16504E1,1.1428252E0,9.71859E0,1.040481E0,1.5554152E1,9.435007E1,8.1044035E0,2.3326364E0,4.8787945E1,1.3314618E0,1.0783056E0,1.4442632E1,1.5604458E1,2.5401999E1,9.07367E1,2.8692982E0,1.2466193E0,1.2057465E0,3.9281452E1,1.1962374E0,6.0611033E0,1.8195246E0,7.891679E0,3.5985963E0,1.1817017E1,3.7371352E0,9.254886E1,1.8012112E0,1.273424E0,6.8309793E0,4.2641068E1,6.1468782E0,1.4559928E1,1.04453E0,2.0177248E1,5.2247515E0,8.6765785E1,3.9709177E0,1.7564102E0,1.112888E0,3.9767616E0,3.5304688E1,1.0603809E0,5.0007224E0,1.8498895E0,6.041789E0,1.7766336E0,1.0040383E1,3.5677707E0,8.898109E1,1.1358266E0,5.6951528E0,2.9355395E0,3.2113388E0,1.2021832E0,1.3357745E1,1.9086496E1,1.090751E0,1.0635397E0,4.161212E0,1.2823896E0,8.54834E1,1.4326596E0,2.538258E0,2.7355525E0,1.2412089E0],"tree_param":{"num_deleted":"0","num_feature":"7","num_nodes":"185","size_leaf_vector":"0"}},{"base_weights":[-1.5214504E0,-4.170515E-1,-1.6564934E0,7.26298E-1,-1.6283687E0,-1.6664468E0,2.276398E-2,-2.0454158E-1,1.2183597E0,-9.351588E-1,-1.6684743E0,-1.3708092E0,-1.6773562E0,1.1955897E0,-1.4393475E0,6.8860316E-1,-1.0861326E0,3.859069E-1,1.6280706E0,-1.4458398E0,7.5930065E-1,-1.6747001E0,-2.6362404E-1,-3.3393952E-1,-1.6224521E0,-1.5972484E0,-1.6870601E0,1.5491704E0,-1.205036E0,-1.5566965E0,-4.5896387E-1,9.8542476E-1,-1.413711E0,-1.3818965E0,5.8116186E-1,8.1435096E-1,-1.4884512E0,1.6429895E0,-2.7503964E-1,-1.602124E0,-5.448539E-1,-9.3160474E-1,1.5129193E0,1.0494592E0,-1.1881182E0,7.224246E-1,-1.6202655E0,-1.6685704E0,6.200938E-1,-1.6474266E0,1.5053526E0,1.64455E0,-5.761855E-1,-1.4083277E0,-1.2771954E-1,-2.6545116E-1,-1.6016308E0,1.0663891E0,-1.286617E0,-1.3461423E0,1.2425185E0,7.111091E-1,-1.6021396E0,-1.6344217E0,-1.1216577E0,1.1424845E0,-1.4131461E0,1.0657026E0,-1.586123E0,-1.5766771E0,4.9850902E-1,1.6589367E0,1.7947757E-1,-1.040397E0,6.277124E-1,-5.413552E-1,-1.6354129E0,1.060607E0,-1.1080247E0,-1.1638328E0,-1.5178767E-1,-7.492902E-1,1.5395747E0,-1.6556282E0,-4.1002992E-1,1.3508006E0,-8.8973296E-1,-1.6651735E0,-9.1596E-1,1.6174471E0,1.451904E-1,-1.4901005E0,1.3904189E-1,1.3636396E0,-1.4165149E0,-1.5434366E0,-3.1239074E-1,1.4673605E0,-1.1485199E0,-1.9092677E-2,1.5368961E0,-1.6391213E0,9.923879E-2,3.5641333E-1,1.666923E0,1.0517613E0,-9.245943E-1,-1.333213E0,-1.2764919E-1,8.625541E-1,-1.4514645E0,1.6352304E0,-5.391493E-1,-1.5662656E0,-1.6868163E0,4.2425615E-1,-1.5968204E0,-1.5552181E0,-4.9360135E-1,4.5255512E-1,1.5095505E0,-8.917591E-1,-1.6515671E0,7.261987E-1,-1.5595978E0,1.472721E-1,1.5509287E0,-1.4849838E0,9.035744E-1,1.5910883E0,-1.3178751E-1,1.0008162E0,-4.6022296E-1,-5.1065546E-1,1.2996838E0,-1.6200056E0,4.3495204E-2,1.2999551E0,-1.3612521E0,1.0829699E0,-1.3710188E0,1.545394E0,-2.1227317E-1,-7.604269E-2,-1.3736808E0,1.3136932E0,-2.6173112E-1,-1.5324631E0,-4.0080124E-1,1.504214E0,-1.27678E0,1.6213363E0,7.404102E-1,-7.069392E-1,6.80693E-1,-6.368099E-1,-1.6415554E0,1.1252512E0,-1.0937843E0,4.1181505E-1,1.476225E0,-1.4950813E-1,1.3140006E0,1.5701799E0,-1.5391971E-1,-8.219614E-1,7.0556027E-1,-1.0480856E0,1.0945609E0,-4.985092E-1,-1.5848204E0,1.5497999E0,3.5143307E-1,-1.4008381E0,-4.2202178E-1,4.5024326E-1,1.6336406E0,-3.1622478E-1,1.2603065E0,-3.150583E-2,-1.2087264E0,-1.6465458E0,-6.268452E-1,-3.651739E-1,1.6515341E0,-3.7958056E-1,-1.2338059E0],"categories":[],"categories_nodes":[],"categories_segments":[],"categories_sizes":[],"default_left":[1,1,1,1,1,1,1,1,1,1,1,1,1,1,1,1,1,1,1,1,1,0,1,1,1,1,0,1,1,1,1,1,1,1,1,1,1,1,1,1,1,1,0,0,0,1,1,0,1,1,1,0,0,0,0,0,0,0,0,1,1,0,0,0,1,1,0,1,0,1,0,1,1,0,0,0,0,0,1,0,0,1,1,0,0,0,0,1,1,0,0,1,0,1,0,1,1,1,0,1,1,0,0,1,0,0,0,0,0,1,0,0,0,1,0,1,0,0,0,1,1,1,0,1,0,0,0,1,1,1,1,0,0,0,0,1,1,1,0,1,0,1,0,1,0,0,1,1,0,1,1,1,1,0,0,1,1,1,1,0,0,0,0,0,0,0,0,0,0,0,0,0,0,0,0,0,0,0,0,0,0,0,0,0,0,0,0],"id":4,"left_children":[1,3,5,7,9,11,13,15,17,19,21,23,25,27,29,31,33,35,37,39,41,-1,43,45,47,49,-1,51,53,55,57,59,61,63,65,67,69,71,73,75,77,79,-1,-1,-1,81,83,-1,85,87,89,-1,-1,-1,-1,-1,-1,-1,-1,91,93,-1,-1,-1,95,97,-1,99,-1,101,-1,103,105,-1,-1,-1,-1,-1,107,-1,-1,109,111,-1,-1,-1,-1,113,115,-1,-1,117,-1,119,-1,121,123,125,-1,127,129,-1,-1,131,-1,-1,-1,-1,-1,133,-1,-1,-1,135,-1,137,-1,-1,-1,139,141,143,-1,145,-1,-1,-1,147,149,151,153,-1,-1,-1,-1,155,157,159,-1,161,-1,163,-1,165,-1,-1,167,169,-1,171,173,175,177,-1,-1,179,181,183,185,-1,-1,-1,-1,-1,-1,-1,-1,-1,-1,-1,-1,-1,-1,-1,-1,-1,-1,-1,-1,-1,-1,-1,-1,-1,-1,-1,-1],"loss_changes":[2.2019258E3,2.231589E3,2.1998438E2,3.8002954E2,2.0188477E1,3.9890625E1,1.3637543E2,2.2719502E2,1.8442212E2,4.008888E1,6.015381E0,1.2235742E2,7.1132812E0,3.9315865E1,3.3588486E0,9.09215E1,7.236566E1,1.4597842E2,1.0766846E1,4.0509872E0,1.5542409E1,0E0,6.641639E0,1.2787895E2,4.0208252E1,2.1754614E2,0E0,8.831749E0,1.1837759E0,1.3852463E0,7.9406366E0,7.7387405E1,8.410599E0,6.2861786E0,2.6878801E1,9.061133E1,6.7275314E0,8.11853E0,3.197369E0,1.4873505E-1,7.2188106E0,5.5461884E-1,0E0,0E0,0E0,6.3560066E1,1.1338501E0,0E0,1.0426712E1,1.6128174E1,3.1970062E0,0E0,0E0,0E0,0E0,0E0,0E0,0E0,0E0,2.9919052E0,3.8739243E1,0E0,0E0,0E0,2.1374748E1,1.52049675E1,0E0,6.852574E1,0E0,3.583969E0,0E0,3.1153564E0,5.7958517E0,0E0,0E0,0E0,0E0,0E0,1.0302596E0,0E0,0E0,2.2981102E1,7.5813446E0,0E0,0E0,0E0,0E0,1.9799805E-1,3.210002E1,0E0,0E0,8.358002E-3,0E0,1.3915619E1,0E0,1.4755783E0,3.1175358E1,1.5750198E0,0E0,5.7563557E1,8.659134E0,0E0,0E0,2.2735808E0,0E0,0E0,0E0,0E0,0E0,4.5372434E0,0E0,0E0,0E0,2.1882996E1,0E0,2.1143389E1,0E0,0E0,0E0,2.0554035E1,6.1434784E0,3.0908256E0,0E0,8.084789E0,0E0,0E0,0E0,2.3182297E-1,3.6143837E1,1.1301727E0,2.2861624E0,0E0,0E0,0E0,0E0,4.124817E0,1.2449999E1,7.736387E-1,0E0,3.865344E0,0E0,4.13472E0,0E0,2.9570467E0,0E0,0E0,7.341009E0,4.317856E-2,0E0,5.561485E-1,6.466961E-2,5.126648E-1,3.118059E0,0E0,0E0,2.33937E0,1.7382812E-1,4.6557784E0,2.6960373E-2,0E0,0E0,0E0,0E0,0E0,0E0,0E0,0E0,0E0,0E0,0E0,0E0,0E0,0E0,0E0,0E0,0E0,0E0,0E0,0E0,0E0,0E0,0E0,0E0,0E0,0E0,0E0,0E0],"parents":[2147483647,0,0,1,1,2,2,3,3,4,4,5,5,6,6,7,7,8,8,9,9,10,10,11,11,12,12,13,13,14,14,15,15,16,16,17,17,18,18,19,19,20,20,22,22,23,23,24,24,25,25,27,27,28,28,29,29,30,30,31,31,32,32,33,33,34,34,35,35,36,36,37,37,38,38,39,39,40,40,41,41,45,45,46,46,48,48,49,49,50,50,59,59,60,60,64,64,65,65,67,67,69,69,71,71,72,72,78,78,81,81,82,82,87,87,88,88,91,91,93,93,95,95,96,96,97,97,99,99,100,100,103,103,109,109,113,113,115,115,119,119,120,120,121,121,123,123,127,127,128,128,129,129,130,130,135,135,136,136,137,137,139,139,141,141,143,143,146,146,147,147,149,149,150,150,151,151,152,152,155,155,156,156,157,157,158,158],"right_children":[2,4,6,8,10,12,14,16,18,20,22,24,26,28,30,32,34,36,38,40,42,-1,44,46,48,50,-1,52,54,56,58,60,62,64,66,68,70,72,74,76,78,80,-1,-1,-1,82,84,-1,86,88,90,-1,-1,-1,-1,-1,-1,-1,-1,92,94,-1,-1,-1,96,98,-1,100,-1,102,-1,104,106,-1,-1,-1,-1,-1,108,-1,-1,110,112,-1,-1,-1,-1,114,116,-1,-1,118,-1,120,-1,122,124,126,-1,128,130,-1,-1,132,-1,-1,-1,-1,-1,134,-1,-1,-1,136,-1,138,-1,-1,-1,140,142,144,-1,146,-1,-1,-1,148,150,152,154,-1,-1,-1,-1,156,158,160,-1,162,-1,164,-1,166,-1,-1,168,170,-1,172,174,176,178,-1,-1,180,182,184,186,-1,-1,-1,-1,-1,-1,-1,-1,-1,-1,-1,-1,-1,-1,-1,-1,-1,-1,-1,-1,-1,-1,-1,-1,-1,-1,-1,-1],"split_conditions":[5.1521397E-1,6.2207794E-1,1.49964E-1,1.602682E-2,7.618543E-1,7.219704E-1,1.2427186E0,2.0158038E-1,5.496287E-1,7.86718E-2,5.46967E-1,5.48361E-1,1.3012065E0,8.666777E0,5.0943794E1,0E0,1.5244879E0,3.6726844E-1,0E0,1.3043592E0,2.6069761E1,-8.373501E-2,1.3587708E0,6.702546E0,3.398057E-2,1.2994715E0,-8.435301E-2,1.2329438E0,4.2227013E1,1.8943596E-1,2.1048183E0,2.0708798E-1,1.2895344E-2,4.4607174E-1,3.004116E1,5.457822E-1,3.1571275E-1,2.9867062E1,3.4167673E-2,9.3140616E-4,1.5974627E-1,3.2139692E-1,7.564597E-2,5.247296E-2,-5.940591E-2,7.1087856E0,5.345735E0,-8.3428524E-2,4.3897572E-1,4.3328237E-2,3.8275647E-1,8.22275E-2,-2.8809277E-2,-7.041638E-2,-6.385977E-3,-1.3272558E-2,-8.0081545E-2,5.3319454E-2,-6.433085E-2,1.2198882E1,6.4466385E1,3.5555456E-2,-8.010698E-2,-8.172109E-2,4.3877186E-3,0E0,-7.0657305E-2,3.5376795E-2,-7.930615E-2,4.2891073E-1,2.4925452E-2,5.0218374E-2,1.0503002E-1,-5.2019853E-2,3.1385623E-2,-2.706776E-2,-8.177065E-2,5.303035E-2,7.2439057E-1,-5.819164E-2,-7.5893835E-3,1.6554509E-1,0E0,-8.278141E-2,-2.0501496E-2,6.7540035E-2,-4.448665E-2,3.4031048E0,1.515089E0,8.087236E-2,7.2595202E-3,9.074578E-3,6.9520944E-3,3.3495674E0,-7.082575E-2,2.204499E-1,0E0,3.025474E0,-5.7425994E-2,8.238242E-2,2.7996513E-1,-8.1956066E-2,4.9619395E-3,7.767948E-1,8.334615E-2,5.2588064E-2,-4.6229716E-2,-6.666065E-2,-6.3824593E-3,2.5734816E0,-7.257323E-2,8.1761524E-2,-2.6957465E-2,2.394855E-2,-8.434082E-2,1.0103743E0,-7.984102E-2,-7.7760905E-2,-2.4680069E-2,3.181459E0,4.4431636E-1,0E0,-8.257835E-2,2.290695E-1,-7.797989E-2,7.363605E-3,7.754644E-2,1.03263944E-1,0E0,1.317169E-1,3.1417856E-1,5.004081E-2,-2.3011148E-2,-2.5532773E-2,6.4984195E-2,1.3817763E-1,8.371408E-1,1.043564E1,-6.80626E-2,1.4757128E0,-6.855094E-2,1.0956557E1,-1.0613658E-2,4.1988945E-1,-6.868404E-2,6.568466E-2,1.1798544E-2,3.8406723E0,-2.0040063E-2,3.441565E0,1.7041406E-1,1.4925877E-3,1.4785184E-1,-3.5346963E-2,3.403465E-2,0E0,2.0330906E-2,2.1309643E0,1.0118244E0,2.0590752E-2,7.3811255E-2,-7.475407E-3,6.570003E-2,7.8508995E-2,-7.6959855E-3,-4.109807E-2,3.5278015E-2,-5.240428E-2,5.4728042E-2,-2.4925461E-2,-7.924102E-2,7.7489994E-2,1.7571654E-2,-7.004191E-2,-2.110109E-2,2.2512164E-2,8.1682034E-2,-1.581124E-2,6.301533E-2,-1.5752915E-3,-6.043632E-2,-8.232729E-2,-3.134226E-2,-1.8258696E-2,8.257671E-2,-1.8979028E-2,-6.1690297E-2],"split_indices":[4,2,5,5,2,4,4,2,3,5,5,2,4,1,6,0,3,2,0,3,6,0,2,1,5,4,0,2,6,2,1,3,4,3,1,3,5,1,5,5,1,3,0,0,0,6,3,0,1,5,1,0,0,0,0,0,0,0,0,6,1,0,0,0,5,0,0,5,0,3,0,4,2,0,0,0,0,0,2,0,0,1,0,0,0,0,0,1,1,0,0,5,0,6,0,4,0,6,0,3,2,0,0,3,0,0,0,0,0,3,0,0,0,5,0,2,0,0,0,6,4,0,0,4,0,0,0,1,0,4,3,0,0,0,0,2,2,6,0,6,0,1,0,1,0,0,5,6,0,1,2,1,4,0,0,0,5,3,4,0,0,0,0,0,0,0,0,0,0,0,0,0,0,0,0,0,0,0,0,0,0,0,0,0,0,0,0],"split_type":[0,0,0,0,0,0,0,0,0,0,0,0,0,0,0,0,0,0,0,0,0,0,0,0,0,0,0,0,0,0,0,0,0,0,0,0,0,0,0,0,0,0,0,0,0,0,0,0,0,0,0,0,0,0,0,0,0,0,0,0,0,0,0,0,0,0,0,0,0,0,0,0,0,0,0,0,0,0,0,0,0,0,0,0,0,0,0,0,0,0,0,0,0,0,0,0,0,0,0,0,0,0,0,0,0,0,0,0,0,0,0,0,0,0,0,0,0,0,0,0,0,0,0,0,0,0,0,0,0,0,0,0,0,0,0,0,0,0,0,0,0,0,0,0,0,0,0,0,0,0,0,0,0,0,0,0,0,0,0,0,0,0,0,0,0,0,0,0,0,0,0,0,0,0,0,0,0,0,0,0,0,0,0,0,0,0,0],"sum_hessian":[1.4767645E4,1.6094496E3,1.3158194E4,8.2815924E2,7.812903E2,1.308067E4,7.752485E1,2.8659262E2,5.415666E2,4.405926E1,7.372311E2,4.7002115E2,1.2610648E4,4.311924E1,3.4405605E1,1.4247218E2,1.4412044E2,1.792689E2,3.622977E2,3.396847E1,1.0090788E1,7.3378705E2,3.444015E0,9.2248276E1,3.777729E2,1.3804362E3,1.1230212E4,3.7892807E1,5.226433E0,3.02026E1,4.203005E0,1.25311035E2,1.7161152E1,1.2255195E2,2.1568491E1,1.4637564E2,3.289327E1,3.5961526E2,2.6824374E0,2.8284136E1,5.6843348E0,3.038064E0,7.0527244E0,1.3671064E0,2.0769086E0,5.0892452E1,4.135582E1,3.704113E2,7.361603E0,1.3589274E3,2.1508837E1,3.6481834E1,1.410971E0,4.138277E0,1.0881557E0,1.2479746E0,2.8954626E1,1.3769171E0,2.8260877E0,1.202461E1,1.1328642E2,1.1719328E0,1.5989219E1,5.9517784E1,6.3034164E1,1.7164467E1,4.4040246E0,1.3300485E2,1.3370779E1,3.169253E1,1.2007389E0,3.5560687E2,4.0083895E0,1.3691733E0,1.3132641E0,1.3858417E0,2.6898294E1,1.2467839E0,4.437551E0,1.9614922E0,1.0765717E0,1.8198816E1,3.2693638E1,3.982415E1,1.5316724E0,5.031735E0,2.3298678E0,1.3254917E3,3.3435684E1,1.9696444E1,1.8123927E0,1.0959044E1,1.0655655E0,1.088169E2,4.469527E0,4.084112E1,2.219304E1,1.534761E1,1.8168569E0,4.0567867E1,9.243699E1,3.0575258E1,1.11727E0,2.445144E0,3.5316174E2,2.265716E0,1.7426735E0,3.3159828E0,1.1215682E0,5.453008E0,1.2745809E1,3.1459337E1,1.2343011E0,2.5114178E2,1.0743499E3,1.1390779E1,2.2044907E1,9.760547E0,1.1984974E0,1.5587622E1,9.322928E1,7.1281905E0,3.3712933E1,1.2337198E1,9.855842E0,1.0781928E0,1.4269418E1,1.5435386E1,2.513248E1,8.957447E1,2.8625197E0,1.2406328E0,1.204511E0,1.2760848E0,4.1769233E0,2.4302238E2,8.119394E0,7.824976E0,3.565803E0,1.1885052E1,3.7025695E0,9.142847E1,1.8008102E0,3.0772784E0,4.050912E0,7.5297318E0,4.8074665E0,1.4391663E1,1.0437232E0,1.994749E1,5.184989E0,8.5623955E1,3.9505153E0,1.7521089E0,1.1104109E0,5.867608E0,2.3715479E2,4.1666975E0,3.9526968E0,1.8483412E0,5.976635E0,1.9318873E0,9.953165E0,9.018897E1,1.2394971E0,1.5481622E0,1.5291162E0,3.186963E0,1.6205037E0,1.2007389E0,1.3190924E1,1.885739E1,1.0901017E0,3.9699297E0,1.2150594E0,1.2811283E0,8.434283E1,1.4319599E0,2.5185554E0,3.3631797E0,2.5044284E0,2.3537454E2,1.7802485E0,1.1672344E0,2.999463E0,1.2561848E0,2.696512E0],"tree_param":{"num_deleted":"0","num_feature":"7","num_nodes":"187","size_leaf_vector":"0"}},{"base_weights":[-1.4709555E0,-4.0316963E-1,-1.6016781E0,7.00293E-1,-1.5740272E0,-1.6113172E0,2.0342885E-2,-1.9869116E-1,1.1765168E0,-1.6147419E0,-9.291136E-1,-1.3244568E0,-1.6219115E0,1.1526064E0,-1.3896421E0,6.621168E-1,-1.0488988E0,3.7159336E-1,1.5734009E0,-1.3632553E0,-1.6278802E0,-1.4303017E0,9.1449356E-1,-1.4911317E0,1.3157545E-1,-1.5444901E0,-1.6314659E0,1.496667E0,-1.166191E0,-1.5038834E0,-4.4110376E-1,9.480518E-1,-1.3648132E0,-1.3342743E0,5.572057E-1,7.849012E-1,-1.4371964E0,1.5880198E0,-2.6780215E-1,-1.538149E0,-3.0982178E-1,-1.5765507E0,-1.630269E-1,1.3887341E0,-5.4080343E-1,1.1502841E-1,-1.5621424E0,-1.4688635E0,1.231286E0,-1.5924382E0,-5.833551E-2,1.5903599E0,-5.5999315E-1,-1.3679457E0,-1.2755771E-1,-2.5815693E-1,-1.5477908E0,1.03877E0,-1.2478989E0,-1.3007221E0,1.1965518E0,6.9307625E-1,-1.5498241E0,-1.5788628E0,-1.0825771E0,1.1006931E0,-1.3692658E0,1.027745E0,-1.5344884E0,-1.5238582E0,4.853121E-1,1.603609E0,1.7263544E-1,-1.0141888E0,6.107305E-1,-1.563828E0,-3.403373E-1,7.21717E-1,-1.11436E0,7.154553E-1,-1.0904922E0,-9.09873E-1,7.610032E-2,1.1386931E0,-1.3681123E0,-1.1341664E0,-1.6163456E0,-1.5589211E0,-1.771094E-1,1.5382898E0,-1.2387655E0,-1.6096762E0,-8.8382185E-1,1.4774374E0,-1.5185524E0,-1.44167E0,1.3546328E-1,1.3139158E0,-1.3724765E0,-1.4919286E0,-3.0031464E-1,1.4176208E0,-1.1172799E0,-2.1273186E-2,1.4843662E0,-1.5852157E0,9.662343E-2,3.4738043E-1,1.6113998E0,1.0200907E0,-8.982115E-1,-3.3577118E-2,1.1844676E0,-4.6371758E-1,1.4271626E0,-1.48489E0,6.2238437E-1,1.149511E-1,1.5930976E0,-1.512919E0,-1.630872E0,4.0924507E-1,-1.5437106E0,1.5645155E0,2.5292176E-1,-3.029417E-1,-1.5684757E0,4.3324572E-1,1.4556152E0,-8.6266416E-1,-1.5968895E0,6.99662E-1,-1.5087647E0,1.434616E-1,1.4992907E0,-1.4364249E0,8.6954945E-1,1.5373049E0,-1.2581907E-1,9.7639364E-1,-4.4796726E-1,-1.5276667E0,-3.9069593E-2,1.2254649E0,-1.1000788E0,-1.5655683E0,3.9222814E-2,1.2573905E0,-1.3198261E0,1.0420656E0,-1.3291279E0,2.3373039E-1,1.5121467E0,-7.38231E-2,-1.3323786E0,1.2639376E0,-2.4972361E-1,-1.4824784E0,-3.907623E-1,1.4530584E0,-1.2371864E0,1.5666842E0,7.166553E-1,-6.857798E-1,6.637702E-1,-7.917379E-1,-1.586824E0,1.7418489E-1,1.3843046E0,-6.1687654E-1,-1.5865736E0,1.5974784E0,-7.054306E-1,3.9872518E-1,1.4294238E0,-1.4459482E-1,1.266682E0,1.2670752E0,-9.6075803E-1,1.5427498E0,-2.49036E-1,-7.992591E-1,6.8407327E-1,1.4467336E0,6.503159E-1,-1.0140444E0,1.0646472E0,-4.8531196E-1,-1.5332409E0,1.4973515E0,3.4240317E-1,-3.7420434E-1,-1.3434745E0,4.6682385E-1,1.5795337E0,-3.0702642E-1,1.2237203E0,-1.2212324E0,2.7184147E-1,-3.0298546E-2,-1.1757317E0,-1.5913935E0,-6.091513E-1,-1.1436005E0,7.2518545E-1],"categories":[],"categories_nodes":[],"categories_segments":[],"categories_sizes":[],"default_left":[1,1,1,1,1,1,1,1,1,1,1,1,1,1,1,1,1,1,1,1,0,1,1,1,1,1,0,1,1,1,1,1,1,1,1,1,1,1,1,1,1,0,1,0,1,1,1,1,1,1,1,0,0,0,0,0,0,0,0,1,1,0,0,0,1,1,0,1,0,1,0,1,1,0,0,0,0,1,0,0,0,0,0,1,0,1,0,0,0,1,0,1,1,1,1,0,0,1,0,1,1,1,0,1,1,0,0,1,0,0,0,0,0,0,0,1,1,0,0,1,0,1,0,0,0,0,0,1,1,1,0,1,0,0,0,1,1,1,1,0,0,1,0,1,0,1,1,1,0,1,0,1,1,1,0,1,1,1,0,1,1,1,1,0,0,1,0,0,0,1,1,0,1,0,0,0,0,0,0,0,0,0,0,0,0,0,0,0,0,0,0,0,0,0,0,0,0,0,0,0,0,0,0,0,0],"id":5,"left_children":[1,3,5,7,9,11,13,15,17,19,21,23,25,27,29,31,33,35,37,39,-1,41,43,45,47,49,-1,51,53,55,57,59,61,63,65,67,69,71,73,75,77,-1,79,-1,81,83,85,87,89,91,93,-1,-1,-1,-1,-1,-1,-1,-1,95,97,-1,-1,-1,99,101,-1,103,-1,105,-1,107,109,-1,-1,-1,-1,111,-1,-1,-1,-1,-1,113,-1,115,-1,-1,-1,117,-1,119,121,123,125,-1,-1,127,-1,129,131,133,-1,135,137,-1,-1,139,-1,-1,-1,-1,-1,-1,-1,141,143,-1,-1,145,-1,147,-1,-1,-1,-1,-1,149,151,153,-1,155,-1,-1,-1,157,159,161,163,-1,-1,165,-1,167,-1,169,171,173,-1,175,-1,177,179,181,-1,183,185,187,-1,189,191,193,195,-1,-1,197,-1,-1,-1,199,201,-1,203,-1,-1,-1,-1,-1,-1,-1,-1,-1,-1,-1,-1,-1,-1,-1,-1,-1,-1,-1,-1,-1,-1,-1,-1,-1,-1,-1,-1,-1,-1,-1,-1],"loss_changes":[2.0259727E3,2.0488435E3,2.0226953E2,3.4985446E2,1.8699707E1,3.6929688E1,1.2517136E2,2.0829094E2,1.7000537E2,1.673584E-1,4.569513E1,1.1266412E2,6.654297E0,3.6430195E1,3.1213226E0,8.333862E1,6.632889E1,1.3394032E2,1.0043457E1,7.2634735E0,0E0,6.815544E0,8.258561E0,4.7616577E1,8.720493E1,9.828027E1,0E0,8.269981E0,1.120388E0,1.2827454E0,7.468291E0,7.121357E1,7.893383E0,5.788925E0,2.484964E1,8.339344E1,6.3037033E0,7.548889E0,3.0262747E0,5.682144E-1,6.8077435E0,0E0,4.9057994E0,0E0,8.4182906E-1,2.970757E1,7.408142E0,2.0758095E0,2.4126446E1,1.4912842E1,1.0133273E2,0E0,0E0,0E0,0E0,0E0,0E0,0E0,0E0,2.8031445E0,3.5804E1,0E0,0E0,0E0,1.979248E1,1.4196754E1,0E0,6.3302887E1,0E0,3.3545685E0,0E0,2.8722534E0,5.4396105E0,0E0,0E0,0E0,0E0,1.3597729E0,0E0,0E0,0E0,0E0,0E0,5.98479E0,0E0,3.0578117E1,0E0,0E0,0E0,1.8848763E0,0E0,2.0776367E-1,2.9623772E1,1.9546585E0,9.2934036E-1,0E0,0E0,1.289061E1,0E0,1.3464127E0,2.8807913E1,1.4645004E0,0E0,5.299256E1,8.039413E0,0E0,0E0,2.1565015E0,0E0,0E0,0E0,0E0,0E0,0E0,0E0,2.4401016E0,1.0402052E1,0E0,0E0,2.0345215E1,0E0,1.9655096E1,0E0,0E0,0E0,0E0,0E0,1.9025936E1,6.064377E0,2.8920875E0,0E0,7.413872E0,0E0,0E0,0E0,2.0243454E-1,3.3528214E1,1.0276031E0,2.1592927E0,0E0,0E0,4.515915E-1,0E0,9.1585636E-1,0E0,3.805725E0,1.1708054E1,7.218323E-1,0E0,3.589673E0,0E0,7.7485433E0,5.160553E0,2.7848942E0,0E0,9.847641E-3,6.880643E0,2.4822235E-2,0E0,5.043106E-1,6.0333252E-2,4.676361E-1,2.9325411E0,0E0,0E0,2.5770319E0,0E0,0E0,0E0,2.2056272E0,1.3421631E-1,0E0,5.1319847E0,0E0,0E0,0E0,0E0,0E0,0E0,0E0,0E0,0E0,0E0,0E0,0E0,0E0,0E0,0E0,0E0,0E0,0E0,0E0,0E0,0E0,0E0,0E0,0E0,0E0,0E0,0E0,0E0,0E0,0E0,0E0,0E0],"parents":[2147483647,0,0,1,1,2,2,3,3,4,4,5,5,6,6,7,7,8,8,9,9,10,10,11,11,12,12,13,13,14,14,15,15,16,16,17,17,18,18,19,19,21,21,22,22,23,23,24,24,25,25,27,27,28,28,29,29,30,30,31,31,32,32,33,33,34,34,35,35,36,36,37,37,38,38,39,39,40,40,42,42,44,44,45,45,46,46,47,47,48,48,49,49,50,50,59,59,60,60,64,64,65,65,67,67,69,69,71,71,72,72,77,77,83,83,85,85,89,89,91,91,92,92,93,93,94,94,97,97,99,99,100,100,101,101,103,103,104,104,107,107,115,115,116,116,119,119,121,121,127,127,128,128,129,129,131,131,135,135,136,136,137,137,138,138,141,141,143,143,145,145,146,146,147,147,149,149,151,151,152,152,153,153,155,155,156,156,157,157,159,159,160,160,161,161,162,162,165,165,169,169,170,170,172,172],"right_children":[2,4,6,8,10,12,14,16,18,20,22,24,26,28,30,32,34,36,38,40,-1,42,44,46,48,50,-1,52,54,56,58,60,62,64,66,68,70,72,74,76,78,-1,80,-1,82,84,86,88,90,92,94,-1,-1,-1,-1,-1,-1,-1,-1,96,98,-1,-1,-1,100,102,-1,104,-1,106,-1,108,110,-1,-1,-1,-1,112,-1,-1,-1,-1,-1,114,-1,116,-1,-1,-1,118,-1,120,122,124,126,-1,-1,128,-1,130,132,134,-1,136,138,-1,-1,140,-1,-1,-1,-1,-1,-1,-1,142,144,-1,-1,146,-1,148,-1,-1,-1,-1,-1,150,152,154,-1,156,-1,-1,-1,158,160,162,164,-1,-1,166,-1,168,-1,170,172,174,-1,176,-1,178,180,182,-1,184,186,188,-1,190,192,194,196,-1,-1,198,-1,-1,-1,200,202,-1,204,-1,-1,-1,-1,-1,-1,-1,-1,-1,-1,-1,-1,-1,-1,-1,-1,-1,-1,-1,-1,-1,-1,-1,-1,-1,-1,-1,-1,-1,-1,-1,-1],"split_conditions":[5.1521397E-1,6.2207794E-1,1.49964E-1,1.602682E-2,8.985175E-2,7.219704E-1,1.2427186E0,2.0158038E-1,5.496287E-1,7.7520895E-1,2.5763319E1,1.9185856E-2,1.3085823E0,8.666777E0,5.0943794E1,0E0,1.5244879E0,3.6726844E-1,0E0,1.3043592E0,-8.139401E-2,6.115059E-1,1.1195611E0,9.987643E-2,1.4299453E0,1.2994715E0,-8.15733E-2,1.2329438E0,2.3157316E-1,1.8943596E-1,2.1048183E0,2.0708798E-1,1.2895344E-2,4.4607174E-1,3.004116E1,5.457822E-1,3.1571275E-1,2.9867062E1,3.4167673E-2,4.0638857E-2,1.148407E0,-7.882754E-2,1.2142124E0,6.943671E-2,2.4582152E-1,6.037324E-1,4.7894096E-1,1.2689404E0,1.0523622E0,4.3328237E-2,1.3011155E0,7.9518E-2,-2.7999658E-2,-6.839728E-2,-6.3778856E-3,-1.2907847E-2,-7.738954E-2,5.19385E-2,-6.2394947E-2,1.2198882E1,6.4466385E1,3.4653813E-2,-7.749121E-2,-7.894314E-2,4.3877186E-3,0E0,-6.846329E-2,3.5376795E-2,-7.6724425E-2,4.2891073E-1,2.4265606E-2,5.0218374E-2,1.0503002E-1,-5.0709438E-2,3.0536527E-2,-7.81914E-2,-1.7016865E-2,7.4650794E-1,-5.5718E-2,3.5772767E-2,-5.452461E-2,-4.549365E-2,3.805016E-3,2.09513E0,-6.840562E-2,8.428239E-3,-8.081728E-2,-7.794606E-2,-8.85547E-3,5.4659157E0,-6.1938275E-2,3.4031048E0,1.515089E0,3.8275647E-1,3.9409137E-1,-7.2083496E-2,6.773164E-3,3.3495674E0,-6.8623826E-2,2.204499E-1,0E0,3.025474E0,-5.5863995E-2,8.238242E-2,2.7996513E-1,-7.926079E-2,4.8311716E-3,7.767948E-1,8.056999E-2,5.1004536E-2,-4.4910576E-2,-1.678856E-3,5.922338E-2,-2.3185879E-2,7.135814E-2,4.6297583E-1,0E0,5.747555E-3,7.965488E-2,2.394855E-2,-8.15436E-2,1.0103743E0,-7.7185534E-2,7.822578E-2,1.2646088E-2,-1.5147085E-2,-7.842379E-2,3.181459E0,1.0852381E-3,0E0,-7.9844475E-2,2.290695E-1,-7.543824E-2,7.17308E-3,7.496454E-2,1.03263944E-1,0E0,1.317169E-1,3.1417856E-1,4.8819683E-2,-2.2398364E-2,9.027825E-1,-1.9534796E-3,6.92104E-2,-5.500394E-2,1.3817763E-1,3.726117E-1,1.043564E1,-6.5991305E-2,1.4757128E0,-6.64564E-2,2.2948003E-1,1.0956557E1,4.1988945E-1,-6.6618934E-2,5.3921742E-3,1.1798544E-2,3.8406723E0,-1.9538116E-2,3.441565E0,2.0759644E-2,1.373704E-2,1.4785184E-1,-3.428899E-2,3.318851E-2,4.860767E0,-7.93412E-2,8.709244E-3,6.921523E-2,0E0,2.0330906E-2,7.987392E-2,3.4443583E0,1.993626E-2,7.147119E-2,-7.229741E-3,6.33341E-2,6.335376E-2,-4.80379E-2,7.713749E-2,-1.24518005E-2,-3.996296E-2,3.4203663E-2,7.233668E-2,3.2515794E-2,-5.070222E-2,5.323236E-2,-2.4265599E-2,-7.666205E-2,7.486758E-2,1.7120158E-2,-1.8710217E-2,-6.717373E-2,2.3341192E-2,7.897668E-2,-1.5351321E-2,6.1186016E-2,-6.106162E-2,1.3592074E-2,-1.5149274E-3,-5.8786582E-2,-7.9569675E-2,-3.0457566E-2,-5.7180025E-2,3.6259275E-2],"split_indices":[4,2,5,5,5,4,4,2,3,2,6,5,4,1,6,0,3,2,0,3,0,3,2,1,3,4,0,2,5,2,1,3,4,3,1,3,5,1,5,5,1,0,2,0,5,2,2,3,2,5,4,0,0,0,0,0,0,0,0,6,1,0,0,0,5,0,0,5,0,3,0,4,2,0,0,0,0,2,0,0,0,0,0,3,0,5,0,0,0,6,0,1,1,1,2,0,0,6,0,4,0,6,0,3,2,0,0,3,0,0,0,0,0,0,0,2,0,0,0,5,0,2,0,0,0,0,0,6,5,0,0,4,0,0,0,1,0,4,3,0,0,1,0,2,0,2,2,6,0,6,0,4,1,1,0,5,5,6,0,1,4,4,4,0,0,6,0,0,0,0,5,0,3,0,0,0,0,0,0,0,0,0,0,0,0,0,0,0,0,0,0,0,0,0,0,0,0,0,0,0,0,0,0,0,0],"split_type":[0,0,0,0,0,0,0,0,0,0,0,0,0,0,0,0,0,0,0,0,0,0,0,0,0,0,0,0,0,0,0,0,0,0,0,0,0,0,0,0,0,0,0,0,0,0,0,0,0,0,0,0,0,0,0,0,0,0,0,0,0,0,0,0,0,0,0,0,0,0,0,0,0,0,0,0,0,0,0,0,0,0,0,0,0,0,0,0,0,0,0,0,0,0,0,0,0,0,0,0,0,0,0,0,0,0,0,0,0,0,0,0,0,0,0,0,0,0,0,0,0,0,0,0,0,0,0,0,0,0,0,0,0,0,0,0,0,0,0,0,0,0,0,0,0,0,0,0,0,0,0,0,0,0,0,0,0,0,0,0,0,0,0,0,0,0,0,0,0,0,0,0,0,0,0,0,0,0,0,0,0,0,0,0,0,0,0,0,0,0,0,0,0,0,0,0,0,0,0,0,0,0,0,0,0],"sum_hessian":[1.4518027E4,1.5839421E3,1.2934085E4,8.156464E2,7.6829565E2,1.2857684E4,7.6401566E1,2.826538E2,5.329926E2,7.212573E2,4.7038345E1,4.62434E2,1.239525E4,4.2475174E1,3.3926395E1,1.4056126E2,1.4209254E2,1.7665457E2,3.5633804E2,4.101083E1,6.8024646E2,3.7160404E1,9.877941E0,4.1491388E2,4.7520107E1,1.3795103E3,1.1015739E4,3.729581E1,5.179362E0,2.9757013E1,4.169383E0,1.2365042E2,1.6910849E1,1.20798164E2,2.1294374E1,1.4425777E2,3.2396793E1,3.5366748E2,2.6705606E0,3.4776943E1,6.2338853E0,3.3096836E1,4.063568E0,7.4846435E0,2.3932977E0,1.7541027E1,3.9737283E2,1.9217163E1,2.8302946E1,1.3363246E3,4.3185707E1,3.5887646E1,1.4081657E0,4.071424E0,1.1079376E0,1.247346E0,2.8509666E1,1.3696182E0,2.7997649E0,1.188292E1,1.117675E2,1.1684096E0,1.5742439E1,5.8590008E1,6.2208157E1,1.694311E1,4.3512654E0,1.3108939E2,1.3168381E1,3.1197834E1,1.1989582E0,3.4968304E2,3.9844396E0,1.3603867E0,1.3101739E0,3.374788E1,1.029067E0,2.776692E0,3.4571934E0,2.204288E0,1.85928E0,1.2003012E0,1.1929965E0,1.0515478E1,7.025548E0,4.713452E1,3.502383E2,1.7771366E1,1.4457972E0,2.5509573E1,2.7933717E0,1.3033474E3,3.297713E1,2.1042553E1,2.2143152E1,1.0817471E1,1.0654497E0,1.07351776E2,4.415724E0,4.024243E1,2.1965727E1,1.5140518E1,1.8025903E0,4.0045135E1,9.104426E1,3.008063E1,1.1172043E0,2.4362648E0,3.472468E2,2.2506783E0,1.7337613E0,1.4072467E0,1.3694453E0,1.5115429E0,9.003936E0,3.9418613E1,7.715905E0,1.0607078E0,2.4448866E1,2.4721298E2,1.0561345E3,1.1271061E1,2.170607E1,1.938629E1,1.656264E0,1.1523404E0,2.0990812E1,1.5441209E1,9.191057E1,7.070727E0,3.3171703E1,1.225002E1,9.715706E0,1.0780534E0,1.4062466E1,1.5233261E1,2.4811872E1,8.8190056E1,2.8542008E0,1.2332771E0,1.2029878E0,3.823089E1,1.1877253E0,5.928661E0,1.7872441E0,2.3909413E2,8.118842E0,7.7448463E0,3.5262146E0,1.1780349E1,3.66086E0,4.291334E0,8.761923E1,3.0707905E0,3.9999366E0,7.4755445E0,4.7744756E0,1.4190536E1,1.0427256E0,1.9673206E1,5.1386666E0,8.4264305E1,3.9257534E0,1.7468457E0,1.1073551E0,3.9147162E0,3.4316174E1,1.0533923E0,4.875269E0,5.8369946E0,2.3325714E2,2.25493E0,5.863912E0,1.8464463E0,5.8984003E0,1.931642E0,9.848707E0,2.2682858E0,2.0230486E0,8.624464E1,1.3745959E0,1.5411098E0,1.5296806E0,4.713662E0,2.7618818E0,3.163412E0,1.6110636E0,1.1989582E0,1.2991578E1,1.8583906E1,1.0892993E0,1.0592211E0,4.0794454E0,1.4041549E0,8.286015E1,1.4310995E0,2.494654E0,2.6830275E0,1.2316886E0,3.3622112E0,2.4747832E0,2.3148746E2,1.7696766E0,4.6425986E0,1.2213137E0],"tree_param":{"num_deleted":"0","num_feature":"7","num_nodes":"205","size_leaf_vector":"0"}},{"base_weights":[-1.4259471E0,-3.9069468E-1,-1.5528646E0,6.7694676E-1,-1.5254916E0,-1.5622278E0,1.8080255E-2,-1.9312897E-1,1.1389297E0,-8.719156E-1,-1.5635847E0,-1.2830948E0,-1.5725477E0,1.1137009E0,-1.3446048E0,6.3837445E-1,-1.0150015E0,3.5861877E-1,1.5245093E0,-1.3529431E0,7.129545E-1,-1.569618E0,-2.3187022E-1,-3.1143677E-1,-1.5200858E0,-1.4967748E0,-1.5819033E0,1.4494704E0,-1.1300238E0,-4.7659326E-1,-1.4674184E0,9.144539E-1,-1.3205165E0,-1.2909874E0,5.352225E-1,7.581966E-1,-1.3909297E0,1.5388924E0,-2.6094675E-1,-1.5018318E0,-5.093385E-1,-8.752938E-1,1.4278363E0,1.0072054E0,-1.1168894E0,6.7621565E-1,-1.5196004E0,-1.563727E0,5.716092E-1,-1.54334E0,-5.645496E-2,1.5418515E0,-5.443796E-1,-1.3287601E0,-1.0719811E-1,5.1245713E-1,-1.1757535E0,-1.5122721E0,-6.464342E-1,-1.2567956E0,1.1550186E0,6.7572147E-1,-1.5027463E0,-1.5163997E0,-1.0299613E0,1.0624862E0,-1.32897E0,9.933234E-1,-1.487935E0,-1.4763634E0,4.7254097E-1,1.5541991E0,1.6619216E-1,-9.89361E-1,5.943652E-1,-4.849489E-1,-1.5352817E0,1.018692E0,-1.0521E0,-1.0908563E0,-1.5032226E-1,-6.9807464E-1,1.4438168E0,-1.5542845E0,-3.7167472E-1,1.2654777E0,-8.421401E-1,-1.560145E0,-8.5464364E-1,1.4311895E0,-1.4719484E0,1.0349128E0,-2.7710053E-1,-3.883031E-2,-9.179338E-1,-1.3950273E0,1.3197842E-1,1.2690175E0,-1.3320488E0,-1.5348608E0,-6.4298064E-1,4.0473697E-1,-1.33326E0,1.3723638E0,-1.0879277E0,-2.3307636E-2,1.4368414E0,2.8878098E-2,-1.5437747E0,3.3877665E-1,1.5618398E0,9.9020463E-1,-8.7311816E-1,-1.2671674E0,-1.2426428E-1,7.997299E-1,-1.3568283E0,1.5369339E0,-5.210754E-1,-1.4647695E0,-1.5810691E0,3.9540246E-1,-1.4958848E0,1.5169721E0,2.4509877E-1,-2.9555827E-1,-1.5241208E0,-1.4608493E0,-4.429527E-1,4.1530266E-1,1.4071357E0,-1.6282114E-1,-8.0226946E-1,9.3233335E-1,-1.1391183E0,-1.4157146E0,9.367619E-1,1.3975158E-1,1.4525445E0,-1.3922528E0,8.385759E-1,1.4887499E0,-1.201277E-1,9.531905E-1,-4.3609837E-1,-4.9943456E-1,1.222846E0,-1.5167437E0,4.3562204E-2,1.2180774E0,-1.2815979E0,1.0040058E0,-1.290506E0,2.2557154E-1,1.4625783E0,-4.357241E-1,1.2189308E0,-1.5071207E0,-6.761042E-1,-1.4371831E0,-3.8101313E-1,1.406588E0,-1.2003193E0,1.5174321E0,6.943183E-1,-7.935603E-1,5.265082E-1,-5.9792215E-1,-1.5373412E0,1.5308688E0,-6.7847455E-1,3.8609946E-1,1.3867147E0,-1.3984524E-1,1.2229317E0,1.229239E0,-9.2746764E-1,1.4927536E0,-2.416294E-1,4.973426E-1,1.3671952E0,1.04237154E-1,-1.2538209E0,-4.72541E-1,-1.4867295E0,1.4498664E0,3.3363158E-1,-1.3199059E0,-3.917139E-1,3.95083E-1,1.5299476E0,-2.9811606E-1,1.189657E0,-2.9137341E-2,-1.1448716E0,-1.5420334E0,-5.9210396E-1,-1.1080441E0,7.0320004E-1],"categories":[],"categories_nodes":[],"categories_segments":[],"categories_sizes":[],"default_left":[1,1,1,1,1,1,1,1,1,1,1,1,1,1,1,1,1,1,1,1,1,0,1,1,1,1,0,1,1,1,1,1,1,1,1,1,1,1,1,1,1,1,0,0,0,1,1,0,1,1,1,0,0,0,0,1,0,0,1,1,1,0,0,1,1,1,0,1,0,1,0,1,1,0,0,0,0,0,1,0,0,1,1,0,0,0,0,1,1,1,1,0,0,0,0,1,0,1,0,0,1,1,1,1,0,1,1,0,0,1,0,0,0,0,0,1,0,0,0,1,0,1,0,0,0,0,0,0,0,1,1,0,0,1,0,1,0,0,0,1,1,1,1,0,0,0,0,1,1,1,0,1,0,1,1,0,1,0,1,1,0,1,1,1,1,0,0,1,1,0,1,0,0,0,0,0,0,0,0,0,0,0,0,0,0,0,0,0,0,0,0,0,0,0,0,0,0,0,0],"id":6,"left_children":[1,3,5,7,9,11,13,15,17,19,21,23,25,27,29,31,33,35,37,39,41,-1,43,45,47,49,-1,51,53,55,57,59,61,63,65,67,69,71,73,75,77,79,-1,-1,-1,81,83,-1,85,87,89,-1,-1,-1,-1,91,-1,-1,93,95,97,-1,-1,99,101,103,-1,105,-1,107,-1,109,111,-1,-1,-1,-1,-1,113,-1,-1,115,117,-1,-1,-1,-1,119,121,123,125,-1,-1,-1,-1,127,-1,129,-1,-1,131,133,135,137,-1,139,141,-1,-1,143,-1,-1,-1,-1,-1,145,-1,-1,-1,147,-1,149,-1,-1,-1,-1,-1,-1,-1,151,153,-1,-1,155,-1,157,-1,-1,-1,159,161,163,165,-1,-1,-1,-1,167,169,171,-1,173,-1,175,177,-1,179,-1,181,183,-1,185,187,189,191,-1,-1,193,195,-1,197,-1,-1,-1,-1,-1,-1,-1,-1,-1,-1,-1,-1,-1,-1,-1,-1,-1,-1,-1,-1,-1,-1,-1,-1,-1,-1,-1,-1],"loss_changes":[1.869959E3,1.8863018E3,1.8656445E2,3.2277374E2,1.7424316E1,3.429297E1,1.1515297E2,1.914234E2,1.57198E2,3.4371986E1,5.3551025E0,1.04275635E2,6.25E0,3.3841076E1,2.9657822E0,7.658618E1,6.0922012E1,1.23183754E2,9.404846E0,3.5008545E0,1.3578264E1,0E0,5.931966E0,1.0895887E2,3.425232E1,9.0732666E1,0E0,7.768585E0,1.1028094E0,4.5735373E0,1.1382675E-1,6.5569496E1,7.4275055E0,5.486847E0,2.3018784E1,7.6929054E1,5.924919E0,7.052307E0,2.8662496E0,2.1993256E-1,6.55221E0,4.5960903E-1,0E0,0E0,0E0,5.4238186E1,1.05439E0,0E0,9.110492E0,1.3847656E1,9.3592445E1,0E0,0E0,0E0,0E0,1.5551133E0,0E0,0E0,5.057664E-1,2.6265736E0,3.317044E1,0E0,0E0,1.55181885E-2,2.6052269E1,1.3281916E1,0E0,5.861693E1,0E0,3.254799E0,0E0,2.6654053E0,5.10951E0,0E0,0E0,0E0,0E0,0E0,9.1370726E-1,0E0,0E0,1.9592926E1,6.784195E0,0E0,0E0,0E0,0E0,2.3706055E-1,2.7409044E1,1.8350601E0,9.461632E-1,0E0,0E0,0E0,0E0,8.346748E-2,0E0,1.1994339E1,0E0,0E0,9.9416375E-2,1.0020899E1,1.0428772E1,1.3689499E0,0E0,4.889241E1,7.4912567E0,0E0,0E0,2.0467315E0,0E0,0E0,0E0,0E0,0E0,4.106235E0,0E0,0E0,0E0,1.9174622E1,0E0,1.8301666E1,0E0,0E0,0E0,0E0,0E0,0E0,0E0,1.7638424E1,5.6578064E0,0E0,0E0,3.9607801E0,0E0,2.1804657E0,0E0,0E0,0E0,1.7953682E-1,3.1157484E1,9.4325256E-1,2.0919628E0,0E0,0E0,0E0,0E0,3.5407104E0,1.0801837E1,6.786766E-1,0E0,3.3416052E0,0E0,7.2493443E0,4.841049E0,0E0,1.2195492E-1,0E0,3.2949998E0,1.2561798E-2,0E0,4.6179962E-1,7.12738E-2,5.717621E-1,2.762074E0,0E0,0E0,2.0831776E0,1.0638428E-1,0E0,4.822956E0,0E0,0E0,0E0,0E0,0E0,0E0,0E0,0E0,0E0,0E0,0E0,0E0,0E0,0E0,0E0,0E0,0E0,0E0,0E0,0E0,0E0,0E0,0E0,0E0,0E0,0E0,0E0,0E0],"parents":[2147483647,0,0,1,1,2,2,3,3,4,4,5,5,6,6,7,7,8,8,9,9,10,10,11,11,12,12,13,13,14,14,15,15,16,16,17,17,18,18,19,19,20,20,22,22,23,23,24,24,25,25,27,27,28,28,29,29,30,30,31,31,32,32,33,33,34,34,35,35,36,36,37,37,38,38,39,39,40,40,41,41,45,45,46,46,48,48,49,49,50,50,55,55,58,58,59,59,60,60,63,63,64,64,65,65,67,67,69,69,71,71,72,72,78,78,81,81,82,82,87,87,88,88,89,89,90,90,95,95,97,97,100,100,101,101,102,102,103,103,105,105,106,106,109,109,115,115,119,119,121,121,129,129,130,130,133,133,135,135,139,139,140,140,141,141,142,142,147,147,148,148,149,149,151,151,153,153,154,154,156,156,158,158,159,159,161,161,162,162,163,163,164,164,167,167,168,168,170,170],"right_children":[2,4,6,8,10,12,14,16,18,20,22,24,26,28,30,32,34,36,38,40,42,-1,44,46,48,50,-1,52,54,56,58,60,62,64,66,68,70,72,74,76,78,80,-1,-1,-1,82,84,-1,86,88,90,-1,-1,-1,-1,92,-1,-1,94,96,98,-1,-1,100,102,104,-1,106,-1,108,-1,110,112,-1,-1,-1,-1,-1,114,-1,-1,116,118,-1,-1,-1,-1,120,122,124,126,-1,-1,-1,-1,128,-1,130,-1,-1,132,134,136,138,-1,140,142,-1,-1,144,-1,-1,-1,-1,-1,146,-1,-1,-1,148,-1,150,-1,-1,-1,-1,-1,-1,-1,152,154,-1,-1,156,-1,158,-1,-1,-1,160,162,164,166,-1,-1,-1,-1,168,170,172,-1,174,-1,176,178,-1,180,-1,182,184,-1,186,188,190,192,-1,-1,194,196,-1,198,-1,-1,-1,-1,-1,-1,-1,-1,-1,-1,-1,-1,-1,-1,-1,-1,-1,-1,-1,-1,-1,-1,-1,-1,-1,-1,-1,-1],"split_conditions":[5.1521397E-1,6.2207794E-1,1.49964E-1,1.602682E-2,7.618543E-1,7.219704E-1,1.2427186E0,2.0158038E-1,5.496287E-1,7.86718E-2,5.46967E-1,5.48361E-1,1.3085823E0,8.666777E0,1.5282506E-1,0E0,1.5244879E0,3.6726844E-1,0E0,1.3043592E0,2.6069761E1,-7.84809E-2,1.3587708E0,6.702546E0,3.398057E-2,1.2994715E0,-7.909517E-2,1.2329438E0,4.2227013E1,2.5805788E0,8.4227905E1,2.0708798E-1,1.2895344E-2,8.326043E-2,3.004116E1,5.457822E-1,3.1571275E-1,2.9867062E1,3.4167673E-2,9.3140616E-4,1.5974627E-1,3.2139692E-1,7.139181E-2,5.036027E-2,-5.5844467E-2,7.1087856E0,5.345735E0,-7.8186356E-2,4.3897572E-1,4.3328237E-2,1.3011155E0,7.709258E-2,-2.721898E-2,-6.643801E-2,-5.359906E-3,5.2629323E0,-5.8787674E-2,-7.561361E-2,1.4243173E2,1.2198882E1,6.4466385E1,3.3786073E-2,-7.513732E-2,4.7939043E0,1.586619E-1,0E0,-6.64485E-2,3.5376795E-2,-7.439675E-2,3.205493E0,2.3627048E-2,5.0218374E-2,1.0503002E-1,-4.946805E-2,2.971826E-2,-2.4247445E-2,-7.6764084E-2,5.09346E-2,7.2439057E-1,-5.4542817E-2,-7.516113E-3,1.6554509E-1,0E0,-7.771423E-2,-1.8583735E-2,6.3273884E-2,-4.2107005E-2,3.4031048E0,1.515089E0,3.8275647E-1,1.2294846E0,5.1745642E-2,-1.3855027E-2,-1.9415155E-3,-4.589669E-2,9.074578E-3,6.598921E-3,3.3495674E0,-6.660244E-2,-7.6743044E-2,4.5921758E-2,0E0,1.4115696E-2,3.025474E0,-5.4396387E-2,8.238242E-2,2.7996513E-1,1.4439049E-3,-7.718874E-2,7.767948E-1,7.8091994E-2,4.9510233E-2,-4.365591E-2,-6.3358374E-2,-6.213214E-3,2.5734816E0,-6.784142E-2,7.68467E-2,-2.6053771E-2,2.394855E-2,-7.9053454E-2,1.0103743E0,-7.479424E-2,7.58486E-2,1.22549385E-2,-1.4777914E-2,-7.620604E-2,-7.304247E-2,-2.2147635E-2,3.181459E0,1.0852381E-3,-8.141058E-3,-4.0113475E-2,4.8581594E-1,-5.6955915E-2,6.616624E-3,4.6838097E-2,6.987579E-3,7.2627224E-2,1.03263944E-1,0E0,1.317169E-1,6.571489E-2,4.7659528E-2,-2.180492E-2,-2.497173E-2,6.1142303E-2,1.3817763E-1,3.726117E-1,1.043564E1,-6.4079896E-2,1.4757128E0,-6.45253E-2,2.2948003E-1,1.0956557E1,-2.1786205E-2,5.4479563E-1,-7.535604E-2,1.7369366E0,3.8406723E0,-1.9050656E-2,3.441565E0,1.7041406E-1,1.4925877E-3,1.4785184E-1,-3.967802E-2,2.632541E-2,0E0,2.0330906E-2,7.654344E-2,3.4443583E0,1.9304974E-2,6.933574E-2,-6.992262E-3,6.1146587E-2,6.146195E-2,-4.6373382E-2,7.463768E-2,-1.208147E-2,2.486713E-2,6.835976E-2,5.2118576E-3,-6.269105E-2,-2.362705E-2,-7.433648E-2,7.249332E-2,1.668158E-2,-6.59953E-2,-1.9585695E-2,1.975415E-2,7.649738E-2,-1.4905803E-2,5.948285E-2,-1.4568671E-3,-5.724358E-2,-7.710167E-2,-2.9605199E-2,-5.5402208E-2,3.516E-2],"split_indices":[4,2,5,5,2,4,4,2,3,5,5,2,4,1,1,0,3,2,0,3,6,0,2,1,5,4,0,2,6,4,6,3,4,4,1,3,5,1,5,5,1,3,0,0,0,6,3,0,1,5,4,0,0,0,0,3,0,0,1,6,1,0,0,1,4,0,0,5,0,6,0,4,2,0,0,0,0,0,2,0,0,1,0,0,0,0,0,1,1,1,1,0,0,0,0,5,0,6,0,0,4,0,5,6,0,3,2,0,0,3,0,0,0,0,0,3,0,0,0,5,0,2,0,0,0,0,0,0,0,6,5,0,0,3,0,5,0,0,0,1,0,4,1,0,0,0,0,2,2,6,0,6,0,4,1,0,1,0,1,6,0,1,2,1,4,0,0,0,5,0,3,0,0,0,0,0,0,0,0,0,0,0,0,0,0,0,0,0,0,0,0,0,0,0,0,0,0,0,0],"split_type":[0,0,0,0,0,0,0,0,0,0,0,0,0,0,0,0,0,0,0,0,0,0,0,0,0,0,0,0,0,0,0,0,0,0,0,0,0,0,0,0,0,0,0,0,0,0,0,0,0,0,0,0,0,0,0,0,0,0,0,0,0,0,0,0,0,0,0,0,0,0,0,0,0,0,0,0,0,0,0,0,0,0,0,0,0,0,0,0,0,0,0,0,0,0,0,0,0,0,0,0,0,0,0,0,0,0,0,0,0,0,0,0,0,0,0,0,0,0,0,0,0,0,0,0,0,0,0,0,0,0,0,0,0,0,0,0,0,0,0,0,0,0,0,0,0,0,0,0,0,0,0,0,0,0,0,0,0,0,0,0,0,0,0,0,0,0,0,0,0,0,0,0,0,0,0,0,0,0,0,0,0,0,0,0,0,0,0,0,0,0,0,0,0,0,0,0,0,0,0],"sum_hessian":[1.4235559E4,1.5550721E3,1.2680486E4,8.0145215E2,7.5362E2,1.260536E4,7.51263E1,2.781605E2,5.232917E2,4.2820683E1,7.107993E2,4.5388824E2,1.2151473E4,4.17452E1,3.3381092E1,1.3838109E2,1.397794E2,1.7369966E2,3.49592E2,3.2962498E1,9.858184E0,7.074158E2,3.3835528E0,8.945185E1,3.644364E2,1.3531342E3,1.0798338E4,3.6619194E1,5.12601E0,4.7425714E0,2.8638521E1,1.21754585E2,1.6626503E1,1.187972E2,2.0982204E1,1.418657E2,3.183395E1,3.469353E2,2.6567097E0,2.735443E1,5.60807E0,2.9902887E0,6.8678956E0,1.3522574E0,2.0312955E0,4.945971E1,3.999214E1,3.5723544E2,7.20096E0,1.3106885E3,4.2445686E1,3.5214302E1,1.4048893E0,4.0416126E0,1.0843972E0,2.074694E0,2.6678774E0,2.6356537E1,2.2819846E0,1.1722967E1,1.10031624E2,1.1642836E0,1.5462218E1,6.116662E1,5.763059E1,1.6691324E1,4.2908792E0,1.2892726E2,1.2938443E1,3.0637077E1,1.1968714E0,3.429786E2,3.9567037E0,1.350149E0,1.3065606E0,1.3647122E0,2.5989717E1,1.2400635E0,4.368006E0,1.9159218E0,1.0743669E0,1.7757603E1,3.1702106E1,3.8475628E1,1.516516E0,4.900615E0,2.300345E0,1.2782327E3,3.2455845E1,2.068999E1,2.1755697E1,1.0615252E0,1.0131686E0,1.0577683E0,1.2242161E0,1.0657655E1,1.0653124E0,1.0567747E2,4.3541517E0,5.9158894E1,2.0077248E0,9.998777E0,4.763181E1,1.4905269E1,1.786056E0,3.9449245E1,8.947802E1,1.3377497E0,2.9299328E1,2.4258924E0,3.405527E2,2.2332945E0,1.7234092E0,3.249147E0,1.1188595E0,5.35896E0,1.2398642E1,3.0475655E1,1.2264512E0,2.4274875E2,1.0354839E3,1.1134143E1,2.1321703E1,1.9034384E1,1.6556058E0,1.2069207E0,2.0548777E1,9.468651E0,1.1890043E0,1.5274155E1,9.040331E1,1.0038624E0,1.0038624E0,7.7473145E0,2.251463E0,4.6325462E1,1.3063486E0,1.0778894E0,1.3827379E1,1.5003521E1,2.4445723E1,8.663352E1,2.8444977E0,1.2246897E0,1.2012026E0,1.2722338E0,4.086726E0,2.3465733E2,8.091417E0,7.653348E0,3.480795E0,1.1661125E1,3.61303E0,4.279041E0,8.6124275E1,1.2517623E0,6.495552E0,4.0306404E1,6.0190573E0,1.3961968E1,1.041553E0,1.936186E1,5.0838623E0,8.273632E1,3.8971965E0,1.2820773E0,1.5624204E0,5.803469E0,2.2885385E2,2.2782648E0,5.813153E0,1.8442421E0,5.809106E0,1.9313538E0,9.729771E0,2.2523704E0,2.0266705E0,8.474778E1,1.3764976E0,1.8493546E0,4.6461973E0,2.9091463E0,3.1099112E0,1.1968715E0,1.2765097E1,1.8273504E1,1.0883567E0,3.8780107E0,1.2058518E0,1.2716013E0,8.146472E1,1.4300938E0,2.4671028E0,3.3612764E0,2.4421928E0,2.2709518E2,1.7586676E0,4.5855308E0,1.2276219E0],"tree_param":{"num_deleted":"0","num_feature":"7","num_nodes":"199","size_leaf_vector":"0"}},{"base_weights":[-1.3856052E0,-3.7945572E-1,-1.5091493E0,6.5566725E-1,-1.4819107E0,-1.5182711E0,1.5342083E-2,-1.8818736E-1,1.1049191E0,-1.5211267E0,-8.6481047E-1,-1.2456955E0,-1.5283594E0,1.0783336E0,-1.3033252E0,6.1647207E-1,-9.839651E-1,3.466471E-1,1.4805377E0,-1.5261319E0,-1.0136791E0,5.554476E-1,-1.4537313E0,-3.0240723E-1,-1.4763848E0,-1.4532518E0,-1.537469E0,1.4068033E0,-1.0962763E0,-9.465716E-2,-1.3771151E0,8.835142E-1,-1.2801648E0,-1.2513256E0,5.1493675E-1,7.3374933E-1,-1.3485044E0,1.492983E0,-4.378391E-1,-1.3789548E0,7.979637E-1,-1.0205569E0,1.0895294E0,-4.152902E-1,-1.4831015E0,6.5420383E-1,-1.475654E0,-1.5191362E0,5.513554E-1,-1.4992933E0,1.3891375E0,1.4981935E0,-5.2931374E-1,-1.2943658E0,-1.073782E-1,-2.728577E-1,-1.4217536E0,-1.2184738E0,1.1170739E0,6.5900403E-1,-1.4601574E0,-1.4869602E0,-1.0098683E0,1.0273646E0,-1.2918074E0,9.6184593E-1,-1.4457421E0,-1.4329474E0,4.6017644E-1,-1.8364556E-2,1.5069722E0,3.539292E-1,1.3778433E0,-6.7424345E-1,1.399579E0,-1.509939E0,-3.609455E-1,1.1230005E0,-1.0538296E0,-1.5157304E0,-8.280069E-1,1.4740411E0,2.3752843E-1,-1.4632355E0,-6.310477E-1,-1.3546633E0,1.2858461E-1,1.2280326E0,-1.294776E0,-1.4029963E0,-2.6629207E-1,1.330958E0,-1.0602816E0,-2.532667E-2,1.3936235E0,-1.4943641E0,1.119011E-1,-1.012711E0,8.7098306E-1,1.5119195E0,3.0184835E-1,9.105549E-1,-2.4000944E-1,7.721358E-1,-1.3141898E0,1.4916208E0,-5.071863E-1,-1.4212581E0,-1.5364925E0,3.8257757E-1,-1.4525793E0,-3.7834175E-2,-8.975346E-1,-1.4191113E0,-4.3151563E-1,3.9855233E-1,1.3630656E0,-8.0101496E-1,-1.5051167E0,6.762495E-1,-1.4229617E0,1.3613948E-1,1.4099964E0,-1.3518553E0,8.0995864E-1,1.444967E0,-1.1772222E-1,1.5173565E0,4.8643962E-1,-4.8571452E-1,1.1861601E0,-1.4726999E0,4.7520924E-2,1.1816019E0,-1.2461826E0,9.684349E-1,-1.2547554E0,1.398126E0,-2.2769071E-1,-5.054743E-2,-1.2576939E0,1.2066176E0,-2.1997382E-1,-1.3959181E0,-3.715425E-1,1.3641335E0,-1.1660285E0,1.473116E0,6.732626E-1,-6.595335E-1,6.438568E-1,-2.3328051E-1,9.5538884E-1,-5.798675E-1,-1.4930054E0,1.0038065E0,-9.9994254E-1,3.7391594E-1,1.3475568E0,-1.3525374E-1,1.1822803E0,1.4216903E0,-1.3496752E-1,-7.565509E-1,6.75147E-1,-9.4773054E-1,1.0168866E0,-4.601764E-1,-1.4445689E0,1.4066317E0,3.2510865E-1,-3.4848693E-1,-1.2691834E0,3.8447618E-1,1.485458E0,-2.8948283E-1,1.1578405E0,-2.802048E-2,-1.1159222E0,-1.4976056E0,-5.7566506E-1,-3.3392212E-1,1.4621328E0,-3.1212702E-1,-1.1466099E0],"categories":[],"categories_nodes":[],"categories_segments":[],"categories_sizes":[],"default_left":[1,1,1,1,1,1,1,1,1,1,1,1,1,1,1,1,1,1,1,0,1,1,1,1,1,1,0,1,1,0,1,1,1,1,1,1,1,1,0,0,0,0,1,0,0,1,1,0,1,1,1,0,0,0,0,0,1,1,1,0,0,0,1,1,0,1,0,1,0,1,1,1,0,1,1,0,0,0,0,1,1,0,0,0,1,1,0,1,0,1,1,1,0,1,1,0,0,0,0,1,0,0,0,1,0,0,0,1,0,1,0,0,0,0,0,1,1,1,0,1,0,0,0,1,1,1,1,0,1,0,0,1,1,1,0,1,0,1,0,1,0,0,1,1,0,1,1,1,1,0,0,0,0,1,1,1,1,0,0,0,0,0,0,0,0,0,0,0,0,0,0,0,0,0,0,0,0,0,0,0,0,0,0,0,0],"id":7,"left_children":[1,3,5,7,9,11,13,15,17,19,21,23,25,27,29,31,33,35,37,-1,39,41,43,45,47,49,-1,51,53,-1,55,57,59,61,63,65,67,69,-1,-1,-1,-1,71,-1,-1,73,75,-1,77,79,81,-1,-1,-1,-1,-1,83,85,87,-1,-1,-1,89,91,-1,93,-1,95,-1,97,99,101,-1,103,105,-1,-1,-1,-1,107,109,-1,-1,-1,111,113,-1,115,-1,117,119,121,-1,123,125,-1,-1,-1,-1,127,-1,-1,-1,129,-1,-1,-1,131,-1,133,-1,-1,-1,-1,-1,135,137,139,-1,141,-1,-1,-1,143,145,147,149,-1,151,-1,-1,153,155,157,-1,159,-1,161,-1,163,-1,-1,165,167,-1,169,171,173,175,-1,-1,-1,-1,177,179,181,183,-1,-1,-1,-1,-1,-1,-1,-1,-1,-1,-1,-1,-1,-1,-1,-1,-1,-1,-1,-1,-1,-1,-1,-1,-1,-1,-1,-1],"loss_changes":[1.7306406E3,1.7406189E3,1.7250977E2,2.9853143E2,1.655664E1,3.200586E1,1.06207726E2,1.7621477E2,1.4579156E2,2.1325684E-1,3.9655155E1,9.649097E1,5.8964844E0,3.150224E1,2.8862228E0,7.050745E1,5.6055405E1,1.1350601E2,8.847717E0,0E0,7.550596E0,1.3179888E1,3.9383698E-1,1.0062221E2,3.1844238E1,1.7272021E2,0E0,7.3181763E0,1.0493073E0,0E0,1.179699E0,6.059932E1,7.005493E0,5.1910706E0,2.136055E1,7.110799E1,5.5817757E0,7.2418823E0,0E0,0E0,0E0,0E0,1.8860006E0,0E0,0E0,5.0062584E1,9.9089813E-1,0E0,8.633426E0,1.2907959E1,1.7327957E0,0E0,0E0,0E0,0E0,0E0,7.144165E-2,2.475605E0,3.0791733E1,0E0,0E0,0E0,1.7520607E1,1.2448324E1,0E0,5.440323E1,0E0,3.111782E0,0E0,4.5231047E0,1.5594482E0,1.7053003E0,0E0,1.8142244E1,6.3903847E0,0E0,0E0,0E0,0E0,2.7148438E-1,2.5418257E1,0E0,0E0,0E0,4.8299742E-1,7.0611954E-2,0E0,1.1198715E1,0E0,1.2416306E0,2.5388618E1,1.2856731E0,0E0,4.5189693E1,7.0574646E0,0E0,0E0,0E0,0E0,1.1379395E0,0E0,0E0,0E0,3.8600452E0,0E0,0E0,0E0,1.811728E1,0E0,1.7067059E1,0E0,0E0,0E0,0E0,0E0,1.6374853E1,5.323471E0,2.6478486E0,0E0,6.4556994E0,0E0,0E0,0E0,1.61726E-1,2.9015585E1,8.7454224E-1,2.0095072E0,0E0,1.3185765E0,0E0,0E0,3.3186646E0,1.0070201E1,6.424751E-1,0E0,3.1171846E0,0E0,3.3690948E0,0E0,2.5780163E0,0E0,0E0,6.08321E0,4.9419403E-3,0E0,4.267044E-1,6.57835E-2,5.312958E-1,2.6049883E0,0E0,0E0,0E0,0E0,1.9706864E0,8.7524414E-2,3.6952167E0,1.2842321E-1,0E0,0E0,0E0,0E0,0E0,0E0,0E0,0E0,0E0,0E0,0E0,0E0,0E0,0E0,0E0,0E0,0E0,0E0,0E0,0E0,0E0,0E0,0E0,0E0,0E0,0E0,0E0,0E0],"parents":[2147483647,0,0,1,1,2,2,3,3,4,4,5,5,6,6,7,7,8,8,9,9,10,10,11,11,12,12,13,13,14,14,15,15,16,16,17,17,18,18,20,20,21,21,22,22,23,23,24,24,25,25,27,27,28,28,30,30,31,31,32,32,33,33,34,34,35,35,36,36,37,37,42,42,45,45,46,46,48,48,49,49,50,50,56,56,57,57,58,58,62,62,63,63,65,65,67,67,69,69,70,70,71,71,73,73,74,74,79,79,80,80,84,84,85,85,87,87,89,89,90,90,91,91,93,93,94,94,99,99,103,103,107,107,109,109,115,115,116,116,117,117,119,119,123,123,124,124,125,125,126,126,128,128,131,131,132,132,133,133,135,135,137,137,139,139,142,142,143,143,145,145,146,146,147,147,148,148,153,153,154,154,155,155,156,156],"right_children":[2,4,6,8,10,12,14,16,18,20,22,24,26,28,30,32,34,36,38,-1,40,42,44,46,48,50,-1,52,54,-1,56,58,60,62,64,66,68,70,-1,-1,-1,-1,72,-1,-1,74,76,-1,78,80,82,-1,-1,-1,-1,-1,84,86,88,-1,-1,-1,90,92,-1,94,-1,96,-1,98,100,102,-1,104,106,-1,-1,-1,-1,108,110,-1,-1,-1,112,114,-1,116,-1,118,120,122,-1,124,126,-1,-1,-1,-1,128,-1,-1,-1,130,-1,-1,-1,132,-1,134,-1,-1,-1,-1,-1,136,138,140,-1,142,-1,-1,-1,144,146,148,150,-1,152,-1,-1,154,156,158,-1,160,-1,162,-1,164,-1,-1,166,168,-1,170,172,174,176,-1,-1,-1,-1,178,180,182,184,-1,-1,-1,-1,-1,-1,-1,-1,-1,-1,-1,-1,-1,-1,-1,-1,-1,-1,-1,-1,-1,-1,-1,-1,-1,-1,-1,-1],"split_conditions":[5.1521397E-1,6.2207794E-1,1.49964E-1,1.602682E-2,8.985175E-2,7.219704E-1,1.2427186E0,2.0158038E-1,5.496287E-1,2.4314778E0,1.2208105E0,5.48361E-1,1.3011155E0,8.666777E0,3.15421E-1,0E0,1.5244879E0,3.6726844E-1,3.1986185E2,-7.63066E-2,1.1732239E-2,3.8120824E-1,1.3587708E0,6.702546E0,3.398057E-2,1.2994715E0,-7.687345E-2,1.2329438E0,2.3157316E-1,-4.732858E-3,4.4912636E-2,2.0708798E-1,1.2895344E-2,4.4607174E-1,3.004116E1,5.457822E-1,3.1571275E-1,5.0218374E-2,-2.1891955E-2,-6.894774E-2,3.9898183E-2,-5.1027846E-2,2.6014593E-1,-2.0764511E-2,-7.415508E-2,7.1087856E0,5.345735E0,-7.5956814E-2,1.1475501E0,4.3328237E-2,3.8275647E-1,7.490968E-2,-2.6465688E-2,-6.471829E-2,-5.3689103E-3,-1.3642885E-2,8.4227905E1,1.2198882E1,6.4466385E1,3.2950204E-2,-7.3007874E-2,-7.434801E-2,4.3877186E-3,0E0,-6.459037E-2,3.5376795E-2,-7.2287105E-2,4.2891073E-1,2.3008822E-2,1.615954E1,0E0,7.553785E-1,6.8892166E-2,1.6554509E-1,0E0,-7.549695E-2,-1.8047275E-2,5.6150027E-2,-5.269148E-2,3.4031048E0,1.515089E0,7.370206E-2,1.1876422E-2,-7.316177E-2,1.4243173E2,9.074578E-3,6.4292303E-3,3.3495674E0,-6.47388E-2,2.204499E-1,0E0,3.025474E0,-5.301408E-2,8.238242E-2,2.7996513E-1,-7.471821E-2,5.595055E-3,-5.0635554E-2,4.3549154E-2,2.9867062E1,1.5092418E-2,4.5527745E-2,-1.2000472E-2,2.5734816E0,-6.5709494E-2,7.458104E-2,-2.5359316E-2,2.394855E-2,-7.682463E-2,1.0103743E0,-7.262897E-2,-1.8917088E-3,-4.4876732E-2,-7.095557E-2,-2.1575782E-2,3.181459E0,4.4431636E-1,0E0,-7.525583E-2,2.290695E-1,-7.114809E-2,6.8069743E-3,7.049982E-2,1.03263944E-1,0E0,1.317169E-1,3.1417856E-1,7.5867824E-2,2.1560875E-1,-2.4285726E-2,5.9308004E-2,1.3817763E-1,8.371408E-1,1.043564E1,-6.2309127E-2,1.4757128E0,-6.273777E-2,1.0956557E1,-1.1384536E-2,4.1988945E-1,-6.2884696E-2,6.033088E-2,1.1798544E-2,3.8406723E0,-1.8577127E-2,3.441565E0,2.0759644E-2,1.4925877E-3,1.4785184E-1,-3.2976676E-2,3.219284E-2,-1.16640255E-2,4.7769442E-2,0E0,2.0330906E-2,2.1309643E0,1.0118244E0,1.8695798E-2,6.737784E-2,-6.762687E-3,5.9114017E-2,7.108452E-2,-6.748376E-3,-3.7827548E-2,3.375735E-2,-4.7386527E-2,5.084433E-2,-2.3008822E-2,-7.222845E-2,7.033159E-2,1.6255433E-2,-1.7424347E-2,-6.345917E-2,1.922381E-2,7.42729E-2,-1.4474141E-2,5.7892025E-2,-1.401024E-3,-5.5796113E-2,-7.488028E-2,-2.8783252E-2,-1.6696107E-2,7.310664E-2,-1.5606351E-2,-5.7330497E-2],"split_indices":[4,2,5,5,5,4,4,2,3,3,2,2,4,1,2,0,3,2,1,0,5,3,2,1,5,4,0,2,5,0,1,3,4,3,1,3,5,4,0,0,0,0,4,0,0,6,3,0,2,5,1,0,0,0,0,0,6,6,1,0,0,0,5,0,0,5,0,3,0,6,0,2,0,1,0,0,0,0,0,1,1,0,0,0,1,5,0,6,0,4,0,6,0,3,2,0,0,0,0,1,0,0,0,3,0,0,0,5,0,2,0,0,0,0,0,6,4,0,0,4,0,0,0,1,0,4,3,0,5,0,0,2,2,6,0,6,0,1,0,1,0,0,5,6,0,1,4,1,4,0,0,0,0,0,5,3,4,0,0,0,0,0,0,0,0,0,0,0,0,0,0,0,0,0,0,0,0,0,0,0,0,0,0,0,0],"split_type":[0,0,0,0,0,0,0,0,0,0,0,0,0,0,0,0,0,0,0,0,0,0,0,0,0,0,0,0,0,0,0,0,0,0,0,0,0,0,0,0,0,0,0,0,0,0,0,0,0,0,0,0,0,0,0,0,0,0,0,0,0,0,0,0,0,0,0,0,0,0,0,0,0,0,0,0,0,0,0,0,0,0,0,0,0,0,0,0,0,0,0,0,0,0,0,0,0,0,0,0,0,0,0,0,0,0,0,0,0,0,0,0,0,0,0,0,0,0,0,0,0,0,0,0,0,0,0,0,0,0,0,0,0,0,0,0,0,0,0,0,0,0,0,0,0,0,0,0,0,0,0,0,0,0,0,0,0,0,0,0,0,0,0,0,0,0,0,0,0,0,0,0,0,0,0,0,0,0,0,0,0,0,0,0,0],"sum_hessian":[1.39262705E4,1.5234332E3,1.2402837E4,7.8591907E2,7.375141E2,1.2329071E4,7.37663E1,2.7324637E2,5.126727E2,6.920689E2,4.544521E1,4.444713E2,1.18846E4,4.094354E1,3.282276E1,1.3597702E2,1.3726935E2,1.7046767E2,3.4220505E2,6.8332166E2,8.747259E0,1.3337342E1,3.210787E1,8.779373E1,3.5667758E2,1.3028932E3,1.0581706E4,3.5877415E1,5.066121E0,2.0199015E0,3.0802858E1,1.1966292E2,1.63141E1,1.1663094E2,2.0638401E1,1.3923851E2,3.1229147E1,3.4021964E2,1.9854157E0,7.4782763E0,1.2689832E0,3.1452537E0,1.0192088E1,1.2995502E0,3.080832E1,4.8605476E1,3.9188255E1,3.4955856E2,7.1190124E0,1.2825902E3,2.0303038E1,3.4476227E1,1.4011891E0,3.9633188E0,1.1028023E0,1.4731452E0,2.9329714E1,1.1544836E1,1.0811809E2,1.1596127E0,1.5154489E1,5.64166E1,6.021434E1,1.6414345E1,4.224056E0,1.2655271E2,1.2685802E1,3.003464E1,1.1945071E0,3.1173458E0,3.371023E2,3.4971325E0,6.694956E0,1.7504124E1,3.110135E1,3.7674934E1,1.5133218E0,5.4710364E0,1.647976E0,1.2507075E3,3.1882708E1,1.8648195E1,1.6548421E0,2.7059578E1,2.2701356E0,1.0479681E1,1.0651551E0,1.0383206E2,4.2860255E0,3.880915E1,2.1405188E1,1.4646811E1,1.7675343E0,3.879563E1,8.775708E1,2.8917673E1,1.1169668E0,1.4063008E0,1.711045E0,3.3547052E2,1.6317564E0,1.5300891E0,1.9670434E0,5.3057446E0,1.21983795E1,2.987688E1,1.2244691E0,2.3785774E2,1.01284973E3,1.098274E1,2.0899967E1,1.0576736E0,1.2124621E0,9.293611E0,1.186071E0,1.5089838E1,8.874222E1,6.9114165E0,3.1897736E1,1.202316E1,9.382029E0,1.077703E0,1.3569108E1,1.475097E1,2.4044662E1,8.491622E1,2.84086E0,3.3322412E2,2.24641E0,1.2710387E0,4.034706E0,2.2980644E2,8.051299E0,7.552321E0,3.4304194E0,1.1529836E1,3.560002E0,8.6947E1,1.7952249E0,3.0348637E0,3.8765528E0,7.335697E0,4.687463E0,1.371075E1,1.0402205E0,1.9020046E1,5.024616E0,8.105086E1,3.8653605E0,1.7382245E0,1.1026354E0,1.0845075E0,1.1619023E0,5.7674737E0,2.2403896E2,4.230619E0,3.82068E0,1.8417629E0,5.7105584E0,1.9310275E0,9.598808E0,8.570238E1,1.2446178E0,1.5167495E0,1.5181141E0,3.0982459E0,1.5892168E0,1.1945072E0,1.2516243E1,1.793276E1,1.0872864E0,1.0535018E0,3.971114E0,1.2690008E0,7.978186E1,1.4289573E0,2.436403E0,3.3603735E0,2.4071E0,2.2229167E2,1.7472905E0,1.1488562E0,3.081763E0,1.2213113E0,2.5993686E0],"tree_param":{"num_deleted":"0","num_feature":"7","num_nodes":"185","size_leaf_vector":"0"}},{"base_weights":[-1.3492644E0,-3.6924914E-1,-1.4698164E0,6.361992E-1,-1.4423515E0,-1.4787257E0,1.2762601E-2,-1.839364E-1,1.0740553E0,-8.117059E-1,-1.4794471E0,-1.2118914E0,-1.4886132E0,1.0459545E0,-1.2652173E0,5.9601265E-1,-9.560816E-1,3.3580965E-1,1.440666E0,-1.2935199E0,5.956186E-1,-1.4853959E0,-2.0053837E-1,-1.3659291E0,1.2377523E-1,-1.4152951E0,-1.4976755E0,1.3680298E0,-1.0646229E0,-1.3764706E0,-3.7711522E-1,8.546433E-1,-1.2432182E0,-1.2157346E0,4.9611926E-1,7.1148854E-1,-1.3100902E0,1.4548678E0,-2.552514E-1,-1.4040598E0,-4.4935346E-1,-7.724312E-1,1.3700503E0,9.6933144E-1,-1.0518613E0,1.101633E-1,-1.4321202E0,-1.3456627E0,1.1313943E0,-1.4596184E0,-5.0117474E-2,1.4587072E0,-5.147666E-1,-1.2607809E0,-8.845116E-2,-2.2513056E-1,-1.4195852E0,1.0175261E0,-1.1621366E0,-1.183028E0,1.081719E0,6.4288646E-1,-1.4214423E0,-1.4332553E0,-9.65002E-1,9.949133E-1,-1.2573968E0,9.3318236E-1,-1.4073169E0,-1.3938336E0,4.4820002E-1,1.4698154E0,1.592234E-1,-9.603393E-1,5.714642E-1,-5.0173163E-1,-1.4361289E0,4.7342727E-1,-1.0981582E0,-1.1798066E0,3.6064497E-1,1.031481E0,-1.2400117E0,-1.0380169E0,-1.482414E0,-1.4313726E0,-1.5662491E-1,1.4160492E0,-1.1324556E0,-1.4757438E0,-8.0356526E-1,1.3507006E0,-1.3871739E0,-1.3175595E0,1.2527958E-1,1.1898682E0,-1.260273E0,-1.4516048E0,-5.902802E-1,3.8480926E-1,-1.2542113E0,1.2928789E0,-1.0341814E0,-2.723025E-2,1.3544523E0,4.969649E-2,-1.4612968E0,3.2606354E-1,1.4772294E0,-7.0553243E-1,1.0987029E0,-4.5297545E-1,1.3105038E0,-1.3619546E0,5.677556E-1,8.834773E-2,1.4700983E0,-1.3819313E0,-1.4964006E0,3.7064445E-1,-1.413166E0,1.4350857E0,2.3020183E-1,-1.4389119E0,-2.105491E-1,-1.3809764E0,-4.2042577E-1,3.8284853E-1,1.3221062E0,8.8167304E-1,-1.0748618E0,-1.3342322E0,8.9207655E-1,1.3262221E-1,1.3710729E0,-1.3147244E0,7.836377E-1,1.4051545E0,-1.12382285E-1,9.114114E-1,-4.1026458E-1,-9.5053816E-1,-1.1095867E-1,-1.4017798E0,-4.9875654E-2,1.1284198E0,-1.0126349E0,-1.4327582E0,4.3292526E-2,1.1476156E0,-1.2132518E0,9.3505377E-1,-1.2215385E0,1.7384353E-1,1.3779777E0,-4.0343022E-1,1.1527866E0,-1.4239208E0,-6.261155E-1,1.4131812E0,4.0911365E-1,-1.3581381E0,-3.623399E-1,1.3251424E0,-1.1338539E0,1.4329001E0,6.5336937E-1,-7.647722E-1,5.117478E-1,-7.126448E-1,-1.4585091E0,1.8716544E-1,1.2684368E0,-5.6264216E-1,-1.4528706E0,1.4246308E0,-6.4200574E-1,3.6215484E-1,1.3114978E0,-1.3081488E-1,1.1443342E0,1.1550415E0,-9.2462707E-1,1.4076947E0,-2.3014653E-1,4.6586403E-1,1.2961493E0,1.1594343E-1,-1.1880455E0,-4.4820002E-1,-1.4061673E0,1.3670602E0,3.1682575E-1,-1.2507104E0,-3.6376783E-1,3.769917E-1,1.4460835E0,-2.8111643E-1,1.1280327E0,-1.1270348E0,2.8168416E-1,-2.6946254E-2,-1.0886883E0,-1.12426E0,-1.4786239E0,-1.0524006E0,6.4902496E-1],"categories":[],"categories_nodes":[],"categories_segments":[],"categories_sizes":[],"default_left":[1,1,1,1,1,1,1,1,1,1,1,1,1,1,1,1,1,1,1,1,1,0,1,1,1,1,0,1,1,1,1,1,1,1,1,1,1,1,1,1,1,1,0,0,0,1,1,1,1,1,1,0,0,0,0,0,0,0,0,1,1,0,0,1,1,1,0,1,0,1,0,1,1,0,0,0,0,0,0,0,0,1,0,1,0,0,0,1,0,1,1,1,1,1,0,1,0,0,0,1,1,1,0,1,1,0,0,1,0,1,0,0,0,1,1,0,0,1,0,1,0,0,0,0,0,0,0,1,1,1,0,1,0,0,1,1,1,1,1,0,0,0,0,1,0,1,0,1,1,1,0,1,0,1,1,0,1,0,1,0,0,1,0,1,1,1,1,0,0,1,0,0,0,1,1,0,1,0,0,0,0,0,0,0,0,0,0,0,0,0,0,0,0,0,0,0,0,0,0,0,0,0,0,0,0,0,0],"id":8,"left_children":[1,3,5,7,9,11,13,15,17,19,21,23,25,27,29,31,33,35,37,39,41,-1,43,45,47,49,-1,51,53,55,57,59,61,63,65,67,69,71,73,75,77,79,-1,-1,-1,81,83,85,87,89,91,-1,-1,-1,-1,-1,-1,-1,-1,93,95,-1,-1,97,99,101,-1,103,-1,105,-1,107,109,-1,-1,-1,-1,-1,-1,-1,-1,111,-1,113,-1,-1,-1,115,-1,117,119,121,123,125,-1,127,-1,-1,-1,129,131,133,-1,135,137,-1,-1,139,-1,141,-1,-1,-1,143,145,-1,-1,147,-1,149,-1,-1,-1,-1,-1,-1,-1,151,153,155,-1,157,-1,-1,159,161,163,165,167,-1,-1,-1,-1,169,-1,171,-1,173,175,177,-1,179,-1,181,183,-1,185,-1,187,-1,-1,189,-1,191,193,195,197,-1,-1,199,-1,-1,-1,201,203,-1,205,-1,-1,-1,-1,-1,-1,-1,-1,-1,-1,-1,-1,-1,-1,-1,-1,-1,-1,-1,-1,-1,-1,-1,-1,-1,-1,-1,-1,-1,-1],"loss_changes":[1.6057969E3,1.6092593E3,1.5993555E2,2.7680667E2,1.5675049E1,2.9947266E1,9.812252E1,1.6254524E2,1.3546954E2,2.944645E1,4.8760986E0,8.974707E1,5.5878906E0,2.9384624E1,2.7637367E0,6.5002975E1,5.171057E1,1.04801476E2,8.44812E0,2.338337E0,1.3211054E1,0E0,5.306921E0,3.830652E1,6.953786E1,7.82417E1,0E0,6.91127E0,1.0377488E0,1.1273651E0,6.7400355E0,5.608246E1,6.621277E0,4.903702E0,1.9853487E1,6.586054E1,5.273121E0,6.2092896E0,2.668026E0,7.999039E-2,3.6061754E0,2.634525E0,0E0,0E0,0E0,2.3279102E1,5.869507E0,1.7267113E0,1.951437E1,1.2075439E1,8.004256E1,0E0,0E0,0E0,0E0,0E0,0E0,0E0,0E0,2.339304E0,2.8622963E1,0E0,0E0,6.601715E-2,2.2581196E1,1.1685892E1,0E0,5.0610954E1,0E0,3.0309105E0,0E0,2.3063965E0,4.7690454E0,0E0,0E0,0E0,0E0,0E0,0E0,0E0,0E0,5.173956E0,0E0,2.4511703E1,0E0,0E0,0E0,1.6737442E0,0E0,3.0078125E-1,2.3620718E1,1.6446953E0,1.0270004E0,6.1618805E-2,0E0,1.0472427E1,0E0,0E0,0E0,8.747001E0,9.237366E0,1.2125664E0,0E0,4.184215E1,6.621399E0,0E0,0E0,1.839691E0,0E0,3.5613644E-1,0E0,0E0,0E0,1.929802E0,8.556072E0,0E0,0E0,1.6986847E1,0E0,1.5937649E1,0E0,0E0,0E0,0E0,0E0,0E0,0E0,1.5221087E1,5.405014E0,3.4517288E0,0E0,2.0026627E0,0E0,0E0,7.6675415E-4,1.4793205E-1,2.705838E1,8.175659E-1,1.9506943E0,0E0,0E0,0E0,0E0,4.1120148E-1,0E0,6.3883114E-1,0E0,3.1310425E0,9.449351E0,6.1189556E-1,0E0,2.9131765E0,0E0,6.7014704E0,4.3265533E0,0E0,1.18821144E-1,0E0,3.018209E0,0E0,0E0,8.8500977E-4,0E0,3.9756393E-1,8.127022E-2,5.719147E-1,2.45985E0,0E0,0E0,2.2860372E0,0E0,0E0,0E0,1.8670161E0,1.9854736E-1,0E0,4.241166E0,0E0,0E0,0E0,0E0,0E0,0E0,0E0,0E0,0E0,0E0,0E0,0E0,0E0,0E0,0E0,0E0,0E0,0E0,0E0,0E0,0E0,0E0,0E0,0E0,0E0,0E0,0E0,0E0,0E0,0E0],"parents":[2147483647,0,0,1,1,2,2,3,3,4,4,5,5,6,6,7,7,8,8,9,9,10,10,11,11,12,12,13,13,14,14,15,15,16,16,17,17,18,18,19,19,20,20,22,22,23,23,24,24,25,25,27,27,28,28,29,29,30,30,31,31,32,32,33,33,34,34,35,35,36,36,37,37,38,38,39,39,40,40,41,41,45,45,46,46,47,47,48,48,49,49,50,50,59,59,60,60,63,63,64,64,65,65,67,67,69,69,71,71,72,72,81,81,83,83,87,87,89,89,90,90,91,91,92,92,93,93,95,95,99,99,100,100,101,101,103,103,104,104,107,107,109,109,113,113,114,114,