{"learner":{"attributes":{"best_iteration":"99","best_ntree_limit":"100","scikit_learn":"{\"n_estimators\": 100, \"objective\": \"binary:logistic\", \"max_depth\": 10, \"max_leaves\": null, \"max_bin\": null, \"grow_policy\": null, \"learning_rate\": 0.05, \"verbosity\": null, \"booster\": null, \"tree_method\": null, \"gamma\": null, \"min_child_weight\": null, \"max_delta_step\": null, \"subsample\": null, \"sampling_method\": null, \"colsample_bytree\": null, \"colsample_bylevel\": null, \"colsample_bynode\": null, \"reg_alpha\": null, \"reg_lambda\": null, \"scale_pos_weight\": null, \"base_score\": null, \"missing\": NaN, \"num_parallel_tree\": null, \"random_state\": null, \"n_jobs\": null, \"monotone_constraints\": null, \"interaction_constraints\": null, \"importance_type\": null, \"gpu_id\": null, \"validate_parameters\": null, \"predictor\": null, \"enable_categorical\": false, \"feature_types\": null, \"max_cat_to_onehot\": null, \"max_cat_threshold\": null, \"eval_metric\": null, \"early_stopping_rounds\": null, \"callbacks\": null, \"_estimator_type\": \"regressor\"}"},"feature_names":[],"feature_types":[],"gradient_booster":{"model":{"gbtree_model_param":{"num_parallel_tree":"1","num_trees":"100","size_leaf_vector":"0"},"tree_info":[0,0,0,0,0,0,0,0,0,0,0,0,0,0,0,0,0,0,0,0,0,0,0,0,0,0,0,0,0,0,0,0,0,0,0,0,0,0,0,0,0,0,0,0,0,0,0,0,0,0,0,0,0,0,0,0,0,0,0,0,0,0,0,0,0,0,0,0,0,0,0,0,0,0,0,0,0,0,0,0,0,0,0,0,0,0,0,0,0,0,0,0,0,0,0,0,0,0,0,0],"trees":[{"base_weights":[-1.9179302E0,-1.9625787E0,6.2940776E-1,-1.9770646E0,-1.1841413E0,1.7397786E0,-1.3239329E0,-1.7406929E0,-1.9965994E0,3.2494438E-1,-1.7613313E0,1.7979637E0,-1.3865007E0,-1.8168249E0,8.470851E-1,-3.8128716E-1,-1.9738599E0,-1.8770483E0,-1.9978744E0,-1.3355291E0,1.5604421E0,-7.5446796E-1,-1.9795672E0,1.9296974E0,3.9452827E-1,-1.6393422E0,-1.0702049E-1,-1.9316335E0,2.8963035E-1,1.5474517E0,-1.6036509E0,-1.0099177E0,1.1908603E0,-1.6625574E0,-1.9873707E0,-1.9746149E0,-1.188669E0,6.076502E-1,-1.722314E0,1.7964317E0,-1.4783456E0,8.846832E-1,-1.7980464E0,7.586465E-1,1.9470259E0,1.8842138E0,-1.8270841E0,1.4920113E0,-1.5109407E0,-5.862302E-1,1.8253576E0,-5.165201E-1,-1.7243843E0,7.747697E-1,-1.2666714E0,-1.2241577E0,1.6820084E0,-1.8426216E0,-4.3064123E-1,-3.3952743E-1,-1.9797562E0,7.9321164E-1,-1.860462E0,-3.2524687E-1,1.1073114E0,-1.8123169E0,-2.8694448E-1,1.8459139E0,-1.0304744E0,-1.6284727E0,-4.3457714E-1,-1.5781128E0,1.6025037E0,-4.0367374E-1,-1.9465854E0,1.435798E0,-1.0879698E0,-1.2136939E0,4.7804767E-1,1.8831663E0,3.18349E-1,-1.7920618E0,1.8645381E0,-1.5312272E0,-3.3059455E-2,-1.6209072E0,-1.30637E-2,1.8518636E0,-1.0891368E0,-1.8895743E0,-5.276713E-2,1.3219653E0,-1.5368774E0,-1.1475846E0,1.7132483E0,-4.3457523E-1,-1.9022566E0,5.333061E-1,-1.182403E0,1.6349382E0,-7.806795E-2,-1.8939598E0,1.5713784E-1,1.1693926E0,-1.3436236E0,7.056114E-1,1.9679102E0,1.8412992E0,-9.531891E-1,-1.2510493E0,7.9932415E-1,-9.7737104E-1,-1.8664967E0,1.2738302E0,-9.673322E-1,-1.788205E0,-8.4654826E-1,1.1243412E0,-1.3026121E0,-6.5642023E-1,1.9345739E0,-1.4976876E0,1.1648682E-1,-1.9163277E0,-6.300905E-1,-1.708154E0,-2.863128E-1,-1.3417323E0,-3.0689153E-1,-8.923671E-2,8.8355E-1,-1.1004543E0,1.0158348E0,1.2961942E0,-2.5279984E-1,1.9014826E0,3.257105E-1,-1.9243033E0,1.387649E-1,-5.7674684E-2,-1.888182E0,-8.5731924E-1,1.6984519E0,-4.2108688E-1,-1.7409519E0,2.793235E-1,-1.3424687E0,4.633758E-1,1.5298645E0,4.5397046E-1,-1.1218904E0,-9.7024274E-1,9.793798E-1,-1.6453229E-1,-1.9084868E0,-1.0886889E0,-2.2605133E-1,1.7800674E0,4.281028E-1,-1.2620832E0,4.3681714E-1,-3.301851E-1,1.0304744E0],"categories":[],"categories_nodes":[],"categories_segments":[],"categories_sizes":[],"default_left":[1,1,1,1,1,1,1,1,1,1,1,1,1,1,1,1,1,1,0,1,1,1,0,1,1,0,0,0,1,1,1,1,1,1,0,1,1,1,1,1,1,1,1,1,0,0,0,0,0,1,1,0,0,1,1,1,1,1,1,0,0,1,1,1,1,1,1,1,0,0,0,0,1,1,0,0,0,0,0,0,0,0,0,1,1,1,1,1,1,1,0,0,1,1,0,0,0,1,0,0,1,0,0,0,0,1,0,1,0,0,0,1,1,1,1,0,1,0,0,0,0,0,0,0,0,0,0,0,0,0,0,0,0,1,1,0,0,0,1,0,1,1,1,1,0,0,0,0,0,1,0,0,0,0,0,0,0,0,0,0,0,0,0],"id":0,"left_children":[1,3,5,7,9,11,13,15,17,19,21,23,25,27,29,31,33,35,-1,37,39,41,-1,43,45,-1,-1,-1,47,49,51,53,55,57,-1,59,61,63,65,67,69,71,73,75,-1,-1,-1,-1,-1,77,79,-1,-1,81,83,85,87,89,91,-1,-1,93,95,97,99,101,103,105,-1,-1,-1,-1,107,109,-1,-1,-1,-1,-1,-1,-1,-1,-1,111,113,115,117,119,121,123,-1,-1,125,127,-1,-1,-1,129,-1,-1,131,-1,-1,-1,-1,133,-1,135,-1,-1,-1,137,139,141,143,-1,145,-1,-1,-1,-1,-1,-1,-1,-1,-1,-1,-1,-1,-1,-1,-1,-1,147,149,-1,-1,-1,151,-1,153,155,157,159,-1,-1,-1,-1,-1,161,-1,-1,-1,-1,-1,-1,-1,-1,-1,-1,-1,-1,-1],"loss_changes":[3.4832969E3,3.3695312E2,1.1477797E3,1.3291406E2,4.8153943E2,6.382196E1,2.069682E2,7.1640674E2,4.0625E-1,3.172194E2,8.6305786E1,6.051306E1,2.000103E0,3.847339E1,6.462009E1,3.2981036E2,4.8183594E0,1.8094727E1,0E0,5.070688E1,6.614821E1,1.2611153E2,0E0,4.6661377E0,1.0172505E2,0E0,0E0,0E0,2.167982E1,1.8067375E1,2.2989082E-1,1.10068405E2,1.1525589E2,1.838147E1,0E0,1.5561523E0,5.5125946E1,5.817493E0,6.632538E0,1.3457672E1,3.780384E-1,5.377375E1,8.494629E0,9.130641E0,0E0,0E0,0E0,0E0,0E0,3.2915902E0,1.6311417E0,0E0,0E0,8.883102E1,6.7996E1,8.006681E0,3.954367E1,6.2127686E0,2.59344E1,0E0,0E0,2.1433062E1,9.846115E-1,4.2045383E0,5.0380898E0,8.644455E0,8.426798E0,9.955536E0,0E0,0E0,0E0,0E0,1.5755909E1,6.683412E0,0E0,0E0,0E0,0E0,0E0,0E0,0E0,0E0,0E0,3.0051758E1,4.743538E1,1.1545944E-1,8.990107E0,1.6931519E1,2.7526155E0,1.257843E0,0E0,0E0,1.2288513E0,2.5824213E-1,0E0,0E0,0E0,7.581388E-1,0E0,0E0,4.8898764E0,0E0,0E0,0E0,0E0,5.6709776E0,0E0,1.325531E0,0E0,0E0,0E0,7.089894E1,4.042389E0,1.6121683E1,8.831905E0,0E0,2.6828237E0,0E0,0E0,0E0,0E0,0E0,0E0,0E0,0E0,0E0,0E0,0E0,0E0,0E0,0E0,0E0,0E0,4.595251E-1,3.234115E0,0E0,0E0,0E0,3.0415554E1,0E0,3.3449707E0,2.4422598E-1,6.7383575E-1,1.107493E1,0E0,0E0,0E0,0E0,0E0,1.7680583E0,0E0,0E0,0E0,0E0,0E0,0E0,0E0,0E0,0E0,0E0,0E0,0E0,0E0],"parents":[2147483647,0,0,1,1,2,2,3,3,4,4,5,5,6,6,7,7,8,8,9,9,10,10,11,11,12,12,13,13,14,14,15,15,16,16,17,17,19,19,20,20,21,21,23,23,24,24,28,28,29,29,30,30,31,31,32,32,33,33,35,35,36,36,37,37,38,38,39,39,40,40,41,41,42,42,43,43,49,49,50,50,53,53,54,54,55,55,56,56,57,57,58,58,61,61,62,62,63,63,64,64,65,65,66,66,67,67,72,72,73,73,83,83,84,84,85,85,86,86,87,87,88,88,89,89,92,92,93,93,97,97,100,100,105,105,107,107,111,111,112,112,113,113,114,114,116,116,133,133,134,134,138,138,140,140,141,141,142,142,143,143,149,149],"right_children":[2,4,6,8,10,12,14,16,18,20,22,24,26,28,30,32,34,36,-1,38,40,42,-1,44,46,-1,-1,-1,48,50,52,54,56,58,-1,60,62,64,66,68,70,72,74,76,-1,-1,-1,-1,-1,78,80,-1,-1,82,84,86,88,90,92,-1,-1,94,96,98,100,102,104,106,-1,-1,-1,-1,108,110,-1,-1,-1,-1,-1,-1,-1,-1,-1,112,114,116,118,120,122,124,-1,-1,126,128,-1,-1,-1,130,-1,-1,132,-1,-1,-1,-1,134,-1,136,-1,-1,-1,138,140,142,144,-1,146,-1,-1,-1,-1,-1,-1,-1,-1,-1,-1,-1,-1,-1,-1,-1,-1,148,150,-1,-1,-1,152,-1,154,156,158,160,-1,-1,-1,-1,-1,162,-1,-1,-1,-1,-1,-1,-1,-1,-1,-1,-1,-1,-1],"split_conditions":[1.5704075E-1,5.5855952E-2,5.509373E-1,5.288701E-1,7.1873134E-1,2.1617165E0,4.2445153E-1,2.786157E-1,6.194843E-1,6.166314E-1,1.5857356E0,1.4760244E1,2.387254E1,1.0224484E2,1.5369393E0,1.7763695E-2,3.929631E-1,3.2085707E0,-9.989372E-2,2.0493282E-1,7.562086E-1,8.365809E-1,-9.897836E-2,3.2464933E-1,4.925579E-1,-8.196711E-2,-5.3510247E-3,-9.6581675E-2,1.1018071E0,8.115288E-1,2.1318514E-2,1.0943889E-3,7.264172E-2,1.3370893E0,-9.9368535E-2,1.6945068E-2,1.6290498E0,1.4843021E1,8.238732E0,1.9347176E1,1.3605745E0,1.5099732E1,1.1513236E0,1.0819282E-1,9.73513E-2,9.421069E-2,-9.1354206E-2,7.460057E-2,-7.554703E-2,7.971947E1,3.493238E0,-2.5826005E-2,-8.6219214E-2,3.8099892E-2,1.1721425E0,1.0493953E1,1.2155909E1,1.2513922E2,1.3113487E0,-1.6976371E-2,-9.898781E-2,7.0521297E0,3.4025135E0,8.76956E0,1.2050742E-1,5.0926536E-1,6.4497745E-1,7.6214895E0,-5.1523723E-2,-8.142363E-2,-2.1728856E-2,-7.890564E-2,2.0100827E0,2.7895145E0,-9.7329274E-2,7.1789905E-2,-5.439849E-2,-6.0684692E-2,2.3902385E-2,9.4158314E-2,1.591745E-2,-8.960309E-2,9.32269E-2,8.326389E-2,2.1076596E-1,3.4834534E-2,1.2795885E-1,1.4139881E0,1.3789124E0,3.869874E-1,-2.6383565E-3,6.6098265E-2,9.535577E-3,3.6863647E-3,8.566242E-2,-2.1728761E-2,-9.511283E-2,3.8058457E0,-5.912015E-2,8.174691E-2,2.925948E-1,-9.469799E-2,7.856892E-3,5.846963E-2,-6.7181185E-2,2.2678512E-1,9.839551E-2,1.3445488E-1,-4.7659453E-2,-6.255247E-2,3.9966207E-2,1.3847515E-1,3.9749257E-2,1.2760927E1,1.7442822E1,-8.941025E-2,1.417906E-1,5.6217063E-2,-6.513061E-2,-3.282101E-2,9.67287E-2,-7.488438E-2,5.824341E-3,-9.581639E-2,-3.1504523E-2,-8.54077E-2,-1.431564E-2,-6.7086615E-2,-1.5344577E-2,-4.4618356E-3,4.41775E-2,-5.5022717E-2,5.079174E-2,1.3928866E-1,1.0380159E-1,9.507413E-2,1.6285526E-2,-9.6215166E-2,4.9421573E-1,-2.8837342E-3,4.747015E-3,4.5180507E-3,3.4867287E-1,3.1674867E-3,-8.70476E-2,1.3966175E-2,-6.7123435E-2,2.3168791E-2,7.6493226E-2,8.22071E-2,-5.6094524E-2,-4.851214E-2,4.896899E-2,-8.226614E-3,-9.542435E-2,-5.4434445E-2,-1.1302567E-2,8.900338E-2,2.140514E-2,-6.310416E-2,2.1840857E-2,-1.6509255E-2,5.1523723E-2],"split_indices":[4,4,1,3,3,3,4,1,3,2,0,0,5,5,1,4,1,2,0,1,1,1,0,2,3,0,0,0,1,2,0,0,3,2,0,1,0,5,0,0,2,5,3,3,0,0,0,0,0,5,0,0,0,3,2,5,0,5,0,0,0,5,2,5,1,2,1,5,0,0,0,0,3,2,0,0,0,0,0,0,0,0,0,3,0,4,1,5,2,1,0,0,4,4,0,0,0,5,0,0,2,0,0,0,0,0,0,4,0,0,0,2,0,5,0,0,2,0,0,0,0,0,0,0,0,0,0,0,0,0,0,0,0,3,4,0,0,0,0,0,1,4,3,4,0,0,0,0,0,4,0,0,0,0,0,0,0,0,0,0,0,0,0],"split_type":[0,0,0,0,0,0,0,0,0,0,0,0,0,0,0,0,0,0,0,0,0,0,0,0,0,0,0,0,0,0,0,0,0,0,0,0,0,0,0,0,0,0,0,0,0,0,0,0,0,0,0,0,0,0,0,0,0,0,0,0,0,0,0,0,0,0,0,0,0,0,0,0,0,0,0,0,0,0,0,0,0,0,0,0,0,0,0,0,0,0,0,0,0,0,0,0,0,0,0,0,0,0,0,0,0,0,0,0,0,0,0,0,0,0,0,0,0,0,0,0,0,0,0,0,0,0,0,0,0,0,0,0,0,0,0,0,0,0,0,0,0,0,0,0,0,0,0,0,0,0,0,0,0,0,0,0,0,0,0,0,0,0,0],"sum_hessian":[3.0614664E4,3.0087535E4,5.2712915E2,2.9536352E4,5.5118256E2,3.3615317E2,1.9097597E2,2.261555E3,2.7274797E4,1.5261133E2,3.9857123E2,3.3042825E2,5.7249126E0,1.5577345E2,3.5202522E1,3.3149792E2,1.9300569E3,3.033623E2,2.6971436E4,6.507348E1,8.753786E1,7.179439E1,3.2677682E2,3.0173123E2,2.8697031E1,4.545423E0,1.1794896E0,1.4780083E2,7.972623E0,2.7665037E1,7.5374846E0,2.3706427E2,9.443365E1,8.5442276E1,1.8446146E3,2.6406662E2,3.9295673E1,1.0707709E1,5.4365772E1,8.160901E1,5.9288497E0,2.7987156E1,4.380723E1,5.052703E0,2.9667853E2,1.7269182E1,1.142785E1,4.8831396E0,3.0894835E0,3.060204E0,2.4604834E1,1.2810045E0,6.25648E0,2.9562016E1,2.0750226E2,1.5707257E1,7.8726395E1,7.4113655E1,1.1328627E1,1.0378683E0,2.6302875E2,9.902175E0,2.9393497E1,3.8564856E0,6.8512235E0,5.0910862E1,3.4549084E0,8.054614E1,1.0628647E0,4.6935787E0,1.235271E0,6.0458283E0,2.1941326E1,4.5753074E0,3.9231926E1,3.8597932E0,1.1929098E0,1.8368596E0,1.2233444E0,2.3455479E1,1.1493547E0,8.61824E0,2.0943775E1,1.7066156E2,3.68407E1,1.1576469E1,4.130788E0,7.449218E1,4.2342095E0,7.2164856E1,1.9487953E0,4.3081794E0,7.020447E0,3.1049755E0,6.7971992E0,1.1616014E0,2.8231895E1,2.1154287E0,1.741057E0,4.478524E0,2.372699E0,4.892119E1,1.9896721E0,1.4078764E0,2.047032E0,8.440105E0,7.210603E1,2.0322033E1,1.6192933E0,2.6609952E0,1.9143124E0,6.5828995E1,1.0483256E2,1.5206263E1,2.1634436E1,8.443094E0,3.1333752E0,2.2629433E0,1.8678445E0,2.1565297E0,7.2335655E1,2.9815855E0,1.2526238E0,7.0153175E1,2.0116801E0,5.8529277E0,1.1675191E0,2.0382771E0,1.0666983E0,1.0299516E0,1.0854771E0,1.2233444E0,1.1493547E0,5.004092E0,3.4360132E0,1.9300982E1,1.0210509E0,3.5222267E1,3.0606728E1,1.2852638E0,1.03547295E2,2.3571012E0,1.2849161E1,1.3585884E1,8.0485525E0,1.0916946E0,2.0416803E0,1.7499988E0,3.2540934E0,2.158393E0,1.2776202E0,1.3130153E1,1.7476574E1,1.3115889E0,1.0223571E2,1.19464E0,1.162461E0,1.1696461E1,1.1527008E0,6.6226397E0,6.9632444E0,1.0955282E0,1.0628647E0],"tree_param":{"num_deleted":"0","num_feature":"6","num_nodes":"163","size_leaf_vector":"0"}},{"base_weights":[-1.8266762E0,-1.8692031E0,5.991215E-1,-1.8829985E0,-1.1280127E0,1.6567682E0,-1.2612629E0,-1.6579678E0,-1.901598E0,-4.741322E-2,-1.8628913E0,1.712468E0,-1.3317028E0,-1.7305986E0,8.05156E-1,-3.642547E-1,-1.8799819E0,-1.7882822E0,-1.9028063E0,1.0444486E0,-1.8760102E0,-7.383814E-1,-1.8686908E0,1.8379636E0,3.7569925E-1,-1.5743588E0,-1.04124986E-1,-1.8400309E0,2.7539346E-1,1.4754636E0,-1.5387632E0,-9.624304E-1,1.1320591E0,-1.5846229E0,-1.8928002E0,-1.8809705E0,-1.1343129E0,-5.81158E-1,1.653448E0,-4.467554E-2,-1.0662609E0,-1.8726608E0,-6.5693396E-1,7.2430474E-1,1.8544503E0,1.7989932E0,-1.7464852E0,1.4317719E0,-1.4554616E0,-5.662461E-1,1.7419891E0,-5.0206417E-1,-1.6527376E0,7.376929E-1,-1.2069495E0,-1.1736637E0,1.6013994E0,-1.7560594E0,-4.1236866E-1,-3.3089387E-1,-1.8858211E0,7.549007E-1,-1.775081E0,-1.1070398E-1,-1.6936167E0,1.8281364E0,-1.3506017E0,1.3802161E0,-1.0588111E0,-1.1751128E0,4.649331E-1,1.7967387E0,3.0984798E-1,-1.7149085E0,1.7793086E0,-1.4587235E0,-3.3655908E-2,-1.553614E0,-1.4160018E-2,1.7641506E0,-1.0487326E0,-1.8008755E0,-5.10236E-2,1.2694633E0,-1.474476E0,-1.1109359E0,1.6412392E0,-4.2292598E-1,-1.8144238E0,1.6966736E-1,-1.4995282E0,-1.1019751E0,1.8801802E0,-3.151235E-1,-1.5153899E0,-9.313616E-1,-1.7781533E0,9.3916523E-1,-1.1819186E0,-1.7113702E0,-8.1755877E-1,1.0859581E0,-1.2610776E0,-6.341156E-1,1.8434852E0,-1.4431506E0,1.1324864E-1,-1.8260561E0,-6.0914946E-1,-1.6378013E0,-2.786096E-1,-1.2977217E0,-2.989809E-1,-6.96244E-1,7.4204355E-1,-1.8349395E0,1.3191849E-1,-5.6053028E-2,-1.798834E0,-1.0161887E0,1.5425811E0,-1.3289983E0,3.089939E-1,2.792564E-1,-1.3032724E0,7.8243196E-1,-1.1103724E0,-4.2180455E-1,1.1733499E0,-9.2567855E-1,9.335995E-1,-1.5986615E-1,-1.8181512E0,-1.4405514E0,-4.2992886E-2,1.6818897E0,4.739017E-1,-1.4889714E0,2.4714125E-3,-1.5561368E0,-1.3215908E-1,1.1270834E0,-1.3521193E0,1.5673047E0,3.420504E-1],"categories":[],"categories_nodes":[],"categories_segments":[],"categories_sizes":[],"default_left":[1,1,1,1,1,1,1,1,1,1,1,1,1,1,1,1,1,1,0,1,0,1,1,1,1,0,0,0,1,1,1,1,1,1,0,1,1,1,1,0,0,0,0,1,0,0,0,0,0,1,1,0,0,1,1,1,1,1,1,0,0,1,1,1,0,1,1,0,0,0,0,0,0,0,0,1,1,1,1,1,1,1,0,0,1,1,0,0,0,1,0,0,0,0,0,1,1,1,1,0,1,0,0,0,0,0,0,0,0,0,0,0,0,1,1,0,1,0,1,1,1,1,0,0,0,0,1,1,1,0,0,0,0,0,0,0,0,0,0,0,0,0,0,0,0],"id":1,"left_children":[1,3,5,7,9,11,13,15,17,19,21,23,25,27,29,31,33,35,-1,37,-1,39,41,43,45,-1,-1,-1,47,49,51,53,55,57,-1,59,61,63,65,-1,-1,-1,-1,67,-1,-1,-1,-1,-1,69,71,-1,-1,73,75,77,79,81,83,-1,-1,85,87,89,-1,91,93,-1,-1,-1,-1,-1,-1,-1,-1,95,97,99,101,103,105,107,-1,-1,109,111,-1,-1,-1,113,-1,-1,-1,-1,-1,115,117,119,121,-1,123,-1,-1,-1,-1,-1,-1,-1,-1,-1,-1,-1,-1,125,127,-1,129,-1,131,133,135,137,-1,-1,-1,-1,139,141,143,-1,-1,-1,-1,-1,-1,-1,-1,-1,-1,-1,-1,-1,-1,-1,-1],"loss_changes":[3.151664E3,3.0476562E2,1.038894E3,1.2017969E2,4.3740216E2,5.8272766E1,1.8717188E2,6.476323E2,3.28125E-1,4.4925253E2,7.585449E-1,5.4780212E1,1.8370075E0,3.484369E1,5.9046684E1,2.9812338E2,4.293457E0,1.6273865E1,0E0,1.4046602E2,0E0,7.1105886E-1,3.3581543E-1,4.2021484E0,9.2654076E1,0E0,0E0,0E0,2.0020403E1,1.6555687E1,1.7758942E-1,9.967311E1,1.0494197E2,1.6612396E1,0E0,1.3643799E0,5.002459E1,2.0298775E1,5.6400787E1,0E0,0E0,0E0,0E0,8.533581E0,0E0,0E0,0E0,0E0,0E0,3.09438E0,1.4468613E0,0E0,0E0,8.096694E1,6.143161E1,7.328327E0,3.6162155E1,5.6354523E0,2.38667E1,0E0,0E0,1.9828432E1,8.460846E-1,1.1383015E1,0E0,1.694748E1,5.843172E-1,0E0,0E0,0E0,0E0,0E0,0E0,0E0,0E0,2.720523E1,4.3327812E1,5.8969498E-2,8.402503E0,1.5500305E1,2.5603871E0,1.0784149E0,0E0,0E0,1.1081123E0,2.3421669E-1,0E0,0E0,0E0,1.2747564E1,0E0,0E0,0E0,0E0,0E0,6.435277E1,3.6600037E0,2.6365551E1,4.308779E0,0E0,2.5647008E0,0E0,0E0,0E0,0E0,0E0,0E0,0E0,0E0,0E0,0E0,0E0,0E0,7.198509E0,8.195777E0,0E0,2.7646723E1,0E0,3.011963E0,2.2339444E0,1.6531525E0,3.490282E0,0E0,0E0,0E0,0E0,3.4957285E0,8.560963E0,3.2161798E0,0E0,0E0,0E0,0E0,0E0,0E0,0E0,0E0,0E0,0E0,0E0,0E0,0E0,0E0,0E0,0E0],"parents":[2147483647,0,0,1,1,2,2,3,3,4,4,5,5,6,6,7,7,8,8,9,9,10,10,11,11,12,12,13,13,14,14,15,15,16,16,17,17,19,19,21,21,22,22,23,23,24,24,28,28,29,29,30,30,31,31,32,32,33,33,35,35,36,36,37,37,38,38,43,43,49,49,50,50,53,53,54,54,55,55,56,56,57,57,58,58,61,61,62,62,63,63,65,65,66,66,75,75,76,76,77,77,78,78,79,79,80,80,81,81,84,84,85,85,89,89,95,95,96,96,97,97,98,98,100,100,113,113,114,114,116,116,118,118,119,119,120,120,121,121,126,126,127,127,128,128],"right_children":[2,4,6,8,10,12,14,16,18,20,22,24,26,28,30,32,34,36,-1,38,-1,40,42,44,46,-1,-1,-1,48,50,52,54,56,58,-1,60,62,64,66,-1,-1,-1,-1,68,-1,-1,-1,-1,-1,70,72,-1,-1,74,76,78,80,82,84,-1,-1,86,88,90,-1,92,94,-1,-1,-1,-1,-1,-1,-1,-1,96,98,100,102,104,106,108,-1,-1,110,112,-1,-1,-1,114,-1,-1,-1,-1,-1,116,118,120,122,-1,124,-1,-1,-1,-1,-1,-1,-1,-1,-1,-1,-1,-1,126,128,-1,130,-1,132,134,136,138,-1,-1,-1,-1,140,142,144,-1,-1,-1,-1,-1,-1,-1,-1,-1,-1,-1,-1,-1,-1,-1,-1],"split_conditions":[1.5704075E-1,5.5855952E-2,5.509373E-1,5.288701E-1,7.16012E-1,2.1617165E0,4.2445153E-1,2.786157E-1,6.195941E-1,1.8151152E0,7.301748E-1,1.4760244E1,2.387254E1,1.0224484E2,1.5369393E0,1.7763695E-2,3.929631E-1,3.2085707E0,-9.5140316E-2,1.8398876E1,-9.380051E-2,1.2568238E-1,1.5557438E-1,3.2464933E-1,4.925579E-1,-7.871794E-2,-5.206249E-3,-9.200155E-2,1.1018071E0,8.115288E-1,2.1318514E-2,1.0943889E-3,7.264172E-2,1.3370893E0,-9.464001E-2,1.6945068E-2,1.6290498E0,1.4437386E-1,1.434995E1,-2.233777E-3,-5.3313047E-2,-9.363304E-2,-3.28467E-2,1.0819282E-1,9.272252E-2,8.994966E-2,-8.732426E-2,7.15886E-2,-7.2773084E-2,7.971947E1,3.493238E0,-2.510321E-2,-8.2636885E-2,3.8099892E-2,1.1721425E0,1.0493953E1,1.2155909E1,1.2513922E2,1.3113487E0,-1.6544694E-2,-9.429105E-2,7.0521297E0,3.4025135E0,9.43246E-1,-8.468084E-2,1.7308211E-1,2.5444736E1,6.901081E-2,-5.2940555E-2,-5.8755644E-2,2.3246655E-2,8.983694E-2,1.5492399E-2,-8.5745424E-2,8.896543E-2,8.326389E-2,7.1262443E-1,3.4834534E-2,1.2795885E-1,1.4139881E0,1.3789124E0,3.869874E-1,-2.55118E-3,6.3473165E-2,9.535577E-3,3.6863647E-3,8.206196E-2,-2.11463E-2,-9.072119E-2,7.607846E-2,-7.497641E-2,-5.5098753E-2,9.400901E-2,-1.5756175E-2,-7.57695E-2,1.3847515E-1,3.9749257E-2,1.2773641E1,2.2798699E-1,-8.556851E-2,3.8895514E-2,5.4297905E-2,-6.305388E-2,-3.1705778E-2,9.217426E-2,-7.215753E-2,5.662432E-3,-9.1302805E-2,-3.0457472E-2,-8.189007E-2,-1.393048E-2,-6.4886086E-2,-1.4949045E-2,3.781066E-2,4.5877725E-1,-9.174698E-2,4.9421573E-1,-2.8026514E-3,4.747015E-3,5.062933E-3,2.366238E-1,4.793097E0,1.5449695E-2,1.396282E-2,-6.516362E-2,3.9121598E-2,8.7132506E-2,6.958617E-2,2.2678512E-1,-4.6283927E-2,4.6679974E-2,-7.993308E-3,-9.0907566E-2,-7.202757E-2,-2.1496443E-3,8.409449E-2,2.3695085E-2,-7.444857E-2,1.2357063E-4,-7.7806845E-2,-6.6079544E-3,5.6354173E-2,-6.7605965E-2,7.836524E-2,1.710252E-2],"split_indices":[4,4,1,3,1,3,4,1,3,3,1,0,5,5,1,4,1,2,0,5,0,4,4,2,3,0,0,0,1,2,0,0,3,2,0,1,0,4,0,0,0,0,0,3,0,0,0,0,0,5,0,0,0,3,2,5,0,5,0,0,0,5,2,3,0,2,0,0,0,0,0,0,0,0,0,3,0,4,1,5,2,1,0,0,4,4,0,0,0,3,0,0,0,0,0,2,0,5,1,0,4,0,0,0,0,0,0,0,0,0,0,0,0,1,2,0,0,0,1,4,1,2,0,0,0,0,4,4,0,0,0,0,0,0,0,0,0,0,0,0,0,0,0,0,0],"split_type":[0,0,0,0,0,0,0,0,0,0,0,0,0,0,0,0,0,0,0,0,0,0,0,0,0,0,0,0,0,0,0,0,0,0,0,0,0,0,0,0,0,0,0,0,0,0,0,0,0,0,0,0,0,0,0,0,0,0,0,0,0,0,0,0,0,0,0,0,0,0,0,0,0,0,0,0,0,0,0,0,0,0,0,0,0,0,0,0,0,0,0,0,0,0,0,0,0,0,0,0,0,0,0,0,0,0,0,0,0,0,0,0,0,0,0,0,0,0,0,0,0,0,0,0,0,0,0,0,0,0,0,0,0,0,0,0,0,0,0,0,0,0,0,0,0],"sum_hessian":[3.0538945E4,3.0013014E4,5.259307E2,2.9463096E4,5.4991956E2,3.353758E2,1.9055496E2,2.2561938E3,2.72069E4,2.230302E2,3.2688937E2,3.296585E2,5.7172775E0,1.5541812E2,3.513685E1,3.308597E2,1.9253341E3,3.026774E2,2.6904223E4,1.3991518E2,8.311503E1,2.3356254E0,3.2455374E2,3.0102356E2,2.863496E1,4.5377965E0,1.1794813E0,1.4745668E2,7.961431E0,2.7611189E1,7.5256586E0,2.3662273E2,9.423698E1,8.526559E1,1.8400686E3,2.6346042E2,3.9216976E1,3.814368E1,1.0177149E2,1.1143062E0,1.2213192E0,3.2295032E2,1.6034415E0,5.046852E0,2.9597668E2,1.723092E1,1.1404039E1,4.876352E0,3.0850792E0,3.058339E0,2.4552849E1,1.2807909E0,6.2448673E0,2.94993E1,2.0712343E2,1.5684288E1,7.855269E1,7.3952385E1,1.1313204E1,1.0377934E0,2.6242264E2,9.887366E0,2.9329609E1,2.7579811E1,1.056387E1,9.654854E1,5.2229514E0,3.8548243E0,1.1920277E0,1.8351694E0,1.2231698E0,2.3403568E1,1.1492817E0,8.6009655E0,2.0898335E1,1.7032956E2,3.6793865E1,1.1557266E1,4.1270213E0,7.432266E1,4.230023E0,7.200359E1,1.948792E0,4.3034773E0,7.0097265E0,3.1026208E0,6.784745E0,1.1614643E0,2.8168146E1,2.3677671E1,3.9021385E0,1.3328682E0,9.5215675E1,1.116913E0,4.106038E0,6.572941E1,1.0460015E2,2.0017183E1,1.6776684E1,8.426243E0,3.1310236E0,2.2611566E0,1.865865E0,2.155949E0,7.216671E1,2.9774096E0,1.2526133E0,6.999241E1,2.0111809E0,5.8422675E0,1.1674592E0,2.0359852E0,1.0666354E0,9.336567E0,1.4341105E1,3.5140877E1,3.0588533E1,1.2852609E0,1.0331489E2,4.559188E0,1.5457994E1,1.5369109E1,1.407574E0,1.0914416E0,2.039582E0,1.8481755E0,7.4883914E0,3.8835804E0,1.0457524E1,1.3122431E1,1.7466103E1,1.3115666E0,1.0200333E2,2.8404014E0,1.7187861E0,1.3167706E1,2.2902896E0,1.3615006E1,1.7541021E0,4.7383614E0,2.75003E0,1.3779364E0,2.505644E0,6.4944305E0,3.963094E0],"tree_param":{"num_deleted":"0","num_feature":"6","num_nodes":"145","size_leaf_vector":"0"}},{"base_weights":[-1.747782E0,-1.7884858E0,5.727033E-1,-1.80169E0,-1.0794518E0,1.5844989E0,-1.2064879E0,-1.5861201E0,-1.8195133E0,-4.6518553E-2,-1.7823036E0,1.638098E0,-1.2818487E0,-1.6554351E0,7.678928E-1,-3.490624E-1,-1.7987257E0,-1.7112291E0,-1.8206676E0,9.9670696E-1,-1.7955205E0,-7.1877325E-1,-1.7877522E0,1.758213E0,3.5917246E-1,-1.515902E0,-1.013087E-1,-1.7603246E0,2.624439E-1,1.4117842E0,-1.4804026E0,-9.2010325E-1,1.0802883E0,-1.5161252E0,-1.810999E0,-1.7998642E0,-1.0864428E0,-5.5723226E-1,1.580446E0,-4.3498617E-2,-1.0383549E0,-1.7914957E0,-6.373002E-1,6.927157E-1,1.7740325E0,1.7243667E0,-1.6754502E0,1.3769714E0,-1.4049102E0,-3.768879E-1,1.6998547E0,-4.8810226E-1,-1.5888613E0,7.0508856E-1,-1.1536506E0,-1.1281793E0,1.5308478E0,-1.6802748E0,-3.958379E-1,-3.2250318E-1,-1.8044913E0,7.202305E-1,-1.7002887E0,-1.0674525E-1,-1.6248376E0,1.7486033E0,-1.3022546E0,1.3293699E0,-1.0312477E0,7.0939445E-1,-1.2435887E0,1.7551054E0,2.5937143E-1,-1.646629E0,1.7045542E0,-1.3946844E0,-3.2736264E-2,-1.4933605E0,-1.5198767E-2,1.6876289E0,-1.0113871E0,-1.7234024E0,-4.933775E-2,1.2210985E0,-1.4182134E0,-1.076664E0,1.5769999E0,-6.9227684E-1,-1.7678894E0,1.6316414E-1,-1.4454819E0,-1.0722466E0,1.7990412E0,-3.0692503E-1,-1.4603374E0,-8.9002204E-1,-1.7009281E0,1.1647942E0,-8.8711005E-1,-1.6433438E0,-7.902989E-1,1.0499929E0,-1.2225007E0,-6.127865E-1,1.7642311E0,-1.3933939E0,1.1010148E-1,-1.7473679E0,-5.89093E-1,-1.5749695E0,-2.711283E-1,-1.2569857E0,-2.9129156E-1,-1.0664002E0,4.9107905E-2,-2.9233414E-1,1.1839821E0,-1.7570688E0,1.2554373E-1,-5.4476887E-2,-1.7208155E0,-8.0887944E-1,1.5608213E0,-3.792529E-1,-1.610016E0,2.7197695E-1,-1.2621462E0,4.5677948E-1,-8.599616E-1,1.5603131E0,-1.1320677E-2,-8.840642E-1,8.9090097E-1,-1.5533513E-1,-1.7393571E0,-1.0221603E0,-2.1882533E-1,1.6380646E0,3.8178426E-1,-1.1702331E0,4.2390308E-1,8.6966574E-1,-2.4943359E-1,-1.2528579E0,7.230397E-1],"categories":[],"categories_nodes":[],"categories_segments":[],"categories_sizes":[],"default_left":[1,1,1,1,1,1,1,1,1,1,1,1,1,1,1,1,1,1,0,1,0,1,1,1,1,0,0,0,1,1,1,1,1,1,0,1,1,1,1,0,0,0,0,1,0,0,0,0,0,1,1,0,0,1,1,1,1,1,1,0,0,1,1,1,0,1,1,0,0,0,0,0,0,0,0,1,1,1,1,1,1,1,0,0,1,1,0,1,0,1,0,0,0,0,0,1,1,1,1,0,1,0,0,0,0,0,0,0,0,0,0,0,0,0,0,1,1,0,1,0,1,1,1,1,0,0,0,1,1,0,0,0,0,0,0,0,0,0,0,0,0,0,0,0,0],"id":2,"left_children":[1,3,5,7,9,11,13,15,17,19,21,23,25,27,29,31,33,35,-1,37,-1,39,41,43,45,-1,-1,-1,47,49,51,53,55,57,-1,59,61,63,65,-1,-1,-1,-1,67,-1,-1,-1,-1,-1,69,71,-1,-1,73,75,77,79,81,83,-1,-1,85,87,89,-1,91,93,-1,-1,-1,-1,-1,-1,-1,-1,95,97,99,101,103,105,107,-1,-1,109,111,-1,113,-1,115,-1,-1,-1,-1,-1,117,119,121,123,-1,125,-1,-1,-1,-1,-1,-1,-1,-1,-1,-1,-1,-1,-1,-1,127,129,-1,131,-1,133,135,137,139,-1,-1,-1,141,143,-1,-1,-1,-1,-1,-1,-1,-1,-1,-1,-1,-1,-1,-1,-1,-1],"loss_changes":[2.8656172E3,2.7710938E2,9.4444543E2,1.0953125E2,3.973426E2,5.3444397E1,1.7001959E2,5.890874E2,2.65625E-1,4.081049E2,6.0266113E-1,4.983307E1,1.6964998E0,3.1727997E1,5.4136795E1,2.704121E2,3.8896484E0,1.4747681E1,0E0,1.27992065E2,0E0,6.740409E-1,2.5097656E-1,3.8284302E0,8.472076E1,0E0,0E0,0E0,1.8528683E1,1.530513E1,1.38443E-1,9.0539246E1,9.594443E1,1.5107697E1,0E0,1.2132568E0,4.5581055E1,1.8585659E1,5.1782104E1,0E0,0E0,0E0,0E0,7.9894743E0,0E0,0E0,0E0,0E0,0E0,5.369582E0,1.5101013E0,0E0,0E0,7.4080414E1,5.5900604E1,6.7322845E0,3.3220734E1,5.155258E0,2.2014849E1,0E0,0E0,1.839481E1,8.3065796E-1,1.0534217E1,0E0,1.5719025E1,5.2765274E-1,0E0,0E0,0E0,0E0,0E0,0E0,0E0,0E0,2.4821472E1,3.957594E1,1.9742966E-2,7.8631425E0,1.4270676E1,2.3889375E0,9.429321E-1,0E0,0E0,1.0077877E0,2.139082E-1,0E0,1.0338502E0,0E0,1.1792651E1,0E0,0E0,0E0,0E0,0E0,5.8732983E1,3.3427124E0,1.3860653E1,7.6694126E0,0E0,2.4107814E0,0E0,0E0,0E0,0E0,0E0,0E0,0E0,0E0,0E0,0E0,0E0,0E0,0E0,0E0,7.971836E0,3.5233393E0,0E0,2.515687E1,0E0,2.7388306E0,1.9820118E-1,6.282768E-1,9.742614E0,0E0,0E0,0E0,2.6477876E0,7.428417E0,0E0,0E0,0E0,0E0,0E0,0E0,0E0,0E0,0E0,0E0,0E0,0E0,0E0,0E0,0E0,0E0],"parents":[2147483647,0,0,1,1,2,2,3,3,4,4,5,5,6,6,7,7,8,8,9,9,10,10,11,11,12,12,13,13,14,14,15,15,16,16,17,17,19,19,21,21,22,22,23,23,24,24,28,28,29,29,30,30,31,31,32,32,33,33,35,35,36,36,37,37,38,38,43,43,49,49,50,50,53,53,54,54,55,55,56,56,57,57,58,58,61,61,62,62,63,63,65,65,66,66,75,75,76,76,77,77,78,78,79,79,80,80,81,81,84,84,85,85,87,87,89,89,95,95,96,96,97,97,98,98,100,100,115,115,116,116,118,118,120,120,121,121,122,122,123,123,127,127,128,128],"right_children":[2,4,6,8,10,12,14,16,18,20,22,24,26,28,30,32,34,36,-1,38,-1,40,42,44,46,-1,-1,-1,48,50,52,54,56,58,-1,60,62,64,66,-1,-1,-1,-1,68,-1,-1,-1,-1,-1,70,72,-1,-1,74,76,78,80,82,84,-1,-1,86,88,90,-1,92,94,-1,-1,-1,-1,-1,-1,-1,-1,96,98,100,102,104,106,108,-1,-1,110,112,-1,114,-1,116,-1,-1,-1,-1,-1,118,120,122,124,-1,126,-1,-1,-1,-1,-1,-1,-1,-1,-1,-1,-1,-1,-1,-1,128,130,-1,132,-1,134,136,138,140,-1,-1,-1,142,144,-1,-1,-1,-1,-1,-1,-1,-1,-1,-1,-1,-1,-1,-1,-1,-1],"split_conditions":[1.5704075E-1,5.5855952E-2,5.509373E-1,5.288701E-1,7.16012E-1,2.1617165E0,4.2445153E-1,2.786157E-1,6.194843E-1,1.8151152E0,7.301748E-1,1.4760244E1,2.387254E1,1.0224484E2,1.5369393E0,1.7763695E-2,3.929631E-1,3.2085707E0,-9.1033384E-2,1.8398876E1,-8.977603E-2,1.2568238E-1,1.5557438E-1,3.2464933E-1,4.925579E-1,-7.579511E-2,-5.065435E-3,-8.8016234E-2,1.1018071E0,1.734429E-1,2.1318514E-2,1.0943889E-3,7.264172E-2,1.3370893E0,-9.054995E-2,1.6945068E-2,1.6290498E0,1.4437386E-1,1.434995E1,-2.1749309E-3,-5.1917743E-2,-8.9574784E-2,-3.1865012E-2,1.0819282E-1,8.870163E-2,8.6218335E-2,-8.377251E-2,6.884857E-2,-7.024551E-2,7.741166E-1,1.7363625E0,-2.4405112E-2,-7.944307E-2,3.8099892E-2,1.1721425E0,1.0493953E1,1.2155909E1,1.2513922E2,1.3113487E0,-1.612516E-2,-9.0224564E-2,7.0521297E0,3.3694694E0,9.43246E-1,-8.124188E-2,1.7308211E-1,2.5444736E1,6.64685E-2,-5.1562387E-2,3.5469722E-2,-6.2179435E-2,8.775527E-2,1.2968572E-2,-8.233145E-2,8.522771E-2,8.326389E-2,2.1076596E-1,3.4834534E-2,1.2795885E-1,1.4139881E0,1.3789124E0,3.869874E-1,-2.4668875E-3,6.1054926E-2,9.535577E-3,3.6863647E-3,7.884999E-2,4.4165784E-3,-8.839447E-2,1.8162553E-1,-7.22741E-2,-5.361233E-2,8.995206E-2,-1.5346251E-2,-7.3016874E-2,1.3847515E-1,3.9749257E-2,1.2760927E1,1.7442822E1,-8.216719E-2,3.8895514E-2,5.249965E-2,-6.1125036E-2,-3.0639324E-2,8.821156E-2,-6.966969E-2,5.505074E-3,-8.736839E-2,-2.9454652E-2,-7.874848E-2,-1.3556415E-2,-6.284928E-2,-1.4564578E-2,-5.332001E-2,2.4553954E-3,1.7575763E-1,7.179221E-1,-8.785344E-2,4.9421573E-1,-2.7238445E-3,4.747015E-3,4.5180507E-3,3.4867287E-1,3.1674867E-3,-8.0500804E-2,1.3598847E-2,-6.310731E-2,8.76956E0,7.3174787E0,7.8015655E-2,-5.660338E-4,-4.420321E-2,4.454505E-2,-7.7667567E-3,-8.6967856E-2,-5.1108014E-2,-1.0941266E-2,8.1903234E-2,1.9089213E-2,-5.8511656E-2,2.1195155E-2,4.3483287E-2,-1.247168E-2,-6.2642895E-2,3.6151987E-2],"split_indices":[4,4,1,3,1,3,4,1,3,3,1,0,5,5,1,4,1,2,0,5,0,4,4,2,3,0,0,0,1,3,0,0,3,2,0,1,0,4,0,0,0,0,0,3,0,0,0,0,0,1,3,0,0,3,2,5,0,5,0,0,0,5,0,3,0,2,0,0,0,0,0,0,0,0,0,3,0,4,1,5,2,1,0,0,4,4,0,4,0,3,0,0,0,0,0,2,0,5,0,0,4,0,0,0,0,0,0,0,0,0,0,0,0,0,0,1,0,0,0,0,1,4,3,4,0,0,0,5,0,0,0,0,0,0,0,0,0,0,0,0,0,0,0,0,0],"split_type":[0,0,0,0,0,0,0,0,0,0,0,0,0,0,0,0,0,0,0,0,0,0,0,0,0,0,0,0,0,0,0,0,0,0,0,0,0,0,0,0,0,0,0,0,0,0,0,0,0,0,0,0,0,0,0,0,0,0,0,0,0,0,0,0,0,0,0,0,0,0,0,0,0,0,0,0,0,0,0,0,0,0,0,0,0,0,0,0,0,0,0,0,0,0,0,0,0,0,0,0,0,0,0,0,0,0,0,0,0,0,0,0,0,0,0,0,0,0,0,0,0,0,0,0,0,0,0,0,0,0,0,0,0,0,0,0,0,0,0,0,0,0,0,0,0],"sum_hessian":[3.03274E4,2.9804822E4,5.225781E2,2.9258402E4,5.464189E2,3.3320154E2,1.8937659E2,2.2412175E3,2.7017186E4,2.2168692E2,3.2473196E2,3.275059E2,5.6956654E0,1.544242E2,3.4952404E1,3.290812E2,1.9121362E3,3.006212E2,2.6716564E4,1.3913019E2,8.2556725E1,2.332669E0,3.223993E2,2.9904517E2,2.8460705E1,4.5162086E0,1.1794568E0,1.4649449E2,7.929697E0,2.7460136E1,7.4922686E0,2.3539478E2,9.368644E1,8.477079E1,1.8273655E3,2.6162506E2,3.8996117E1,3.800489E1,1.011253E2,1.1142901E0,1.218379E0,3.2079825E2,1.6010633E0,5.030206E0,2.9401498E2,1.7123585E1,1.1337121E1,4.8571424E0,3.0725543E0,3.7663026E0,2.3693834E1,1.2801741E0,6.212095E0,2.9323263E1,2.0607152E2,1.56198845E1,7.806656E1,7.350119E1,1.1269598E1,1.0375768E0,2.605875E2,9.8455E0,2.9150618E1,2.750068E1,1.0504209E1,9.59232E1,5.2020984E0,3.8407261E0,1.1894803E0,1.751968E0,2.0143347E0,2.2608265E1,1.0855687E0,8.552332E0,2.0770931E1,1.6940053E2,3.6670982E1,1.1503644E1,4.1162405E0,7.384845E1,4.2181096E0,7.155241E1,1.948782E0,4.2901473E0,6.9794507E0,3.0958812E0,6.7496185E0,2.5385356E0,2.6612082E1,2.3617216E1,3.8834643E0,1.3291442E0,9.4594055E1,1.1161407E0,4.0859575E0,6.5450356E1,1.0395018E2,1.5117813E1,2.155317E1,8.378795E0,3.1248488E0,2.2560477E0,1.8601928E0,2.1542866E0,7.169416E1,2.965527E0,1.2525826E0,6.9542656E1,2.0097504E0,5.8121643E0,1.1672863E0,2.0294278E0,1.0664536E0,1.3957909E0,1.1427447E0,1.6823877E1,6.7933397E0,3.4912994E1,3.0537363E1,1.2852533E0,1.02664925E2,2.352285E0,1.2765529E1,1.3555064E1,7.9981046E0,1.091387E0,2.0334618E0,7.336706E0,9.48717E0,4.934411E0,1.8589283E0,1.3100699E1,1.7436665E1,1.3115027E0,1.01353424E2,1.1898763E0,1.1624085E0,1.1615244E1,1.1502843E0,6.599031E0,6.9560337E0,4.4838066E0,2.8528996E0,7.7677846E0,1.7193857E0],"tree_param":{"num_deleted":"0","num_feature":"6","num_nodes":"145","size_leaf_vector":"0"}},{"base_weights":[-1.6789486E0,-1.7180719E0,5.4945856E-1,-1.7307718E0,-1.0367085E0,1.5210098E0,-1.1581247E0,-1.5232004E0,-1.7479422E0,-4.557711E-2,-1.7117418E0,1.5728192E0,-1.23625E0,-1.5893246E0,7.346175E-1,-3.357176E-1,-1.7277522E0,-1.6576202E0,-1.7492481E0,9.5447016E-1,-1.7251133E0,-7.0004904E-1,-1.7169138E0,1.6882476E0,3.4454465E-1,-1.0178966E-1,-1.4714988E0,-1.6903397E0,2.50596E-1,1.3550429E0,-1.4275862E0,-8.8251686E-1,1.0343075E0,-1.4553976E0,-1.7395967E0,-1.1330105E0,-1.7368518E0,-5.3398174E-1,1.5163323E0,-4.2352747E-2,-1.0119458E0,-1.7204835E0,-6.1844695E-1,6.6352844E-1,1.7035366E0,1.6584867E0,-1.6123676E0,1.3268437E0,-1.3586361E0,-5.3490925E-1,1.604593E0,-4.7461033E-1,-1.5315412E0,6.7617583E-1,-1.1062157E0,-1.0870069E0,1.4685448E0,-1.6133331E0,-3.807987E-1,-1.7472268E0,-1.5368394E0,-1.5937828E0,5.7446545E-1,-1.7406056E0,-3.7804222E-1,-1.01454005E-1,-1.5634359E0,1.678964E0,-1.2578633E0,1.2826285E0,-1.0051483E0,7.223945E-1,1.7079358E0,-1.1037083E0,4.2876923E-1,1.6570015E0,2.70084E-1,-1.5857695E0,1.6384429E0,-1.3376248E0,-3.3351474E-2,-1.4055241E0,7.391079E-2,1.6202716E0,-9.7673607E-1,-1.6551298E0,-4.7707815E-2,1.1763386E0,-1.3671768E0,-1.7480186E0,-7.5136125E-1,-1.6170244E0,8.171244E-1,-1.6836367E0,-5.561692E-1,-1.1212815E0,1.3875262E0,1.5884085E-1,-1.3962419E0,-1.0441936E0,1.7280939E0,-2.989589E-1,-1.4102571E0,9.145793E-1,1.7168803E0,-8.525909E-1,-1.6328112E0,8.623117E-1,-1.0887454E0,9.9573714E-1,-1.0880654E0,-5.9236705E-1,1.6946583E0,-1.3477943E0,1.0704269E-1,-1.6781625E0,-5.698644E-1,-1.5184972E0,-2.6386148E-1,-1.9758423E-1,-9.2418414E-1,-3.2859406E-1,-1.6841843E0,1.9786643E-2,1.2039099E0,-9.4820297E-1,4.4169033E-1,-1.304834E0,-2.551929E-1,1.8108492E-1,1.5576333E0,-6.436805E-1,6.8953735E-1,1.3506539E0,-4.5435092E-1,-1.6886265E0,1.1958653E-1,-5.2945215E-2,-1.6520741E0,-1.238809E0,1.3481319E0,-1.2303188E0,3.2006827E-1,5.821828E-1,-1.1423155E0,-8.4125084E-1,-1.7231838E0,-2.3739924E-1,-1.133196E0,7.58325E-1,-1.0400791E0,-4.0556353E-1,1.0963088E0,-8.45069E-1,8.509319E-1,-1.509352E-1,-1.6700085E0,1.5006839E0,7.584971E-2,-1.3799201E0,4.249183E-3,-1.2230262E0,-4.7006648E-2,-1.4634789E0,-1.1783825E-1,1.0760155E0,-1.2958983E0,1.4694349E0,3.150515E-1],"categories":[],"categories_nodes":[],"categories_segments":[],"categories_sizes":[],"default_left":[1,1,1,1,1,1,1,1,1,1,1,1,1,1,1,1,1,1,0,1,0,1,1,1,1,0,0,0,1,1,1,1,1,1,1,1,1,1,1,0,0,0,0,1,1,0,0,0,0,1,1,0,0,1,1,1,1,1,1,1,1,1,1,0,0,1,0,1,1,0,0,0,1,0,0,0,0,0,0,1,1,0,1,1,1,1,0,0,1,0,1,1,1,0,1,1,1,1,0,0,0,0,0,1,0,1,1,1,1,0,0,0,0,0,0,0,0,0,0,0,0,1,1,0,0,1,0,0,0,0,0,1,1,0,0,0,1,0,1,0,1,1,0,0,0,1,0,0,0,0,1,1,1,0,0,0,0,0,0,0,0,0,0,0,0,0,0,0,0],"id":3,"left_children":[1,3,5,7,9,11,13,15,17,19,21,23,25,27,29,31,33,35,-1,37,-1,39,41,43,45,-1,-1,-1,47,49,51,53,55,57,59,61,63,65,67,-1,-1,-1,-1,69,71,-1,-1,-1,-1,73,75,-1,-1,77,79,81,83,85,87,89,91,93,95,-1,-1,97,-1,99,101,-1,-1,-1,103,-1,-1,-1,-1,-1,-1,105,107,-1,109,111,113,115,-1,-1,117,-1,119,121,123,-1,125,127,129,131,-1,-1,-1,-1,-1,133,-1,135,137,139,141,-1,-1,-1,-1,-1,-1,-1,-1,-1,-1,-1,-1,143,145,-1,-1,147,-1,-1,-1,-1,-1,149,151,-1,-1,-1,153,-1,155,-1,157,159,-1,-1,-1,161,-1,-1,-1,-1,163,165,167,-1,-1,-1,-1,-1,-1,-1,-1,-1,-1,-1,-1,-1,-1,-1,-1],"loss_changes":[2.6166094E3,2.5334375E2,8.617977E2,1.0049219E2,3.6254553E2,4.9206238E1,1.5506096E2,5.3844385E2,2.578125E-1,3.7219418E2,4.850464E-1,4.5522034E1,1.6281424E0,2.9025452E1,4.9786076E1,2.4612225E2,3.574707E0,1.4658081E1,0E0,1.169915E2,0E0,6.398549E-1,1.9104004E-1,3.522522E0,7.773117E1,0E0,0E0,0E0,1.7182257E1,1.41728325E1,1.0926056E-1,8.251007E1,8.803233E1,1.3812622E1,1.1279297E-1,4.4470276E1,1.1047363E0,1.7122019E1,4.7731384E1,0E0,0E0,0E0,0E0,7.4918776E0,2.6489258E-2,0E0,0E0,0E0,0E0,2.689231E0,1.3140793E0,0E0,0E0,6.800598E1,5.0960358E1,6.212126E0,3.0638794E1,4.7506714E0,2.0348892E1,5.5664062E-2,1.5270706E1,3.1528778E0,1.8789434E1,0E0,0E0,9.792372E0,0E0,1.4640411E1,4.801674E-1,0E0,0E0,0E0,4.8742676E-1,0E0,0E0,0E0,0E0,0E0,0E0,2.2799622E1,3.6363792E1,0E0,5.910531E0,1.3202713E1,2.2351785E0,8.3981323E-1,0E0,0E0,9.236479E-1,0E0,1.17248654E-1,5.6598663E0,9.318447E-1,0E0,2.3703837E0,3.989153E-1,1.5435238E0,1.0896074E1,0E0,0E0,0E0,0E0,0E0,3.8208246E0,0E0,5.386029E1,3.0759277E0,2.2932579E1,3.9132462E0,0E0,0E0,0E0,0E0,0E0,0E0,0E0,0E0,0E0,0E0,0E0,0E0,4.222246E0,7.8593445E-1,0E0,0E0,2.4372792E-1,0E0,0E0,0E0,0E0,0E0,6.505318E0,7.240303E0,0E0,0E0,0E0,2.2912542E1,0E0,2.5117798E0,0E0,3.262743E0,3.0054455E0,0E0,0E0,0E0,1.4468148E0,0E0,0E0,0E0,0E0,3.123417E0,7.8076434E0,2.8584127E0,0E0,0E0,0E0,0E0,0E0,0E0,0E0,0E0,0E0,0E0,0E0,0E0,0E0,0E0,0E0,0E0],"parents":[2147483647,0,0,1,1,2,2,3,3,4,4,5,5,6,6,7,7,8,8,9,9,10,10,11,11,12,12,13,13,14,14,15,15,16,16,17,17,19,19,21,21,22,22,23,23,24,24,28,28,29,29,30,30,31,31,32,32,33,33,34,34,35,35,36,36,37,37,38,38,43,43,44,44,49,49,50,50,53,53,54,54,55,55,56,56,57,57,58,58,59,59,60,60,61,61,62,62,65,65,67,67,68,68,72,72,79,79,80,80,82,82,83,83,84,84,85,85,88,88,90,90,91,91,92,92,94,94,95,95,96,96,97,97,103,103,105,105,106,106,107,107,108,108,121,121,122,122,125,125,131,131,132,132,136,136,138,138,140,140,141,141,145,145,150,150,151,151,152,152],"right_children":[2,4,6,8,10,12,14,16,18,20,22,24,26,28,30,32,34,36,-1,38,-1,40,42,44,46,-1,-1,-1,48,50,52,54,56,58,60,62,64,66,68,-1,-1,-1,-1,70,72,-1,-1,-1,-1,74,76,-1,-1,78,80,82,84,86,88,90,92,94,96,-1,-1,98,-1,100,102,-1,-1,-1,104,-1,-1,-1,-1,-1,-1,106,108,-1,110,112,114,116,-1,-1,118,-1,120,122,124,-1,126,128,130,132,-1,-1,-1,-1,-1,134,-1,136,138,140,142,-1,-1,-1,-1,-1,-1,-1,-1,-1,-1,-1,-1,144,146,-1,-1,148,-1,-1,-1,-1,-1,150,152,-1,-1,-1,154,-1,156,-1,158,160,-1,-1,-1,162,-1,-1,-1,-1,164,166,168,-1,-1,-1,-1,-1,-1,-1,-1,-1,-1,-1,-1,-1,-1,-1,-1],"split_conditions":[1.5704075E-1,5.5855952E-2,5.509373E-1,5.288701E-1,7.16012E-1,2.1617165E0,4.2445153E-1,2.786157E-1,6.487996E-1,1.8151152E0,7.301748E-1,1.4760244E1,7.408287E-2,1.0224484E2,1.5369393E0,1.7763695E-2,3.929631E-1,1.6124845E0,-8.746241E-2,1.8398876E1,-8.625566E-2,1.2568238E-1,1.5557438E-1,3.2464933E-1,4.925579E-1,-5.089483E-3,-7.3574945E-2,-8.451699E-2,1.1018071E0,8.115288E-1,2.1318514E-2,1.0943889E-3,7.264172E-2,1.3370893E0,2.1913025E0,3.1496794E0,4.2768613E-2,1.4437386E-1,1.434995E1,-2.1176373E-3,-5.059729E-2,-8.602418E-2,-3.0922348E-2,1.0819282E-1,5.186703E-2,8.2924336E-2,-8.061838E-2,6.634219E-2,-6.793181E-2,7.971947E1,3.493238E0,-2.3730516E-2,-7.657706E-2,3.8099892E-2,1.1721425E0,1.5392738E1,1.2155909E1,1.2513922E2,1.3113487E0,5.355402E-2,2.8487857E-2,2.0882053E0,6.5662136E0,-8.7030284E-2,-1.8902112E-2,9.43246E-1,-7.81718E-2,1.7308211E-1,2.5444736E1,6.413143E-2,-5.0257415E-2,3.6119726E-2,5.401375E-1,-5.5185415E-2,2.1438463E-2,8.2850076E-2,1.35042E-2,-7.9288475E-2,8.192214E-2,8.326389E-2,7.1262443E-1,-7.027621E-2,1.5630752E-1,1.4139881E0,1.3789124E0,3.869874E-1,-2.3853907E-3,5.881693E-2,9.535577E-3,-8.7400936E-2,1.5812306E0,4.914127E-1,6.862102E1,-8.418184E-2,8.425707E0,6.091901E-1,1.0041357E1,7.607846E-2,-6.98121E-2,-5.2209683E-2,8.6404696E-2,-1.4947945E-2,-7.051285E-2,1.6165102E0,8.584402E-2,1.3847515E-1,3.9749257E-2,9.393993E0,2.2798699E-1,4.978686E-2,-5.440327E-2,-2.9618353E-2,8.473291E-2,-6.738972E-2,5.352135E-3,-8.3908126E-2,-2.849322E-2,-7.5924866E-2,-1.3193074E-2,-9.879212E-3,-4.620921E-2,2.930057E0,3.1789964E-1,9.893322E-4,6.0195494E-2,2.8220522E-1,2.2084517E-2,-6.52417E-2,-1.27596455E-2,9.054246E-3,7.7881664E-2,3.781066E-2,4.5877725E-1,6.7532696E-2,-2.2717547E-2,-8.443133E-2,4.9421573E-1,-2.647261E-3,4.747015E-3,-6.194045E-2,4.106386E-1,4.793097E0,1.6003413E-2,2.910914E-2,-5.7115775E-2,2.6772278E-3,-8.615919E-2,-1.1869962E-2,-5.66598E-2,3.791625E-2,8.7132506E-2,6.958617E-2,2.2678512E-1,-4.225345E-2,4.2546596E-2,-7.54676E-3,-8.350043E-2,7.503419E-2,3.7924857E-3,-6.8996005E-2,2.1245916E-4,-6.1151307E-2,-2.3503324E-3,-7.317395E-2,-5.8919126E-3,5.3800773E-2,-6.479492E-2,7.347175E-2,1.5752574E-2],"split_indices":[4,4,1,3,1,3,4,1,3,3,1,0,1,5,1,4,1,0,0,5,0,4,4,2,3,0,0,0,1,2,0,0,3,2,2,2,4,4,0,0,0,0,0,3,3,0,0,0,0,5,0,0,0,3,2,5,0,5,0,4,4,2,5,0,0,3,0,2,0,0,0,0,2,0,0,0,0,0,0,3,0,0,1,5,2,1,0,0,4,0,1,1,5,0,5,3,5,3,0,0,0,0,0,0,0,2,0,5,1,0,0,0,0,0,0,0,0,0,0,0,0,0,3,0,0,1,0,0,0,0,0,1,2,0,0,0,0,0,1,0,3,2,0,0,0,4,0,0,0,0,4,4,0,0,0,0,0,0,0,0,0,0,0,0,0,0,0,0,0],"split_type":[0,0,0,0,0,0,0,0,0,0,0,0,0,0,0,0,0,0,0,0,0,0,0,0,0,0,0,0,0,0,0,0,0,0,0,0,0,0,0,0,0,0,0,0,0,0,0,0,0,0,0,0,0,0,0,0,0,0,0,0,0,0,0,0,0,0,0,0,0,0,0,0,0,0,0,0,0,0,0,0,0,0,0,0,0,0,0,0,0,0,0,0,0,0,0,0,0,0,0,0,0,0,0,0,0,0,0,0,0,0,0,0,0,0,0,0,0,0,0,0,0,0,0,0,0,0,0,0,0,0,0,0,0,0,0,0,0,0,0,0,0,0,0,0,0,0,0,0,0,0,0,0,0,0,0,0,0,0,0,0,0,0,0,0,0,0,0,0,0],"sum_hessian":[3.0001098E4,2.9483691E4,5.1740497E2,2.8942691E4,5.4100055E2,3.2984482E2,1.8756015E2,2.218104E3,2.6724588E4,2.1961455E2,3.2138602E2,3.2418292E2,5.6618795E0,1.5288953E2,3.4670616E1,3.2632623E2,1.8917777E3,3.9898727E2,2.63256E4,1.3792279E2,8.169175E1,2.3281443E0,3.1905786E2,2.9599225E2,2.8190672E1,1.218499E0,4.443381E0,1.4500952E2,7.879999E0,2.7230394E1,7.4402194E0,2.3349173E2,9.2834496E1,8.400597E1,1.8077717E3,5.4359753E1,3.446275E2,3.7809563E1,1.00113235E2,1.1142719E0,1.2138724E0,3.1745993E2,1.5979394E0,5.004045E0,2.9098822E2,1.6957373E1,1.1233298E1,4.8271213E0,3.0528784E0,3.0427582E0,2.4187637E1,1.2791888E0,6.161031E0,2.9050499E1,2.0444122E2,1.5518932E1,7.731557E1,7.280445E1,1.1201518E1,1.7348688E3,7.290298E1,4.2860252E1,1.1499502E1,3.433979E2,1.2296224E0,2.7397139E1,1.0412424E1,9.494222E1,5.1710076E0,3.8186336E0,1.1854112E0,2.0363412E0,2.8895187E2,1.8220242E0,1.2207341E0,2.3041115E1,1.1465222E0,8.476748E0,2.0573751E1,1.6796552E2,3.647572E1,1.2012423E1,3.5065098E0,7.311618E1,4.1993847E0,7.085568E1,1.9487666E0,4.269277E0,6.932241E0,1.7327357E3,2.1330845E0,7.080418E1,2.0988014E0,3.8871502E1,3.9887493E0,3.6039317E0,7.8955703E0,2.354179E1,3.855349E0,1.3236096E0,9.3618614E1,1.1152565E0,4.0557513E0,4.3725147E0,2.8457935E2,6.501871E1,1.029468E2,1.9829933E1,1.6645784E1,2.035087E0,1.4714224E0,2.1516542E0,7.096452E1,2.9468513E0,1.2525334E0,6.88482E1,2.007483E0,5.7652316E0,1.1670092E0,1.0171387E0,1.1159458E0,3.7997835E0,6.700439E1,1.0289115E0,1.06989E0,2.8994083E0,1.0893409E0,2.5557103E0,1.0482215E0,1.2308215E0,6.6647487E0,9.286224E0,1.4255565E1,3.3262756E0,1.0462389E0,3.456079E1,3.0457918E1,1.285241E0,1.0166156E2,3.4329324E0,1.6397001E1,1.5240906E1,1.4048787E0,1.9272295E0,1.872554E0,3.9610558E0,6.3043335E1,1.0702903E0,1.8291179E0,1.8455917E0,7.4406333E0,3.8618228E0,1.0393742E1,1.3066936E1,1.7390982E1,1.3114002E0,1.0035016E2,1.4481132E1,1.91587E0,1.3488655E1,1.752251E0,2.31056E0,1.6504955E0,4.697255E0,2.7433777E0,1.3713123E0,2.4905105E0,6.4380774E0,3.9556644E0],"tree_param":{"num_deleted":"0","num_feature":"6","num_nodes":"169","size_leaf_vector":"0"}},{"base_weights":[-1.6184177E0,-1.6561631E0,5.289655E-1,-1.668425E0,-9.9899197E-1,1.4649802E0,-1.1151975E0,-1.467615E0,-1.6850413E0,2.7190953E-1,-1.487102E0,1.5152694E0,-1.193992E0,-1.530713E0,7.043886E-1,-3.2196012E-1,-1.6653988E0,-1.5975502E0,-1.6863109E0,-1.1300646E0,1.3187735E0,-6.213031E-1,-1.6750917E0,1.626596E0,3.3150107E-1,-1.4180874E0,-8.6354665E-2,-1.6283975E0,2.3969594E-1,1.3038656E0,-1.3795133E0,-8.4718865E-1,9.9367434E-1,-1.402215E0,-1.6768613E0,-1.0916374E0,-1.6741827E0,5.065952E-1,-1.4596425E0,1.516555E0,-1.2211674E0,7.530997E-1,-1.4977992E0,6.3644725E-1,1.6414675E0,1.5999093E0,-1.5559646E0,1.2807558E0,-1.3160956E0,-3.6564225E-1,1.5767119E0,-4.6156603E-1,-1.4797983E0,6.5034306E-1,-1.062087E0,-1.045012E0,1.4130857E0,-1.5537325E0,-3.7208736E-1,-1.6842769E0,-1.4800854E0,-1.5349319E0,5.5023956E-1,-1.6778067E0,-3.6805743E-1,-2.9825094E-1,9.461812E-1,-1.5397975E0,-2.0697579E-1,1.5613179E0,-9.4785744E-1,-1.3765103E0,-2.781167E-1,-1.3289558E0,1.3627207E0,-1.7135559E-1,-1.6459372E0,1.2394643E0,-9.8039407E-1,1.3881006E0,3.842866E-1,6.604099E-1,-1.1820284E0,1.6301688E0,2.2298367E-1,-1.5311736E0,1.579542E0,-1.2863811E0,-1.727711E-2,-1.3859735E0,-1.2253653E-2,1.5605097E0,-9.444696E-1,-1.5944895E0,-4.6131603E-2,1.131227E0,-1.3206204E0,-1.5588638E0,7.937982E-1,-1.6213288E0,-5.393409E-1,-1.0862129E0,1.3380665E0,4.9533126E-1,-1.0924336E0,1.4194403E0,-1.0245578E-1,-1.6102781E0,1.3541096E-1,1.0695792E0,-1.1578737E0,5.876647E-1,1.6678401E0,1.5628222E0,-7.70382E-1,-1.0323571E0,9.5745736E-1,-8.1846064E-1,-1.5722449E0,1.0725293E0,-8.029302E-1,-1.5341598E0,-7.1444875E-1,9.922895E-1,-1.1539257E0,-5.7279783E-1,1.633103E0,-1.3058288E0,1.04069754E-1,-1.6168165E0,-5.514122E-1,-1.4674453E0,-2.568018E-1,-3.1871518E-1,-1.6241697E0,1.9283626E-2,1.1680561E0,-1.6422788E0,-5.407059E-1,-9.2269915E-1,4.2948514E-1,-1.2635188E0,-2.4883889E-1,1.7604084E-1,1.5032167E0,-7.9932936E-2,8.183946E-1,-9.783795E-1,8.571779E-1,1.1161598E0,-2.529293E-1,2.987617E-1,1.6181319E0,-1.6280125E0,1.14002034E-1,-5.1456757E-2,-1.5910203E0,-7.690872E-1,1.4476808E0,-3.4016544E-1,-1.494798E0,3.0835795E-1,-1.1874532E0,1.6612504E0,8.667451E-1,5.615329E-1,-1.1116413E0,-8.158239E-1,-1.6616552E0,-2.3147295E-1,-1.1029513E0,2.0841485E-1,1.2681085E0,4.2384747E-1,-1.078195E0,-8.0841315E-1,8.1339645E-1,-1.4666252E-1,-1.6084844E0,-9.756987E-1,-2.0470808E-1,1.5212445E0,3.4763962E-1,-1.0975728E0,4.216331E-1,-1.370851E-1,1.2147759E0,-1.1884315E0,-4.5552824E-2,-3.109043E-1,9.642013E-1],"categories":[],"categories_nodes":[],"categories_segments":[],"categories_sizes":[],"default_left":[1,1,1,1,1,1,1,1,1,1,1,1,1,1,1,1,1,1,0,1,1,1,0,1,1,0,0,0,1,1,1,1,1,1,1,1,1,1,1,1,1,1,1,1,0,0,0,1,0,1,1,0,0,1,1,1,1,1,1,0,1,1,1,0,0,1,1,1,1,1,0,0,0,0,1,1,0,0,0,0,0,0,0,0,0,0,0,1,1,1,1,1,1,1,0,0,1,1,1,1,1,1,1,1,0,0,1,0,0,0,0,1,0,1,0,0,0,1,1,1,1,0,1,0,0,0,1,0,0,0,0,0,0,1,1,0,0,0,0,1,0,0,0,0,0,0,0,0,0,1,1,0,0,0,1,0,1,1,1,1,0,0,0,0,1,0,0,1,0,0,0,0,0,1,0,0,0,0,0,0,0,0,0,0,0,0,0,0,0,0,0],"id":4,"left_children":[1,3,5,7,9,11,13,15,17,19,21,23,25,27,29,31,33,35,-1,37,39,41,-1,43,45,-1,-1,-1,47,49,51,53,55,57,59,61,63,65,67,69,71,73,75,77,-1,-1,-1,79,-1,81,83,-1,-1,85,87,89,91,93,95,-1,97,99,101,-1,-1,103,105,107,109,111,-1,-1,-1,-1,113,115,-1,-1,-1,-1,-1,-1,-1,-1,-1,-1,-1,117,119,121,123,125,127,129,-1,-1,131,133,135,137,139,141,143,145,-1,-1,147,-1,-1,-1,-1,149,-1,151,-1,-1,-1,153,155,157,159,-1,161,-1,-1,-1,163,-1,-1,-1,-1,-1,-1,165,167,-1,-1,-1,-1,169,-1,-1,-1,-1,-1,-1,-1,-1,-1,171,173,-1,-1,-1,175,-1,177,179,181,183,-1,-1,-1,-1,185,-1,-1,187,-1,-1,-1,-1,-1,189,-1,-1,-1,-1,-1,-1,-1,-1,-1,-1,-1,-1,-1,-1,-1,-1,-1],"loss_changes":[2.3983984E3,2.3257031E2,7.891294E2,9.275E1,3.322481E2,4.546881E1,1.4185783E2,4.9535254E2,2.265625E-1,2.2059401E2,6.1891296E1,4.174878E1,1.5207062E0,2.6660095E1,4.5897636E1,2.2433453E2,3.2783203E0,1.3518738E1,0E0,3.5454315E1,4.5018494E1,8.613605E1,0E0,3.2703857E0,7.1533104E1,0E0,0E0,0E0,1.59625025E1,1.3298328E1,8.7682724E-2,7.525244E1,8.077387E1,1.2530441E1,1.0888672E-1,4.083574E1,1.0008545E0,4.361454E0,5.086006E0,1.0323486E1,6.077318E-1,3.7532845E1,8.250313E0,7.0353603E0,0E0,0E0,0E0,2.3533821E-2,0E0,4.746817E0,1.3872757E0,0E0,0E0,6.2613625E1,4.754831E1,5.7574577E0,2.835463E1,4.4058685E0,1.8724916E1,0E0,1.431488E1,2.869667E0,1.746214E1,0E0,0E0,3.5872157E0,3.9651241E0,6.1729126E0,6.5703154E0,7.225281E0,0E0,0E0,0E0,0E0,1.0706799E1,6.313009E0,0E0,0E0,0E0,0E0,0E0,0E0,0E0,0E0,0E0,0E0,0E0,2.1065277E1,3.2446377E1,1.2984467E-1,6.970034E0,1.2266342E1,2.0965843E0,7.60849E-1,0E0,0E0,8.5248375E-1,5.224243E0,8.7813294E-1,7.4768066E-3,2.243743E0,3.6665392E-1,1.4299221E0,6.4256924E-1,0E0,0E0,3.634448E0,0E0,0E0,0E0,0E0,4.4342566E0,0E0,9.626961E-1,0E0,0E0,0E0,4.9598446E1,2.8490448E0,1.2085772E1,6.5378504E0,0E0,2.3490736E0,0E0,0E0,0E0,9.2041016E-2,0E0,0E0,0E0,0E0,0E0,0E0,3.9680595E0,6.777649E-1,0E0,0E0,0E0,0E0,2.2832346E-1,0E0,0E0,0E0,0E0,0E0,0E0,0E0,0E0,0E0,5.5266905E-1,2.927319E0,0E0,0E0,0E0,2.0885277E1,0E0,2.3208618E0,1.8982375E-1,5.6692314E-1,8.818771E0,0E0,0E0,0E0,0E0,1.7760253E0,0E0,0E0,1.3632655E0,0E0,0E0,0E0,0E0,0E0,1.5495863E0,0E0,0E0,0E0,0E0,0E0,0E0,0E0,0E0,0E0,0E0,0E0,0E0,0E0,0E0,0E0,0E0,0E0],"parents":[2147483647,0,0,1,1,2,2,3,3,4,4,5,5,6,6,7,7,8,8,9,9,10,10,11,11,12,12,13,13,14,14,15,15,16,16,17,17,19,19,20,20,21,21,23,23,24,24,28,28,29,29,30,30,31,31,32,32,33,33,34,34,35,35,36,36,37,37,38,38,39,39,40,40,41,41,42,42,43,43,47,47,49,49,50,50,53,53,54,54,55,55,56,56,57,57,58,58,60,60,61,61,62,62,65,65,66,66,67,67,68,68,69,69,74,74,75,75,87,87,88,88,89,89,90,90,91,91,92,92,93,93,96,96,97,97,98,98,99,99,100,100,101,101,102,102,103,103,106,106,111,111,113,113,117,117,118,118,119,119,120,120,122,122,126,126,133,133,134,134,139,139,149,149,150,150,154,154,156,156,157,157,158,158,159,159,164,164,167,167,173,173],"right_children":[2,4,6,8,10,12,14,16,18,20,22,24,26,28,30,32,34,36,-1,38,40,42,-1,44,46,-1,-1,-1,48,50,52,54,56,58,60,62,64,66,68,70,72,74,76,78,-1,-1,-1,80,-1,82,84,-1,-1,86,88,90,92,94,96,-1,98,100,102,-1,-1,104,106,108,110,112,-1,-1,-1,-1,114,116,-1,-1,-1,-1,-1,-1,-1,-1,-1,-1,-1,118,120,122,124,126,128,130,-1,-1,132,134,136,138,140,142,144,146,-1,-1,148,-1,-1,-1,-1,150,-1,152,-1,-1,-1,154,156,158,160,-1,162,-1,-1,-1,164,-1,-1,-1,-1,-1,-1,166,168,-1,-1,-1,-1,170,-1,-1,-1,-1,-1,-1,-1,-1,-1,172,174,-1,-1,-1,176,-1,178,180,182,184,-1,-1,-1,-1,186,-1,-1,188,-1,-1,-1,-1,-1,190,-1,-1,-1,-1,-1,-1,-1,-1,-1,-1,-1,-1,-1,-1,-1,-1,-1],"split_conditions":[1.5704075E-1,5.5855952E-2,5.509373E-1,5.27773E-1,7.1873134E-1,2.1617165E0,4.2445153E-1,2.786157E-1,6.492283E-1,6.166314E-1,1.5857356E0,1.4760244E1,2.387254E1,1.0224484E2,1.5369393E0,1.7763695E-2,3.929631E-1,1.6124845E0,-8.4315546E-2,2.0493282E-1,7.562086E-1,8.365809E-1,-8.375459E-2,3.2464933E-1,4.925579E-1,-7.090437E-2,-4.3177335E-3,-8.141988E-2,1.1018071E0,1.734429E-1,2.1318514E-2,1.0943889E-3,7.264172E-2,1.3370893E0,2.1913025E0,3.1496794E0,4.2768613E-2,1.4843021E1,8.238732E0,1.9347176E1,1.3605745E0,1.5099732E1,1.1513236E0,1.0819282E-1,8.2073376E-2,7.999547E-2,-7.779823E-2,1.0904899E0,-6.580478E-2,7.741166E-1,1.7363625E0,-2.3078302E-2,-7.398992E-2,3.8099892E-2,1.1721425E0,1.0493953E1,1.2155909E1,1.2513922E2,1.3113487E0,-8.4213845E-2,2.8487857E-2,2.0882053E0,6.5662136E0,-8.389034E-2,-1.8402873E-2,8.76956E0,1.2050742E-1,5.0926536E-1,6.4497745E-1,7.6214895E0,-4.739287E-2,-6.882551E-2,-1.3905835E-2,-6.644779E-2,2.0100827E0,2.7895145E0,-8.229686E-2,6.1973214E-2,-4.9019706E-2,6.9405034E-2,1.921433E-2,3.3020496E-2,-5.910142E-2,8.150844E-2,1.1149184E-2,-7.655868E-2,7.89771E-2,8.326389E-2,2.1076596E-1,3.4834534E-2,1.2795885E-1,1.4139881E0,1.3789124E0,3.869874E-1,-2.3065803E-3,5.656135E-2,9.535577E-3,4.914127E-1,6.862102E1,2.7011676E-2,8.425707E0,6.091901E-1,1.0041357E1,3.8058457E0,-5.4621678E-2,7.097202E-2,2.925948E-1,-8.051391E-2,6.7705484E-3,5.3478964E-2,-5.789369E-2,2.2678512E-1,8.339201E-2,2.7154922E0,-3.85191E-2,-5.1617857E-2,4.7872867E-2,1.3847515E-1,3.9749257E-2,1.2760927E1,1.7442822E1,-7.670799E-2,1.417906E-1,4.9614474E-2,-5.7696283E-2,-2.8639892E-2,4.833376E0,-6.529144E-2,5.203488E-3,-8.0840826E-2,-2.757061E-2,-7.337227E-2,-1.2840091E-2,2.930057E0,3.1789964E-1,9.641813E-4,5.8402807E-2,-8.2113944E-2,-2.7035296E-2,2.8220522E-1,2.1474257E-2,-6.317594E-2,-1.2441944E-2,8.802042E-3,7.516084E-2,-3.996647E-3,4.0919732E-2,-4.8918974E-2,4.2858895E-2,8.282143E-2,1.0380159E-1,1.4938085E-2,8.090659E-2,-8.1400625E-2,4.9421573E-1,-2.572838E-3,4.747015E-3,4.5180507E-3,3.4867287E-1,3.1674867E-3,-7.4739896E-2,1.5417898E-2,-5.937266E-2,8.306252E-2,1.2843723E0,2.8076647E-2,-5.5582065E-2,2.6772278E-3,-8.308276E-2,-1.1573648E-2,-5.5147566E-2,1.0420742E-2,6.3405424E-2,8.22071E-2,-5.390975E-2,-4.042066E-2,4.0669825E-2,-7.333126E-3,-8.042422E-2,-4.8784938E-2,-1.0235405E-2,7.6062225E-2,1.7381981E-2,-5.487864E-2,2.1081654E-2,-6.8542548E-3,6.07388E-2,-5.9421577E-2,-2.2776413E-3,-1.55452145E-2,4.8210066E-2],"split_indices":[4,4,1,3,3,3,4,1,3,2,0,0,5,5,1,4,1,0,0,1,1,1,0,2,3,0,0,0,1,3,0,0,3,2,2,2,4,5,0,0,2,5,3,3,0,0,0,0,0,1,3,0,0,3,2,5,0,5,0,0,4,2,5,0,0,5,1,2,1,5,0,0,0,0,3,2,0,0,0,0,0,0,0,0,0,0,0,3,0,4,1,5,2,1,0,0,4,1,5,4,5,3,5,5,0,0,2,0,0,0,0,0,0,2,0,0,0,2,0,5,0,0,2,0,0,0,0,0,0,0,0,0,0,0,3,0,0,0,0,1,0,0,0,0,0,0,0,0,0,4,4,0,0,0,0,0,1,4,3,4,0,0,0,0,2,0,0,4,0,0,0,0,0,4,0,0,0,0,0,0,0,0,0,0,0,0,0,0,0,0,0],"split_type":[0,0,0,0,0,0,0,0,0,0,0,0,0,0,0,0,0,0,0,0,0,0,0,0,0,0,0,0,0,0,0,0,0,0,0,0,0,0,0,0,0,0,0,0,0,0,0,0,0,0,0,0,0,0,0,0,0,0,0,0,0,0,0,0,0,0,0,0,0,0,0,0,0,0,0,0,0,0,0,0,0,0,0,0,0,0,0,0,0,0,0,0,0,0,0,0,0,0,0,0,0,0,0,0,0,0,0,0,0,0,0,0,0,0,0,0,0,0,0,0,0,0,0,0,0,0,0,0,0,0,0,0,0,0,0,0,0,0,0,0,0,0,0,0,0,0,0,0,0,0,0,0,0,0,0,0,0,0,0,0,0,0,0,0,0,0,0,0,0,0,0,0,0,0,0,0,0,0,0,0,0,0,0,0,0,0,0,0,0,0,0],"sum_hessian":[2.9578463E4,2.9067758E4,5.107061E2,2.8533818E4,5.339386E2,3.2550595E2,1.8520012E2,2.1874624E3,2.6346355E4,1.4828613E2,3.856525E2,3.1988608E2,5.6198874E0,1.5089983E2,3.4300297E1,3.2242963E2,1.8650327E3,3.9483694E2,2.595152E4,6.3357483E1,8.492866E1,6.956609E1,3.160864E2,2.920467E2,2.7839382E1,4.441092E0,1.1787955E0,1.4308514E2,7.814689E0,2.6928173E1,7.3721237E0,2.3068962E2,9.174001E1,8.298493E1,1.7820477E3,5.3945354E1,3.4089157E2,1.0529862E1,5.282762E1,7.916696E1,5.7616963E0,2.7143736E1,4.2422356E1,4.969538E0,2.8707715E2,1.67413E1,1.1098082E1,4.7877455E0,3.0269437E0,3.7348785E0,2.3193295E1,1.2778666E0,6.094257E0,2.8695707E1,2.0199391E2,1.5398574E1,7.634144E1,7.1901E1,1.1083927E1,1.7100437E3,7.20041E1,4.2528194E1,1.141716E1,3.3966455E2,1.2270252E0,3.833166E0,6.6966968E0,4.9435173E1,3.3924491E0,7.811456E1,1.0523988E0,4.552205E0,1.2094915E0,5.880372E0,2.1263365E1,4.4784627E0,3.7943893E1,3.7895803E0,1.1799577E0,3.7859943E0,1.0017511E0,1.7395858E0,1.9952928E0,2.2115765E1,1.0775293E0,8.378151E0,2.0317556E1,1.6610434E2,3.5889576E1,1.1319478E1,4.0790963E0,7.216675E1,4.17469E0,6.9952255E1,1.9487462E0,4.2134666E0,6.8704605E0,6.989697E1,2.1071255E0,3.855399E1,3.974206E0,3.5871937E0,7.829966E0,2.1055293E0,1.7276367E0,4.3706007E0,2.3260958E0,4.7476467E1,1.958703E0,1.3949527E0,1.9974964E0,8.345975E0,6.9768585E1,1.9684185E1,1.5791798E0,2.5890868E0,1.8893757E0,6.445815E1,1.01646194E2,1.4881622E1,2.1007952E1,8.220791E0,3.0986872E0,2.2394643E0,1.8396318E0,2.1481564E0,7.001859E1,2.9222221E0,1.2524675E0,6.794779E1,2.004466E0,5.703824E0,1.1666368E0,3.7907915E0,6.610618E1,1.029055E0,1.0780705E0,3.7310894E1,1.2430942E0,2.8815904E0,1.0926157E0,2.5403855E0,1.0468084E0,1.2314211E0,6.598545E0,1.0278542E0,1.077675E0,1.2058756E0,1.1202201E0,4.92299E0,3.4229853E0,1.0935507E0,1.8590633E1,3.410377E1,3.035438E1,1.2852244E0,1.0036097E2,2.3407626E0,1.2540859E1,1.3482002E1,7.5259504E0,1.0899366E0,2.0087504E0,6.641165E1,3.6069398E0,1.934772E0,1.8560195E0,3.938531E0,6.2167652E1,1.0684578E0,1.8131324E0,1.045968E0,3.8770216E0,2.1479356E0,1.2750497E0,1.3022901E1,1.733148E1,1.3112628E0,9.9049706E1,1.1799855E0,1.1607771E0,1.1395878E1,1.144982E0,6.5394654E0,6.9425364E0,1.0846319E0,2.5223079E0,2.288586E0,1.649945E0,1.0901802E0,1.0577556E0],"tree_param":{"num_deleted":"0","num_feature":"6","num_nodes":"191","size_leaf_vector":"0"}},{"base_weights":[-1.5648131E0,-1.6013445E0,5.105682E-1,-1.6132373E0,-9.6485937E-1,1.4148176E0,-1.0765808E0,-1.418263E0,-1.6293894E0,-4.1558366E-2,-1.5952237E0,1.463786E0,-1.1551486E0,-1.4781791E0,6.7707896E-1,-3.124739E-1,-1.6100302E0,-1.5639684E0,-1.6310236E0,8.872763E-1,-1.6086886E0,-6.6234106E-1,-1.6000192E0,1.571465E0,3.197915E-1,-8.658131E-2,-1.3815284E0,-1.5731822E0,2.3232436E-1,1.2577604E0,-1.335525E0,-8.1780463E-1,9.5703244E-1,-1.3522553E0,-1.6212906E0,-1.6104854E0,-1.2571656E0,-4.9240166E-1,1.4142048E0,-3.590798E-2,-9.619133E-1,-1.6034193E0,-5.735861E-1,6.112225E-1,1.5860044E0,1.5474888E0,-1.5052209E0,-1.6009843E0,-1.1082921E0,1.2416538E0,-1.2768285E0,-3.5432667E-1,1.5237856E0,-4.4894817E-1,-1.4328341E0,6.2710416E-1,-1.0243554E0,-1.0105418E0,1.3639159E0,-1.5002869E0,-3.5400158E-1,-1.6285396E0,-1.4292188E0,-1.242042E-1,-1.6141881E0,-1.467409E0,8.6057556E-1,-9.111159E-2,-1.4574447E0,1.567027E0,-1.165391E0,1.1994333E0,-9.568782E-1,6.5242887E-1,1.590309E0,1.3033555E0,-1.4815557E0,-9.582995E-1,9.2149496E-1,1.5759817E0,2.1733429E-1,-1.481907E0,1.5267142E0,-1.2400296E0,-3.3464596E-2,-1.3409377E0,-1.3323631E-2,1.507674E0,-9.1432166E-1,-1.5402447E0,-4.460762E-2,1.0966909E0,-1.2779287E0,-1.629309E0,-6.8391526E-1,-1.5068891E0,7.715946E-1,-5.6672215E-1,-1.5584601E0,-9.55167E-1,1.3338794E0,1.5116467E-1,-1.3043914E0,-9.8627216E-1,1.614022E0,-2.5588828E-1,-1.3168021E0,8.2622975E-1,1.59912E0,-7.8714055E-1,-1.5180029E0,7.965362E-1,-1.0089941E0,-1.4844607E0,-6.922988E-1,9.617853E-1,-1.122416E0,-4.007935E-1,1.5866514E0,-1.2670543E0,1.01180054E-1,-1.5620525E0,-5.33689E-1,-1.4210454E0,-2.4994236E-1,-1.516588E-1,-8.663203E-1,-3.0943525E-1,-1.570718E0,1.8793153E-2,1.1343148E0,-1.4056686E0,9.4111574E-1,-5.019598E-1,-1.5706123E0,1.5596921E0,3.0962217E-1,-2.6168135E-1,1.0774649E0,1.2679224E0,-5.0435376E-1,-1.5200272E0,1.7321336E-1,-5.0010327E-2,-1.536404E0,-1.1753145E0,1.2574108E0,-1.1466526E0,3.293521E-1,3.0026287E-1,-1.1543314E0,-8.8876885E-1,4.309202E-1,1.6144621E0,8.40434E-1,5.417847E-1,-1.0828065E0,-7.917825E-1,-1.6070328E0,4.104404E-1,-7.748091E-1,-4.6378754E-2,1.4490998E0,-1.5735009E0,-1.310337E-1,1.5903542E0,-4.324474E-1,-1.4251274E-1,-1.5535104E0,1.4025295E0,6.840374E-2,-1.2883036E0,5.293148E-3,-1.3343224E-1,1.1814203E0,-1.1561211E0,-4.41438E-2,7.869577E-1,-2.319986E-1,-1.1378E0,6.7059326E-1],"categories":[],"categories_nodes":[],"categories_segments":[],"categories_sizes":[],"default_left":[1,1,1,1,1,1,1,1,1,1,1,1,1,1,1,1,1,1,0,1,0,1,1,1,1,0,0,1,1,1,1,1,1,1,1,1,1,1,1,0,0,0,0,1,1,0,0,0,1,0,0,1,1,0,0,1,1,1,1,1,1,1,1,0,0,1,1,1,0,1,1,0,0,0,1,0,0,0,0,0,0,0,0,1,1,1,1,1,1,1,0,0,1,0,1,1,1,1,1,0,1,1,0,0,0,0,0,1,0,1,1,1,1,0,1,0,0,1,1,0,0,0,0,0,0,0,0,1,1,0,0,0,0,0,0,0,0,1,1,0,0,1,1,0,1,0,1,1,0,0,0,0,0,0,1,0,0,1,0,1,1,0,0,0,0,0,0,0,0,0,0,0,0,0,0,0,0,0,0,0,0],"id":5,"left_children":[1,3,5,7,9,11,13,15,17,19,21,23,25,27,29,31,33,35,-1,37,-1,39,41,43,45,-1,-1,47,49,51,53,55,57,59,61,63,65,67,69,-1,-1,-1,-1,71,73,-1,-1,-1,75,-1,-1,77,79,-1,-1,81,83,85,87,89,91,93,95,-1,-1,97,99,101,-1,103,105,-1,-1,-1,107,-1,-1,-1,-1,-1,-1,-1,-1,109,111,113,115,117,119,121,-1,-1,123,-1,125,127,129,131,133,-1,135,137,-1,-1,-1,-1,-1,139,-1,141,143,145,147,-1,149,-1,-1,151,153,-1,-1,-1,-1,-1,-1,-1,-1,155,157,-1,-1,-1,-1,-1,-1,-1,-1,159,161,-1,-1,163,165,-1,167,-1,169,171,-1,-1,-1,-1,-1,-1,173,-1,-1,175,-1,177,179,-1,-1,-1,-1,-1,-1,-1,-1,-1,-1,-1,-1,-1,-1,-1,-1,-1,-1,-1,-1],"loss_changes":[2.2053125E3,2.1473438E2,7.244499E2,8.6015625E1,3.0642322E2,4.212903E1,1.3015775E2,4.561631E2,2.265625E-1,3.139204E2,3.400879E-1,3.8394104E1,1.4689674E0,2.4665222E1,4.2417747E1,2.0575766E2,3.133789E0,7.3293457E0,0E0,9.9157425E1,0E0,5.8600223E-1,1.6430664E-1,3.0561523E0,6.600542E1,0E0,0E0,5.831909E-2,1.4897788E1,1.2362499E1,7.195568E-2,6.901108E1,7.4576904E1,1.1709015E1,1.1328125E-1,2.9121094E0,4.1713135E1,1.4649878E1,4.0563797E1,0E0,0E0,0E0,0E0,6.6153183E0,1.01501465E-1,0E0,0E0,0E0,1.20587225E1,0E0,0E0,4.5171676E0,1.2839584E0,0E0,0E0,5.7799625E1,4.2873444E1,5.333559E0,2.6332016E1,4.1090546E0,1.749298E1,1.07910156E-1,1.3458572E1,0E0,0E0,5.924713E0,8.866991E0,8.435919E0,0E0,1.2774521E1,4.9884605E-1,0E0,0E0,0E0,5.733032E-1,0E0,0E0,0E0,0E0,0E0,0E0,0E0,0E0,1.9562912E1,3.0699556E1,1.0713577E-1,6.54334E0,1.1495087E1,1.9710698E0,7.0018005E-1,0E0,0E0,7.9181767E-1,0E0,1.6886151E-1,4.8503113E0,8.288181E-1,1.2952049E1,1.7227173E-1,0E0,1.2345524E0,9.558964E0,0E0,0E0,0E0,0E0,0E0,3.740911E0,0E0,4.586413E1,2.6540833E0,2.0115152E1,3.5859985E0,0E0,2.2188277E0,0E0,0E0,1.8689497E0,8.306885E-2,0E0,0E0,0E0,0E0,0E0,0E0,0E0,0E0,3.7324307E0,5.956421E-1,0E0,0E0,0E0,0E0,0E0,0E0,0E0,0E0,6.3826632E0,3.2723875E0,0E0,0E0,2.530754E0,2.552765E1,0E0,2.1585846E0,0E0,2.8556595E0,2.6197987E0,0E0,0E0,0E0,0E0,0E0,0E0,1.6781347E0,0E0,0E0,1.2872076E0,0E0,2.1821694E0,6.1765323E0,0E0,0E0,0E0,0E0,0E0,0E0,0E0,0E0,0E0,0E0,0E0,0E0,0E0,0E0,0E0,0E0,0E0,0E0,0E0,0E0],"parents":[2147483647,0,0,1,1,2,2,3,3,4,4,5,5,6,6,7,7,8,8,9,9,10,10,11,11,12,12,13,13,14,14,15,15,16,16,17,17,19,19,21,21,22,22,23,23,24,24,27,27,28,28,29,29,30,30,31,31,32,32,33,33,34,34,35,35,36,36,37,37,38,38,43,43,44,44,48,48,51,51,52,52,55,55,56,56,57,57,58,58,59,59,60,60,61,61,62,62,65,65,66,66,67,67,69,69,70,70,74,74,83,83,84,84,85,85,86,86,87,87,88,88,89,89,92,92,94,94,95,95,96,96,97,97,98,98,100,100,101,101,107,107,109,109,110,110,111,111,112,112,114,114,117,117,118,118,127,127,128,128,137,137,138,138,141,141,142,142,144,144,146,146,147,147,154,154,157,157,159,159,160,160],"right_children":[2,4,6,8,10,12,14,16,18,20,22,24,26,28,30,32,34,36,-1,38,-1,40,42,44,46,-1,-1,48,50,52,54,56,58,60,62,64,66,68,70,-1,-1,-1,-1,72,74,-1,-1,-1,76,-1,-1,78,80,-1,-1,82,84,86,88,90,92,94,96,-1,-1,98,100,102,-1,104,106,-1,-1,-1,108,-1,-1,-1,-1,-1,-1,-1,-1,110,112,114,116,118,120,122,-1,-1,124,-1,126,128,130,132,134,-1,136,138,-1,-1,-1,-1,-1,140,-1,142,144,146,148,-1,150,-1,-1,152,154,-1,-1,-1,-1,-1,-1,-1,-1,156,158,-1,-1,-1,-1,-1,-1,-1,-1,160,162,-1,-1,164,166,-1,168,-1,170,172,-1,-1,-1,-1,-1,-1,174,-1,-1,176,-1,178,180,-1,-1,-1,-1,-1,-1,-1,-1,-1,-1,-1,-1,-1,-1,-1,-1,-1,-1,-1,-1],"split_conditions":[1.5704075E-1,5.5855952E-2,5.509373E-1,5.288701E-1,7.16012E-1,2.1617165E0,4.2445153E-1,2.786157E-1,7.3253375E-1,1.8151152E0,7.301748E-1,1.4760244E1,7.408287E-2,1.0224484E2,1.5369393E0,1.7763695E-2,3.929631E-1,3.2085707E0,-8.155119E-2,1.8398876E1,-8.0434434E-2,1.2568238E-1,1.5557438E-1,3.2464933E-1,4.925579E-1,-4.329066E-3,-6.907642E-2,6.7829254E1,1.1018071E0,1.734429E-1,2.1318514E-2,1.0943889E-3,7.264172E-2,1.3370893E0,2.1913025E0,1.6252743E-3,1.5471618E-2,1.4437386E-1,1.434995E1,-1.795399E-3,-4.8095666E-2,-8.017097E-2,-2.8679306E-2,1.0819282E-1,5.186703E-2,7.737444E-2,-7.526105E-2,-8.004922E-2,8.804901E0,6.208269E-2,-6.3841425E-2,1.0529044E0,1.7363625E0,-2.244741E-2,-7.1641706E-2,3.8099892E-2,1.1721425E0,1.0493953E1,1.2155909E1,1.2513922E2,1.3113487E0,5.355402E-2,2.8487857E-2,-6.2102103E-3,-8.0709405E-2,8.5387516E-1,1.93488E0,9.43246E-1,-7.287224E-2,1.7308211E-1,2.5444736E1,5.9971668E-2,-4.784391E-2,3.2621443E-2,5.401375E-1,6.516778E-2,-7.4077785E-2,-4.7914978E-2,4.6074748E-2,7.879909E-2,1.0866715E-2,-7.409535E-2,7.633571E-2,8.326389E-2,7.1262443E-1,3.4834534E-2,1.2795885E-1,3.3702893E0,1.3789124E0,3.869874E-1,-2.2303811E-3,5.4834545E-2,9.535577E-3,-8.146545E-2,1.5812306E0,4.914127E-1,6.862102E1,7.0521297E0,5.40547E-1,-4.7758352E-2,2.1498337E0,1.8162553E-1,-6.521957E-2,-4.931361E-2,8.0701105E-2,-1.2794415E-2,-6.584011E-2,3.2459164E-1,7.9956E-2,1.7670798E-1,3.9749257E-2,9.393993E0,2.2798699E-1,-7.4223034E-2,3.8895514E-2,4.8089266E-2,-5.61208E-2,8.231926E-2,4.833376E0,-6.335272E-2,5.059003E-3,-7.8102626E-2,-2.6684452E-2,-7.1052276E-2,-1.2497119E-2,-7.58294E-3,-4.3316018E-2,2.930057E0,3.1789964E-1,9.396576E-4,5.6715738E-2,-7.0283435E-2,4.705579E-2,-2.509799E-2,-7.853062E-2,7.798461E-2,1.5481109E-2,1.7575763E-1,1.5050792E0,6.339612E-2,-2.5217688E-2,1.532787E-2,1.9609341E-1,-2.5005164E-3,4.747015E-3,-5.8765728E-2,4.106386E-1,4.793097E0,1.6467607E-2,1.5013143E-2,-5.7716575E-2,-4.4438444E-2,2.1546012E-2,8.072311E-2,1.2843723E0,2.7089236E-2,-5.4140326E-2,2.6772278E-3,-8.035164E-2,8.76956E0,7.3174787E0,-2.3189378E-3,7.245499E-2,-7.867505E-2,-6.5516853E-3,7.9517715E-2,-2.162237E-2,-7.125637E-3,-7.767552E-2,7.0126474E-2,3.4201872E-3,-6.441518E-2,2.646574E-4,-6.671612E-3,5.9071016E-2,-5.7806056E-2,-2.20719E-3,3.9347883E-2,-1.159993E-2,-5.689E-2,3.3529665E-2],"split_indices":[4,4,1,3,1,3,4,1,3,3,1,0,1,5,1,4,1,2,0,5,0,4,4,2,3,0,0,5,1,3,0,0,3,2,2,0,4,4,0,0,0,0,0,3,3,0,0,0,0,0,0,4,3,0,0,3,2,5,0,5,0,4,4,0,0,0,5,3,0,2,0,0,0,0,2,0,0,0,0,0,0,0,0,3,0,4,1,5,2,1,0,0,4,0,1,1,5,5,3,0,0,3,0,0,0,0,0,1,0,2,0,5,1,0,4,0,0,1,0,0,0,0,0,0,0,0,0,0,3,0,0,0,0,0,0,0,0,1,2,0,0,4,2,0,1,0,3,2,0,0,0,0,0,0,2,0,0,4,0,5,0,0,0,0,0,0,0,0,0,0,0,0,0,0,0,0,0,0,0,0,0],"split_type":[0,0,0,0,0,0,0,0,0,0,0,0,0,0,0,0,0,0,0,0,0,0,0,0,0,0,0,0,0,0,0,0,0,0,0,0,0,0,0,0,0,0,0,0,0,0,0,0,0,0,0,0,0,0,0,0,0,0,0,0,0,0,0,0,0,0,0,0,0,0,0,0,0,0,0,0,0,0,0,0,0,0,0,0,0,0,0,0,0,0,0,0,0,0,0,0,0,0,0,0,0,0,0,0,0,0,0,0,0,0,0,0,0,0,0,0,0,0,0,0,0,0,0,0,0,0,0,0,0,0,0,0,0,0,0,0,0,0,0,0,0,0,0,0,0,0,0,0,0,0,0,0,0,0,0,0,0,0,0,0,0,0,0,0,0,0,0,0,0,0,0,0,0,0,0,0,0,0,0,0,0],"sum_hessian":[2.90756E4,2.8572879E4,5.0271906E2,2.804728E4,5.2559973E2,3.203271E2,1.8239198E2,2.1525366E3,2.5894744E4,2.136826E2,3.1191714E2,3.1476004E2,5.5670505E0,1.4853394E2,3.385806E1,3.1851428E2,1.8340225E3,6.544322E2,2.524031E4,1.3443631E2,7.924629E1,2.306705E0,3.0961044E2,2.8734033E2,2.7419697E1,1.214898E0,4.352153E0,1.4079436E2,7.7395782E0,2.6567728E1,7.290329E0,2.2808156E2,9.0432724E1,8.183051E1,1.7521919E3,5.6458185E2,8.985035E1,3.717225E1,9.726407E1,1.1085303E0,1.1981747E0,3.0802798E2,1.5824507E0,4.927756E0,2.8241257E2,1.6483326E1,1.093637E1,1.3054358E2,1.0250774E1,4.74401E0,2.9955678E0,3.716169E0,2.2851559E1,1.2762386E0,6.0140905E0,2.8271881E1,1.9980968E2,1.5242186E1,7.519054E1,7.0824936E1,1.1005578E1,1.6812603E3,7.0931656E1,1.4888471E0,5.6309296E2,8.20152E1,7.8351526E0,2.70278E1,1.0144452E1,9.219473E1,5.0693326E0,3.754506E0,1.17325E0,1.9964708E0,2.804161E2,1.0399431E0,9.210831E0,2.6910872E0,1.0250819E0,2.1775272E1,1.0762868E0,8.260053E0,2.0011827E1,1.638871E2,3.592258E1,1.1190046E1,4.052139E0,7.1045746E1,4.1447973E0,6.887621E1,1.9487209E0,4.209343E0,6.796235E0,1.6791677E3,2.0925772E0,6.8818245E1,2.1134062E0,8.193041E0,7.382216E1,1.4095584E0,6.425594E0,2.3258738E1,3.7690606E0,1.305013E0,9.088972E1,1.1073971E0,3.9619355E0,4.2771535E0,2.7613895E2,6.3789516E1,1.0009759E2,1.9508137E1,1.6414446E1,8.107532E0,3.082515E0,2.2269938E0,1.825145E0,2.6613035E0,6.838444E1,2.892411E0,1.2523863E0,6.6875435E1,2.0007808E0,5.6300583E0,1.1661769E0,1.0015378E0,1.0910393E0,3.7785807E0,6.5039665E1,1.0291945E0,1.0842118E0,5.3076653E0,2.885375E0,1.320554E0,7.25016E1,4.83655E0,1.5890437E0,1.6584593E1,6.674146E0,3.2465432E0,1.0306103E0,3.584892E1,2.7940598E1,1.2852039E0,9.8812386E1,3.4020958E0,1.6106041E1,1.5013437E1,1.4010077E0,1.0903331E0,1.992182E0,1.6340119E0,1.0272917E0,6.480567E1,3.57877E0,1.941308E0,1.8372726E0,3.9129028E0,6.1126766E1,7.2665734E0,9.318019E0,1.8760556E0,4.7980905E0,3.439205E1,1.4568671E0,7.879088E0,2.006151E1,1.3110937E0,9.750129E1,1.4194071E1,1.9119705E0,1.3264032E1,1.7494056E0,1.085951E0,2.492819E0,2.2634952E0,1.6494076E0,4.439652E0,2.8269212E0,7.617751E0,1.7002678E0],"tree_param":{"num_deleted":"0","num_feature":"6","num_nodes":"181","size_leaf_vector":"0"}},{"base_weights":[-1.5170522E0,-1.5525123E0,4.941318E-1,-1.5640764E0,-9.34568E-1,1.3699766E0,-1.0418534E0,-1.3740036E0,-1.5798376E0,-4.107119E-2,-1.5456043E0,1.4178164E0,-1.1188353E0,-1.4312558E0,6.5270317E-1,-3.0213374E-1,-1.5607309E0,-1.5154757E0,-1.5814477E0,8.5598934E-1,-1.5594153E0,-6.460265E-1,-1.5502683E0,1.5222607E0,3.0921483E-1,-1.3361844E0,-7.278762E-2,-1.5237595E0,2.2285457E-1,1.2164489E0,-1.2950755E0,-7.891461E-1,9.238277E-1,-1.3080479E0,-1.5718014E0,-1.5610017E0,-1.2156856E0,-4.7396672E-1,1.368466E0,-3.4964606E-2,-9.393947E-1,-1.5535969E0,-5.571634E-1,5.876416E-1,1.5365448E0,1.5003033E0,-1.4593103E0,-1.5511614E0,-1.0680207E0,1.2019062E0,-1.2404449E0,-4.9595124E-1,1.4493159E0,-4.367372E-1,-1.3899924E0,6.060678E-1,-9.880108E-1,-9.78882E-1,1.3195893E0,-1.5257918E0,-6.245534E-1,-1.578929E0,-1.3833408E0,-1.2059231E-1,-1.5646517E0,-1.4207846E0,8.27713E-1,-8.683816E-2,-1.4121563E0,1.5178204E0,-1.1306558E0,1.1621597E0,-9.34504E-1,1.5458134E0,9.3504435E-1,1.2613814E0,-1.4377044E0,-1.0162278E0,3.8304722E-1,1.5014541E0,2.067448E-1,-1.4372098E0,1.4790456E0,-1.1969554E0,-3.2966238E-2,-1.2997515E0,-1.4359874E-2,1.4602009E0,-8.8606405E-1,-1.4822568E0,4.9796787E-1,-1.5796729E0,-6.687456E-1,-1.4601557E0,7.5043947E-1,-5.468169E-1,-1.5096525E0,-9.335087E-1,1.2862344E0,1.4754596E-1,-1.2665039E0,-9.6275353E-1,1.5641127E0,-2.493371E-1,-1.2784485E0,6.335616E-1,1.5501611E0,-3.8337067E-1,1.2842035E0,-7.5652343E-1,-1.4691051E0,7.6533264E-1,-9.695085E-1,-1.4393829E0,-6.713957E-1,9.329183E-1,-1.0928233E0,-5.4006284E-1,1.5304208E0,-1.231095E0,9.837127E-2,1.1013265E0,-9.8221844E-1,-1.4797314E-1,-8.479219E-1,-3.0070353E-1,-1.5228221E0,1.8315373E-2,1.102511E0,-1.3629774E0,9.112791E-1,-4.8817143E-1,-1.5215478E0,1.5057698E0,2.996082E-1,-2.4957593E-1,1.0406356E0,1.571643E0,4.474841E-1,-1.526994E0,1.079463E-1,-4.8604462E-2,-1.4872267E0,-7.9405075E-1,1.3272651E0,-1.103518E0,3.1964582E-1,2.9896495E-1,-1.127315E0,1.5568469E0,8.156305E-1,-2.2153418E-1,1.4649147E0,5.2288187E-1,-1.0556335E0,-7.690003E-1,-1.5582498E0,2.8068435E-1,-8.5747766E-1,-4.4862207E-2,1.4031879E0,-8.2995445E-1,7.200115E-1,-1.384826E-1,-1.5040703E0,-1.1939802E0,1.401288E-1,1.4714583E0,3.2927293E-1,-1.2412349E0,5.1247845E-3,-1.2987845E-1,1.1502392E0,-1.1258543E0,-4.277847E-2,7.544852E-1,-2.968431E-1,-1.4067053E0,3.9052135E-1],"categories":[],"categories_nodes":[],"categories_segments":[],"categories_sizes":[],"default_left":[1,1,1,1,1,1,1,1,1,1,1,1,1,1,1,1,1,1,0,1,0,1,1,1,1,0,0,1,1,1,1,1,1,1,1,1,1,1,1,0,0,0,0,1,1,0,0,0,1,0,0,1,1,0,0,1,1,1,1,0,1,1,1,0,0,1,1,1,0,1,1,0,0,1,1,0,0,0,0,0,0,0,0,1,1,1,1,1,1,0,1,0,1,1,1,1,1,0,1,1,0,0,1,0,0,0,0,0,0,1,1,1,1,0,1,0,0,0,1,0,0,1,0,0,0,1,1,0,0,0,0,0,0,0,0,1,1,0,0,0,1,0,1,1,1,1,0,0,0,0,1,0,0,0,0,1,0,1,1,0,0,0,0,0,0,0,0,0,0,0,0,0,0,0,0,0,0,0,0],"id":6,"left_children":[1,3,5,7,9,11,13,15,17,19,21,23,25,27,29,31,33,35,-1,37,-1,39,41,43,45,-1,-1,47,49,51,53,55,57,59,61,63,65,67,69,-1,-1,-1,-1,71,73,-1,-1,-1,75,-1,-1,77,79,-1,-1,81,83,85,87,-1,89,91,93,-1,-1,95,97,99,-1,101,103,-1,-1,105,107,-1,-1,-1,-1,-1,-1,-1,-1,109,111,113,115,117,119,-1,121,-1,123,125,127,129,131,-1,133,135,-1,-1,137,-1,-1,-1,-1,-1,-1,139,141,143,145,-1,147,-1,-1,-1,149,-1,-1,151,-1,-1,-1,153,155,-1,-1,-1,-1,-1,-1,-1,-1,157,159,-1,-1,-1,161,-1,163,165,167,169,-1,-1,-1,-1,171,-1,-1,-1,-1,173,-1,175,177,-1,-1,-1,-1,-1,-1,-1,-1,-1,-1,-1,-1,-1,-1,-1,-1,-1,-1,-1,-1],"loss_changes":[2.0338359E3,1.9871875E2,6.6691345E2,8.021094E1,2.8225446E2,3.9147705E1,1.1984764E2,4.22489E2,2.34375E-1,2.8877988E2,2.8674316E-1,3.5418945E1,1.3825092E0,2.2809143E1,3.930457E1,1.8866159E2,2.977539E0,6.885376E0,0E0,9.15066E1,0E0,5.5841625E-1,1.4190674E-1,2.8754883E0,6.105045E1,0E0,0E0,8.163452E-2,1.3882955E1,1.1550411E1,6.0749054E-2,6.3252716E1,6.9026344E1,1.1174805E1,1.2451172E-1,2.7301025E0,3.862773E1,1.3614417E1,3.772934E1,0E0,0E0,0E0,0E0,6.227819E0,1.0522461E-1,0E0,0E0,0E0,1.1376842E1,0E0,0E0,2.2170608E0,1.2552147E0,0E0,0E0,5.348036E1,3.9476288E1,4.9523726E0,2.451976E1,0E0,2.1323717E1,6.0546875E-2,1.2686417E1,0E0,0E0,5.5105896E0,8.293629E0,7.8844357E0,0E0,1.2009506E1,4.6458483E-1,0E0,0E0,9.814453E-2,3.6004167E0,0E0,0E0,0E0,0E0,0E0,0E0,0E0,0E0,1.8360153E1,2.8086868E1,9.010315E-2,6.148743E0,1.0767868E1,1.8569102E0,0E0,1.0021022E1,0E0,1.62022E-1,4.526291E0,7.834449E-1,1.2068489E1,1.5007019E-1,0E0,1.1494036E0,8.814575E0,0E0,0E0,5.4977417E-2,0E0,0E0,0E0,0E0,0E0,0E0,4.2861153E1,2.4850311E0,1.8845272E1,3.3365097E0,0E0,2.1347673E0,0E0,0E0,0E0,2.670288E-2,0E0,0E0,3.9714403E0,0E0,0E0,0E0,3.5136843E0,5.3315735E-1,0E0,0E0,0E0,0E0,0E0,0E0,0E0,0E0,5.8827577E0,3.060917E0,0E0,0E0,0E0,1.8475496E1,0E0,2.0193634E0,2.41046E0,1.717144E0,2.4293194E0,0E0,0E0,0E0,0E0,1.5881138E0,0E0,0E0,0E0,0E0,1.2177057E0,0E0,2.9881964E0,6.3078218E0,0E0,0E0,0E0,0E0,0E0,0E0,0E0,0E0,0E0,0E0,0E0,0E0,0E0,0E0,0E0,0E0,0E0,0E0,0E0,0E0],"parents":[2147483647,0,0,1,1,2,2,3,3,4,4,5,5,6,6,7,7,8,8,9,9,10,10,11,11,12,12,13,13,14,14,15,15,16,16,17,17,19,19,21,21,22,22,23,23,24,24,27,27,28,28,29,29,30,30,31,31,32,32,33,33,34,34,35,35,36,36,37,37,38,38,43,43,44,44,48,48,51,51,52,52,55,55,56,56,57,57,58,58,60,60,61,61,62,62,65,65,66,66,67,67,69,69,70,70,73,73,74,74,83,83,84,84,85,85,86,86,87,87,88,88,90,90,92,92,93,93,94,94,95,95,96,96,98,98,99,99,102,102,109,109,110,110,111,111,112,112,114,114,118,118,121,121,125,125,126,126,135,135,136,136,140,140,142,142,143,143,144,144,145,145,150,150,155,155,157,157,158,158],"right_children":[2,4,6,8,10,12,14,16,18,20,22,24,26,28,30,32,34,36,-1,38,-1,40,42,44,46,-1,-1,48,50,52,54,56,58,60,62,64,66,68,70,-1,-1,-1,-1,72,74,-1,-1,-1,76,-1,-1,78,80,-1,-1,82,84,86,88,-1,90,92,94,-1,-1,96,98,100,-1,102,104,-1,-1,106,108,-1,-1,-1,-1,-1,-1,-1,-1,110,112,114,116,118,120,-1,122,-1,124,126,128,130,132,-1,134,136,-1,-1,138,-1,-1,-1,-1,-1,-1,140,142,144,146,-1,148,-1,-1,-1,150,-1,-1,152,-1,-1,-1,154,156,-1,-1,-1,-1,-1,-1,-1,-1,158,160,-1,-1,-1,162,-1,164,166,168,170,-1,-1,-1,-1,172,-1,-1,-1,-1,174,-1,176,178,-1,-1,-1,-1,-1,-1,-1,-1,-1,-1,-1,-1,-1,-1,-1,-1,-1,-1,-1,-1],"split_conditions":[1.5704075E-1,5.5855952E-2,5.509373E-1,5.288701E-1,7.16012E-1,2.1617165E0,4.2445153E-1,2.786157E-1,7.3280925E-1,1.8151152E0,7.301748E-1,1.4760244E1,2.387254E1,1.0224484E2,1.5369393E0,1.7763695E-2,3.929631E-1,3.2085707E0,-7.9072386E-2,1.8398876E1,-7.7970766E-2,1.2568238E-1,1.5557438E-1,3.2464933E-1,4.925579E-1,-6.680922E-2,-3.6393811E-3,6.7829254E1,1.1018071E0,8.115288E-1,2.1318514E-2,1.0943889E-3,7.264172E-2,1.10117E-2,2.1913025E0,1.6252743E-3,1.5471618E-2,1.4437386E-1,1.434995E1,-1.7482303E-3,-4.6969738E-2,-7.767984E-2,-2.7858172E-2,1.0819282E-1,6.283485E0,7.5015165E-2,-7.296552E-2,-7.755807E-2,8.804901E0,6.009531E-2,-6.2022246E-2,7.971947E1,3.493238E0,-2.183686E-2,-6.949962E-2,3.8099892E-2,1.1721425E0,1.0493953E1,1.2155909E1,-7.628959E-2,6.190339E-1,5.355402E-2,2.8487857E-2,-6.0296156E-3,-7.823259E-2,8.5387516E-1,1.93488E0,9.43246E-1,-7.060782E-2,1.7308211E-1,2.5444736E1,5.8107983E-2,-4.67252E-2,5.186703E-2,2.6227915E1,6.306907E-2,-7.188522E-2,-5.081139E-2,1.9152362E-2,7.5072706E-2,1.033724E-2,-7.186049E-2,7.395228E-2,8.326389E-2,7.1262443E-1,3.4834534E-2,1.2795885E-1,1.4139881E0,1.3789124E0,-7.411284E-2,3.5846362E0,-7.898365E-2,1.5812306E0,4.914127E-1,6.862102E1,7.0521297E0,5.40547E-1,-4.6675436E-2,2.1498337E0,1.8162553E-1,-6.33252E-2,-4.8137676E-2,7.024615E-1,-1.2466855E-2,-6.392243E-2,3.167808E-2,7.7508055E-2,-1.9168533E-2,6.421018E-2,1.3847515E-1,3.9749257E-2,1.6711931E1,2.2798699E-1,-7.1969144E-2,1.417906E-1,4.6645917E-2,-5.4641165E-2,-2.7003143E-2,4.833376E0,-6.155475E-2,4.9185636E-3,2.9050336E0,-4.9110923E-2,-7.398657E-3,-4.2396095E-2,2.930057E0,3.1789964E-1,9.157687E-4,5.5125553E-2,-6.8148874E-2,4.5563955E-2,-2.4408571E-2,-7.6077394E-2,7.52885E-2,1.498041E-2,2.512774E-1,1.5050792E0,7.858215E-2,2.2374205E-2,-7.63497E-2,7.4916705E-2,-2.4302232E-3,4.747015E-3,5.4541286E-3,2.366238E-1,4.793097E0,1.598229E-2,1.4948248E-2,-5.6365754E-2,7.784235E-2,1.2843723E0,-1.1076709E-2,7.3245734E-2,2.6144093E-2,-5.278168E-2,2.6772278E-3,-7.7912495E-2,7.2163486E0,6.104619E-1,-2.2431104E-3,7.01594E-2,-4.1497722E-2,3.6000576E-2,-6.92413E-3,-7.5203516E-2,-5.969901E-2,7.0064403E-3,7.357292E-2,1.6463647E-2,-6.2061746E-2,2.5623923E-4,-6.4939223E-3,5.7511963E-2,-5.6292713E-2,-2.1389236E-3,3.772426E-2,-1.4842155E-2,-7.033526E-2,1.9526068E-2],"split_indices":[4,4,1,3,1,3,4,1,3,3,1,0,5,5,1,4,1,2,0,5,0,4,4,2,3,0,0,5,1,2,0,0,3,4,2,0,4,4,0,0,0,0,0,3,0,0,0,0,0,0,0,5,0,0,0,3,2,5,0,0,2,4,4,0,0,0,5,3,0,2,0,0,0,3,5,0,0,0,0,0,0,0,0,3,0,4,1,5,2,0,0,0,1,1,5,5,3,0,0,3,0,0,1,0,0,0,0,0,0,2,0,5,1,0,2,0,0,0,0,0,0,5,0,0,0,0,3,0,0,0,0,0,0,0,0,1,2,0,0,0,1,0,1,4,1,2,0,0,0,0,2,0,0,0,0,4,0,5,1,0,0,0,0,0,0,0,0,0,0,0,0,0,0,0,0,0,0,0,0],"split_type":[0,0,0,0,0,0,0,0,0,0,0,0,0,0,0,0,0,0,0,0,0,0,0,0,0,0,0,0,0,0,0,0,0,0,0,0,0,0,0,0,0,0,0,0,0,0,0,0,0,0,0,0,0,0,0,0,0,0,0,0,0,0,0,0,0,0,0,0,0,0,0,0,0,0,0,0,0,0,0,0,0,0,0,0,0,0,0,0,0,0,0,0,0,0,0,0,0,0,0,0,0,0,0,0,0,0,0,0,0,0,0,0,0,0,0,0,0,0,0,0,0,0,0,0,0,0,0,0,0,0,0,0,0,0,0,0,0,0,0,0,0,0,0,0,0,0,0,0,0,0,0,0,0,0,0,0,0,0,0,0,0,0,0,0,0,0,0,0,0,0,0,0,0,0,0,0,0,0,0],"sum_hessian":[2.8506617E4,2.8012936E4,4.9368048E2,2.7496832E4,5.1610455E2,3.1447153E2,1.7920892E2,2.112245E3,2.5384586E4,2.1003908E2,3.060655E2,3.0896298E2,5.5085435E0,1.4584883E2,3.33601E1,3.137641E2,1.7984811E3,6.425305E2,2.4742057E4,1.323066E2,7.773248E1,2.298235E0,3.0376727E2,2.8202002E2,2.6942978E1,4.3312306E0,1.1773129E0,1.3819905E2,7.6497703E0,2.6163162E1,7.196937E0,2.2481342E2,8.895068E1,8.0489105E1,1.717992E3,5.5416797E2,8.836251E1,3.682227E1,9.5484314E1,1.1085012E0,1.1897337E0,3.0219003E2,1.5772465E0,4.879674E0,2.7714035E2,1.6190477E1,1.0752501E1,1.2809363E2,1.0105425E1,4.6902747E0,2.9594955E0,2.9967377E0,2.3166426E1,1.2743325E0,5.922605E0,2.7790503E1,1.9702292E2,1.5062248E1,7.3888435E1,6.0107914E1,2.038119E1,1.6482767E3,6.971525E1,1.4867735E0,5.526812E2,8.057934E1,7.783172E0,2.6839819E1,9.982452E0,9.047023E1,5.0140877E0,3.7142627E0,1.1654111E0,2.7138858E2,5.7517757E0,1.0537325E0,9.051693E0,1.7844228E0,1.2123148E0,2.2033556E1,1.1328696E0,8.125578E0,1.9664925E1,1.6144803E2,3.5574886E1,1.1041493E1,4.0207553E0,6.977802E1,4.110412E0,1.1371731E1,9.009459E0,1.6461957E3,2.0810342E0,6.759747E1,2.117774E0,8.097537E0,7.24818E1,1.3937483E0,6.389424E0,2.312092E1,3.7188983E0,1.2947335E0,8.91755E1,1.105979E0,3.9081087E0,1.9832455E0,2.6940533E2,1.1837999E0,4.567976E0,6.3103928E1,9.83441E1,1.930355E1,1.6271336E1,7.9779434E0,3.0635502E0,2.2124157E0,1.8083396E0,2.139578E0,6.763845E1,2.858121E0,1.252291E0,6.582309E0,2.4271493E0,1.0001041E0,1.08093E0,3.7635152E0,6.3833958E1,1.02933E0,1.0884439E0,5.2334046E0,2.8641322E0,1.3182627E0,7.1163536E1,4.796065E0,1.593359E0,1.650316E1,6.6177597E0,8.8173386E1,1.0021098E0,3.2960785E1,3.0143145E1,1.2851802E0,9.705892E1,5.0040517E0,1.42994995E1,1.48696165E1,1.4017192E0,1.0893276E0,1.9742227E0,6.4090935E1,3.5475152E0,1.5033386E0,5.0789704E0,1.9469172E0,1.8165982E0,3.884594E0,5.9949364E1,9.101971E0,7.4011903E0,1.8762982E0,4.7414618E0,1.1762632E1,1.8380512E1,1.3108954E0,9.5748024E1,3.3092365E0,1.6948153E0,1.2079759E1,2.219741E0,1.3120209E1,1.7494074E0,1.0872126E0,2.4603026E0,2.2357109E0,1.648883E0,4.8316784E0,4.2702923E0,5.0511003E0,2.35009E0],"tree_param":{"num_deleted":"0","num_feature":"6","num_nodes":"179","size_leaf_vector":"0"}},{"base_weights":[-1.4742744E0,-1.5087812E0,4.7922564E-1,-1.5200574E0,-9.0726054E-1,1.3295119E0,-1.0106324E0,-1.334183E0,-1.5354872E0,-4.0720478E-2,-1.5009723E0,1.3763647E0,-1.0851887E0,-1.3889383E0,6.294206E-1,-2.9022875E-1,-1.5160831E0,-1.4718279E0,-1.537081E0,8.2730246E-1,-1.5151742E0,-6.3037634E-1,-1.5055377E0,1.4779075E0,2.996072E-1,-7.2783336E-2,-1.3055872E0,-1.4792691E0,2.1401775E-1,1.1776028E0,-1.2577075E0,-7.588869E-1,8.919527E-1,-1.261921E0,-1.5274727E0,-1.5165732E0,-1.1779792E0,-4.5766276E-1,1.3273731E0,-4.8919946E-2,-9.367776E-1,-1.5088196E0,-5.413296E-1,5.6552273E-1,1.4919978E0,1.4576031E0,-1.4175564E0,-1.5063695E0,-1.0310568E0,1.1648823E0,-1.2066118E0,-3.3954185E-1,1.4342066E0,-4.249149E-1,-1.3507264E0,5.869154E-1,-9.509992E-1,-9.4853926E-1,1.2782298E0,-1.4833664E0,-5.787108E-1,-1.5345148E0,-1.341723E0,-1.1708574E-1,-1.5201926E0,-1.3785193E0,7.9725426E-1,-8.402622E-2,-1.3707465E0,1.47376E0,-1.0982019E0,1.1273229E0,-9.131838E-1,1.5010941E0,9.05275E-1,1.2220346E0,-1.3977242E0,-9.2017865E-1,8.8456255E-1,1.4863354E0,1.8556927E-1,-1.3964552E0,1.4357922E0,-1.1566217E0,-8.3444435E-3,-1.2611125E0,-1.5368084E-2,1.4167147E0,-8.5949904E-1,-1.4402531E0,4.9015114E-1,-1.5352393E0,-6.541242E-1,-1.4178985E0,7.3026305E-1,-5.2834386E-1,-1.46553E0,-9.1286373E-1,1.242319E0,1.4275749E-1,-1.2313558E0,-9.4038904E-1,1.5194982E0,-2.4296337E-1,-1.2429047E0,6.154038E-1,1.5053589E0,-3.7209046E-1,1.2497463E0,-7.2902024E-1,-1.4241073E0,7.97259E-1,-9.326597E-1,-1.3977246E0,-6.51535E-1,9.0553826E-1,-1.0649614E0,-3.8410193E-1,1.4941523E0,-1.1976284E0,9.564128E-2,1.047147E0,-9.5221084E-1,-8.3543855E-1,-1.4448775E-1,-2.9247522E-1,-1.4796684E0,1.7849721E-2,1.072486E0,-1.3237288E0,8.8293964E-1,-4.7483552E-1,-1.47725E0,1.456659E0,2.8994393E-1,-6.8653756E-1,5.3680944E-1,-1.483119E0,1.0266092E-1,-4.723822E-2,-1.4421129E0,-7.5105286E-1,1.3613412E0,-4.3258902E-1,-1.3815068E0,2.9113737E-1,-1.0979488E0,-8.574066E-1,4.205369E-1,1.5207657E0,7.921901E-1,-2.6958638E-1,1.4176366E0,5.047731E-1,-1.0299667E0,-7.473656E-1,-1.5144472E0,-1.2960682E0,1.7915872E-1,-3.0861384E-1,9.220939E-1,-7.418194E-1,7.438364E-1,-1.345682E-1,-1.4588523E0,-1.2450281E0,8.001687E-2,1.4274212E0,2.3335838E-1,-7.989755E-1,5.372882E-1,-1.2642089E-1,1.1210034E0,-1.0974216E0,-4.1455187E-2,8.3709306E-1,-9.349129E-1,1.0000473E0,-1.2719693E0,1.1904142E0,-3.8860127E-2],"categories":[],"categories_nodes":[],"categories_segments":[],"categories_sizes":[],"default_left":[1,1,1,1,1,1,1,1,1,1,1,1,1,1,1,1,1,1,0,1,0,1,1,1,1,0,0,1,1,1,1,1,1,1,1,1,1,1,1,0,0,0,0,1,1,0,0,0,1,0,0,1,1,0,0,1,1,1,1,0,1,1,1,0,0,1,1,1,0,1,1,0,0,1,1,0,0,0,0,0,0,0,0,1,1,1,1,1,1,0,1,0,1,1,1,1,1,0,1,1,0,0,0,0,0,0,0,0,0,1,1,1,1,0,1,0,0,1,1,0,0,1,0,0,0,1,1,0,0,0,0,0,0,0,0,1,1,0,1,0,1,1,1,1,0,0,0,0,0,0,1,0,0,0,0,1,0,0,1,1,1,0,0,0,0,0,0,0,0,0,0,0,0,0,0,0,0,0,0,0,0],"id":7,"left_children":[1,3,5,7,9,11,13,15,17,19,21,23,25,27,29,31,33,35,-1,37,-1,39,41,43,45,-1,-1,47,49,51,53,55,57,59,61,63,65,67,69,-1,-1,-1,-1,71,73,-1,-1,-1,75,-1,-1,77,79,-1,-1,81,83,85,87,-1,89,91,93,-1,-1,95,97,99,-1,101,103,-1,-1,105,107,-1,-1,-1,-1,-1,-1,-1,-1,109,111,113,115,117,119,-1,121,-1,123,125,127,129,131,-1,133,135,-1,-1,-1,-1,-1,-1,-1,-1,-1,137,139,141,143,-1,145,-1,-1,147,149,-1,-1,151,-1,-1,-1,153,155,-1,-1,-1,-1,-1,-1,-1,-1,157,159,-1,161,-1,163,165,167,169,-1,-1,-1,-1,-1,-1,171,-1,-1,-1,-1,173,-1,-1,175,177,179,-1,-1,-1,-1,-1,-1,-1,-1,-1,-1,-1,-1,-1,-1,-1,-1,-1,-1,-1,-1],"loss_changes":[1.8804102E3,1.8448047E2,6.1544934E2,7.508594E1,2.6061877E2,3.645941E1,1.105107E2,3.9247754E2,2.578125E-1,2.6623474E2,2.4603271E-1,3.2753845E1,1.3423395E0,2.1152588E1,3.6455948E1,1.7146869E2,3.1726074E0,6.496216E0,0E0,8.4762825E1,0E0,5.40092E-1,1.2738037E-1,2.7198486E0,5.6588577E1,0E0,0E0,1.02996826E-1,1.2955225E1,1.0887253E1,5.304718E-2,5.7772392E1,6.3756546E1,1.1444534E1,1.4038086E-1,2.5737305E0,3.5848648E1,1.26556E1,3.5184464E1,0E0,0E0,0E0,0E0,5.869477E0,9.484863E-2,0E0,0E0,0E0,1.0748659E1,0E0,0E0,4.1355968E0,1.2239609E0,0E0,0E0,4.958751E1,3.7599655E1,4.59939E0,2.2869957E1,0E0,2.0546247E1,2.4414062E-2,1.198616E1,0E0,0E0,5.14415E0,7.7704253E0,7.364657E0,0E0,1.132019E1,4.3479395E-1,0E0,0E0,8.087158E-2,3.4033074E0,0E0,0E0,0E0,0E0,0E0,0E0,0E0,0E0,1.7179657E1,2.7366041E1,7.609367E-2,5.7832313E0,1.0205353E1,1.7526572E0,0E0,9.321615E0,0E0,1.6286755E-1,4.242981E0,7.416127E-1,1.1262215E1,1.3470459E-1,0E0,1.0764351E0,8.199944E0,0E0,0E0,0E0,0E0,0E0,0E0,0E0,0E0,0E0,3.987905E1,2.3350372E0,1.8177387E1,3.242897E0,0E0,2.020835E0,0E0,0E0,1.7479773E0,3.614807E-2,0E0,0E0,4.2611275E0,0E0,0E0,0E0,3.3103356E0,4.8579407E-1,0E0,0E0,0E0,0E0,0E0,0E0,0E0,0E0,4.5370035E0,5.7590322E0,0E0,1.7368055E1,0E0,1.8972473E0,2.51746E0,7.6651E-1,3.8226104E0,0E0,0E0,0E0,0E0,0E0,0E0,1.5050671E0,0E0,0E0,0E0,0E0,1.1539674E0,0E0,0E0,3.897303E0,8.849844E0,3.0877953E0,0E0,0E0,0E0,0E0,0E0,0E0,0E0,0E0,0E0,0E0,0E0,0E0,0E0,0E0,0E0,0E0,0E0,0E0,0E0,0E0],"parents":[2147483647,0,0,1,1,2,2,3,3,4,4,5,5,6,6,7,7,8,8,9,9,10,10,11,11,12,12,13,13,14,14,15,15,16,16,17,17,19,19,21,21,22,22,23,23,24,24,27,27,28,28,29,29,30,30,31,31,32,32,33,33,34,34,35,35,36,36,37,37,38,38,43,43,44,44,48,48,51,51,52,52,55,55,56,56,57,57,58,58,60,60,61,61,62,62,65,65,66,66,67,67,69,69,70,70,73,73,74,74,83,83,84,84,85,85,86,86,87,87,88,88,90,90,92,92,93,93,94,94,95,95,96,96,98,98,99,99,109,109,110,110,111,111,112,112,114,114,117,117,118,118,121,121,125,125,126,126,135,135,136,136,138,138,140,140,141,141,142,142,143,143,150,150,155,155,158,158,159,159,160,160],"right_children":[2,4,6,8,10,12,14,16,18,20,22,24,26,28,30,32,34,36,-1,38,-1,40,42,44,46,-1,-1,48,50,52,54,56,58,60,62,64,66,68,70,-1,-1,-1,-1,72,74,-1,-1,-1,76,-1,-1,78,80,-1,-1,82,84,86,88,-1,90,92,94,-1,-1,96,98,100,-1,102,104,-1,-1,106,108,-1,-1,-1,-1,-1,-1,-1,-1,110,112,114,116,118,120,-1,122,-1,124,126,128,130,132,-1,134,136,-1,-1,-1,-1,-1,-1,-1,-1,-1,138,140,142,144,-1,146,-1,-1,148,150,-1,-1,152,-1,-1,-1,154,156,-1,-1,-1,-1,-1,-1,-1,-1,158,160,-1,162,-1,164,166,168,170,-1,-1,-1,-1,-1,-1,172,-1,-1,-1,-1,174,-1,-1,176,178,180,-1,-1,-1,-1,-1,-1,-1,-1,-1,-1,-1,-1,-1,-1,-1,-1,-1,-1,-1,-1],"split_conditions":[1.5704075E-1,5.5855952E-2,5.509373E-1,5.288701E-1,7.16012E-1,2.1617165E0,4.2445153E-1,2.7652115E-1,7.3280925E-1,1.8151152E0,7.301748E-1,1.4760244E1,7.408287E-2,1.0224484E2,1.5369393E0,1.7763695E-2,3.929631E-1,3.2085707E0,-7.685405E-2,1.8398876E1,-7.575871E-2,7.119199E-1,1.5557438E-1,3.2464933E-1,4.925579E-1,-3.639167E-3,-6.527936E-2,6.7829254E1,1.1018071E0,1.734429E-1,2.1318514E-2,1.0943889E-3,7.264172E-2,1.10117E-2,2.1913025E0,1.6252743E-3,1.5471618E-2,1.4437386E-1,1.434995E1,-2.4459974E-3,-4.683888E-2,-7.544098E-2,-2.7066482E-2,1.0819282E-1,6.283485E0,7.288016E-2,-7.087782E-2,-7.531848E-2,8.804901E0,5.8244117E-2,-6.033059E-2,1.0529044E0,1.7363625E0,-2.1245746E-2,-6.753632E-2,3.8099892E-2,1.1721425E0,1.0493953E1,1.2155909E1,-7.416832E-2,6.0101265E-1,5.355402E-2,2.8487857E-2,-5.854287E-3,-7.600963E-2,8.5387516E-1,1.93488E0,9.43246E-1,-6.8537325E-2,1.7308211E-1,2.5444736E1,5.6366146E-2,-4.5659192E-2,5.186703E-2,2.6227915E1,6.110173E-2,-6.988621E-2,-4.6008933E-2,4.422813E-2,7.431677E-2,9.278464E-3,-6.982276E-2,7.1789615E-2,8.326389E-2,7.1262443E-1,3.4834534E-2,1.2795885E-1,3.3702893E0,1.3789124E0,-7.2012655E-2,3.5846362E0,-7.676197E-2,1.0140522E0,4.914127E-1,6.862102E1,7.0521297E0,5.40547E-1,-4.5643188E-2,2.1498337E0,7.012975E-2,-6.156779E-2,-4.701945E-2,7.597491E-2,-1.2148169E-2,-6.2145233E-2,3.0770188E-2,7.526795E-2,-1.8604523E-2,6.2487315E-2,1.3847515E-1,3.9749257E-2,1.6711931E1,1.7442822E1,-6.988623E-2,1.417906E-1,4.5276914E-2,-5.3248074E-2,8.231926E-2,4.833376E0,-5.988142E-2,4.782064E-3,2.9050336E0,-4.7610544E-2,-4.177193E-2,-7.224388E-3,2.930057E0,3.1789964E-1,8.924861E-4,5.3624302E-2,-6.618644E-2,4.414698E-2,-2.3741776E-2,-7.38625E-2,7.283295E-2,1.4497197E-2,8.053747E-2,4.5877725E-1,-7.415595E-2,4.9421573E-1,-2.361911E-3,4.747015E-3,5.062933E-3,4.5666677E-1,1.8954259E-1,-6.907534E-2,1.4556869E-2,-5.489744E-2,-4.287033E-2,2.1026846E-2,7.6038286E-2,1.2843723E0,-1.3479319E-2,7.0881836E-2,2.5238654E-2,-5.1498335E-2,2.6772278E-3,-7.572236E-2,-6.4803414E-2,6.469478E-2,6.958617E-2,7.179221E-1,-3.709097E-2,3.719182E-2,-6.7284103E-3,-7.2942615E-2,-6.2251408E-2,4.0008435E-3,7.137106E-2,1.1667919E-2,-3.9948776E-2,2.686441E-2,-6.321044E-3,5.605017E-2,-5.4871082E-2,-2.0727594E-3,4.1854654E-2,-4.6745647E-2,5.0002366E-2,-6.359847E-2,5.952071E-2,-1.9430064E-3],"split_indices":[4,4,1,3,1,3,4,1,3,3,1,0,1,5,1,4,1,2,0,5,0,0,4,2,3,0,0,5,1,3,0,0,3,4,2,0,4,4,0,0,0,0,0,3,0,0,0,0,0,0,0,4,3,0,0,3,2,5,0,0,2,4,4,0,0,0,5,3,0,2,0,0,0,3,5,0,0,0,0,0,0,0,0,3,0,4,1,5,2,0,0,0,0,1,5,5,3,0,0,3,0,0,0,0,0,0,0,0,0,2,0,5,0,0,2,0,0,1,0,0,0,5,0,0,0,0,3,0,0,0,0,0,0,0,0,4,2,0,0,0,1,4,3,1,0,0,0,0,0,0,2,0,0,0,0,4,0,0,3,4,0,0,0,0,0,0,0,0,0,0,0,0,0,0,0,0,0,0,0,0,0],"split_type":[0,0,0,0,0,0,0,0,0,0,0,0,0,0,0,0,0,0,0,0,0,0,0,0,0,0,0,0,0,0,0,0,0,0,0,0,0,0,0,0,0,0,0,0,0,0,0,0,0,0,0,0,0,0,0,0,0,0,0,0,0,0,0,0,0,0,0,0,0,0,0,0,0,0,0,0,0,0,0,0,0,0,0,0,0,0,0,0,0,0,0,0,0,0,0,0,0,0,0,0,0,0,0,0,0,0,0,0,0,0,0,0,0,0,0,0,0,0,0,0,0,0,0,0,0,0,0,0,0,0,0,0,0,0,0,0,0,0,0,0,0,0,0,0,0,0,0,0,0,0,0,0,0,0,0,0,0,0,0,0,0,0,0,0,0,0,0,0,0,0,0,0,0,0,0,0,0,0,0,0,0],"sum_hessian":[2.7883727E4,2.7399959E4,4.8376706E2,2.6894268E4,5.0569122E2,3.080599E2,1.7570717E2,2.0681248E3,2.4826143E4,2.0603928E2,2.9965195E2,3.0261813E2,5.4417543E0,1.4289836E2,3.2808807E1,3.072668E2,1.7608579E3,6.289449E2,2.41972E4,1.299661E2,7.607319E1,2.2887425E0,2.973632E2,2.7619888E2,2.6419266E1,1.2106838E0,4.2310705E0,1.3534828E2,7.550075E0,2.5714977E1,7.09383E0,2.2029301E2,8.69738E1,8.0318474E1,1.6805394E3,5.4221844E2,8.67264E1,3.643324E1,9.353285E1,1.1900498E0,1.0986928E0,2.957916E2,1.5716043E0,4.826177E0,2.713727E2,1.586895E1,1.0550316E1,1.2540505E2,9.943238E0,4.63067E0,2.9194047E0,3.6733649E0,2.2041613E1,1.272175E0,5.8216553E0,2.726172E1,1.930313E2,1.48348255E1,7.213898E1,5.9773296E1,2.054518E1,1.6121586E3,6.838089E1,1.4847369E0,5.407337E2,7.900712E1,7.719277E0,2.6628716E1,9.804523E0,8.857937E1,4.95348E0,3.6696196E0,1.1565574E0,2.65695E2,5.677687E0,1.0651718E0,8.878066E0,2.6599424E0,1.0134224E0,2.0975548E1,1.0660634E0,7.9775033E0,1.9284216E1,1.5827875E2,3.475254E1,1.0849328E1,3.9854972E0,6.8066795E1,4.072176E0,1.1183445E1,9.361734E0,1.6100897E3,2.0688834E0,6.626054E1,2.1203573E0,7.991821E0,7.1015305E1,1.3770429E0,6.3422337E0,2.2964981E1,3.6637352E0,1.2833173E0,8.729605E1,1.1045129E0,3.8489668E0,1.9695281E0,2.637255E2,1.1888876E0,4.4887996E0,6.2342968E1,9.593578E1,1.8642126E1,1.6110416E1,7.8068075E0,3.0425203E0,2.1959944E0,1.7895029E0,2.643022E0,6.5423775E1,2.8199933E0,1.252183E0,6.9513445E0,2.4103901E0,1.0544547E0,1.0144286E0,3.7459319E0,6.2514603E1,1.0294617E0,1.0908957E0,5.150878E0,2.8409433E0,1.3156726E0,6.969963E1,4.7448616E0,1.597372E0,7.158157E0,1.5806824E1,3.2285713E1,3.0057255E1,1.285153E0,9.4650635E1,4.8895807E0,1.3752544E1,8.549265E0,7.5611515E0,1.0895648E0,1.9529555E0,1.6228497E0,1.0201722E0,6.191015E1,3.5136302E0,1.5862187E0,5.365126E0,1.9516737E0,1.794258E0,3.853992E0,5.866061E1,3.9088345E0,3.2493227E0,5.0107713E0,1.0796053E1,1.2904289E1,1.7152966E1,1.3106712E0,9.333996E1,2.7543397E0,2.1352413E0,1.2740701E1,1.011844E0,6.3330603E0,2.2162042E0,1.0884194E0,2.425211E0,2.2056212E0,1.6483709E0,2.1991782E0,1.0501444E0,2.1084626E0,2.9023085E0,8.252877E0,2.5431755E0],"tree_param":{"num_deleted":"0","num_feature":"6","num_nodes":"181","size_leaf_vector":"0"}},{"base_weights":[-1.4357821E0,-1.469439E0,4.6573818E-1,-1.480458E0,-8.8272274E-1,1.2927961E0,-9.820604E-1,-1.2982421E0,-1.4956014E0,2.3664488E-1,-1.3170738E0,1.3388036E0,-1.0534904E0,-1.3505744E0,6.087583E-1,-2.8194594E-1,-1.47626E0,-1.4322964E0,-1.4971857E0,-1.0916138E0,1.0969274E0,-5.322569E-1,-1.4881463E0,1.4377338E0,2.9083443E-1,-1.2664481E0,-6.0445283E-2,-1.4390111E0,2.0573685E-1,1.1429096E0,-1.2230359E0,-7.353484E-1,8.6421746E-1,-1.2248907E0,-1.4875721E0,-1.4764646E0,-1.1435158E0,6.941775E-1,-1.299132E0,1.3057967E0,-1.1352926E0,6.7081624E-1,-1.302343E0,8.02729E-1,1.4597095E0,1.4187725E0,-1.3793986E0,-1.4658922E0,-9.9696827E-1,1.13026E0,-1.1750436E0,-4.7140193E-1,1.3682036E0,-4.1346443E-1,-1.3145795E0,5.6938446E-1,-9.2100036E-1,-9.215013E-1,1.241628E0,-1.4596246E0,-6.05346E-1,-1.4945596E0,-1.3037683E0,-1.13681324E-1,-1.4800751E0,-1.3400002E0,7.689044E-1,-3.500349E-1,1.2423494E0,-1.3763564E0,7.73465E-2,-5.517877E-1,1.3731277E0,-1.2828273E0,-1.4987059E-1,-1.1577042E0,1.2119147E0,2.3388132E-2,-1.4597675E0,1.2520638E0,-7.4675965E-1,2.9953325E-1,1.4645892E0,1.1850928E0,-1.3611056E0,-9.6730566E-1,3.6125687E-1,1.420659E0,1.7588009E-1,-1.3591228E0,1.3963424E0,-1.1209569E0,-9.599056E-3,-1.2261637E0,-1.6352957E-2,1.377795E0,-8.3445543E-1,-5.9990126E-1,-1.4783819E0,-1.4151223E0,4.4847056E-1,-1.379492E0,7.110008E-1,-5.1113534E-1,-1.4254298E0,-8.931529E-1,1.201654E0,-3.60268E-1,-1.4316922E0,9.812135E-1,-8.935535E-1,-9.3529993E-1,6.2130406E-2,1.416626E0,-8.5092175E-1,-1.2569088E0,-3.245422E-1,1.3871213E0,-6.307201E-1,-1.0381632E0,9.835035E-1,1.365965E0,2.9676294E-1,-3.4514891E-3,-1.1229936E0,-7.039109E-1,-1.3836712E0,7.6947826E-1,-9.001452E-1,-1.3601121E0,-6.3272303E-1,8.7951285E-1,-1.0386668E0,-3.7148148E-1,1.4545561E0,-1.166378E0,9.2987664E-2,9.444171E-1,-9.3032306E-1,-2.8470993E-1,-1.4405929E0,1.7395837E-2,1.0440956E0,-1.2874892E0,8.5596293E-1,-4.61931E-1,-1.4370443E0,1.4117101E0,2.8061473E-1,-9.8893946E-1,5.13542E-1,1.12032406E-1,1.4483771E0,2.3786433E-1,1.4401143E0,1.6195472E-1,1.3412006E0,-1.3912421E0,1.5722159E-1,-4.5910552E-2,-1.4015466E0,-7.277149E-1,1.320338E0,-4.1400608E-1,-1.342097E0,2.896923E-1,-1.0740296E0,2.9135045E-1,-9.5260614E-1,1.4807591E0,7.699862E-1,-1.9644041E-1,1.3941401E0,4.874116E-1,-1.005668E0,-7.2677994E-1,-1.474926E0,9.7746855E-1,2.584523E-1,1.4706799E0,3.0218244E-1,-1.4456377E0,-6.1116286E-2,1.4871186E0,-4.043594E-1,-1.4165009E0,-1.2086902E-2,-1.1253768E0,1.9880925E-1,1.3852457E0,2.2762096E-1,-7.6858443E-1,5.1853913E-1,-1.1892244E-1,1.11324E0,-5.615014E-1,3.1867522E-1,-4.7976356E-2,-1.1073672E0,4.942208E-1,1.4960357E0],"categories":[],"categories_nodes":[],"categories_segments":[],"categories_sizes":[],"default_left":[1,1,1,1,1,1,1,1,1,1,1,1,1,1,1,1,1,1,0,1,1,1,0,1,1,0,0,1,1,1,1,1,1,1,1,1,1,1,1,1,1,1,1,1,1,0,0,0,1,0,0,1,1,0,0,1,1,1,1,1,1,0,1,0,0,1,1,0,0,1,1,1,1,0,0,1,1,1,0,1,1,0,0,0,0,0,0,0,0,0,0,1,1,1,1,1,1,0,0,0,1,1,1,1,1,0,1,1,0,0,0,0,0,1,0,0,0,1,0,0,1,0,0,0,0,1,1,1,1,0,1,0,0,1,1,0,0,1,0,1,1,0,0,0,1,0,0,0,0,0,0,0,1,0,0,0,0,1,1,0,1,1,1,1,0,0,0,0,0,0,1,1,0,0,0,1,0,0,0,1,0,0,0,0,0,0,0,0,0,0,0,0,0,0,0,0,0,0,0,0,0],"id":8,"left_children":[1,3,5,7,9,11,13,15,17,19,21,23,25,27,29,31,33,35,-1,37,39,41,-1,43,45,-1,-1,47,49,51,53,55,57,59,61,63,65,67,69,71,73,75,77,79,81,-1,-1,-1,83,-1,-1,85,87,-1,-1,89,91,93,95,97,99,-1,101,-1,-1,103,105,-1,-1,107,109,111,113,-1,-1,115,117,119,-1,121,123,-1,-1,-1,-1,-1,-1,-1,-1,-1,-1,125,127,129,131,133,135,-1,-1,-1,137,139,141,143,145,-1,147,149,-1,-1,-1,-1,-1,151,-1,-1,-1,153,-1,-1,155,-1,-1,-1,-1,157,159,161,163,-1,165,-1,-1,167,169,-1,-1,171,-1,173,175,-1,-1,-1,177,-1,-1,-1,-1,-1,-1,-1,179,-1,-1,-1,-1,181,183,-1,185,187,189,191,-1,-1,-1,-1,-1,-1,193,195,-1,-1,-1,197,-1,-1,-1,199,-1,-1,-1,-1,-1,-1,-1,-1,-1,-1,-1,-1,-1,-1,-1,-1,-1,-1,-1,-1,-1],"loss_changes":[1.7426562E3,1.7159375E2,5.690229E2,7.05E1,2.4122931E2,3.4031708E1,1.0221367E2,3.6537036E2,2.8515625E-1,1.6045383E2,4.715796E1,3.0355469E1,1.2708416E0,1.9666016E1,3.3900608E1,1.578877E2,3.0690918E0,6.151367E0,0E0,2.1389923E1,4.115281E1,6.15327E1,0E0,2.6096191E0,5.2554253E1,0E0,0E0,1.22406006E-1,1.2104938E1,1.0186783E1,4.807377E-2,5.317614E1,5.9260292E1,1.0713318E1,1.5966797E-1,2.4377441E0,3.3334625E1,4.102524E0,5.4084244E0,1.054718E1,9.439392E-1,2.7338444E1,8.436577E0,8.792518E0,1.0371094E0,0E0,0E0,0E0,1.0168213E1,0E0,0E0,1.983285E0,1.2060852E0,0E0,0E0,4.606478E1,3.4737335E1,4.287203E0,2.1394234E1,3.42865E-2,2.0790869E1,0E0,1.13478775E1,0E0,0E0,4.817581E0,7.2913365E0,0E0,0E0,2.1426926E0,4.032899E0,8.7066257E-1,8.540329E0,0E0,0E0,1.2909031E-1,7.562834E0,6.3795667E0,0E0,5.8722496E-1,8.807975E-1,0E0,0E0,0E0,0E0,0E0,0E0,0E0,0E0,0E0,0E0,1.615712E1,2.5193943E1,6.727028E-2,5.4441442E0,9.615021E0,1.6570976E0,0E0,0E0,0E0,8.41609E0,3.99337E0,7.029666E-1,1.0524279E1,1.2454224E-1,0E0,1.0133991E0,2.583392E0,0E0,0E0,0E0,0E0,0E0,2.933609E0,0E0,0E0,0E0,8.2858276E-1,0E0,0E0,7.449541E-1,0E0,0E0,0E0,0E0,3.7190434E1,2.204834E0,1.694039E1,3.0837603E0,0E0,1.9472775E0,0E0,0E0,1.6786703E0,2.4810791E-2,0E0,0E0,4.687833E0,0E0,3.1210613E0,4.5005798E-1,0E0,0E0,0E0,2.442336E-2,0E0,0E0,0E0,0E0,0E0,0E0,0E0,1.4186401E0,0E0,0E0,0E0,0E0,2.4323654E0,2.1979898E1,0E0,1.9279022E0,2.3813312E0,7.1447563E-1,3.5439334E0,0E0,0E0,0E0,0E0,0E0,0E0,1.4985778E0,8.011776E-1,0E0,0E0,0E0,1.1924648E0,0E0,0E0,0E0,1.0242157E0,0E0,0E0,0E0,0E0,0E0,0E0,0E0,0E0,0E0,0E0,0E0,0E0,0E0,0E0,0E0,0E0,0E0,0E0,0E0,0E0,0E0],"parents":[2147483647,0,0,1,1,2,2,3,3,4,4,5,5,6,6,7,7,8,8,9,9,10,10,11,11,12,12,13,13,14,14,15,15,16,16,17,17,19,19,20,20,21,21,23,23,24,24,27,27,28,28,29,29,30,30,31,31,32,32,33,33,34,34,35,35,36,36,37,37,38,38,39,39,40,40,41,41,42,42,43,43,44,44,48,48,51,51,52,52,55,55,56,56,57,57,58,58,59,59,60,60,62,62,65,65,66,66,69,69,70,70,71,71,72,72,75,75,76,76,77,77,79,79,80,80,91,91,92,92,93,93,94,94,95,95,96,96,100,100,101,101,102,102,103,103,104,104,106,106,107,107,113,113,117,117,120,120,125,125,126,126,127,127,128,128,130,130,133,133,134,134,137,137,139,139,140,140,144,144,152,152,157,157,158,158,160,160,161,161,162,162,163,163,170,170,171,171,175,175,179,179],"right_children":[2,4,6,8,10,12,14,16,18,20,22,24,26,28,30,32,34,36,-1,38,40,42,-1,44,46,-1,-1,48,50,52,54,56,58,60,62,64,66,68,70,72,74,76,78,80,82,-1,-1,-1,84,-1,-1,86,88,-1,-1,90,92,94,96,98,100,-1,102,-1,-1,104,106,-1,-1,108,110,112,114,-1,-1,116,118,120,-1,122,124,-1,-1,-1,-1,-1,-1,-1,-1,-1,-1,126,128,130,132,134,136,-1,-1,-1,138,140,142,144,146,-1,148,150,-1,-1,-1,-1,-1,152,-1,-1,-1,154,-1,-1,156,-1,-1,-1,-1,158,160,162,164,-1,166,-1,-1,168,170,-1,-1,172,-1,174,176,-1,-1,-1,178,-1,-1,-1,-1,-1,-1,-1,180,-1,-1,-1,-1,182,184,-1,186,188,190,192,-1,-1,-1,-1,-1,-1,194,196,-1,-1,-1,198,-1,-1,-1,200,-1,-1,-1,-1,-1,-1,-1,-1,-1,-1,-1,-1,-1,-1,-1,-1,-1,-1,-1,-1,-1],"split_conditions":[1.5704075E-1,5.5855952E-2,5.509373E-1,5.288701E-1,7.1873134E-1,2.1617165E0,4.2445153E-1,2.7652115E-1,7.324228E-1,4.617829E-1,1.5857356E0,1.4760244E1,2.387254E1,1.0224484E2,1.5369393E0,1.7763695E-2,3.929631E-1,3.2085707E0,-7.4859284E-2,1.2050742E-1,7.562086E-1,8.365809E-1,-7.440732E-2,5.401375E-1,4.925579E-1,-6.332241E-2,-3.0222642E-3,6.7829254E1,1.1018071E0,8.115288E-1,2.1318514E-2,1.0943889E-3,7.264172E-2,9.021141E-3,2.1913025E0,1.6252743E-3,1.5471618E-2,1.4843021E1,8.238732E0,6.008444E-2,1.3605745E0,1.5099732E1,1.1513236E0,1.3432097E-1,5.655E-2,7.0938624E-2,-6.896993E-2,-7.329461E-2,8.804901E0,5.6513E-2,-5.875218E-2,7.971947E1,3.493238E0,-2.0673221E-2,-6.572898E-2,3.8099892E-2,1.1721425E0,1.0493953E1,1.2155909E1,3.4506515E-2,6.046661E-1,-7.472798E-2,2.8487857E-2,-5.684066E-3,-7.4003756E-2,8.5387516E-1,1.93488E0,-1.7501745E-2,6.211747E-2,2.0416024E-1,6.4497745E-1,7.180677E-2,2.0522614E1,-6.414136E-2,-7.4935295E-3,4.3665975E-1,2.0100827E0,2.3036903E1,-7.2988376E-2,3.2615584E-1,2.8853005E-1,1.4976663E-2,7.322946E-2,5.9254643E-2,-6.805528E-2,-4.8365284E-2,1.8062843E-2,7.103295E-2,8.794005E-3,-6.795614E-2,6.981712E-2,8.326389E-2,7.1262443E-1,3.4834534E-2,1.2795885E-1,3.3702893E0,1.3789124E0,-2.9995063E-2,-7.3919095E-2,-7.0756115E-2,3.5846362E0,4.914127E-1,6.862102E1,7.0521297E0,5.40547E-1,-4.4657644E-2,2.1498337E0,1.6385627E-1,-7.158461E-2,4.9060676E-2,-4.4677675E-2,-4.6764996E-2,3.1065203E-3,1.4940789E0,-4.254609E-2,-6.284544E-2,-1.622711E-2,2.7154922E0,-3.1536005E-2,-5.190816E-2,1.0433743E0,6.829825E-2,1.4838147E-2,-1.7257447E-4,-5.614968E-2,1.7670798E-1,3.9749257E-2,1.6711931E1,1.7442822E1,-6.800561E-2,3.8895514E-2,4.3975644E-2,-5.1933344E-2,5.1199305E-1,4.833376E0,-5.83189E-2,4.6493835E-3,9.41819E0,-4.6516154E-2,2.930057E0,3.1789964E-1,8.697919E-4,5.2204784E-2,-6.437446E-2,3.6413267E-1,-2.309655E-2,-7.1852215E-2,7.058551E-2,1.4030737E-2,-4.9446974E-2,2.56771E-2,5.6016203E-3,5.824218E0,1.18932165E-2,7.200571E-2,8.097736E-3,6.706003E-2,1.532787E-2,1.9609341E-1,-2.2955276E-3,2.653455E-1,5.4541286E-3,4.5666677E-1,1.8954259E-1,-6.710485E-2,1.4484616E-2,-5.370148E-2,1.4567523E-2,-4.7630306E-2,7.403796E-2,5.151406E0,9.3745E-1,6.9707006E-2,2.4370579E-2,-5.0283402E-2,7.5481874E-1,-7.37463E-2,4.887343E-2,1.2922615E-2,2.4983041E-2,1.5109122E-2,-7.228189E-2,-3.0558144E-3,7.435593E-2,-2.021797E-2,-7.082505E-2,-6.043451E-4,-5.626884E-2,9.940463E-3,6.926229E-2,1.1381048E-2,-3.8429223E-2,2.5926957E-2,-5.946122E-3,5.5662002E-2,-2.807507E-2,1.5933761E-2,-2.3988178E-3,-5.536836E-2,2.471104E-2,7.480179E-2],"split_indices":[4,4,1,3,3,3,4,1,3,2,0,0,5,5,1,4,1,2,0,1,1,1,0,2,3,0,0,5,1,2,0,0,3,4,2,0,4,5,0,3,2,5,3,3,3,0,0,0,0,0,0,5,0,0,0,3,2,5,0,0,2,0,4,0,0,0,5,0,0,1,1,4,0,0,0,1,3,5,0,1,1,0,0,0,0,0,0,0,0,0,0,3,0,4,1,5,2,0,0,0,0,1,5,5,3,0,0,1,0,0,0,0,0,5,0,0,0,2,0,0,0,0,0,0,0,2,0,5,0,0,4,0,0,3,0,0,0,5,0,0,3,0,0,0,1,0,0,0,0,0,0,0,0,0,0,0,0,4,2,0,1,4,3,1,0,0,0,0,0,0,0,2,0,0,0,1,0,0,0,1,0,0,0,0,0,0,0,0,0,0,0,0,0,0,0,0,0,0,0,0,0],"split_type":[0,0,0,0,0,0,0,0,0,0,0,0,0,0,0,0,0,0,0,0,0,0,0,0,0,0,0,0,0,0,0,0,0,0,0,0,0,0,0,0,0,0,0,0,0,0,0,0,0,0,0,0,0,0,0,0,0,0,0,0,0,0,0,0,0,0,0,0,0,0,0,0,0,0,0,0,0,0,0,0,0,0,0,0,0,0,0,0,0,0,0,0,0,0,0,0,0,0,0,0,0,0,0,0,0,0,0,0,0,0,0,0,0,0,0,0,0,0,0,0,0,0,0,0,0,0,0,0,0,0,0,0,0,0,0,0,0,0,0,0,0,0,0,0,0,0,0,0,0,0,0,0,0,0,0,0,0,0,0,0,0,0,0,0,0,0,0,0,0,0,0,0,0,0,0,0,0,0,0,0,0,0,0,0,0,0,0,0,0,0,0,0,0,0,0,0,0,0,0,0,0],"sum_hessian":[2.7217549E4,2.6744398E4,4.7314984E2,2.6249887E4,4.9451297E2,3.0119733E2,1.7195253E2,2.0208246E3,2.4229062E4,1.3837123E2,3.5614175E2,2.9582596E2,5.3713555E0,1.3973407E2,3.221846E1,3.0159818E2,1.7192264E3,6.136341E2,2.3615428E4,5.428594E1,8.408528E1,6.447333E1,2.9166843E2,2.6996854E2,2.5857414E1,4.196172E0,1.1751832E0,1.32292E2,7.4420667E0,2.5235775E1,6.9826846E0,2.1636595E2,8.523221E1,7.874307E1,1.6404834E3,5.286637E2,8.497038E1,5.407419E0,4.887852E1,7.727013E1,6.815158E0,2.5213009E1,3.926032E1,1.0285673E1,2.5968286E2,1.55242E1,1.0333214E1,1.22524956E2,9.767053E0,4.566158E0,2.8759086E0,2.9568071E0,2.2278967E1,1.2697909E0,5.7128935E0,2.6694468E1,1.8967148E2,1.4619305E1,7.06129E1,5.6123108E1,2.2619963E1,1.5735321E3,6.695136E1,1.4827379E0,5.2718097E2,7.732521E1,7.645168E0,1.9859103E0,3.4215088E0,4.6282055E1,2.5964677E0,2.4511306E0,7.481899E1,5.665179E0,1.1499794E0,5.497134E0,1.9715876E1,4.2575235E0,3.5002792E1,8.122258E0,2.1634154E0,1.3489301E0,2.5833395E2,1.0743829E0,8.692669E0,1.7517916E0,1.2050155E0,2.115669E1,1.1222775E0,7.818294E0,1.8876175E1,1.5535706E2,3.431443E1,1.0672432E1,3.9468725E0,6.658223E1,4.0306716E0,1.9025704E0,5.422054E1,1.2597165E1,1.0022799E1,6.483008E1,2.121284E0,7.877579E0,6.944763E1,1.3595716E0,6.285596E0,2.7782283E0,4.3503826E1,1.3391515E0,1.2573162E0,1.1864604E0,1.2646703E0,7.373982E1,1.0791707E0,4.4577503E0,1.0393842E0,1.8229713E1,1.4861617E0,1.9833468E0,2.2741768E0,6.8729153E0,1.2493423E0,1.066182E0,1.0972333E0,6.1464508E1,9.389255E1,1.837519E1,1.5939239E1,7.6531053E0,3.0193272E0,2.177973E0,1.7688994E0,2.6375172E0,6.3944714E1,2.778608E0,1.2520635E0,7.6030517E0,2.4197464E0,3.7261393E0,6.1103935E1,1.0295895E0,1.0916946E0,5.061477E0,2.8161018E0,1.312814E0,6.813482E1,4.684494E0,1.6011019E0,1.53913E0,1.2390984E0,1.8596332E0,7.1880196E1,1.0454606E0,1.7184254E1,1.1304835E0,1.1436932E0,3.383933E1,2.762518E1,1.285123E0,9.260742E1,4.8559766E0,1.3519214E1,8.512457E0,7.4267817E0,1.0882447E0,1.9310826E0,1.4650837E0,1.1724335E0,6.0467186E1,3.4775274E0,2.3089368E0,5.294115E0,1.9556471E0,1.7704923E0,3.8214493E0,5.7282486E1,1.8117709E0,1.0043309E0,7.0230545E1,1.6496462E0,3.2426407E1,1.4129214E0,7.712613E0,1.9912567E1,9.160207E1,1.0053478E0,3.2475245E0,1.6084521E0,1.2508498E1,1.0107161E0,6.294821E0,2.2176366E0,1.1508269E0,2.3267004E0,1.2985845E0,1.0103524E0,1.7773973E0,2.0440521E0,2.2961617E0,6.793439E1],"tree_param":{"num_deleted":"0","num_feature":"6","num_nodes":"201","size_leaf_vector":"0"}},{"base_weights":[-1.4009697E0,-1.4338621E0,4.5326954E-1,-1.4446675E0,-8.5980356E-1,1.2591788E0,-9.561329E-1,-1.2655172E0,-1.4595753E0,-3.8684916E-2,-1.4247246E0,1.3044425E0,-1.0239125E0,-1.3156277E0,5.8866054E-1,-2.7402955E-1,-1.4402367E0,-1.3965334E0,-1.4611565E0,7.797636E-1,-1.4397063E0,-6.0136455E-1,-1.4291505E0,1.4009912E0,2.827848E-1,-6.0232073E-2,-1.2404659E0,-1.4024103E0,1.9794632E-1,1.109716E0,-1.1907347E0,-7.1294606E-1,8.3850354E-1,-1.191615E0,-1.4514698E0,-1.4401877E0,-1.1116209E0,-4.329235E-1,1.260748E0,-1.9131644E-2,-8.876459E-1,-1.4324334E0,-5.040095E-1,5.1611054E-1,1.4150406E0,1.3832998E0,-1.3443702E0,-1.4291416E0,-9.65392E-1,1.0977644E0,-1.1454931E0,-3.2606256E-1,1.3597022E0,-4.0236944E-1,-1.2811666E0,5.532572E-1,-8.924123E-1,-8.963389E-1,1.2079124E0,-1.4219525E0,-5.873072E-1,-1.4584341E0,-1.2688718E0,-1.1037614E-1,-1.4437932E0,-1.3044602E0,7.424143E-1,-8.4908485E-2,-1.2968266E0,1.4011587E0,-1.0270597E0,1.0609833E0,-8.854741E-1,1.4241886E0,8.377036E-1,1.1503545E0,-1.3274214E0,5.867796E-1,-1.0610944E0,1.41253E0,1.5649576E-1,-1.3247764E0,1.3601886E0,-1.0971456E0,-4.959764E-2,-1.193731E0,-1.7318873E-2,1.3420844E0,-8.1078446E-1,