{"learner":{"attributes":{"best_iteration":"99","best_ntree_limit":"100","scikit_learn":"{\"n_estimators\": 100, \"objective\": \"binary:logistic\", \"max_depth\": 10, \"max_leaves\": null, \"max_bin\": null, \"grow_policy\": null, \"learning_rate\": 0.05, \"verbosity\": null, \"booster\": null, \"tree_method\": null, \"gamma\": null, \"min_child_weight\": null, \"max_delta_step\": null, \"subsample\": null, \"sampling_method\": null, \"colsample_bytree\": null, \"colsample_bylevel\": null, \"colsample_bynode\": null, \"reg_alpha\": null, \"reg_lambda\": null, \"scale_pos_weight\": null, \"base_score\": null, \"missing\": NaN, \"num_parallel_tree\": null, \"random_state\": null, \"n_jobs\": null, \"monotone_constraints\": null, \"interaction_constraints\": null, \"importance_type\": null, \"gpu_id\": null, \"validate_parameters\": null, \"predictor\": null, \"enable_categorical\": false, \"feature_types\": null, \"max_cat_to_onehot\": null, \"max_cat_threshold\": null, \"eval_metric\": null, \"early_stopping_rounds\": null, \"callbacks\": null, \"_estimator_type\": \"regressor\"}"},"feature_names":[],"feature_types":[],"gradient_booster":{"model":{"gbtree_model_param":{"num_parallel_tree":"1","num_trees":"100","size_leaf_vector":"0"},"tree_info":[0,0,0,0,0,0,0,0,0,0,0,0,0,0,0,0,0,0,0,0,0,0,0,0,0,0,0,0,0,0,0,0,0,0,0,0,0,0,0,0,0,0,0,0,0,0,0,0,0,0,0,0,0,0,0,0,0,0,0,0,0,0,0,0,0,0,0,0,0,0,0,0,0,0,0,0,0,0,0,0,0,0,0,0,0,0,0,0,0,0,0,0,0,0,0,0,0,0,0,0],"trees":[{"base_weights":[-1.7010512E0,-3.680983E-1,-1.9436307E0,1.0757651E0,-1.8447548E0,-1.5652602E0,-1.9851749E0,1.283618E0,-1.3426163E0,-1.1322979E0,-1.9575776E0,-3.2134393E-1,-1.9433619E0,-1.9900881E0,-1.7439663E0,-7.512539E-1,1.5666227E0,5.819597E-1,-1.6976371E0,-1.7205864E0,2.794812E-1,-1.9670522E0,-8.0831856E-1,9.56995E-1,-1.7211642E0,-1.2229711E0,-1.9739842E0,-1.9538256E0,-1.9980044E0,-1.0070363E0,-1.9567128E0,4.685869E-1,-1.4498736E0,6.7586917E-1,1.6582763E0,-1.1045936E0,1.0466932E0,-1.9486196E0,-4.615077E-3,-1.9756836E0,-1.3676285E0,1.3844581E0,-1.86713E0,-1.9917122E0,-1.6973251E0,6.691836E-1,-1.818144E0,1.5381753E-1,1.5964622E0,-1.8794906E0,-3.3120096E-2,4.8466954E-1,-1.8069967E0,-1.9842066E0,-7.740717E-1,-1.6601051E0,-1.9733294E0,-2.2463584E-1,-1.9253874E0,-1.5982023E0,-1.9932346E0,-1.452233E0,1.3133799E0,-1.6687506E0,-5.6721765E-1,1.5960094E0,2.1084997E-1,1.2293223E0,1.7962366E0,-1.5755202E0,-8.8269085E-2,1.5637485E0,7.957907E-2,-1.9679348E0,-7.4292254E-1,-1.3501942E0,1.3025624E0,1.3675748E-1,-1.8890024E0,-1.3322994E0,1.6666694E0,-9.1753733E-1,-1.932537E0,-1.9850719E0,-6.911533E-1,1.4248576E0,-1.2803683E0,-1.2253036E0,5.610443E-1,-3.6820784E-1,1.7836703E0,-1.0710863E0,-1.954306E0,1.707785E0,-1.5963955E0,-1.5115405E0,1.3617061E0,-5.605331E-1,-1.8511146E0,-1.8207055E0,-1.998389E0,8.291052E-1,-1.816777E0,-1.1997428E0,-1.939075E0,-1.9747618E0,2.6004878E-1,-1.4131012E0,1.510899E0,-1.9559827E0,-4.8673934E-1,-1.8060576E0,1.3585385E0,9.019741E-1,-1.7292258E0,1.5096374E0,-9.850658E-1,-1.3177336E0,-1.9324727E0,1.25788E0,-8.3799356E-1,-3.5193035E-1,1.8496429E0,1.1128354E0,-2.4343637E-1,1.440753E0,1.2469991E-1,-1.5587381E0,1.814545E0,6.036144E-1,-7.2702473E-1,8.124991E-1,1.8001629E0,1.0605822E0,-1.5033733E0,3.3952743E-1,-1.2739884E0,1.4402705E-1,-1.771307E0,1.6610388E0,-1.0568372E0,-1.2151666E0,6.787807E-1,-1.9503572E0,-1.7318608E-1,-1.6751382E-1,-1.5928528E0,-1.1004543E0,1.7461189E0,-1.3001491E0,1.0905882E-1,7.5134826E-1,-1.9089762E0,1.7747803E-1,-1.3204805E0,1.5170211E0,-1.8447787E-1,-1.7866735E0,1.4346452E0,1.8123021E0,-1.0882443E0,-1.7386929E0,8.087287E-1,-3.596479E-1,-1.9599559E0,-1.8121532E0,-5.010956E-1,-4.110444E-1,-1.6632841E0,-3.8866344E-1,1.719961E0,3.7658066E-1,-1.1656438E0,-1.8745711E0,1.3791256E0,1.5029969E0,-6.5414E-1,-1.5569352E0,4.924432E-1,-1.6161929E0,-1.9777453E0,3.6610556E-1,-1.6132382E0,1.6668767E0,2.8414565E-1,3.078097E-1,-1.9010977E0,-1.8615218E0,6.817995E-1,-1.0882443E0,1.5766565E0,-3.0239412E-1,-1.4146942E0,-1.8436904E0,-8.345788E-1,2.7598956E-1,1.4777625E0,3.533174E-1,-1.153135E0,1.4070032E0,-1.3778867E0,-5.184745E-1,1.316096E0,-7.6953167E-1,6.003063E-1,1.0498042E0,1.7424704E0,-1.0043473E0,1.6519321E0,-3.3952743E-1,-1.6983705E0,1.8240215E0,-1.5282192E0,1.5468897E0,-1.0708706E0,-3.8285503E-1,1.4286354E0,1.1324818E0,-1.0304744E0,-1.4884303E0,1.4435896E-1,-1.2415353E0,1.0542303E0,6.180328E-1,-1.0435752E0,1.0072875E0,1.9154342E0,1.5962517E0,-1.4221108E0,-1.587172E0,-6.5690535E-1,-2.0597754E-1,1.711854E0,-1.3969359E0,2.4097948E-1,1.695056E0,-1.1950781E-1,1.033933E0,1.9042026E0,-5.1114106E-1,-1.8006305E0,-8.2026255E-1,1.3287503E0,-9.431029E-1,2.905712E-1,4.6299365E-1,-1.0922601E0,-1.3259946E0,-1.9627193E0,-0E0,-1.0013143E0,-1.6080046E0,1.0882443E0,-7.276803E-1,1.1712503E0,-1.9170213E0,1.4824648E0,1.3585385E0,-1.1333569E0,2.412305E-3,-1.7519394E0,1.7250329E0,3.3645448E-1,1.1479471E0,-1.0438374E0,-1.9085777E0,-6.6377234E-1,1.6275606E0,-3.2498267E-1,-1.2212918E0,1.0123675E0,-7.8740263E-1,-1.9186894E0,-4.0502E-1,-1.4020394E0,1.1199334E0,-1.2861658E0,-2.2514692E-1,-1.5492678E0,6.5341455E-1,-9.969528E-1,-1.0296444E0,1.4691224E0,2.4581498E-1,-1.6588011E0,1.2182722E0,-1.538266E0,1.5085384E0,-5.06566E-1,-1.4023495E0,1.786801E0,-1.6234066E0,-2.0317054E-1,1.7638302E0,-6.8673974E-1,1.8371037E0,2.7464893E-1,1.2697961E0,-2.4682122E-1,1.2336583E0,-6.87875E-1,-2.6018992E-1,1.826239E0,-4.3978852E-1,-1.5732574E0,-6.723751E-1,-1.7828155E0,-1.1770854E0,3.1723533E-2,1.3487593E0,-1.4537675E0,1.770811E0,-3.3952743E-1,3.9045244E-2,-1.528762E0,5.9599733E-1,-1.6544442E0,1.6743267E0,-2.4068157E-1,1.0554396E0,1.9415268E0,-1.8736696E0,-4.1959617E-1,2.3832217E-1,1.5598438E0,-1.529842E0,1.1795379E0,-1.8640984E0,-1.1117717E0,7.376113E-1,-1.338151E0,1.6434978E-1,1.5075195E0,-3.0483183E-1,3.5447386E-1,-4.2373105E-4,-1.8205487E0,9.0673625E-1,1.8711505E0,5.58718E-1,1.6915302E0,-1.1347942E0,-9.015313E-2,-8.433533E-1,1.1342034E0,1.1410589E0,-1.753533E0,-3.596479E-1,1.5523843E0,-1.5469818E0,9.287554E-1,6.7503095E-1,-1.7530638E0,-2.0942989E-1,-1.2880162E0,1.6456937E0,9.615429E-2,-1.2087219E0,1.1378266E0,-1.8783034E0,9.9379724E-1,-3.0565697E-1,1.7376491E0,-1.682379E0,-4.6626556E-1,4.014042E-1,1.717508E0,7.423766E-1,-1.4250592E0,1.8081448E0,-1.0522466E0,1.6406943E-1,-1.7512163E0,9.5027995E-1,-7.885797E-1,1.8306959E0,8.3079495E-2,1.8467317E0,1.3407028E-1,-1.6057764E0,1.4299494E0,1.6782777E0,7.747924E-1,-1.0551289E0,6.8914664E-1,1.6414164E0,-8.173684E-2,1.7928566E-1,-1.3470608E0,-1.6528688E-1,-1.5120559E0,-8.6031336E-1,7.8647447E-1,1.8169323E0,-0E0,-4.7013628E-1,-1.7148587E0,1.2372752E0,-6.208359E-1,1.827667E0,-0E0,-1.1980209E0,9.1794467E-1,1.504933E0,-7.8047633E-1,-1.8200934E0,-6.8283963E-1,-5.326006E-1,-1.8872752E0,1.406785E0,-1.6093194E0,-3.964844E-1,-1.4873163E0,1.2660557E0,-1.1173252E0,1.7332703E0,-2.6826661E-2,1.4970682E0,-6.7082655E-1],"categories":[],"categories_nodes":[],"categories_segments":[],"categories_sizes":[],"default_left":[1,1,1,1,1,1,1,1,1,1,1,1,1,1,1,1,1,1,1,1,1,1,1,1,1,1,1,1,0,1,1,1,1,1,1,1,1,1,1,0,1,1,1,0,1,1,0,1,1,1,1,1,1,1,1,1,1,1,1,1,0,1,1,1,1,1,1,1,1,0,1,1,1,0,1,1,1,1,1,1,1,1,0,0,1,0,0,1,1,1,1,1,1,0,1,1,1,1,0,1,0,1,0,1,0,1,0,1,1,0,0,1,0,0,1,1,1,1,0,1,1,1,0,1,1,1,1,1,1,0,0,1,0,1,0,0,0,1,0,0,0,1,1,0,1,0,0,0,1,0,0,1,0,0,1,1,1,0,1,1,0,1,1,0,0,0,1,0,0,1,0,0,0,1,0,0,1,1,1,1,0,1,1,1,1,0,0,1,0,0,1,1,0,1,1,0,0,1,1,0,0,1,1,1,1,1,1,1,1,0,0,1,0,0,0,0,0,0,0,0,0,0,1,0,0,1,0,1,1,1,1,1,1,1,1,0,0,1,1,0,1,0,1,0,0,0,0,1,0,0,0,1,0,1,1,0,0,0,0,1,1,1,0,0,0,0,0,1,0,0,0,1,0,1,1,1,0,1,1,0,1,0,1,1,1,1,1,1,1,0,1,1,1,1,0,1,1,1,1,1,0,0,0,0,0,1,0,1,1,0,0,1,0,0,1,1,0,1,1,1,0,0,0,0,0,1,0,1,1,0,1,1,1,0,0,0,0,1,0,0,0,0,0,0,0,0,0,0,0,0,0,0,0,0,0,0,0,0,0,0,0,0,0,0,0,0,0,0,0,0,0,0,0,0,0,0,0,0,0,0,0,0,0,0,0,0,0,0,0,0,0,0,0,0,0,0,0,0,0,0,0,0,0,0,0,0,0,0,0,0,0,0,0,0,0,0,0,0,0],"id":0,"left_children":[1,3,5,7,9,11,13,15,17,19,21,23,25,27,29,31,33,35,37,39,41,43,45,47,49,51,53,55,-1,57,59,61,63,65,67,69,71,73,75,-1,77,79,81,-1,83,85,-1,87,89,91,93,95,97,99,101,103,105,107,109,111,-1,113,115,117,119,121,123,125,127,-1,129,131,133,-1,135,137,139,141,143,145,147,149,-1,-1,151,-1,-1,153,155,157,159,161,163,-1,165,167,169,171,-1,173,-1,175,-1,177,-1,179,-1,181,183,-1,-1,185,-1,-1,187,189,191,193,-1,195,197,199,-1,201,203,205,207,209,211,-1,-1,213,-1,215,-1,-1,-1,217,-1,-1,-1,219,221,-1,223,-1,-1,-1,225,-1,-1,227,-1,-1,229,231,233,-1,235,237,-1,239,241,-1,-1,-1,243,-1,-1,245,-1,-1,-1,247,-1,-1,249,251,253,255,-1,257,259,261,263,-1,-1,265,-1,-1,267,269,-1,271,273,-1,-1,275,277,-1,-1,279,281,283,285,287,289,291,293,-1,-1,295,-1,-1,-1,-1,-1,-1,-1,-1,-1,-1,297,-1,-1,299,-1,301,303,305,307,309,311,313,315,-1,-1,317,319,-1,321,-1,323,-1,-1,-1,-1,325,-1,-1,-1,327,-1,329,331,-1,-1,-1,-1,333,335,337,-1,-1,-1,-1,-1,339,-1,-1,-1,341,-1,343,345,347,-1,349,351,-1,353,-1,355,357,359,361,363,365,367,-1,369,371,373,375,-1,377,379,381,383,385,-1,-1,-1,-1,-1,387,-1,389,391,-1,-1,393,-1,-1,395,397,-1,399,401,403,-1,-1,-1,-1,-1,405,-1,407,409,-1,411,413,415,-1,-1,-1,-1,417,-1,-1,-1,-1,-1,-1,-1,-1,-1,-1,-1,-1,-1,-1,-1,-1,-1,-1,-1,-1,-1,-1,-1,-1,-1,-1,-1,-1,-1,-1,-1,-1,-1,-1,-1,-1,-1,-1,-1,-1,-1,-1,-1,-1,-1,-1,-1,-1,-1,-1,-1,-1,-1,-1,-1,-1,-1,-1,-1,-1,-1,-1,-1,-1,-1,-1,-1,-1,-1,-1,-1,-1,-1,-1,-1,-1,-1,-1,-1,-1,-1],"loss_changes":[9.8493125E3,1.0004637E4,4.0201562E2,1.194407E3,1.8424951E2,1.2008237E3,2.4039062E1,1.2597212E3,1.2963052E2,2.6583954E2,2.0200684E1,1.0693477E3,4.079785E1,2.640625E0,7.1966064E1,2.2865245E2,1.5554102E2,2.4722292E1,6.7642365E1,1.76167E1,2.2753494E2,9.817383E0,2.8164602E1,1.6026028E2,7.6149536E1,8.315263E1,2.149121E1,2.0333984E1,0E0,7.6957375E1,1.592041E0,1.6120915E2,3.19617E1,7.698777E1,1.0071631E2,3.2024708E0,1.1919239E1,1.7669067E0,3.9676086E1,0E0,7.706406E1,5.066311E1,2.549591E-1,0E0,4.870862E1,1.3703948E1,0E0,7.910522E1,6.460986E1,1.3673462E1,7.204389E1,4.0247726E1,2.3545837E0,6.772461E-1,3.075673E1,3.1440979E1,1.2861328E1,1.2442943E2,1.223053E0,2.6287209E1,0E0,2.1424301E1,3.2480644E1,1.0041016E1,1.8529531E1,3.0549698E1,4.993277E1,9.9408875E1,8.352734E1,0E0,1.8840238E0,1.3152313E0,1.626035E1,0E0,2.6127648E0,7.2482185E0,1.1434374E1,1.997599E1,7.324829E0,1.7062979E0,1.4602676E1,1.7161689E0,0E0,0E0,7.170514E1,0E0,0E0,4.5260735E0,7.759679E1,4.33671E1,1.5040161E1,3.1895693E1,1.43396E0,0E0,2.3854256E0,5.073509E-1,1.0501678E1,2.4480598E0,0E0,3.012445E1,0E0,8.562107E0,0E0,6.2318375E1,0E0,9.3066406E-1,0E0,1.3305916E1,4.230049E0,0E0,0E0,7.9508286E0,0E0,0E0,1.0072266E1,1.2806107E1,1.335031E0,1.4083862E1,0E0,6.648264E-1,1.219343E1,1.603603E1,0E0,1.4202545E1,3.6604584E1,4.0376648E1,1.2167114E2,7.288532E-1,4.4193848E1,0E0,0E0,9.355692E0,0E0,3.956143E0,0E0,0E0,0E0,5.077384E0,0E0,0E0,0E0,3.126731E0,1.5221802E1,0E0,3.1313088E0,0E0,0E0,0E0,5.133316E0,0E0,0E0,3.7214355E1,0E0,0E0,4.3055573E0,1.6345695E1,3.223819E1,0E0,3.2705898E0,9.313904E0,0E0,4.668541E-1,7.0616617E0,0E0,0E0,0E0,1.5602562E0,0E0,0E0,2.5909293E0,0E0,0E0,0E0,5.0161743E0,0E0,0E0,6.9617605E-1,1.3141113E1,1.6181593E1,3.7609467E1,0E0,8.125567E0,7.238617E0,1.0911369E0,5.7620134E0,0E0,0E0,2.2281647E-1,0E0,0E0,6.5794525E0,5.5776963E0,0E0,7.5554657E-1,7.688118E0,0E0,0E0,1.0656622E1,8.863583E0,0E0,0E0,3.5868244E0,1.4629036E1,4.6086296E1,4.3942978E1,1.138367E2,3.0449036E1,1.9825832E1,9.051971E0,0E0,0E0,2.5923828E1,0E0,0E0,0E0,0E0,0E0,0E0,0E0,0E0,0E0,0E0,4.9921207E0,0E0,0E0,5.6972218E0,0E0,6.526703E0,1.7749214E-1,2.5330467E0,3.7519703E0,1.3081757E1,5.7907867E0,3.1284523E0,3.236493E1,0E0,0E0,1.5784739E1,2.3822937E0,0E0,9.2583466E-1,0E0,1.0709953E0,0E0,0E0,0E0,0E0,1.4519283E1,0E0,0E0,0E0,8.49205E0,0E0,7.4570866E0,3.9086075E0,0E0,0E0,0E0,0E0,4.921579E-1,3.5721207E0,7.492943E-1,0E0,0E0,0E0,0E0,0E0,3.2285461E0,0E0,0E0,0E0,7.6788783E-1,0E0,1.4911435E1,1.4681725E1,4.0972915E0,0E0,1.4656718E1,9.06776E0,0E0,6.7307377E-1,0E0,8.257408E0,3.3152164E1,1.7644775E1,2.0519833E1,3.8632774E-1,2.7668488E1,4.327523E1,0E0,1.3906067E1,5.491955E0,1.34821825E1,3.0928345E0,0E0,2.0950195E1,2.8567766E1,1.6262741E0,3.1544428E0,6.3048916E0,0E0,0E0,0E0,0E0,0E0,3.2749107E0,0E0,1.761159E0,4.33662E0,0E0,0E0,3.4197083E0,0E0,0E0,2.1238556E0,3.1989445E1,0E0,3.2524834E0,9.059325E0,7.8452654E0,0E0,0E0,0E0,0E0,0E0,4.52388E0,0E0,6.413574E-1,4.0829212E1,0E0,1.7739964E-1,7.338902E0,3.1916046E0,0E0,0E0,0E0,0E0,5.697531E0,0E0,0E0,0E0,0E0,0E0,0E0,0E0,0E0,0E0,0E0,0E0,0E0,0E0,0E0,0E0,0E0,0E0,0E0,0E0,0E0,0E0,0E0,0E0,0E0,0E0,0E0,0E0,0E0,0E0,0E0,0E0,0E0,0E0,0E0,0E0,0E0,0E0,0E0,0E0,0E0,0E0,0E0,0E0,0E0,0E0,0E0,0E0,0E0,0E0,0E0,0E0,0E0,0E0,0E0,0E0,0E0,0E0,0E0,0E0,0E0,0E0,0E0,0E0,0E0,0E0,0E0,0E0,0E0,0E0,0E0,0E0,0E0,0E0,0E0,0E0,0E0,0E0,0E0,0E0,0E0,0E0],"parents":[2147483647,0,0,1,1,2,2,3,3,4,4,5,5,6,6,7,7,8,8,9,9,10,10,11,11,12,12,13,13,14,14,15,15,16,16,17,17,18,18,19,19,20,20,21,21,22,22,23,23,24,24,25,25,26,26,27,27,29,29,30,30,31,31,32,32,33,33,34,34,35,35,36,36,37,37,38,38,40,40,41,41,42,42,44,44,45,45,47,47,48,48,49,49,50,50,51,51,52,52,53,53,54,54,55,55,56,56,57,57,58,58,59,59,61,61,62,62,63,63,64,64,65,65,66,66,67,67,68,68,70,70,71,71,72,72,74,74,75,75,76,76,77,77,78,78,79,79,80,80,81,81,84,84,87,87,88,88,89,89,90,90,91,91,92,92,94,94,95,95,96,96,97,97,99,99,101,101,103,103,105,105,107,107,108,108,111,111,114,114,115,115,116,116,117,117,119,119,120,120,121,121,123,123,124,124,125,125,126,126,127,127,128,128,131,131,133,133,137,137,141,141,142,142,144,144,148,148,151,151,154,154,155,155,156,156,158,158,159,159,161,161,162,162,166,166,169,169,173,173,176,176,177,177,178,178,179,179,181,181,182,182,183,183,184,184,187,187,190,190,191,191,193,193,194,194,197,197,198,198,201,201,202,202,203,203,204,204,205,205,206,206,207,207,208,208,211,211,222,222,225,225,227,227,228,228,229,229,230,230,231,231,232,232,233,233,234,234,237,237,238,238,240,240,242,242,247,247,251,251,253,253,254,254,259,259,260,260,261,261,267,267,271,271,273,273,274,274,275,275,277,277,278,278,280,280,282,282,283,283,284,284,285,285,286,286,287,287,288,288,290,290,291,291,292,292,293,293,295,295,296,296,297,297,298,298,299,299,305,305,307,307,308,308,311,311,314,314,315,315,317,317,318,318,319,319,325,325,327,327,328,328,330,330,331,331,332,332,337,337],"right_children":[2,4,6,8,10,12,14,16,18,20,22,24,26,28,30,32,34,36,38,40,42,44,46,48,50,52,54,56,-1,58,60,62,64,66,68,70,72,74,76,-1,78,80,82,-1,84,86,-1,88,90,92,94,96,98,100,102,104,106,108,110,112,-1,114,116,118,120,122,124,126,128,-1,130,132,134,-1,136,138,140,142,144,146,148,150,-1,-1,152,-1,-1,154,156,158,160,162,164,-1,166,168,170,172,-1,174,-1,176,-1,178,-1,180,-1,182,184,-1,-1,186,-1,-1,188,190,192,194,-1,196,198,200,-1,202,204,206,208,210,212,-1,-1,214,-1,216,-1,-1,-1,218,-1,-1,-1,220,222,-1,224,-1,-1,-1,226,-1,-1,228,-1,-1,230,232,234,-1,236,238,-1,240,242,-1,-1,-1,244,-1,-1,246,-1,-1,-1,248,-1,-1,250,252,254,256,-1,258,260,262,264,-1,-1,266,-1,-1,268,270,-1,272,274,-1,-1,276,278,-1,-1,280,282,284,286,288,290,292,294,-1,-1,296,-1,-1,-1,-1,-1,-1,-1,-1,-1,-1,298,-1,-1,300,-1,302,304,306,308,310,312,314,316,-1,-1,318,320,-1,322,-1,324,-1,-1,-1,-1,326,-1,-1,-1,328,-1,330,332,-1,-1,-1,-1,334,336,338,-1,-1,-1,-1,-1,340,-1,-1,-1,342,-1,344,346,348,-1,350,352,-1,354,-1,356,358,360,362,364,366,368,-1,370,372,374,376,-1,378,380,382,384,386,-1,-1,-1,-1,-1,388,-1,390,392,-1,-1,394,-1,-1,396,398,-1,400,402,404,-1,-1,-1,-1,-1,406,-1,408,410,-1,412,414,416,-1,-1,-1,-1,418,-1,-1,-1,-1,-1,-1,-1,-1,-1,-1,-1,-1,-1,-1,-1,-1,-1,-1,-1,-1,-1,-1,-1,-1,-1,-1,-1,-1,-1,-1,-1,-1,-1,-1,-1,-1,-1,-1,-1,-1,-1,-1,-1,-1,-1,-1,-1,-1,-1,-1,-1,-1,-1,-1,-1,-1,-1,-1,-1,-1,-1,-1,-1,-1,-1,-1,-1,-1,-1,-1,-1,-1,-1,-1,-1,-1,-1,-1,-1,-1,-1],"split_conditions":[6.533613E-1,6.1605585E-1,1.0950056E0,1.7075508E1,9.0017426E-1,2.3851018E0,4.5758E-2,2.5546753E-1,1.2368101E1,1.3005846E0,3.8294544E0,7.8227735E-1,4.6431837E0,2.2730815E0,1.8402474E0,1.3261001E-1,1.7202497E0,3.235069E-3,1.4122324E-2,1.313E-1,5.9101586E0,3.245002E-2,1.2418811E0,8.225704E-3,2.664468E-2,5.269919E-1,6.223122E-2,1.4035394E0,-9.990022E-2,7.317202E0,2.463877E-1,9.454316E-2,1.3492275E0,1.2008725E-1,4.125609E-3,1.0959878E0,8.816012E-3,5.8493824E0,1.3348839E0,-9.878418E-2,1.7995492E0,1.8254526E0,1.3008478E1,-9.9585615E-2,1.8820664E-1,4.485709E0,-9.09072E-2,4.552111E0,1.6164885E0,8.75336E-1,1.4698281E0,2.299149E0,5.874536E-1,1.9617722E1,2.1834457E1,8.641124E-1,2.2675889E0,1.8056576E1,2.658427E-1,2.4284202E-1,-9.966173E-2,1.2009215E-2,2.7987952E0,3.1882513E-1,1.8022544E0,4.1632935E-2,8.810754E-1,3.8382477E-1,1.8546402E-2,-7.877601E-2,4.5327955E-1,1.3576361E0,4.677874E1,-9.839674E-2,5.812598E3,2.1021451E-1,2.524724E2,2.8660565E-3,4.2811427E-2,1.0703193E0,1.2429449E-1,2.2295332E0,-9.662685E-2,-9.9253595E-2,3.481297E0,7.1242884E-2,-6.401842E-2,4.6826707E-4,7.884569E-1,5.9388323E0,1.3481493E1,4.731266E-3,4.2041332E-1,8.538925E-2,1.4087797E1,3.0182595E0,2.8936455E-3,3.8376977E0,-9.255573E-2,1.9458975E1,-9.991945E-2,1.0122249E-1,-9.083885E-2,7.676676E-3,-9.695375E-2,2.4858322E0,1.3002439E-2,8.1553423E-1,1.2052412E0,-9.779914E-2,-2.4336968E-2,1.95299E0,6.792693E-2,4.5098703E-2,3.219875E-2,5.8745427E-5,8.4055275E-2,8.3033435E-2,-9.662364E-2,1.5818822E0,3.8461918E-3,4.6939543E-1,9.248214E-2,5.07424E-1,1.3186918E0,1.3419716E0,2.1931295E0,1.2204822E-1,7.433001E-1,3.018072E-2,-3.6351237E-2,1.0438484E-1,9.000815E-2,2.2048376E1,-7.516866E-2,1.6976371E-2,-6.369942E-2,1.7918816E-1,-8.856535E-2,8.305194E-2,-5.284186E-2,1.344266E0,1.0920265E0,-9.751786E-2,1.4323425E1,-8.375691E-3,-7.9642646E-2,-5.5022717E-2,4.876081E-3,-6.5007456E-2,5.452941E-3,1.8273728E0,-9.5448814E-2,8.873901E-3,3.134683E0,1.7124944E0,2.3747563E0,-8.9333676E-2,4.43447E-1,2.0503082E0,-5.4412216E-2,6.296907E-4,1.9036064E0,-1.7982395E-2,-9.79978E-2,-9.0607665E-2,9.7220314E-1,-2.055222E-2,-8.316421E-2,5.5716815E0,8.599805E-2,1.8829033E-2,-5.8282193E-2,3.3714676E-1,6.895628E-2,7.514985E-2,8.4843147E-1,1.4013635E0,6.069353E0,2.4795775E0,-9.8887265E-2,5.928185E-2,5.1489435E-2,1.6278408E-1,1.5261178E0,1.53904855E-2,-9.505489E-2,6.278599E-1,3.4089975E-2,-5.4412216E-2,1.10516876E-1,2.5701149E0,-7.073471E-2,9.2474926E-1,6.820494E-2,1.3799478E-2,7.388812E-2,3.1332213E-1,2.0646172E0,7.035016E-2,-6.8894334E-2,3.2656938E-3,4.0945932E-2,1.1900992E0,5.356797E-1,2.553582E-1,5.7388425E-2,1.0895684E0,5.0448227E0,-1.6976371E-2,-8.491852E-2,1.2464354E1,-7.6410964E-2,7.7344485E-2,-5.3543534E-2,-1.9142753E-2,7.143177E-2,5.6624092E-2,-5.1523723E-2,-7.442152E-2,7.2179483E-3,-6.2076766E-2,4.575412E-1,3.090164E-2,-5.217876E-2,8.391738E-1,9.5771715E-2,2.1883628E0,3.8911104E-2,1.3896296E0,2.0712695E0,6.9359994E-1,2.1219482E0,1.3802317E-1,5.8456593E0,8.47528E-2,-5.975391E-3,1.7047415E0,1.6284907E0,-2.5557054E-2,3.668208E0,-4.101313E-2,8.0496144E-1,-4.7155146E-2,1.452856E-2,2.3149682E-2,-5.4613005E-2,3.570013E-2,-9.813597E-2,-0E0,-5.0065715E-2,9.351302E0,5.4412216E-2,6.903877E-1,2.8933687E0,-9.5851064E-2,7.412324E-2,6.792693E-2,-5.6667846E-2,2.3554379E-1,2.1597586E0,5.746513E-2,1.6822724E-2,5.7397354E-2,-5.2191872E-2,-9.5428884E-2,-3.318862E-2,1.3496906E-2,-1.6249133E-2,-6.106459E-2,5.0618377E-2,3.4823322E-1,-9.593447E-2,5.126378E-2,6.310111E-2,2.4566153E-1,-6.430829E-2,1.8395531E0,1.9256596E-1,3.267073E-2,4.5343506E-1,-5.148222E-2,4.2924494E-1,9.5776856E-1,5.3644407E-1,6.830045E-1,3.2163858E-1,4.12982E-2,3.822506E-1,-7.011747E-2,7.9816513E0,2.7749567E0,4.7304478E-1,3.4160782E-3,-3.4336988E-2,6.46153E-1,1.2561726E1,4.3311184E-3,1.5407067E-2,7.9009736E-1,-3.439375E-2,-1.3009496E-2,9.1311954E-2,-2.1989426E-2,-7.866287E-2,3.8732204E0,-8.914077E-2,1.5518521E0,1.9883702E-3,6.743797E-2,-7.268838E-2,5.6487107E0,-1.6976371E-2,1.9522622E-3,6.695386E0,8.2402074E-1,-8.272221E-2,6.519587E-1,2.109383E-2,4.119643E-1,9.707634E-2,-9.368348E-2,-2.0979809E-2,1.1916108E-2,7.799219E-2,1.0433488E-2,5.8976896E-2,1.9649999E0,9.708082E0,3.6880564E-2,1.1860499E0,8.059473E0,6.1725464E0,-1.5241592E-2,1.7723693E-2,-2.1186554E-5,-9.102743E-2,1.4220912E0,9.355753E-2,2.7935902E-2,8.457651E-2,-5.6739714E-2,-4.5076567E-3,-4.2167664E-2,5.6710172E-2,5.7052948E-2,-8.767665E-2,-1.7982395E-2,7.761922E-2,-7.734909E-2,4.643777E-2,3.3751547E-2,-8.765319E-2,-1.0471495E-2,-6.4400814E-2,8.228468E-2,4.8077144E-3,-6.0436096E-2,5.689133E-2,-9.391517E-2,4.9689863E-2,-1.5282849E-2,8.688246E-2,-8.4118955E-2,-2.3313278E-2,2.007021E-2,8.58754E-2,3.7118834E-2,-7.1252964E-2,9.0407245E-2,-5.261233E-2,8.203472E-3,-8.756082E-2,4.7514E-2,-3.9428987E-2,9.153479E-2,4.153975E-3,9.233659E-2,6.703514E-3,-8.028882E-2,7.149747E-2,8.3913885E-2,3.8739618E-2,-5.2756447E-2,3.4457333E-2,8.207082E-2,-4.0868423E-3,8.964283E-3,-6.735304E-2,-8.264344E-3,-7.560279E-2,-4.301567E-2,3.9323725E-2,9.084662E-2,-0E0,-2.3506815E-2,-8.5742936E-2,6.186376E-2,-3.1041795E-2,9.138335E-2,-0E0,-5.9901047E-2,4.5897234E-2,7.5246654E-2,-3.9023817E-2,-9.100467E-2,-3.4141984E-2,-2.663003E-2,-9.4363764E-2,7.0339255E-2,-8.046597E-2,-1.982422E-2,-7.436582E-2,6.3302785E-2,-5.586626E-2,8.6663514E-2,-1.341333E-3,7.485341E-2,-3.354133E-2],"split_indices":[3,1,3,0,1,0,4,2,5,2,2,1,0,0,3,1,5,4,4,3,0,4,1,4,4,1,4,3,0,0,1,2,0,1,4,2,4,2,2,0,0,5,0,0,3,2,0,5,2,1,1,2,1,0,0,1,0,5,4,1,0,3,0,1,0,3,5,1,3,0,3,2,0,0,0,3,0,4,4,5,3,2,0,0,0,0,0,4,3,5,2,4,5,0,5,0,4,0,0,0,0,4,0,4,0,2,0,5,1,0,0,3,0,0,4,4,3,2,0,0,4,2,0,2,5,2,2,1,4,0,0,1,0,0,0,0,0,1,0,0,0,0,5,0,0,0,0,0,4,0,0,1,0,0,5,2,2,0,1,2,0,4,2,0,0,0,3,0,0,2,0,0,0,1,0,0,1,3,5,2,0,4,4,4,3,0,0,0,0,0,3,5,0,5,4,0,0,1,0,0,0,4,3,5,3,3,3,2,0,0,0,0,0,0,0,0,0,0,0,0,0,0,3,0,0,1,0,5,4,5,2,3,0,1,2,0,0,2,5,0,2,0,1,0,0,0,0,4,0,0,0,5,0,5,2,0,0,0,0,0,2,4,0,0,0,0,0,3,0,0,0,0,0,3,3,1,0,0,1,0,5,0,3,5,3,2,0,3,0,0,2,5,1,4,0,3,0,4,4,0,0,0,0,0,0,2,0,2,4,0,0,2,0,0,5,0,0,0,4,1,0,0,0,0,0,4,0,2,5,0,3,5,2,0,0,0,0,3,0,0,0,0,0,0,0,0,0,0,0,0,0,0,0,0,0,0,0,0,0,0,0,0,0,0,0,0,0,0,0,0,0,0,0,0,0,0,0,0,0,0,0,0,0,0,0,0,0,0,0,0,0,0,0,0,0,0,0,0,0,0,0,0,0,0,0,0,0,0,0,0,0,0,0,0,0,0,0,0,0],"split_type":[0,0,0,0,0,0,0,0,0,0,0,0,0,0,0,0,0,0,0,0,0,0,0,0,0,0,0,0,0,0,0,0,0,0,0,0,0,0,0,0,0,0,0,0,0,0,0,0,0,0,0,0,0,0,0,0,0,0,0,0,0,0,0,0,0,0,0,0,0,0,0,0,0,0,0,0,0,0,0,0,0,0,0,0,0,0,0,0,0,0,0,0,0,0,0,0,0,0,0,0,0,0,0,0,0,0,0,0,0,0,0,0,0,0,0,0,0,0,0,0,0,0,0,0,0,0,0,0,0,0,0,0,0,0,0,0,0,0,0,0,0,0,0,0,0,0,0,0,0,0,0,0,0,0,0,0,0,0,0,0,0,0,0,0,0,0,0,0,0,0,0,0,0,0,0,0,0,0,0,0,0,0,0,0,0,0,0,0,0,0,0,0,0,0,0,0,0,0,0,0,0,0,0,0,0,0,0,0,0,0,0,0,0,0,0,0,0,0,0,0,0,0,0,0,0,0,0,0,0,0,0,0,0,0,0,0,0,0,0,0,0,0,0,0,0,0,0,0,0,0,0,0,0,0,0,0,0,0,0,0,0,0,0,0,0,0,0,0,0,0,0,0,0,0,0,0,0,0,0,0,0,0,0,0,0,0,0,0,0,0,0,0,0,0,0,0,0,0,0,0,0,0,0,0,0,0,0,0,0,0,0,0,0,0,0,0,0,0,0,0,0,0,0,0,0,0,0,0,0,0,0,0,0,0,0,0,0,0,0,0,0,0,0,0,0,0,0,0,0,0,0,0,0,0,0,0,0,0,0,0,0,0,0,0,0,0,0,0,0,0,0,0,0,0,0,0,0,0,0,0,0,0,0,0,0,0,0,0,0,0,0,0,0,0,0,0,0,0,0,0,0,0,0,0,0,0,0,0,0,0,0,0,0,0,0,0,0,0,0],"sum_hessian":[3.0461719E4,4.6904766E3,2.5771242E4,2.371709E3,2.3187673E3,2.5534958E3,2.3217746E4,2.1844326E3,1.8727641E2,3.1850394E2,2.0002634E3,5.9566583E2,1.95783E3,2.274715E4,4.705971E2,2.6650974E2,1.9179229E3,2.9066582E1,1.5820984E2,2.2466661E2,9.383733E1,1.983202E3,1.706138E1,3.1150797E2,2.8415784E2,8.149909E1,1.8763309E3,4.1203843E3,1.8626766E4,1.0670757E2,3.6388953E2,9.7171135E1,1.6933861E2,1.7971368E2,1.7382092E3,5.9817004E0,2.308488E1,1.3765253E2,2.0557306E1,1.27743576E2,9.6923035E1,6.2183285E1,3.1654049E1,1.8112256E3,1.719765E2,7.0636687E0,9.997712E0,1.3862901E2,1.7287895E2,2.5968762E2,2.4470228E1,2.0813204E1,6.0685886E1,1.8598329E3,1.6498034E1,2.6192984E2,3.8584543E3,5.8290703E1,4.841687E1,3.778072E1,3.261088E2,2.9462566E1,6.7708565E1,1.34977E2,3.4361603E1,5.951613E1,1.20197556E2,4.2541022E2,1.312799E3,3.7116487E0,2.2700515E0,1.4640567E1,8.444315E0,1.3485988E2,2.792645E0,1.0113642E1,1.0443665E1,2.5135141E1,7.1787895E1,5.501469E0,5.6681812E1,3.0082123E0,2.8645836E1,1.3297514E2,3.9001354E1,5.284469E0,1.7791995E0,3.1144756E1,1.0748426E2,1.4955929E1,1.5792302E2,2.329492E1,2.363927E2,1.153363E1,1.2936598E1,6.13224E0,1.4680964E1,2.543028E0,5.8142857E1,1.5877644E2,1.7010564E3,6.582374E0,9.915659E0,1.0083323E2,1.610966E2,3.856097E3,2.3575518E0,3.4708607E1,2.3582094E1,4.7056538E1,1.3603352E0,3.566284E1,2.11788E0,2.864068E0,2.65985E1,6.269815E1,5.010418E0,6.047749E1,7.449952E1,3.9683638E0,3.0393238E1,6.8119397E0,5.270419E1,3.977489E1,8.042267E1,3.568105E2,6.859974E1,6.6685176E0,1.3061305E3,1.1161174E0,1.1539341E0,4.566489E0,1.0074078E1,5.417145E0,3.0271697E0,1.0378683E0,1.7547768E0,2.3682919E0,7.74535E0,9.32314E0,1.1205246E0,6.8379345E0,1.8297207E1,6.917753E1,2.6103668E0,1.3060008E0,4.1954684E0,1.2233444E0,5.545847E1,1.9973394E0,1.010873E0,1.8029085E1,2.097227E1,1.9239233E0,2.9220833E1,4.6641464E1,6.08428E1,8.375303E0,6.5806255E0,1.5672945E2,1.1935701E0,1.7245384E1,6.049537E0,1.0628647E0,2.3532983E2,1.0260878E1,2.6757205E0,1.1925155E0,4.9397244E0,2.4798717E0,1.2201093E1,1.1459703E0,1.3970578E0,1.5655518E2,2.2212634E0,4.516877E0,2.0654967E0,8.332469E1,1.7508535E1,3.6297672E1,3.819799E3,3.4256353E0,3.1282972E1,2.0603638E1,2.978457E0,1.4381001E0,3.422474E1,2.5430979E1,1.1675191E0,1.1935701E0,6.150458E1,2.593401E0,2.417017E0,2.7607904E1,3.2869583E1,1.1386892E0,2.8296747E0,6.3327546E0,2.4060484E1,2.372699E0,4.4392405E0,4.235025E0,3.5539864E1,4.958999E1,3.0832682E1,1.5737375E2,1.9943672E2,3.9638382E1,2.8961359E1,1.0378683E0,5.630649E0,1.3028912E3,3.239257E0,3.4139364E0,1.1525527E0,1.0924681E0,4.3246765E0,1.3054272E0,1.0628647E0,5.6145897E0,1.2233444E0,2.6150727E0,1.5682135E1,1.519246E0,1.091121E0,1.1635317E1,4.382315E1,1.3173595E1,4.85549E0,1.9850885E1,9.3699465E0,4.7325053E0,4.190896E1,1.5211125E1,4.563167E1,5.558579E0,1.0220463E0,1.7844305E1,1.3888515E2,1.2727636E0,1.597262E1,1.3241653E0,4.725372E0,1.5942969E0,1.0814235E0,1.2765973E0,1.2032745E0,2.3894505E1,1.3266068E2,1.0628647E0,1.002632E0,8.213112E1,1.1935701E0,6.2330055E0,1.127553E1,3.34332E1,2.864471E0,2.11788E0,1.3077552E0,2.5509574E0,2.8732016E1,1.9456535E1,1.1471022E0,1.8867624E0,1.0916946E0,2.389861E1,1.532371E0,6.0041485E1,1.4630965E0,1.5683563E0,1.0250446E0,2.5925934E0,2.5015312E1,1.9683342E1,1.3186242E1,4.5309834E0,1.8017713E0,7.667295E0,1.6393188E1,1.1218296E0,3.1131954E0,1.8256702E0,3.3714195E1,2.3491512E1,2.6098475E1,2.4254414E1,6.578268E0,1.215717E2,3.580205E1,2.346437E0,1.9709029E2,2.1781675E1,1.7856705E1,2.7873499E1,1.0878611E0,1.2917982E3,1.1093033E1,1.3473749E1,2.2083857E0,1.05047655E1,1.1305517E0,1.4376507E0,1.1735945E1,1.1688242E0,3.686666E0,4.2791247E0,1.5571761E1,4.9337487E0,4.4361978E0,2.071061E0,2.6614447E0,4.087109E1,1.0378683E0,1.338177E0,1.3872949E1,3.901047E1,6.6212034E0,1.1668304E1,6.176E0,7.083424E0,1.3180173E2,1.4831506E1,1.1411138E0,1.1815308E0,3.543841E0,2.2456854E1,1.4376507E0,5.23553E1,2.977582E1,1.7718439E0,4.461162E0,3.1955986E0,8.079931E0,1.4338171E0,1.1171404E0,1.120974E0,2.7611042E1,4.0395465E0,1.5416988E1,3.9402134E0,5.610127E1,1.3115889E0,1.2810045E0,1.5672335E1,4.011007E0,1.3284484E0,1.1857794E1,1.0628647E0,3.4681187E0,3.4148335E0,4.2524614E0,1.1818452E0,1.5211344E1,1.3041428E0,1.8090526E0,2.9696432E1,4.017762E0,8.795042E0,1.4696471E1,2.4373472E1,1.7250024E0,6.2696924E0,1.798472E1,5.296814E0,1.2814538E0,1.9766804E1,1.0180489E2,1.5253073E1,2.0548979E1,1.9598004E2,1.1102535E0,1.4345906E0,2.0347086E1,5.801853E0,1.20548525E1,2.672123E1,1.1522694E0,1.2844523E3,7.345952E0,4.073263E0,7.0197697E0,6.0723534E0,7.401396E0,1.116691E0,1.0916946E0,7.8297715E0,2.6749938E0,2.216053E0,2.063072E0,1.5985799E0,3.3351688E0,1.9690831E0,2.4671147E0,3.9808228E1,1.0628647E0,2.6013362E0,1.1271612E1,2.5536037E1,1.3474433E1,1.060544E1,1.0628647E0,3.3631365E0,2.8128633E0,5.8350835E0,1.2483408E0,1.5869738E1,6.5871167E0,1.3060008E0,5.10493E1,4.6104684E0,2.5165352E1,1.1102535E0,3.3509085E0,1.7250024E0,1.4705961E0,6.9305763E0,1.1493547E0,2.976682E0,1.0628647E0],"tree_param":{"num_deleted":"0","num_feature":"6","num_nodes":"419","size_leaf_vector":"0"}},{"base_weights":[-1.6200814E0,-3.5078117E-1,-1.8511397E0,1.0237709E0,-1.7571875E0,-1.4908926E0,-1.8906988E0,1.2216743E0,-1.279307E0,-1.0793236E0,-1.8645607E0,-3.0660754E-1,-1.851018E0,-1.8953772E0,-1.6610469E0,-7.163475E-1,1.4912591E0,5.538649E-1,-1.6177421E0,-1.6393422E0,2.6436433E-1,-1.8735558E0,-7.7381265E-1,9.1026855E-1,-1.6397482E0,-1.1662928E0,-1.8801363E0,-1.860736E0,-1.9029379E0,-9.590226E-1,-1.8637993E0,4.450056E-1,-1.3815751E0,6.431599E-1,1.5785564E0,-1.062525E0,9.9966705E-1,-1.8567016E0,-6.8659848E-3,-1.8822953E0,-1.3032995E0,1.3177631E0,-1.7823834E0,-1.8969566E0,-1.6175687E0,6.373088E-1,-1.738821E0,1.4405836E-1,1.5208E0,-1.7905271E0,-3.3007685E-2,4.588781E-1,-1.7223574E0,-1.8898512E0,-7.403132E-1,-1.8620442E0,1.1580943E0,-2.1243359E-1,-1.8358448E0,-1.521785E0,-1.8986521E0,-1.3838687E0,1.2491252E0,-1.590471E0,-5.3966135E-1,1.5208519E0,1.9985065E-1,1.1699623E0,1.7100197E0,-1.5153457E0,-8.576E-2,1.4953989E0,7.325671E-2,-1.8748385E0,-7.1845675E-1,-1.2922015E0,1.2419394E0,1.2909168E-1,-1.8003466E0,-1.2805634E0,1.5880193E0,-8.869984E-1,-1.8433932E0,-1.8912554E0,-6.608526E-1,1.3664331E0,-1.2402116E0,-1.1725676E0,5.3290266E-1,-3.510594E-1,1.6992406E0,-1.0229615E0,-1.8615811E0,1.6319904E0,-1.5278739E0,-1.4523016E0,1.2990941E0,-5.4384583E-1,-1.7638973E0,-1.7342186E0,-1.9033514E0,7.9170865E-1,-1.7375684E0,-1.5810565E0,-1.8807205E0,-1.3469512E0,1.4441651E0,-1.864654E0,-4.7275418E-1,-1.7216233E0,1.313444E0,8.688797E-1,-1.6495448E0,1.4371572E0,-9.5014644E-1,-1.2565985E0,-1.8414375E0,1.21361E0,-8.000947E-1,-3.3450514E-1,1.762641E0,1.0584571E0,-2.3264062E-1,1.3712653E0,1.1850598E-1,-1.4961188E0,1.7275327E0,5.877677E-1,-7.076776E-1,7.7699804E-1,1.7215054E0,1.0166109E0,-1.448433E0,-1.2442111E0,3.446416E-1,1.3841403E-1,-1.6958615E0,1.5885463E0,-1.0293006E0,-1.1641629E0,6.4761955E-1,-1.8586539E0,-1.7047489E-1,-1.627719E-1,-1.5305313E0,-1.0706326E0,1.6647013E0,-1.2577302E0,1.0631805E-1,7.1377516E-1,-1.8218951E0,1.7164138E-1,-1.2639414E0,1.4103512E0,-2.0746839E-1,-1.7099653E0,1.3751522E0,1.7268728E0,-1.0590712E0,-1.6624905E0,7.759054E-1,-3.5039753E-1,-1.866907E0,-1.1829728E-1,-1.6542877E0,-3.9988938E-1,-1.5964541E0,1.5271504E0,-9.9752927E-1,3.6654332E-1,-1.1322453E0,-1.7859806E0,1.3326862E0,1.4431645E0,-6.3789916E-1,-1.142246E0,-1.8471017E0,-1.5393559E0,-1.8835603E0,3.5062897E-1,-1.538103E0,1.5934277E0,2.7140766E-1,2.9874235E-1,-1.8127836E0,-1.7770586E0,6.635427E-1,-1.0590712E0,1.5018376E0,-2.903578E-1,-1.3658884E0,-1.7606674E0,-7.941426E-1,2.6864928E-1,1.424628E0,3.3535507E-1,-1.1005212E0,1.3587139E0,-1.322961E0,1.7881138E0,7.433059E-1,-5.0083065E-1,1.253067E0,-7.3311263E-1,5.699719E-1,9.991908E-1,1.6585848E0,-9.5701724E-1,1.5743941E0,-3.3089387E-1,-1.6287928E0,1.7366163E0,-1.4715011E0,1.4888182E0,-1.0426083E0,-3.7287882E-1,1.3720638E0,1.1009268E0,-1.0042766E0,-1.4269645E0,1.4038849E-1,-1.1974787E0,1.0086737E0,5.994851E-1,-1.016716E0,9.614296E-1,1.825958E0,1.5246506E0,-1.369586E0,-1.517357E0,-6.329213E-1,-1.1377188E0,1.509734E0,-1.36242E0,1.9931625E-1,1.6257397E0,-1.1648802E-1,9.8777103E-1,1.8141526E0,-4.9687517E-1,-1.7207216E0,-7.9708993E-1,1.2792529E0,-1.8229829E-1,1.7031782E0,-1.3089194E0,-1.8793851E0,-0E0,-9.7656006E-1,-1.4828825E0,4.7029054E-1,-1.8280959E0,1.429001E0,1.313444E0,-1.1017541E0,2.9908945E-3,-1.6706727E0,1.648505E0,3.274794E-1,1.1110407E0,-1.016965E0,-1.8210243E0,-6.437986E-1,1.5506374E0,-3.153432E-1,-1.1846886E0,9.870706E-1,-7.6531255E-1,-1.830557E0,-1.1606321E0,-1.8005927E-1,1.0757749E0,-1.2456522E0,-2.1765283E-1,-1.4774594E0,6.362325E-1,-9.657664E-1,-9.968156E-1,1.4002411E0,2.3357207E-1,-1.5807471E0,1.1618087E0,-1.4774225E0,1.4362396E0,-4.8259082E-1,-1.3543712E0,1.7011536E0,-1.5484185E0,-1.9266503E-1,1.6822686E0,-6.689532E-1,1.7490891E0,2.6052696E-1,1.2159338E0,-2.4026911E-1,1.1801373E0,-6.6973114E-1,-2.5252378E-1,1.7455032E0,-4.2029124E-1,-1.51757E0,-6.5011996E-1,-1.7022825E0,-1.1332998E0,2.9468248E-2,1.5969818E0,-6.64246E-1,3.7927993E-2,-1.4959179E0,5.4808533E-1,-1.5849702E0,1.6006708E0,-2.307488E-1,1.1099421E0,1.8567445E0,-1.7896411E0,-4.084392E-1,2.3187292E-1,1.5008248E0,-1.7562869E0,-4.3156096E-1,-1.5321869E0,1.0590711E0,-6.9975114E-1,1.1217263E0,-2.9586285E-1,3.451362E-1,-4.1251114E-4,-1.7362295E0,8.7038815E-1,1.7870227E0,5.3652185E-1,1.6113122E0,-1.1031125E0,-8.762193E-2,-1.4426284E0,8.604096E-2,9.020862E-1,-1.4093823E0,-3.5039753E-1,1.4939119E0,-1.4889036E0,8.915546E-1,6.5685165E-1,-1.6738831E0,-2.0350614E-1,-1.2473882E0,1.5687004E0,9.230513E-2,1.1490529E0,-1.0668792E0,-1.7919459E0,9.627248E-1,-2.924914E-1,1.6583556E0,-1.6140599E0,-4.5320597E-1,1.7670587E0,7.610014E-1,7.0777434E-1,-1.3587846E0,1.7217535E0,-1.0249454E0,1.5923704E-1,-1.6708592E0,7.6836985E-1,-8.570189E-1,1.746045E0,8.085579E-2,1.7582718E0,1.2817138E-1,-1.543343E0,1.3689237E0,1.6086998E0,7.4091285E-1,-1.02768E0,6.712685E-1,1.5710244E0,-7.876238E-2,1.7311114E-1,-1.3027079E0,-1.6020454E-1,-1.4555188E0,-8.3204496E-1,7.5870484E-1,1.6341732E0,-0E0,-5.8769417E-1,-1.6308244E0,1.2000327E0,-7.7828056E-1,1.7475454E0,-0E0,-1.152659E0,8.844344E-1,1.4971416E0,-2.6354328E-1,4.4571722E-1,-1.5631189E0,-1.7770152E0,-1.0581384E0,7.1205133E-1,-1.2950712E0,1.5801652E-1,1.4436481E0,1.4425752E0,-6.5364116E-1],"categories":[],"categories_nodes":[],"categories_segments":[],"categories_sizes":[],"default_left":[1,1,1,1,1,1,1,1,1,1,1,1,1,1,1,1,1,1,1,1,1,1,1,1,1,1,1,1,0,1,1,1,1,1,1,1,1,1,1,0,1,1,1,0,1,1,0,1,1,1,1,1,1,1,1,1,0,1,1,1,0,1,1,1,1,1,1,1,1,0,1,1,1,0,1,1,1,1,1,1,1,1,0,0,1,0,0,1,1,1,1,1,1,0,1,1,1,1,0,1,0,1,0,1,1,1,1,0,0,1,0,0,1,1,1,1,0,1,1,1,1,1,1,1,1,1,1,0,0,1,0,1,0,0,0,1,0,0,0,1,1,0,1,0,0,0,1,0,0,1,0,0,1,1,1,0,1,1,0,1,1,0,0,0,0,0,0,1,0,0,0,1,0,0,1,1,0,1,0,1,1,1,1,0,0,1,0,0,1,1,0,1,1,0,0,1,1,0,0,0,0,1,1,1,1,1,1,1,1,0,0,1,0,0,0,0,0,0,0,0,0,0,1,0,0,1,0,1,1,1,1,0,1,1,1,0,0,1,1,0,1,0,1,0,0,1,0,0,0,1,1,0,0,0,0,1,1,1,0,0,0,0,0,1,0,0,0,1,0,1,1,1,0,1,1,0,1,0,1,1,1,1,1,1,1,0,1,1,1,1,0,1,1,1,1,1,0,0,0,0,0,1,0,1,1,1,0,0,1,1,0,1,1,1,0,0,0,0,0,0,1,1,0,1,1,0,0,0,0,1,0,0,0,0,0,0,0,0,0,0,0,0,0,0,0,0,0,0,0,0,0,0,0,0,0,0,0,0,0,0,0,0,0,0,0,0,0,0,0,0,0,0,0,0,0,0,0,0,0,0,0,0,0,0,0,0,0,0,0,0,0,0,0,0,0,0,0,0,0,0,0,0,0,0,0,0,0],"id":1,"left_children":[1,3,5,7,9,11,13,15,17,19,21,23,25,27,29,31,33,35,37,39,41,43,45,47,49,51,53,55,-1,57,59,61,63,65,67,69,71,73,75,-1,77,79,81,-1,83,85,-1,87,89,91,93,95,97,99,101,103,-1,105,107,109,-1,111,113,115,117,119,121,123,125,-1,127,129,131,-1,133,135,137,139,141,143,145,147,-1,-1,149,-1,-1,151,153,155,157,159,161,-1,163,165,167,169,-1,171,-1,173,-1,175,177,179,181,-1,-1,183,-1,-1,185,187,189,191,-1,193,195,197,199,201,203,205,207,209,211,-1,-1,213,-1,215,-1,-1,-1,217,-1,-1,-1,219,221,-1,223,-1,-1,-1,225,-1,-1,227,-1,-1,229,231,233,-1,235,237,-1,239,241,-1,-1,-1,-1,-1,-1,243,-1,-1,-1,245,-1,-1,247,249,-1,251,-1,253,255,257,259,-1,-1,261,-1,-1,263,265,-1,267,269,-1,-1,271,273,-1,-1,-1,-1,275,277,279,281,283,285,287,289,-1,-1,291,-1,-1,-1,-1,-1,-1,-1,-1,-1,-1,293,-1,-1,295,-1,297,299,301,303,-1,305,307,309,-1,-1,311,313,-1,315,-1,317,-1,-1,319,-1,-1,-1,321,323,-1,-1,-1,-1,325,327,329,-1,-1,-1,-1,-1,331,-1,-1,-1,333,-1,335,337,339,-1,341,343,-1,345,-1,347,349,351,353,355,357,359,-1,361,363,365,367,-1,369,371,373,375,377,-1,-1,-1,-1,-1,379,-1,381,383,385,-1,-1,387,389,-1,391,393,395,-1,-1,-1,-1,-1,-1,397,399,-1,401,403,-1,-1,-1,-1,405,-1,-1,-1,-1,-1,-1,-1,-1,-1,-1,-1,-1,-1,-1,-1,-1,-1,-1,-1,-1,-1,-1,-1,-1,-1,-1,-1,-1,-1,-1,-1,-1,-1,-1,-1,-1,-1,-1,-1,-1,-1,-1,-1,-1,-1,-1,-1,-1,-1,-1,-1,-1,-1,-1,-1,-1,-1,-1,-1,-1,-1,-1,-1,-1,-1,-1,-1,-1,-1,-1,-1,-1,-1,-1,-1,-1,-1],"loss_changes":[8.911906E3,9.051396E3,3.635625E2,1.0808853E3,1.6642285E2,1.0863481E3,2.1734375E1,1.1406448E3,1.1745383E2,2.4033649E2,1.8136719E1,9.674861E2,3.676709E1,2.40625E0,6.518164E1,2.0691414E2,1.4077539E2,2.2697178E1,6.1133392E1,1.5929932E1,2.0641167E2,8.788574E0,2.5663452E1,1.4570834E2,6.886743E1,7.5202095E1,1.9338379E1,1.8389648E1,0E0,6.9978165E1,1.4494629E0,1.4586177E2,2.9044281E1,6.9895805E1,9.123389E1,2.9552197E0,1.0934839E1,1.5086365E0,3.615301E1,0E0,6.981488E1,4.631646E1,1.4495087E-1,0E0,4.393634E1,1.2721727E1,0E0,7.2013466E1,5.8550262E1,1.2280334E1,6.578063E1,3.6862606E1,2.0543976E0,5.996094E-1,2.8067532E1,1.8588867E1,0E0,1.1318817E2,1.0546265E0,2.4188759E1,0E0,1.9631294E1,2.973449E1,9.057373E0,1.7095566E1,2.7683304E1,4.5187813E1,8.993811E1,7.6198E1,0E0,1.7854389E0,1.1987E0,1.5015546E1,0E0,2.547588E0,6.642889E0,1.06306E1,1.8263195E1,6.584717E0,1.5655985E0,1.3518509E1,1.6089807E0,0E0,0E0,6.501812E1,0E0,0E0,4.1602364E0,7.06719E1,3.9717674E1,1.3915375E1,2.9194834E1,1.2519531E0,0E0,2.2837486E0,4.4229794E-1,9.72407E0,2.31223E0,0E0,2.7687775E1,0E0,7.975739E0,0E0,2.852002E1,8.310547E-1,1.2106857E1,3.8634987E0,0E0,0E0,7.27977E0,0E0,0E0,9.303101E0,1.1858627E1,1.2506618E0,1.29112015E1,0E0,6.0720396E-1,1.1062866E1,1.4858433E1,6.2408447E-2,1.2984547E1,3.3076553E1,3.6527527E1,1.10327354E2,6.4497757E-1,4.0458496E1,0E0,0E0,8.754475E0,0E0,3.678258E0,0E0,0E0,0E0,4.8083405E0,0E0,0E0,0E0,2.8848038E0,1.4051911E1,0E0,2.9611993E0,0E0,0E0,0E0,4.6343536E0,0E0,0E0,3.4183624E1,0E0,0E0,3.8658676E0,1.4305107E1,2.8286503E1,0E0,3.0191832E0,8.360626E0,0E0,3.8119125E-1,6.5965075E0,0E0,0E0,0E0,0E0,0E0,0E0,4.7152557E0,0E0,0E0,0E0,4.5448303E0,0E0,0E0,6.621082E-1,5.6533173E1,0E0,3.451049E1,0E0,7.630914E0,6.5887833E0,9.637947E-1,5.431143E0,0E0,0E0,1.4181519E-1,0E0,0E0,6.0227814E0,5.2722096E0,0E0,5.85083E-1,7.405884E0,0E0,0E0,9.915443E0,8.005943E0,0E0,0E0,0E0,0E0,3.3808393E0,1.3477997E1,4.1761246E1,4.0235813E1,1.031147E2,2.7959778E1,1.805059E1,8.362404E0,0E0,0E0,2.3499756E1,0E0,0E0,0E0,0E0,0E0,0E0,0E0,0E0,0E0,0E0,4.606653E0,0E0,0E0,5.29317E0,0E0,5.994213E0,1.8394184E-1,2.231926E0,3.4682636E0,0E0,1.0216492E1,2.9841442E0,2.8853859E1,0E0,0E0,1.4422983E1,2.1252441E0,0E0,8.011246E-1,0E0,9.7942734E-1,0E0,0E0,1.0637741E1,0E0,0E0,0E0,1.2170853E1,1.4876098E1,0E0,0E0,0E0,0E0,4.6518588E-1,3.2485962E0,6.453514E-1,0E0,0E0,0E0,0E0,0E0,2.8852386E0,0E0,0E0,0E0,7.255304E-1,0E0,7.5088882E0,1.9669098E1,3.8186207E0,0E0,1.3538601E1,8.378845E0,0E0,6.287153E-1,0E0,7.4928513E0,3.0360275E1,1.6252464E1,1.8697235E1,3.2771492E-1,2.599321E1,3.9313248E1,0E0,1.2866394E1,5.0212555E0,1.2692815E1,2.8020325E0,0E0,1.8976807E1,2.626054E1,1.5059814E0,2.991893E0,5.7786064E0,0E0,0E0,0E0,0E0,0E0,3.060341E0,0E0,1.625844E0,4.04538E0,2.7738037E0,0E0,0E0,7.962723E-1,3.4104958E1,0E0,2.973095E0,8.392467E0,5.949918E0,0E0,0E0,0E0,0E0,0E0,0E0,1.1745905E1,7.7493286E0,0E0,6.996826E0,3.575306E0,0E0,0E0,0E0,0E0,5.3336678E0,0E0,0E0,0E0,0E0,0E0,0E0,0E0,0E0,0E0,0E0,0E0,0E0,0E0,0E0,0E0,0E0,0E0,0E0,0E0,0E0,0E0,0E0,0E0,0E0,0E0,0E0,0E0,0E0,0E0,0E0,0E0,0E0,0E0,0E0,0E0,0E0,0E0,0E0,0E0,0E0,0E0,0E0,0E0,0E0,0E0,0E0,0E0,0E0,0E0,0E0,0E0,0E0,0E0,0E0,0E0,0E0,0E0,0E0,0E0,0E0,0E0,0E0,0E0,0E0,0E0,0E0,0E0,0E0,0E0,0E0,0E0,0E0,0E0,0E0,0E0,0E0,0E0],"parents":[2147483647,0,0,1,1,2,2,3,3,4,4,5,5,6,6,7,7,8,8,9,9,10,10,11,11,12,12,13,13,14,14,15,15,16,16,17,17,18,18,19,19,20,20,21,21,22,22,23,23,24,24,25,25,26,26,27,27,29,29,30,30,31,31,32,32,33,33,34,34,35,35,36,36,37,37,38,38,40,40,41,41,42,42,44,44,45,45,47,47,48,48,49,49,50,50,51,51,52,52,53,53,54,54,55,55,57,57,58,58,59,59,61,61,62,62,63,63,64,64,65,65,66,66,67,67,68,68,70,70,71,71,72,72,74,74,75,75,76,76,77,77,78,78,79,79,80,80,81,81,84,84,87,87,88,88,89,89,90,90,91,91,92,92,94,94,95,95,96,96,97,97,99,99,101,101,103,103,104,104,105,105,106,106,109,109,112,112,113,113,114,114,115,115,117,117,118,118,119,119,120,120,121,121,122,122,123,123,124,124,125,125,126,126,129,129,131,131,135,135,139,139,140,140,142,142,146,146,149,149,152,152,153,153,154,154,156,156,157,157,159,159,160,160,167,167,171,171,174,174,175,175,177,177,179,179,180,180,181,181,182,182,185,185,188,188,189,189,191,191,192,192,195,195,196,196,201,201,202,202,203,203,204,204,205,205,206,206,207,207,208,208,211,211,222,222,225,225,227,227,228,228,229,229,230,230,232,232,233,233,234,234,237,237,238,238,240,240,242,242,245,245,249,249,250,250,255,255,256,256,257,257,263,263,267,267,269,269,270,270,271,271,273,273,274,274,276,276,278,278,279,279,280,280,281,281,282,282,283,283,284,284,286,286,287,287,288,288,289,289,291,291,292,292,293,293,294,294,295,295,301,301,303,303,304,304,305,305,308,308,309,309,311,311,312,312,313,313,320,320,321,321,323,323,324,324,329,329],"right_children":[2,4,6,8,10,12,14,16,18,20,22,24,26,28,30,32,34,36,38,40,42,44,46,48,50,52,54,56,-1,58,60,62,64,66,68,70,72,74,76,-1,78,80,82,-1,84,86,-1,88,90,92,94,96,98,100,102,104,-1,106,108,110,-1,112,114,116,118,120,122,124,126,-1,128,130,132,-1,134,136,138,140,142,144,146,148,-1,-1,150,-1,-1,152,154,156,158,160,162,-1,164,166,168,170,-1,172,-1,174,-1,176,178,180,182,-1,-1,184,-1,-1,186,188,190,192,-1,194,196,198,200,202,204,206,208,210,212,-1,-1,214,-1,216,-1,-1,-1,218,-1,-1,-1,220,222,-1,224,-1,-1,-1,226,-1,-1,228,-1,-1,230,232,234,-1,236,238,-1,240,242,-1,-1,-1,-1,-1,-1,244,-1,-1,-1,246,-1,-1,248,250,-1,252,-1,254,256,258,260,-1,-1,262,-1,-1,264,266,-1,268,270,-1,-1,272,274,-1,-1,-1,-1,276,278,280,282,284,286,288,290,-1,-1,292,-1,-1,-1,-1,-1,-1,-1,-1,-1,-1,294,-1,-1,296,-1,298,300,302,304,-1,306,308,310,-1,-1,312,314,-1,316,-1,318,-1,-1,320,-1,-1,-1,322,324,-1,-1,-1,-1,326,328,330,-1,-1,-1,-1,-1,332,-1,-1,-1,334,-1,336,338,340,-1,342,344,-1,346,-1,348,350,352,354,356,358,360,-1,362,364,366,368,-1,370,372,374,376,378,-1,-1,-1,-1,-1,380,-1,382,384,386,-1,-1,388,390,-1,392,394,396,-1,-1,-1,-1,-1,-1,398,400,-1,402,404,-1,-1,-1,-1,406,-1,-1,-1,-1,-1,-1,-1,-1,-1,-1,-1,-1,-1,-1,-1,-1,-1,-1,-1,-1,-1,-1,-1,-1,-1,-1,-1,-1,-1,-1,-1,-1,-1,-1,-1,-1,-1,-1,-1,-1,-1,-1,-1,-1,-1,-1,-1,-1,-1,-1,-1,-1,-1,-1,-1,-1,-1,-1,-1,-1,-1,-1,-1,-1,-1,-1,-1,-1,-1,-1,-1,-1,-1,-1,-1,-1,-1],"split_conditions":[6.533613E-1,6.1605585E-1,1.0950056E0,1.7075508E1,9.0017426E-1,2.3851018E0,4.5758E-2,2.5546753E-1,1.2368101E1,1.3005846E0,3.8294544E0,7.8227735E-1,4.6431837E0,2.2681143E0,1.8402474E0,1.3261001E-1,1.7202497E0,3.235069E-3,1.4122324E-2,1.313E-1,5.9101586E0,3.245002E-2,1.2418811E0,8.225704E-3,2.664468E-2,5.269919E-1,6.223122E-2,2.2675889E0,-9.5146894E-2,7.317202E0,2.463877E-1,9.454316E-2,1.3492275E0,1.2008725E-1,4.125609E-3,1.0959878E0,8.816012E-3,5.8493824E0,1.3348839E0,-9.4114766E-2,1.7995492E0,1.8254526E0,1.3008478E1,-9.484783E-2,1.8820664E-1,4.485709E0,-8.6941056E-2,4.552111E0,1.6164885E0,8.75336E-1,1.4698281E0,2.299149E0,5.874536E-1,1.9617722E1,2.1834457E1,1.4035394E0,5.7904717E-2,1.8056576E1,2.658427E-1,2.4284202E-1,-9.493261E-2,1.2009215E-2,2.7987952E0,3.1882513E-1,1.8022544E0,4.1632935E-2,8.810754E-1,3.8382477E-1,1.8546402E-2,-7.5767286E-2,4.5327955E-1,1.3576361E0,4.677874E1,-9.374192E-2,3.3685744E-3,2.1021451E-1,2.524724E2,2.8660565E-3,4.2811427E-2,1.0703193E0,1.2429449E-1,2.2295332E0,-9.2169665E-2,-9.456277E-2,3.481297E0,6.832166E-2,-6.2010583E-2,4.6826707E-4,8.068681E-1,5.9388323E0,1.3481493E1,4.731266E-3,4.2041332E-1,8.1599526E-2,5.8853142E-2,3.0182595E0,8.152252E0,3.8376977E0,-8.819487E-2,1.9458975E1,-9.516757E-2,1.0122249E-1,-8.687842E-2,8.641124E-1,2.4858322E0,8.1553423E-1,1.2052412E0,-9.32327E-2,-2.363771E-2,1.95299E0,6.5672204E-2,4.3443985E-2,3.219875E-2,5.8745427E-5,8.4055275E-2,8.3033435E-2,-9.2071876E-2,1.5818822E0,3.8461918E-3,4.6939543E-1,1.5564747E0,5.07424E-1,1.3186918E0,1.3419716E0,2.1931295E0,1.2204822E-1,7.433001E-1,2.9388387E-2,-3.538388E-2,1.0438484E-1,8.607527E-2,2.2048376E1,-7.2421655E-2,-6.2210556E-2,1.723208E-2,1.7918816E-1,-8.4793076E-2,7.942732E-2,-5.146503E-2,1.344266E0,1.0920265E0,-9.293269E-2,1.4323425E1,-8.138595E-3,-7.652657E-2,-5.3531628E-2,4.876081E-3,-6.2886514E-2,5.3159026E-3,1.8273728E0,-9.1094755E-2,8.58207E-3,3.134683E0,1.421503E0,2.3747563E0,-8.5498266E-2,4.43447E-1,2.0503082E0,-5.295356E-2,6.296907E-4,1.9036064E0,-1.7519876E-2,-9.334535E-2,-5.914864E-3,-8.271439E-2,-1.999447E-2,-7.982271E-2,8.578627E-4,-4.9876463E-2,1.8327167E-2,-5.6612264E-2,3.9400315E-1,6.663431E-2,7.2158225E-2,8.4843147E-1,7.676676E-3,-9.235509E-2,2.4795775E0,-9.417801E-2,5.928185E-2,5.1489435E-2,1.6278408E-1,1.5261178E0,1.4937118E-2,-9.063918E-2,6.278599E-1,3.3177134E-2,-5.295356E-2,1.10516876E-1,2.5701149E0,-6.829442E-2,9.2474926E-1,2.1485329E-1,1.3432465E-2,7.12314E-2,3.1332213E-1,2.0646172E0,6.79357E-2,-6.614805E-2,8.940569E-2,3.7165295E-2,3.2656938E-3,4.0945932E-2,1.1900992E0,5.356797E-1,2.553582E-1,5.7388425E-2,1.0895684E0,5.0448227E0,-1.6544694E-2,-8.143964E-2,1.2464354E1,-7.357506E-2,7.444091E-2,-5.2130412E-2,-1.8643942E-2,6.860319E-2,5.504634E-2,-5.0213832E-2,-7.134823E-2,7.0194243E-3,-5.9873935E-2,4.575412E-1,2.9974256E-2,-5.08358E-2,8.391738E-1,9.12979E-2,2.1883628E0,2.17143E0,1.3896296E0,2.0712695E0,-5.688594E-2,1.9961661E0,1.3802317E-1,5.8456593E0,8.128699E-2,-5.824401E-3,1.7047415E0,3.5669613E0,-2.4843758E-2,3.668208E0,-3.9854497E-2,8.0496144E-1,-9.114915E-3,8.515891E-2,1.0172417E-2,-9.3969256E-2,-0E0,-4.8828002E-2,1.4013635E0,6.069353E0,-9.1404796E-2,7.145005E-2,6.5672204E-2,-5.5087704E-2,2.3554379E-1,2.1597586E0,5.746513E-2,1.637397E-2,5.5552036E-2,-5.0848253E-2,-9.105121E-2,-3.218993E-2,1.3496906E-2,-1.576716E-2,-5.923443E-2,4.9353532E-2,3.4823322E-1,-9.152785E-2,2.234914E-1,1.0027298E1,2.4566153E-1,-6.228261E-2,1.8395531E0,1.9256596E-1,3.1811625E-2,4.5343506E-1,-4.984078E-2,4.2924494E-1,1.3900194E-2,5.3644407E-1,6.830045E-1,3.2163858E-1,1.2184912E-1,3.822506E-1,-6.771856E-2,7.9816513E0,2.7749567E0,4.4173992E-1,3.4160782E-3,-3.344766E-2,6.46153E-1,1.2561726E1,4.3311184E-3,1.5407067E-2,7.9009736E-1,-3.3486556E-2,-1.2626189E-2,8.727516E-2,-2.1014562E-2,-7.58785E-2,3.8732204E0,-8.511413E-2,1.5518521E0,1.9883702E-3,5.6487107E0,-3.32123E-2,1.8963997E-3,6.695386E0,8.2402074E-1,-7.924851E-2,6.519587E-1,2.109383E-2,4.1987693E-1,9.283723E-2,-8.948206E-2,-2.042196E-2,1.1593646E-2,7.504124E-2,-8.7814346E-2,1.394947E1,9.351302E0,5.2953552E-2,2.0110793E0,2.8933687E0,-1.4793143E-2,1.725681E-2,-2.0625557E-5,-8.6811475E-2,1.4220912E0,8.935114E-2,2.6826093E-2,8.056561E-2,-5.5155624E-2,-4.3810965E-3,-7.213142E-2,4.302048E-3,4.510431E-2,-7.046912E-2,-1.7519876E-2,7.4695595E-2,-7.444518E-2,4.457773E-2,3.2842584E-2,-8.369415E-2,-1.0175307E-2,-6.2369414E-2,7.8435026E-2,4.6152566E-3,5.7452645E-2,-5.334396E-2,-8.95973E-2,4.813624E-2,-1.46245705E-2,8.291778E-2,-8.0703E-2,-2.2660298E-2,8.835294E-2,3.805007E-2,3.538872E-2,-6.793923E-2,8.6087674E-2,-5.124727E-2,7.9618525E-3,-8.3542965E-2,3.8418494E-2,-4.2850945E-2,8.730225E-2,4.0427893E-3,8.7913595E-2,6.4085694E-3,-7.7167146E-2,6.844618E-2,8.043499E-2,3.7045643E-2,-5.1384002E-2,3.3563428E-2,7.8551225E-2,-3.9381194E-3,8.655557E-3,-6.51354E-2,-8.010227E-3,-7.2775945E-2,-4.160225E-2,3.7935242E-2,8.170866E-2,-0E0,-2.9384708E-2,-8.1541225E-2,6.0001638E-2,-3.891403E-2,8.737727E-2,-0E0,-5.7632953E-2,4.422172E-2,7.485708E-2,-1.3177164E-2,2.2285862E-2,-7.815595E-2,-8.885076E-2,-5.290692E-2,3.5602566E-2,-6.475356E-2,7.900826E-3,7.218241E-2,7.2128765E-2,-3.2682057E-2],"split_indices":[3,1,3,0,1,0,4,2,5,2,2,1,0,0,3,1,5,4,4,3,0,4,1,4,4,1,4,0,0,0,1,2,0,1,4,2,4,2,2,0,0,5,0,0,3,2,0,5,2,1,1,2,1,0,0,3,0,5,4,1,0,3,0,1,0,3,5,1,3,0,3,2,0,0,4,3,0,4,4,5,3,2,0,0,0,0,0,4,3,5,2,4,5,0,4,0,2,0,0,0,0,4,0,1,2,5,1,0,0,3,0,0,4,4,3,2,0,0,4,2,5,2,5,2,2,1,4,0,0,1,0,0,0,0,0,1,0,0,0,0,5,0,0,0,0,0,4,0,0,1,0,0,5,2,2,0,1,2,0,4,2,0,0,0,0,0,0,4,0,0,0,1,0,0,1,4,0,2,0,4,4,4,3,0,0,0,0,0,3,5,0,5,0,0,0,1,0,0,0,0,0,4,3,5,3,3,3,2,0,0,0,0,0,0,0,0,0,0,0,0,0,0,3,0,0,1,0,5,1,5,2,0,0,1,2,0,0,2,5,0,2,0,1,0,0,4,0,0,0,3,5,0,0,0,0,0,2,4,0,0,0,0,0,3,0,0,0,0,0,1,5,1,0,0,1,0,5,0,3,4,3,2,0,1,0,0,2,5,3,4,0,3,0,4,4,0,0,0,0,0,0,2,0,2,4,2,0,0,5,0,0,0,4,1,0,0,0,0,0,0,0,5,0,2,2,0,0,0,0,3,0,0,0,0,0,0,0,0,0,0,0,0,0,0,0,0,0,0,0,0,0,0,0,0,0,0,0,0,0,0,0,0,0,0,0,0,0,0,0,0,0,0,0,0,0,0,0,0,0,0,0,0,0,0,0,0,0,0,0,0,0,0,0,0,0,0,0,0,0,0,0,0,0,0,0,0,0],"split_type":[0,0,0,0,0,0,0,0,0,0,0,0,0,0,0,0,0,0,0,0,0,0,0,0,0,0,0,0,0,0,0,0,0,0,0,0,0,0,0,0,0,0,0,0,0,0,0,0,0,0,0,0,0,0,0,0,0,0,0,0,0,0,0,0,0,0,0,0,0,0,0,0,0,0,0,0,0,0,0,0,0,0,0,0,0,0,0,0,0,0,0,0,0,0,0,0,0,0,0,0,0,0,0,0,0,0,0,0,0,0,0,0,0,0,0,0,0,0,0,0,0,0,0,0,0,0,0,0,0,0,0,0,0,0,0,0,0,0,0,0,0,0,0,0,0,0,0,0,0,0,0,0,0,0,0,0,0,0,0,0,0,0,0,0,0,0,0,0,0,0,0,0,0,0,0,0,0,0,0,0,0,0,0,0,0,0,0,0,0,0,0,0,0,0,0,0,0,0,0,0,0,0,0,0,0,0,0,0,0,0,0,0,0,0,0,0,0,0,0,0,0,0,0,0,0,0,0,0,0,0,0,0,0,0,0,0,0,0,0,0,0,0,0,0,0,0,0,0,0,0,0,0,0,0,0,0,0,0,0,0,0,0,0,0,0,0,0,0,0,0,0,0,0,0,0,0,0,0,0,0,0,0,0,0,0,0,0,0,0,0,0,0,0,0,0,0,0,0,0,0,0,0,0,0,0,0,0,0,0,0,0,0,0,0,0,0,0,0,0,0,0,0,0,0,0,0,0,0,0,0,0,0,0,0,0,0,0,0,0,0,0,0,0,0,0,0,0,0,0,0,0,0,0,0,0,0,0,0,0,0,0,0,0,0,0,0,0,0,0,0,0,0,0,0,0,0,0,0,0,0,0,0,0,0,0,0,0,0,0,0,0,0,0,0,0,0,0,0,0,0,0,0,0,0,0,0,0],"sum_hessian":[3.0387994E4,4.6802007E3,2.5707793E4,2.3670425E3,2.3131584E3,2.5475073E3,2.3160285E4,2.1801702E3,1.8687233E2,3.1781232E2,1.9953461E3,5.94459E2,1.9530483E3,2.2690791E4,4.6949512E2,2.6603195E2,1.9141382E3,2.9024008E1,1.5784833E2,2.2416531E2,9.364701E1,1.9783138E3,1.7032232E1,3.109471E2,2.8351187E2,8.13412E1,1.8717072E3,4.10946E3,1.858133E4,1.0649372E2,3.6300137E2,9.70075E1,1.6902444E2,1.7942087E2,1.7347173E3,5.975312E0,2.3048695E1,1.3732478E2,2.0523546E1,1.2743244E2,9.6732864E1,6.206184E1,3.1585173E1,1.8067423E3,1.7157152E2,7.055147E0,9.977084E0,1.3844106E2,1.7250604E2,2.5908463E2,2.4427258E1,2.0780949E1,6.056025E1,1.8552366E3,1.6470606E1,4.108063E3,1.3969988E0,5.8189396E1,4.830433E1,3.7701E1,3.2530038E2,2.9406023E1,6.760147E1,1.3471083E2,3.4313614E1,5.9395397E1,1.2002547E2,4.2468274E2,1.3100345E3,3.7058961E0,2.2694163E0,1.46142645E1,8.434431E0,1.3453398E2,2.7907913E0,1.0096723E1,1.0426824E1,2.5110287E1,7.162258E1,5.4948E0,5.656704E1,3.0060961E0,2.8579077E1,1.326482E2,3.8923332E1,5.2777696E0,1.7773778E0,3.110479E1,1.0733627E2,1.4929262E1,1.5757678E2,2.325611E1,2.3582852E2,1.1512632E1,1.2914624E1,6.1235824E0,1.4657366E1,2.541741E0,5.801851E1,1.5841893E2,1.6968176E3,6.5753746E0,9.895231E0,2.6136966E2,3.8466934E3,3.464783E1,2.3541565E1,4.6944195E1,1.3601339E0,3.558556E1,2.115439E0,2.8626122E0,2.6543411E1,6.2596195E1,5.0052795E0,6.038493E1,7.4325905E1,3.964451E0,3.0349161E1,6.803743E0,5.2591652E1,3.9721237E1,8.030423E1,3.5618616E2,6.849659E1,6.658304E0,1.3033762E3,1.1158632E0,1.153553E0,4.5605626E0,1.0053701E1,5.411533E0,3.0228977E0,1.7533237E0,1.0374677E0,2.366541E0,7.7301817E0,9.307081E0,1.1197428E0,6.8301516E0,1.8280136E1,6.901332E1,2.609262E0,1.305978E0,4.1888223E0,1.2224191E0,5.534462E1,1.9952307E0,1.0108654E0,1.7998756E1,2.0924576E1,1.9238853E0,2.9180904E1,4.8706722E1,5.862955E1,8.358616E0,6.5706463E0,1.563841E2,1.192687E0,1.7212553E1,6.043555E0,1.0627787E0,2.3476573E2,1.2222074E0,1.1692417E1,1.1923895E0,4.931193E0,1.3638135E1,1.0192312E0,1.1458688E0,1.395872E0,1.562003E2,2.218625E0,4.510506E0,2.0648685E0,1.0065104E2,1.6071863E2,3.6217068E1,3.8104763E3,3.422145E0,3.1225685E1,2.0565405E1,2.9761608E0,1.438015E0,3.4147545E1,2.537623E1,1.1671801E0,1.192687E0,6.1403507E1,2.5912833E0,2.4139965E0,2.7549374E1,3.2835556E1,1.1386349E0,2.8258162E0,6.325589E0,2.4023573E1,2.3697658E0,4.433977E0,5.0573635E1,2.0180178E0,4.2328157E0,3.5488422E1,4.9515347E1,3.0788885E1,1.5715298E2,1.9903316E2,3.959145E1,2.8905142E1,1.0377934E0,5.6205106E0,1.3001417E3,3.234533E0,3.408836E0,1.151727E0,1.0923681E0,4.3191648E0,1.3043814E0,1.0621595E0,5.606823E0,1.2233285E0,2.612555E0,1.5667581E1,1.5188833E0,1.0903788E0,1.1621801E1,4.3722816E1,1.3149105E1,4.849652E0,1.9817612E1,9.363294E0,1.4362022E0,4.727052E1,1.4659303E1,4.3970245E1,5.5486093E0,1.0220373E0,1.7817698E1,1.3856639E2,1.2725557E0,1.5939999E1,1.3236088E0,4.719946E0,1.2699286E0,1.2368206E1,2.8033493E1,1.2816681E2,1.0628647E0,1.0020039E0,8.316371E1,1.7487324E1,3.3356525E1,2.8605402E0,2.115439E0,1.3067058E0,2.5507865E0,2.8674898E1,1.9418385E1,1.147021E0,1.8852093E0,1.0909514E0,2.3844282E1,1.531949E0,5.9940506E1,1.4629999E0,1.5668951E0,1.0243883E0,2.5915318E0,2.4957842E1,2.0005875E1,1.2829681E1,4.525679E0,1.7999098E0,7.659901E0,1.6363672E1,1.1215303E0,3.1112852E0,1.8244609E0,3.3663963E1,2.3471601E1,2.6043745E1,2.422015E1,6.568734E0,1.2138225E2,3.5770737E1,2.3435555E0,1.966896E2,2.1742702E1,1.7848747E1,2.78176E1,1.0875405E0,1.2890642E3,1.1077512E1,1.3460296E1,2.207285E0,1.0491584E1,1.1302173E0,1.4375899E0,1.1711515E1,1.171941E0,3.6777105E0,4.2767425E0,1.5540869E1,4.92896E0,4.434334E0,4.5701794E1,1.5687245E0,1.3381758E0,1.3321127E1,3.736036E1,6.609889E0,1.1646194E1,6.171504E0,9.446065E0,1.2912033E2,1.479901E1,1.1409881E0,1.1814889E0,3.5384574E0,1.7902946E1,1.0130547E1,8.197102E1,1.1926872E0,6.227666E0,1.1259659E1,1.4337338E0,1.1170527E0,1.120974E0,2.7553925E1,4.035082E0,1.5383302E1,3.9394445E0,5.6001064E1,1.3105339E0,1.2809979E0,1.618717E1,3.8187053E0,6.964862E0,5.864819E0,1.0627787E0,3.4629004E0,3.4097311E0,4.2501698E0,1.1815087E0,1.5182163E1,1.3041071E0,1.8071781E0,2.9646223E1,4.0177393E0,1.3842965E1,9.628636E0,2.4319807E1,1.7239381E0,6.2693267E0,1.7950825E1,5.2874546E0,1.2812798E0,8.03832E1,4.0999046E1,1.524782E1,2.0522919E1,1.9558012E2,1.1094855E0,1.4345665E0,2.0308136E1,7.23142E0,1.0617328E1,2.6665337E1,1.1522644E0,1.2817184E3,7.34587E0,4.0667057E0,7.010806E0,6.061676E0,7.398619E0,1.1159143E0,1.0913707E0,7.8166018E0,2.6749825E0,2.2160084E0,2.060734E0,1.5985527E0,3.3304074E0,1.9681724E0,2.4661613E0,4.463893E1,1.0628647E0,2.4155266E0,1.0905601E1,2.5112219E1,1.2248138E1,1.0583329E1,1.0628647E0,3.3601217E0,2.8113825E0,7.298509E0,2.1475556E0,6.047851E0,4.0826955E0,5.2241596E1,2.972943E1,1.7889907E0,4.4386754E0,3.1927247E0,8.066934E0,2.9725163E0,1.0625658E0],"tree_param":{"num_deleted":"0","num_feature":"6","num_nodes":"407","size_leaf_vector":"0"}},{"base_weights":[-1.5499223E0,-3.3566043E-1,-1.7711323E0,9.7726583E-1,-1.6819121E0,-1.4263123E0,-1.8090111E0,1.1662114E0,-1.2238957E0,-1.0352398E0,-1.784094E0,-2.9370728E-1,-1.771136E0,-1.8134949E0,-1.5889678E0,-6.8575305E-1,1.4238559E0,5.2850145E-1,-1.5481471E0,-1.5681847E0,2.443388E-1,-1.7926928E0,-7.430813E-1,8.684728E-1,-1.5686711E0,-1.1165755E0,-1.7990078E0,-1.7800643E0,-1.8207941E0,-9.1670346E-1,-1.7833483E0,4.238982E-1,-1.321505E0,6.1409634E-1,1.5072507E0,-1.0238663E0,9.5744014E-1,-1.7769058E0,-8.979957E-3,-1.8012893E0,-1.2474792E0,1.2547903E0,-1.7082217E0,-1.8150332E0,-1.5482993E0,6.081056E-1,-1.6688253E0,1.3454738E-1,1.4546521E0,-1.7131374E0,-3.1779792E-2,4.344658E-1,-1.6479325E0,-1.8083055E0,-7.101746E-1,-1.5112804E0,-1.7979398E0,-2.0152701E-1,-1.7579181E0,-1.4545715E0,-1.8168848E0,-1.3233116E0,1.1914504E0,-1.5219272E0,-5.147621E-1,1.4552352E0,1.899517E-1,1.1149454E0,1.6338352E0,-1.460863E0,-8.335485E-2,1.4345543E0,6.7422286E-2,-1.7941312E0,-6.95215E-1,-1.2402819E0,1.1873572E0,1.20039105E-1,-1.7231333E0,-1.2332585E0,1.5160193E0,-8.5835946E-1,-1.7657629E0,-1.8100687E0,-6.3420266E-1,1.3130502E0,-1.2028428E0,-1.1247797E0,5.0655776E-1,-3.357695E-1,1.62552E0,-9.799822E-1,-1.7811085E0,1.5644653E0,-1.4641439E0,-1.3885412E0,1.2464373E0,-5.280398E-1,-1.6873779E0,-1.6592202E0,-1.8212417E0,7.572601E-1,-1.667663E0,-1.0902479E0,-1.7671354E0,-1.7992896E0,7.1724886E-1,-1.288006E0,1.3846729E0,-1.7853456E0,-4.592476E-1,-1.6475959E0,1.2717668E0,8.376039E-1,-1.5794182E0,1.3722274E0,-9.179625E-1,-1.2027483E0,-1.762238E0,1.1726866E0,-7.6596224E-1,-3.1852528E-1,1.6869488E0,1.009198E0,-2.2281583E-1,1.3093424E0,1.1156213E-1,-1.4396682E0,1.6506565E0,5.724725E-1,-6.8908477E-1,7.444961E-1,1.6519816E0,9.760686E-1,-1.3983359E0,-1.2065185E0,3.3586508E-1,1.3313723E-1,-1.62894E0,1.5236628E0,-1.0032088E0,-1.1173991E0,6.1694413E-1,-1.7789919E0,-1.678891E-1,-1.5816727E-1,-1.4742273E0,-1.0424699E0,1.5908215E0,-1.2183511E0,1.0364689E-1,6.800652E-1,-1.7458503E0,-4.7504723E-1,-1.3404825E0,1.3814284E0,-1.737137E-1,-1.642039E0,1.3214183E0,1.6523303E0,-1.0314947E0,-1.5950379E0,7.4562126E-1,-3.414131E-1,-1.7861826E0,-1.6690336E0,-4.4050243E-1,-4.1141328E-1,-1.5201918E0,1.4691297E0,-9.729858E-1,3.568068E-1,-1.1008672E0,-1.7092199E0,1.2898458E0,1.3887539E0,-6.22318E-1,-1.4164357E0,4.5066848E-1,-1.472085E0,-1.8020117E0,3.3628133E-1,-1.4713382E0,1.5282984E0,2.5946653E-1,2.8996179E-1,-1.7356462E0,-1.7030216E0,6.4597344E-1,-1.0314947E0,1.434884E0,-2.7908447E-1,-1.3210113E0,-1.6878594E0,-7.591361E-1,2.6151735E-1,1.3760585E0,3.1882524E-1,-1.0532296E0,1.3142798E0,-1.2725596E0,1.7109202E0,7.194702E-1,-4.841866E-1,1.1961864E0,-5.618952E-1,8.6119837E-1,1.6265899E0,9.982166E-1,-9.225821E-1,1.5109578E0,-3.2250318E-1,-1.5665883E0,1.6593994E0,-1.4199069E0,1.4360899E0,-1.0158575E0,-3.6319676E-1,1.320325E0,1.0712022E0,-9.794042E-1,-1.3710773E0,1.365291E-1,-1.1565306E0,9.650118E-1,5.816574E-1,-9.912407E-1,8.889009E-1,1.747934E0,1.4609898E0,-1.3213738E0,-1.3040595E0,6.1690974E-1,-1.4090449E0,-4.328805E-1,-2.2301589E-1,1.5641502E0,-1.2836431E0,2.1530113E-1,1.5637476E0,-1.1354558E-1,9.4620407E-1,1.7358497E0,-4.8309398E-1,-1.6503102E0,-7.7493536E-1,1.233849E0,-8.7618744E-1,3.1335315E-1,-1.7720145E-1,1.6403612E0,-1.2538013E0,-1.7985291E0,-0E0,-9.530074E-1,-1.4642009E0,1.0314946E0,-6.7004365E-1,1.0750742E0,-1.7505461E0,1.3801519E0,1.2717668E0,-1.0719862E0,3.5357836E-3,-1.5988976E0,1.5808954E0,3.187675E-1,1.076442E0,-9.914776E-1,-1.7445778E0,-6.246286E-1,1.4819094E0,-3.06013E-1,-1.1504557E0,9.6302146E-1,-7.4427885E-1,-1.7536874E0,-1.1087716E0,-1.7330709E-1,1.0352455E0,-1.20797E0,-2.1077067E-1,-1.4134388E0,6.196743E-1,-9.364074E-1,-9.6583426E-1,1.338203E0,3.4863716E-1,-1.4617772E0,-1.3710343E0,1.2748231E0,1.6523771E0,-1.0862737E0,2.750947E-1,1.4847131E0,-1.6229736E0,-3.4429893E-1,1.6143631E0,-6.518245E-1,1.6713504E0,2.4768952E-1,1.164888E0,-2.3405598E-1,1.5502387E0,1.9109008E-1,-2.4509537E-1,1.674347E0,-4.0676233E-1,-1.4630451E0,-3.2773387E-1,-1.4621532E0,1.164288E0,-4.8797426E-1,-3.8143343E-1,-1.4529184E0,3.5474822E-1,-1.001965E0,1.2530458E0,-1.3977848E0,1.6510108E0,1.1457929E-1,-1.613965E-1,-1.4455109E0,5.399919E-1,-1.5226715E0,1.67872E0,-2.4443356E-2,9.593357E-1,1.7701503E0,-1.7159603E0,-3.9762494E-1,2.2560658E-1,1.4473051E0,-1.6827977E0,-4.155928E-1,-1.7001811E0,-1.0091561E0,7.0534796E-1,-1.2466903E0,1.5200597E-1,1.384423E0,-2.871771E-1,3.36072E-1,-4.0156348E-4,-1.6619911E0,8.368904E-1,1.7132424E0,5.1258457E-1,1.5404886E0,-1.0732735E0,-8.516223E-2,-1.3791542E0,8.2628965E-2,8.632522E-1,-1.3540103E0,-3.414131E-1,1.4408484E0,-1.4361696E0,8.565532E-1,6.393557E-1,-1.603669E0,-1.9775616E-1,-1.2096057E0,1.4998735E0,8.861094E-2,1.1770918E0,-1.4535582E0,-1.7396247E0,1.3185865E0,1.5209799E0,-1.0350027E0,1.6836725E0,-7.357746E-2,6.170414E-1,-1.7172152E0,-1.2773342E0,1.552514E0,1.4273977E-1,-1.7528608E0,9.105085E-2,-1.4322067E0,1.6707759E0,1.6622652E-1,1.4824249E0,1.7551515E0,-1.4869866E0,1.3132648E0,1.5464094E0,7.047621E-1,-1.0016679E0,6.540535E-1,-7.026538E-1,8.829113E-1,-1.5439682E0,-6.219471E-1,1.6769044E0,4.6946478E-1,-6.1052823E-1,9.344439E-1,3.574506E-2,-2.7806565E-1,-6.0397995E-1,-1.5741729E0,1.1238513E0,-5.650771E-1,-1.4610939E0,1.0653399E0,1.3836588E0,-7.5178367E-1,4.265586E-1,-1.5049168E0,-4.6815276E-1,-1.7221775E0,1.392547E0,-1.4875777E0,-3.523438E-1,-1.394006E0,1.2219806E0,-1.0891526E0,1.6035478E0,-6.4736106E-2,1.3928555E0,-6.37078E-1],"categories":[],"categories_nodes":[],"categories_segments":[],"categories_sizes":[],"default_left":[1,1,1,1,1,1,1,1,1,1,1,1,1,1,1,1,1,1,1,1,1,1,1,1,1,1,1,1,0,1,1,1,1,1,1,1,1,1,1,0,1,1,1,0,1,1,0,1,1,1,1,1,1,1,1,1,1,1,1,1,0,1,1,1,1,1,1,1,1,0,1,1,1,0,1,1,1,1,1,1,1,1,0,0,1,0,0,1,1,1,1,1,1,0,1,1,1,1,0,1,0,1,0,1,0,1,0,1,1,0,0,1,0,0,1,1,1,1,0,1,1,1,1,1,1,1,1,1,1,0,0,1,0,1,0,0,0,1,0,0,0,1,1,0,1,0,0,0,1,0,0,1,0,1,1,1,1,0,1,1,0,1,1,0,0,0,1,0,0,1,0,0,0,1,0,0,1,1,1,1,0,1,1,1,1,0,0,1,0,0,1,1,0,1,1,0,0,1,1,0,0,0,0,1,1,1,1,1,1,1,1,0,0,1,0,0,0,0,0,0,0,0,0,0,1,0,0,1,0,1,1,1,1,1,1,1,1,1,1,0,0,1,1,0,1,0,1,0,0,0,0,1,0,0,0,1,0,1,1,0,0,0,0,1,1,1,0,0,0,0,0,1,0,0,0,1,0,1,1,1,0,1,1,0,1,0,1,1,1,0,1,1,0,1,1,1,1,1,0,1,1,1,1,0,1,0,0,0,0,0,0,0,0,0,1,0,0,0,0,1,1,1,1,1,0,0,1,1,0,0,0,0,0,0,1,1,1,0,1,1,1,0,0,0,0,1,0,0,0,0,0,0,0,0,0,0,0,0,0,0,0,0,0,0,0,0,0,0,0,0,0,0,0,0,0,0,0,0,0,0,0,0,0,0,0,0,0,0,0,0,0,0,0,0,0,0,0,0,0,0,0,0,0,0,0,0,0,0,0,0,0,0,0,0,0,0,0,0,0,0,0,0,0],"id":2,"left_children":[1,3,5,7,9,11,13,15,17,19,21,23,25,27,29,31,33,35,37,39,41,43,45,47,49,51,53,55,-1,57,59,61,63,65,67,69,71,73,75,-1,77,79,81,-1,83,85,-1,87,89,91,93,95,97,99,101,103,105,107,109,111,-1,113,115,117,119,121,123,125,127,-1,129,131,133,-1,135,137,139,141,143,145,147,149,-1,-1,151,-1,-1,153,155,157,159,161,163,-1,165,167,169,171,-1,173,-1,175,-1,177,-1,179,-1,181,183,-1,-1,185,-1,-1,187,189,191,193,-1,195,197,199,201,203,205,207,209,211,213,-1,-1,215,-1,217,-1,-1,-1,219,-1,-1,-1,221,223,-1,225,-1,-1,-1,227,-1,-1,229,-1,231,233,235,237,-1,239,241,-1,243,245,-1,-1,-1,247,-1,-1,249,-1,-1,-1,251,-1,-1,253,255,257,259,-1,261,263,265,267,-1,-1,269,-1,-1,271,273,-1,275,277,-1,-1,279,281,-1,-1,-1,-1,283,285,287,289,291,293,295,297,-1,-1,299,-1,-1,-1,-1,-1,-1,-1,-1,-1,-1,301,-1,-1,303,-1,305,307,309,311,313,315,317,319,321,323,-1,-1,325,327,-1,329,-1,331,-1,-1,-1,-1,333,-1,-1,-1,335,-1,337,339,-1,-1,-1,-1,341,343,345,-1,-1,-1,-1,-1,347,-1,-1,-1,349,-1,351,353,355,-1,357,359,-1,361,-1,363,365,367,-1,369,371,-1,373,375,377,379,381,-1,383,385,387,389,-1,391,-1,-1,-1,-1,-1,-1,-1,-1,-1,393,-1,-1,-1,-1,395,397,399,401,403,-1,-1,405,407,-1,-1,-1,-1,-1,-1,409,411,413,-1,415,417,419,-1,-1,-1,-1,421,-1,-1,-1,-1,-1,-1,-1,-1,-1,-1,-1,-1,-1,-1,-1,-1,-1,-1,-1,-1,-1,-1,-1,-1,-1,-1,-1,-1,-1,-1,-1,-1,-1,-1,-1,-1,-1,-1,-1,-1,-1,-1,-1,-1,-1,-1,-1,-1,-1,-1,-1,-1,-1,-1,-1,-1,-1,-1,-1,-1,-1,-1,-1,-1,-1,-1,-1,-1,-1,-1,-1,-1,-1,-1,-1,-1,-1],"loss_changes":[8.106797E3,8.225129E3,3.3089062E2,9.8130786E2,1.4996582E2,9.8826807E2,1.9820312E1,1.0365369E3,1.06927795E2,2.1579309E2,1.641504E1,8.787061E2,3.3396484E1,2.2578125E0,5.9444336E1,1.8802484E2,1.27757324E2,2.0892221E1,5.555835E1,1.4433838E1,1.8709671E2,7.921875E0,2.346769E1,1.3334045E2,6.2714905E1,6.821222E1,1.7543945E1,1.6899414E1,0E0,6.395504E1,1.3435059E0,1.3239664E2,2.6571808E1,6.3803207E1,8.3938965E1,2.7376227E0,1.0071901E1,1.3129883E0,3.303765E1,0E0,6.341339E1,4.2395065E1,6.838989E-2,0E0,3.987439E1,1.18318815E1,0E0,6.565623E1,5.3307617E1,1.1131409E1,6.0159176E1,3.38351E1,1.8128662E0,5.336914E-1,2.5701317E1,2.6176575E1,1.4271484E1,1.0329832E2,9.250488E-1,2.23442E1,0E0,1.8062614E1,2.7305176E1,8.235748E0,1.5809814E1,2.5221977E1,4.0991177E1,8.2644104E1,6.976831E1,0E0,1.6925415E0,1.1017036E0,1.3892796E1,0E0,2.4014564E0,6.114687E0,9.911724E0,1.668335E1,5.9701385E0,1.4444971E0,1.2543259E1,1.5115483E0,0E0,0E0,5.9196125E1,0E0,0E0,3.8468857E0,6.447928E1,3.648969E1,1.2931885E1,2.681745E1,1.1087646E0,0E0,2.1709118E0,2.9517555E-1,9.106268E0,2.186099E0,0E0,2.55643E1,0E0,7.44657E0,0E0,5.151496E1,0E0,7.5E-1,0E0,1.1059357E1,3.551136E0,0E0,0E0,6.707947E0,0E0,0E0,8.633881E0,1.1015221E1,1.1738896E0,1.1875496E1,0E0,5.5801535E-1,1.0066214E1,1.37925205E1,4.6844482E-3,1.1908344E1,3.025068E1,3.346222E1,1.0266705E2,5.7655525E-1,3.7172607E1,0E0,0E0,8.208025E0,0E0,3.428244E0,0E0,0E0,0E0,4.557307E0,0E0,0E0,0E0,2.6709204E0,1.2969869E1,0E0,2.8020144E0,0E0,0E0,0E0,4.5840454E0,0E0,0E0,3.149248E1,0E0,9.424881E0,8.504982E-1,1.42237015E1,2.6878551E1,0E0,2.8003216E0,7.58255E0,0E0,3.1641388E-1,6.1725054E0,0E0,0E0,0E0,1.4797653E0,0E0,0E0,4.38233E0,0E0,0E0,0E0,4.0985107E0,0E0,0E0,6.3035715E-1,1.1306244E1,1.362583E1,3.1795776E1,0E0,7.175929E0,6.0382004E0,8.611679E-1,5.1241207E0,0E0,0E0,8.543396E-2,0E0,0E0,5.5390625E0,4.9882846E0,0E0,4.5789337E-1,6.721136E0,0E0,0E0,9.241154E0,7.26425E0,0E0,0E0,0E0,0E0,3.1892643E0,1.2451679E1,5.1550453E1,1.9928352E1,1.3996429E1,6.363719E1,1.5991493E1,7.787819E0,0E0,0E0,2.1411621E1,0E0,0E0,0E0,0E0,0E0,0E0,0E0,0E0,0E0,0E0,4.2505217E0,0E0,0E0,5.340355E0,0E0,5.535675E0,1.60779E-1,4.0588856E-1,3.464159E0,4.0961838E-1,1.7413042E0,1.1659789E1,5.1763E0,2.6973858E0,2.7049633E1,0E0,0E0,1.3367397E1,1.9955444E0,0E0,7.032852E-1,0E0,9.011841E-1,0E0,0E0,0E0,0E0,9.6973E0,0E0,0E0,0E0,7.1527557E0,0E0,6.6014385E0,3.2811308E0,0E0,0E0,0E0,0E0,4.3972805E-1,2.9760437E0,5.6617355E-1,0E0,0E0,0E0,0E0,0E0,2.6546478E0,0E0,0E0,0E0,6.8674266E-1,0E0,6.8632126E0,1.8058552E1,3.5689216E0,0E0,1.252896E1,7.773525E0,0E0,5.893378E-1,0E0,6.8415413E0,4.9145542E1,2.6645233E1,0E0,1.1314331E1,9.477386E0,0E0,5.177792E1,2.2321625E1,4.4267464E0,1.1332268E1,2.093895E0,0E0,1.7705078E1,2.4196115E1,1.4369011E0,2.8394556E0,0E0,5.0002975E0,0E0,0E0,0E0,0E0,0E0,0E0,0E0,0E0,0E0,5.6399536E-1,0E0,0E0,0E0,0E0,4.4050598E-1,2.6415188E0,8.2605384E-2,5.6222343E-1,2.6378408E1,0E0,0E0,1.5720476E1,6.8849325E0,0E0,0E0,0E0,0E0,0E0,0E0,1.0839468E1,6.280365E-1,3.7305134E1,0E0,2.2618675E-1,6.898689E0,2.972824E0,0E0,0E0,0E0,0E0,5.003059E0,0E0,0E0,0E0,0E0,0E0,0E0,0E0,0E0,0E0,0E0,0E0,0E0,0E0,0E0,0E0,0E0,0E0,0E0,0E0,0E0,0E0,0E0,0E0,0E0,0E0,0E0,0E0,0E0,0E0,0E0,0E0,0E0,0E0,0E0,0E0,0E0,0E0,0E0,0E0,0E0,0E0,0E0,0E0,0E0,0E0,0E0,0E0,0E0,0E0,0E0,0E0,0E0,0E0,0E0,0E0,0E0,0E0,0E0,0E0,0E0,0E0,0E0,0E0,0E0,0E0,0E0,0E0,0E0,0E0,0E0,0E0,0E0,0E0,0E0,0E0,0E0,0E0],"parents":[2147483647,0,0,1,1,2,2,3,3,4,4,5,5,6,6,7,7,8,8,9,9,10,10,11,11,12,12,13,13,14,14,15,15,16,16,17,17,18,18,19,19,20,20,21,21,22,22,23,23,24,24,25,25,26,26,27,27,29,29,30,30,31,31,32,32,33,33,34,34,35,35,36,36,37,37,38,38,40,40,41,41,42,42,44,44,45,45,47,47,48,48,49,49,50,50,51,51,52,52,53,53,54,54,55,55,56,56,57,57,58,58,59,59,61,61,62,62,63,63,64,64,65,65,66,66,67,67,68,68,70,70,71,71,72,72,74,74,75,75,76,76,77,77,78,78,79,79,80,80,81,81,84,84,87,87,88,88,89,89,90,90,91,91,92,92,94,94,95,95,96,96,97,97,99,99,101,101,103,103,105,105,107,107,108,108,111,111,114,114,115,115,116,116,117,117,119,119,120,120,121,121,122,122,123,123,124,124,125,125,126,126,127,127,128,128,131,131,133,133,137,137,141,141,142,142,144,144,148,148,151,151,153,153,154,154,155,155,156,156,158,158,159,159,161,161,162,162,166,166,169,169,173,173,176,176,177,177,178,178,179,179,181,181,182,182,183,183,184,184,187,187,190,190,191,191,193,193,194,194,197,197,198,198,203,203,204,204,205,205,206,206,207,207,208,208,209,209,210,210,213,213,224,224,227,227,229,229,230,230,231,231,232,232,233,233,234,234,235,235,236,236,237,237,238,238,241,241,242,242,244,244,246,246,251,251,255,255,257,257,258,258,263,263,264,264,265,265,271,271,275,275,277,277,278,278,279,279,281,281,282,282,284,284,286,286,287,287,288,288,290,290,291,291,293,293,294,294,295,295,296,296,297,297,299,299,300,300,301,301,302,302,304,304,314,314,319,319,320,320,321,321,322,322,323,323,326,326,327,327,334,334,335,335,336,336,338,338,339,339,340,340,345,345],"right_children":[2,4,6,8,10,12,14,16,18,20,22,24,26,28,30,32,34,36,38,40,42,44,46,48,50,52,54,56,-1,58,60,62,64,66,68,70,72,74,76,-1,78,80,82,-1,84,86,-1,88,90,92,94,96,98,100,102,104,106,108,110,112,-1,114,116,118,120,122,124,126,128,-1,130,132,134,-1,136,138,140,142,144,146,148,150,-1,-1,152,-1,-1,154,156,158,160,162,164,-1,166,168,170,172,-1,174,-1,176,-1,178,-1,180,-1,182,184,-1,-1,186,-1,-1,188,190,192,194,-1,196,198,200,202,204,206,208,210,212,214,-1,-1,216,-1,218,-1,-1,-1,220,-1,-1,-1,222,224,-1,226,-1,-1,-1,228,-1,-1,230,-1,232,234,236,238,-1,240,242,-1,244,246,-1,-1,-1,248,-1,-1,250,-1,-1,-1,252,-1,-1,254,256,258,260,-1,262,264,266,268,-1,-1,270,-1,-1,272,274,-1,276,278,-1,-1,280,282,-1,-1,-1,-1,284,286,288,290,292,294,296,298,-1,-1,300,-1,-1,-1,-1,-1,-1,-1,-1,-1,-1,302,-1,-1,304,-1,306,308,310,312,314,316,318,320,322,324,-1,-1,326,328,-1,330,-1,332,-1,-1,-1,-1,334,-1,-1,-1,336,-1,338,340,-1,-1,-1,-1,342,344,346,-1,-1,-1,-1,-1,348,-1,-1,-1,350,-1,352,354,356,-1,358,360,-1,362,-1,364,366,368,-1,370,372,-1,374,376,378,380,382,-1,384,386,388,390,-1,392,-1,-1,-1,-1,-1,-1,-1,-1,-1,394,-1,-1,-1,-1,396,398,400,402,404,-1,-1,406,408,-1,-1,-1,-1,-1,-1,410,412,414,-1,416,418,420,-1,-1,-1,-1,422,-1,-1,-1,-1,-1,-1,-1,-1,-1,-1,-1,-1,-1,-1,-1,-1,-1,-1,-1,-1,-1,-1,-1,-1,-1,-1,-1,-1,-1,-1,-1,-1,-1,-1,-1,-1,-1,-1,-1,-1,-1,-1,-1,-1,-1,-1,-1,-1,-1,-1,-1,-1,-1,-1,-1,-1,-1,-1,-1,-1,-1,-1,-1,-1,-1,-1,-1,-1,-1,-1,-1,-1,-1,-1,-1,-1,-1],"split_conditions":[6.533613E-1,6.190015E-1,1.0950056E0,1.7075508E1,9.0017426E-1,2.3851018E0,4.5758E-2,2.5546753E-1,1.2368101E1,1.3005846E0,3.8294544E0,7.8227735E-1,4.6431837E0,2.2699661E0,1.8402474E0,1.3261001E-1,1.7202497E0,3.235069E-3,1.4122324E-2,1.313E-1,5.9101586E0,3.245002E-2,1.2418811E0,8.225704E-3,2.664468E-2,5.269919E-1,6.223122E-2,1.4035394E0,-9.103971E-2,7.317202E0,2.463877E-1,9.454316E-2,1.3492275E0,1.2008725E-1,4.125609E-3,1.0959878E0,8.816012E-3,5.8493824E0,1.3348839E0,-9.0064466E-2,1.7995492E0,1.8254526E0,1.3008478E1,-9.075166E-2,1.8820664E-1,4.485709E0,-8.3441265E-2,4.552111E0,1.6164885E0,8.75336E-1,1.4698281E0,2.5160728E0,5.874536E-1,1.9617722E1,2.1834457E1,8.641124E-1,2.2675889E0,1.8056576E1,2.658427E-1,2.4284202E-1,-9.084424E-2,1.2009215E-2,2.7987952E0,3.1882513E-1,1.8022544E0,4.1632935E-2,8.810754E-1,3.8382477E-1,1.8546402E-2,-7.304315E-2,4.5327955E-1,1.3576361E0,4.677874E1,-8.970656E-2,3.3685744E-3,2.1021451E-1,2.524724E2,2.8660565E-3,4.2811427E-2,1.0703193E0,1.2429449E-1,2.2295332E0,-8.828815E-2,-9.050344E-2,3.481297E0,6.565251E-2,-6.014214E-2,1.3072911E-1,7.884569E-1,5.9388323E0,1.3481493E1,4.731266E-3,4.2041332E-1,7.8223266E-2,1.4087797E1,3.0182595E0,8.152252E0,3.8376977E0,-8.43689E-2,1.9458975E1,-9.106209E-2,1.0122249E-1,-8.338315E-2,7.676676E-3,-8.835677E-2,2.4858322E0,3.5862442E-2,8.1553423E-1,1.2052412E0,-8.9267276E-2,-2.296238E-2,1.95299E0,6.358834E-2,4.1880198E-2,3.219875E-2,5.8745427E-5,8.4055275E-2,8.3033435E-2,-8.81119E-2,1.5818822E0,3.8461918E-3,4.6939543E-1,1.5564747E0,5.07424E-1,1.4226353E0,1.1507827E-1,2.1931295E0,1.2204822E-1,7.433001E-1,2.8623626E-2,-3.4454238E-2,1.0438484E-1,8.259908E-2,2.2048376E1,-6.99168E-2,-6.0325928E-2,1.6793255E-2,1.7918816E-1,-8.1447E-2,7.618314E-2,-5.0160438E-2,1.344266E0,1.0920265E0,-8.89496E-2,1.4323425E1,-7.908364E-3,-7.3711365E-2,-5.2123494E-2,4.876081E-3,-6.0917556E-2,5.1823445E-3,1.8273728E0,-8.7292515E-2,2.1377838E0,3.9391642E0,1.7124944E0,2.3747563E0,-8.210195E-2,4.43447E-1,2.0503082E0,-5.1574737E-2,6.296907E-4,1.9036064E0,-1.7070657E-2,-8.930913E-2,-8.345168E-2,9.7220314E-1,-2.0570664E-2,-7.6009594E-2,8.578627E-4,-4.8649292E-2,1.784034E-2,-5.504336E-2,3.9400315E-1,6.449229E-2,6.94377E-2,8.4843147E-1,1.4013635E0,6.069353E0,2.4795775E0,-9.010059E-2,5.928185E-2,5.1489435E-2,1.6278408E-1,1.5261178E0,1.4498089E-2,-8.6782314E-2,6.278599E-1,3.2298673E-2,-5.1574737E-2,1.10516876E-1,2.5701149E0,-6.605057E-2,9.2474926E-1,2.1485329E-1,1.3075868E-2,6.880292E-2,3.1332213E-1,2.0646172E0,6.5713994E-2,-6.362798E-2,8.554601E-2,3.597351E-2,3.2656938E-3,4.0945932E-2,1.8568347E-1,9.339947E-1,9.5514885E1,1.3433428E0,1.8276942E-1,5.0448227E0,-1.612516E-2,-7.8329414E-2,1.2464354E1,-7.0995346E-2,7.180449E-2,-5.0792873E-2,-1.8159838E-2,6.601625E-2,5.3560108E-2,-4.897021E-2,-6.8553865E-2,6.8264552E-3,-5.782653E-2,4.575412E-1,2.908287E-2,-4.9562033E-2,3.893255E-1,8.73967E-2,2.1883628E0,3.8911104E-2,1.6148701E-2,4.456665E0,5.484258E-4,4.353109E0,6.9359994E-1,5.6030864E-1,1.7546611E0,5.8456593E0,7.818738E-2,-5.677279E-3,2.81092E-1,1.6284907E0,-2.4154698E-2,3.668208E0,-3.874677E-2,8.0496144E-1,-4.3809373E-2,1.5667658E-2,-8.860073E-3,8.201806E-2,1.0172417E-2,-8.992646E-2,-0E0,-4.765037E-2,9.351302E0,5.1574733E-2,6.903877E-1,2.8933687E0,-8.7527305E-2,6.90076E-2,6.358834E-2,-5.359931E-2,2.3554379E-1,2.1597586E0,5.746513E-2,1.5938375E-2,5.38221E-2,-4.957388E-2,-8.722889E-2,-3.1231431E-2,1.1964978E-3,-1.5300649E-2,-5.7522785E-2,4.8151072E-2,3.4823322E-1,-8.768437E-2,2.234914E-1,1.0027298E1,2.4566153E-1,-6.03985E-2,1.8395531E0,1.9256596E-1,3.0983716E-2,4.5343506E-1,-4.8291713E-2,4.2924494E-1,2.755713E-2,1.8071096E-2,-6.855171E-2,5.667363E0,6.1039263E-1,-5.4313686E-2,4.3449932E-1,5.0906055E-2,3.473279E0,4.3512886E1,4.7040358E0,-3.2591224E-2,9.562555E0,1.2561726E1,4.3311184E-3,1.5407067E-2,7.751194E-2,5.889995E0,-1.2254769E-2,8.371735E-2,-2.0338116E-2,-7.315226E-2,-1.6386693E-2,-7.310766E-2,5.8214404E-2,-2.4398712E-2,-1.9071672E-2,3.1966538E0,1.7737411E-2,-5.009825E-2,6.265229E-2,-6.988924E-2,5.548401E0,7.636956E-1,7.3427052E0,6.4336996E0,8.2402074E-1,-7.613357E-2,8.3936E-2,1.9449426E-2,4.119643E-1,8.850752E-2,-8.579802E-2,-1.9881247E-2,1.1280329E-2,7.2365254E-2,-8.413988E-2,1.394947E1,1.9649999E0,9.708082E0,3.5267398E-2,1.1860499E0,8.059473E0,6.1725464E0,-1.4358855E-2,1.68036E-2,-2.0078174E-5,-8.309956E-2,1.4220912E0,8.566212E-2,2.5629228E-2,7.702443E-2,-5.366368E-2,-4.2581116E-3,-6.895771E-2,4.1314485E-3,4.316261E-2,-6.770052E-2,-1.7070657E-2,7.204242E-2,-7.180848E-2,4.2827662E-2,3.1967785E-2,-8.0183454E-2,-9.887808E-3,-6.0480285E-2,7.499368E-2,4.430547E-3,5.885459E-2,-7.267791E-2,-8.698124E-2,6.592932E-2,7.604899E-2,-5.1750135E-2,8.4183626E-2,-3.6788732E-3,3.085207E-2,-8.586076E-2,-6.386671E-2,7.76257E-2,7.136989E-3,-8.764304E-2,4.5525427E-3,-7.161034E-2,8.353879E-2,8.311327E-3,7.4121244E-2,8.775758E-2,-7.434934E-2,6.566324E-2,7.732047E-2,3.5238106E-2,-5.0083395E-2,3.2702677E-2,-3.513269E-2,4.4145565E-2,-7.719841E-2,-3.1097356E-2,8.384522E-2,2.3473239E-2,-3.0526413E-2,4.6722196E-2,1.787253E-3,-1.3903283E-2,-3.0198997E-2,-7.870864E-2,5.6192566E-2,-2.8253857E-2,-7.305469E-2,5.3267E-2,6.918294E-2,-3.7589185E-2,2.1327931E-2,-7.524584E-2,-2.3407638E-2,-8.610888E-2,6.962735E-2,-7.4378885E-2,-1.761719E-2,-6.97003E-2,6.109903E-2,-5.445763E-2,8.017739E-2,-3.2368053E-3,6.9642775E-2,-3.18539E-2],"split_indices":[3,1,3,0,1,0,4,2,5,2,2,1,0,0,3,1,5,4,4,3,0,4,1,4,4,1,4,3,0,0,1,2,0,1,4,2,4,2,2,0,0,5,0,0,3,2,0,5,2,1,1,2,1,0,0,1,0,5,4,1,0,3,0,1,0,3,5,1,3,0,3,2,0,0,4,3,0,4,4,5,3,2,0,0,0,0,0,1,3,5,2,4,5,0,5,0,2,0,0,0,0,4,0,4,0,2,0,5,1,0,0,3,0,0,4,4,3,2,0,0,4,2,5,2,2,1,2,1,4,0,0,1,0,0,0,0,0,1,0,0,0,0,5,0,0,0,0,0,4,0,0,1,0,2,5,2,2,0,1,2,0,4,2,0,0,0,3,0,0,4,0,0,0,1,0,0,1,3,5,2,0,4,4,4,3,0,0,0,0,0,3,5,0,5,0,0,0,1,0,0,0,0,0,4,3,3,5,5,2,3,0,0,0,0,0,0,0,0,0,0,0,0,0,0,3,0,0,3,0,5,4,1,2,4,5,3,1,2,2,0,0,1,5,0,2,0,1,0,0,0,0,4,0,0,0,5,0,5,2,0,0,0,0,0,2,4,0,0,0,0,0,0,0,0,0,0,0,1,5,1,0,0,1,0,5,0,3,4,4,0,2,3,0,3,3,5,5,2,0,5,0,4,4,0,5,0,0,0,0,0,0,0,0,0,5,0,0,0,0,2,3,5,5,0,0,0,4,1,0,0,0,0,0,0,0,2,5,0,3,5,2,0,0,0,0,3,0,0,0,0,0,0,0,0,0,0,0,0,0,0,0,0,0,0,0,0,0,0,0,0,0,0,0,0,0,0,0,0,0,0,0,0,0,0,0,0,0,0,0,0,0,0,0,0,0,0,0,0,0,0,0,0,0,0,0,0,0,0,0,0,0,0,0,0,0,0,0,0,0,0,0,0,0],"split_type":[0,0,0,0,0,0,0,0,0,0,0,0,0,0,0,0,0,0,0,0,0,0,0,0,0,0,0,0,0,0,0,0,0,0,0,0,0,0,0,0,0,0,0,0,0,0,0,0,0,0,0,0,0,0,0,0,0,0,0,0,0,0,0,0,0,0,0,0,0,0,0,0,0,0,0,0,0,0,0,0,0,0,0,0,0,0,0,0,0,0,0,0,0,0,0,0,0,0,0,0,0,0,0,0,0,0,0,0,0,0,0,0,0,0,0,0,0,0,0,0,0,0,0,0,0,0,0,0,0,0,0,0,0,0,0,0,0,0,0,0,0,0,0,0,0,0,0,0,0,0,0,0,0,0,0,0,0,0,0,0,0,0,0,0,0,0,0,0,0,0,0,0,0,0,0,0,0,0,0,0,0,0,0,0,0,0,0,0,0,0,0,0,0,0,0,0,0,0,0,0,0,0,0,0,0,0,0,0,0,0,0,0,0,0,0,0,0,0,0,0,0,0,0,0,0,0,0,0,0,0,0,0,0,0,0,0,0,0,0,0,0,0,0,0,0,0,0,0,0,0,0,0,0,0,0,0,0,0,0,0,0,0,0,0,0,0,0,0,0,0,0,0,0,0,0,0,0,0,0,0,0,0,0,0,0,0,0,0,0,0,0,0,0,0,0,0,0,0,0,0,0,0,0,0,0,0,0,0,0,0,0,0,0,0,0,0,0,0,0,0,0,0,0,0,0,0,0,0,0,0,0,0,0,0,0,0,0,0,0,0,0,0,0,0,0,0,0,0,0,0,0,0,0,0,0,0,0,0,0,0,0,0,0,0,0,0,0,0,0,0,0,0,0,0,0,0,0,0,0,0,0,0,0,0,0,0,0,0,0,0,0,0,0,0,0,0,0,0,0,0,0,0,0,0,0,0,0,0,0,0,0,0,0,0,0,0,0,0,0,0,0,0,0],"sum_hessian":[3.0182113E4,4.651531E3,2.5530582E4,2.355051E3,2.2964795E3,2.53079E3,2.2999793E4,2.1693098E3,1.8574123E2,3.1487585E2,1.9816038E3,5.911046E2,1.9396854E3,2.2533379E4,4.6641278E2,2.6473285E2,1.904577E3,2.89036E1,1.5683763E2,2.2213217E2,9.2743675E1,1.9646537E3,1.6950043E1,3.093964E2,2.8170822E2,8.089735E1,1.8587881E3,4.082064E3,1.8451314E4,1.0589413E2,3.6051865E2,9.654862E1,1.6818423E2,1.7861324E2,1.7259637E3,5.9571533E0,2.2946447E1,1.3640933E2,2.0428291E1,1.2596093E2,9.6171234E1,6.135156E1,3.1392118E1,1.7942147E3,1.7043893E2,7.030973E0,9.91907E0,1.3793031E2,1.7146606E2,2.5739838E2,2.4309862E1,2.0688776E1,6.0208572E1,1.8423949E3,1.6393288E1,2.5988303E2,3.8221812E3,5.790475E1,4.798938E1,3.747762E1,3.2304105E2,2.9247437E1,6.7301186E1,1.3400607E2,3.417817E1,5.905929E1,1.1955394E2,4.2344595E2,1.3025178E3,3.6895745E0,2.2675786E0,1.4540081E1,8.406366E0,1.3362282E2,2.7865102E0,1.0048932E1,1.037936E1,2.501115E1,7.116009E1,5.475903E0,5.5875656E1,3.0000374E0,2.839208E1,1.3173413E2,3.8704807E1,5.2588196E0,1.7721534E0,3.0992203E1,1.0693812E2,1.4854081E1,1.5661198E2,2.3146925E1,2.3425145E2,1.1453598E1,1.2856264E1,6.156455E0,1.453232E1,2.5380323E0,5.767054E1,1.5742133E2,1.6849735E3,6.555511E0,9.837776E0,1.0022119E2,1.5966183E2,3.8204153E3,1.7656305E0,3.4477283E1,2.3427467E1,4.6629826E1,1.3595529E0,3.536916E1,2.1084578E0,2.8584619E0,2.6388975E1,6.2310623E1,4.990558E0,6.013723E1,7.386884E1,3.9533072E0,3.0224861E1,6.780455E0,5.2278835E1,3.957062E1,7.9983315E1,3.544662E2,6.897974E1,6.6294484E0,1.2958884E3,1.1151278E0,1.1524508E0,4.5436893E0,9.996391E0,5.3956223E0,3.010744E0,1.7490311E0,1.0374793E0,2.361485E0,7.687447E0,9.261878E0,1.1174823E0,6.8081517E0,1.8202997E1,6.8554016E1,2.6060708E0,1.3059118E0,4.169991E0,1.2197475E0,5.465591E1,1.9891939E0,1.0108436E0,1.7913933E1,2.0790873E1,8.522711E0,2.2469492E1,4.632747E1,6.061065E1,8.311627E0,6.5424542E0,1.5542184E2,1.1901369E0,1.712038E1,6.0265436E0,1.0625299E0,2.3318892E2,1.0186809E1,2.669455E0,1.2207711E0,4.9356837E0,1.3514374E1,1.0179466E0,1.1455749E0,1.3924574E0,1.5521025E2,2.2110853E0,4.4924617E0,2.0630493E0,8.277897E1,1.7442226E1,3.5991177E1,3.7844243E3,3.4121382E0,3.1065144E1,2.0457907E1,2.9695594E0,1.4377694E0,3.3931393E1,2.5222775E1,1.1661994E0,1.1901369E0,6.1120487E1,2.5851834E0,2.4053748E0,2.7385292E1,3.2751938E1,1.138478E0,2.8148289E0,6.305183E0,2.3919678E1,2.361392E0,4.419063E0,5.0264973E1,2.0138614E0,4.226472E0,3.534415E1,6.1292645E1,1.869067E1,1.7341301E2,1.8105319E2,3.9862408E1,2.911733E1,1.0375768E0,5.5918717E0,1.2926672E3,3.2211075E0,3.3943484E0,1.149341E0,1.0920782E0,4.303544E0,1.3013659E0,1.060119E0,5.5848694E0,1.2232826E0,2.6053739E0,1.5597624E1,1.5178393E0,1.0882314E0,1.121393E1,4.344198E1,1.3080279E1,4.8336535E0,4.734241E0,3.78847E0,2.0377626E1,2.091866E0,4.7140255E0,4.161344E1,1.5133194E1,4.5477455E1,5.5204434E0,1.0220109E0,1.7742737E1,1.3767911E2,1.2719557E0,1.5848425E1,1.3220028E0,4.7045407E0,1.5888921E0,1.0805628E0,1.2698971E0,1.2244476E1,2.791267E1,1.2729757E2,1.0628647E0,1.0001847E0,8.158883E1,1.190137E0,6.2147026E0,1.1227524E1,3.3141827E1,2.8493488E0,2.1084578E0,1.3036805E0,2.5502925E0,2.851485E1,1.9311121E1,1.1467863E0,1.8807575E0,1.0888021E0,2.369204E1,1.5307348E0,5.9657764E1,1.4627215E0,1.5626956E0,1.0224876E0,2.5884712E0,2.479682E1,1.9951685E1,1.2800253E1,4.510611E0,1.7945719E0,7.638905E0,1.6280773E1,1.1206642E0,3.1058078E0,1.8209924E0,3.352316E1,3.0770521E1,3.0522125E1,2.560045E0,1.6130625E1,1.7216737E2,1.2456343E0,7.34474E1,1.0760579E2,1.7210844E1,2.2651566E1,2.8030718E1,1.0866123E0,1.2816337E3,1.1033633E1,1.3393522E1,2.2041016E0,5.130251E0,6.0836787E0,1.4374145E0,1.1642865E1,1.167513E0,3.6661406E0,1.088029E0,3.646212E0,2.497434E0,1.2910361E0,1.231325E0,1.9146301E1,1.0354323E0,1.0564337E0,2.059586E0,2.6544392E0,3.912976E1,2.4836826E0,2.1593416E0,1.2973852E1,3.8899487E1,6.5779667E0,9.695998E0,8.046739E0,7.0498295E0,1.3062927E2,1.4707801E1,1.1406249E0,1.1813675E0,3.523173E0,1.7796688E1,1.0115983E1,5.1924942E1,2.9663887E1,1.7699376E0,4.444765E0,3.1925683E0,8.034955E0,1.4334939E0,1.1167986E0,1.120974E0,2.7393877E1,4.022363E0,1.5288758E1,3.955497E0,5.570227E1,1.3074919E0,1.2809793E0,1.6132826E1,3.818859E0,6.95937E0,5.8408823E0,1.0625299E0,3.4480813E0,3.3952382E0,4.243667E0,1.1805359E0,1.5100237E1,1.304004E0,1.8018038E0,2.9505484E1,4.0176735E0,2.131777E1,9.452751E0,2.8089409E1,2.4327157E0,1.4885775E1,1.2448503E0,1.6912526E2,3.0421264E0,6.3277214E1,1.0170189E1,2.1507292E0,1.05455055E2,1.1725135E0,1.603833E1,1.683213E1,5.8194337E0,2.6831734E1,1.1989837E0,3.9955264E2,8.82081E2,4.048121E0,6.9855127E0,6.031533E0,7.36199E0,1.1136688E0,1.0904329E0,2.6476274E0,3.4360514E0,1.6482302E1,2.6640003E0,3.7880363E1,1.2493985E0,1.4535018E0,1.0301807E0,1.0606797E0,1.0986619E0,2.4756758E0,1.0498177E1,2.5440887E1,1.34586E1,3.3240094E0,4.7227287E0,5.8023386E0,1.2474909E0,6.048406E0,4.0675764E0,1.3016564E0,5.0623283E1,4.6101184E0,2.505377E1,1.1082703E0,3.3364944E0,1.7228179E0,1.4697505E0,6.8870416E0,1.1479138E0,2.9606628E0,1.0617001E0],"tree_param":{"num_deleted":"0","num_feature":"6","num_nodes":"423","size_leaf_vector":"0"}},{"base_weights":[-1.4885633E0,-3.223245E-1,-1.7012942E0,9.367306E-1,-1.614982E0,-1.3696568E0,-1.7377455E0,1.1178854E0,-1.1749845E0,-9.9205023E-1,-1.7138515E0,-2.8218228E-1,-1.701369E0,-1.7420675E0,-1.5257475E0,-6.581439E-1,1.3652241E0,5.054569E-1,-1.4869989E0,-1.5060908E0,2.3949485E-1,-1.7221197E0,-7.155283E-1,8.3116436E-1,-1.5062654E0,-1.0723538E0,-1.7282083E0,-1.7095054E0,-1.7491792E0,-8.790856E-1,-1.7130574E0,4.048127E-1,-1.2676996E0,5.87724E-1,1.445476E0,-9.881883E-1,9.192755E-1,-1.7070239E0,-1.0982615E-2,-1.7309008E0,-1.1960295E0,1.2067459E0,-1.6427838E0,-1.7435575E0,-1.4876125E0,5.812124E-1,-1.6066027E0,1.2663357E-1,1.3960137E0,-1.6452074E0,-3.1749725E-2,4.1229647E-1,-1.5819169E0,-1.7371601E0,-6.830853E-1,-1.5259162E0,-1.7345048E0,-1.9169801E-1,-1.6895078E0,-1.394941E0,-1.7455554E0,-1.2692282E0,1.1391397E0,-1.4608638E0,-4.9211812E-1,1.3969551E0,1.8080115E-1,1.0683368E0,1.5672426E0,-1.411279E0,-8.104844E-2,1.3800184E0,6.2009536E-2,-1.723533E0,-6.733387E-1,-1.193502E0,1.1378754E0,1.15513206E-1,-1.6552896E0,-1.1897895E0,1.4576635E0,-8.3143574E-1,-1.6975844E0,-1.7391808E0,-6.105917E-1,1.2640107E0,-1.1679692E0,-1.0806365E0,4.836009E-1,-3.2203877E-1,1.5602558E0,-9.41316E-1,-1.7106328E0,1.5038571E0,-1.4087425E0,-1.3398461E0,1.1941966E0,-5.130482E-1,-1.6196487E0,-1.5932491E0,-1.7496556E0,7.2538316E-1,-1.6055115E0,-1.2342271E0,-1.7151312E0,-1.2350621E0,1.3312544E0,-1.7158736E0,-4.4619656E-1,-1.5821294E0,1.2331172E0,8.0798036E-1,-1.517185E0,1.3134253E0,-8.881996E-1,-1.1541003E0,-1.6926526E0,1.1347119E0,-7.350195E-1,-3.0379498E-1,1.6199596E0,9.64263E-1,-2.1397774E-1,-3.8525534E-1,1.1944364E0,-1.3884729E0,1.5834703E0,5.576996E-1,-6.7120075E-1,7.1460456E-1,1.5900745E0,9.385213E-1,-1.3524473E0,3.4035414E-1,-1.180531E0,1.281673E-1,-1.5691665E0,1.4651784E0,-9.7844756E-1,-1.0743002E0,5.92325E-1,-1.7091743E0,-1.654235E-1,-1.536957E-1,-1.4230813E0,-1.0158268E0,1.5300794E0,-1.1816796E0,1.0104357E-1,6.496171E-1,-1.6788936E0,1.6672435E-1,-1.1663774E0,1.2928426E0,-1.9586663E-1,-1.5814613E0,1.2725947E0,1.586386E0,-1.0053833E0,-1.5348674E0,7.1756834E-1,-3.32685E-1,-1.7155124E0,-9.1404624E-2,-1.5294125E0,-4.0021518E-1,-1.4663675E0,1.4983975E0,-4.7201765E-1,3.4735954E-1,-1.0713243E0,-1.6417598E0,1.250185E0,1.339006E0,-6.0735816E-1,-8.835835E-1,-1.7213743E0,-4.6999416E-1,-1.6531584E0,1.4701135E0,2.4824429E-1,2.8145733E-1,-1.6676892E0,-1.6375846E0,6.2905174E-1,-1.0053833E0,1.3743039E0,-2.6850298E-1,-1.2795882E0,-1.623485E0,-7.2693E-1,2.5458673E-1,1.3314692E0,3.0354923E-1,-1.010426E0,1.2732395E0,-1.2260822E0,-4.684577E-1,1.1444746E0,-6.7637503E-1,5.2925384E-1,1.3170296E0,-1.4201912E0,1.2583851E0,-4.684188E-1,-3.143469E-1,-1.5106269E0,1.5919225E0,-1.3727511E0,1.3879782E0,-9.90496E-1,-3.5379764E-1,1.2727662E0,1.043147E0,-9.557565E-1,-1.31997E0,1.3277759E-1,-1.1183387E0,9.277837E-1,5.6450707E-1,-9.67042E-1,8.842098E-1,1.6792997E0,1.4039596E0,-1.2770624E0,-1.3976477E0,-5.9232646E-1,-1.0686535E0,1.3857564E0,-1.2561158E0,1.7672731E-1,1.5079592E0,-1.1067854E-1,9.081276E-1,1.6668415E0,-4.6977413E-1,-1.5877782E0,-7.5372714E-1,1.1920106E0,2.0113073E-3,1.64095E0,2.0267914E-1,-9.496318E-1,-1.1619086E0,-1.7192878E0,-1.3044375E0,-4.3082677E-2,-1.1598903E0,4.9523455E-1,1.5207127E0,3.1030908E-1,1.0439209E0,-9.6726775E-1,-1.6772692E0,-6.0621244E-1,1.4198118E0,-2.9698008E-1,-1.1183611E0,9.4012755E-1,-7.242248E-1,-1.6860774E0,1.0144188E0,-8.1782115E-1,9.978818E-1,-1.1728199E0,-2.0443109E-1,-1.3559172E0,6.037052E-1,-9.0870607E-1,-1.1003783E0,1.2698647E0,2.1076019E-1,-1.4586335E0,1.0769981E0,-1.3653797E0,1.6243801E0,-7.883847E-1,-1.612576E0,1.0409839E0,8.555077E-1,1.5108613E0,-1.3512017E0,9.6146035E-1,1.603438E0,2.3594283E-1,-4.7320455E-1,-1.4567682E0,1.1206454E0,-2.281596E-1,1.5023934E0,2.2762711E-1,-2.3789625E-1,1.611154E0,-1.4282255E0,-3.919087E-1,-5.8653384E-1,-1.5731084E0,2.156879E-1,-9.6519643E-1,1.4681726E0,-6.365625E-1,5.6167938E-2,-1.3838608E0,4.9626482E-1,-1.4664421E0,1.615375E0,-2.5521291E-2,9.198389E-1,1.6999791E0,-1.6508394E0,-3.8713902E-1,2.1951757E-1,1.3985282E0,-1.3515892E0,1.1208224E0,2.8702852E-1,-1.4184974E0,-7.7382857E-1,8.301288E-1,-1.4038329E-1,-1.3187687E0,1.3989898E0,-5.666875E-1,8.058992E-1,1.6480199E0,4.677414E-1,1.4779012E0,-1.0688211E0,-8.2144916E-2,6.419124E-1,-9.492113E-1,-3.32685E-1,1.3924545E0,-1.3880532E0,8.235329E-1,6.225035E-1,-1.5409153E0,-1.9217397E-1,-1.1743674E0,1.4223588E0,8.506508E-2,-1.0899155E0,1.0090135E0,-1.6548628E0,8.894202E-1,1.6507889E0,-6.515906E-2,-1.4913542E0,-4.2236117E-1,-6.883816E-1,-1.6913445E0,1.3781389E0,-4.9280047E-1,1.5404431E0,-1.0642004E0,-3.211958E-2,-1.5218788E0,1.4230249E0,-5.1464057E-1,1.6124043E0,5.0994515E-2,-1.4358402E0,1.2622057E0,1.490286E0,6.7875206E-1,-9.769796E-1,6.37464E-1,-6.7722297E-1,8.9402026E-1,1.968853E-1,-1.2212886E0,-6.0782844E-1,9.3802434E-1,-6.73279E-2,-1.4771736E0,1.5031269E0,-7.2393604E-3,-5.485283E-1,-1.508424E0,1.0959227E0,-7.17676E-1,-1.4106579E0,1.024503E0,1.3320371E0,-7.314733E-1,2.429195E-2,-1.4707919E0,1.1063964E0,-1.1494135E0,2.0721509E-1,-1.5512959E0,-1.5118237E0,5.1445055E-1,-1.0258213E0,1.3047298E0,3.1389987E-1,-1.1066699E0,1.3472875E0,-6.2110233E-1],"categories":[],"categories_nodes":[],"categories_segments":[],"categories_sizes":[],"default_left":[1,1,1,1,1,1,1,1,1,1,1,1,1,1,1,1,1,1,1,1,1,1,1,1,1,1,1,1,0,1,1,1,1,1,1,1,1,1,1,0,1,1,1,0,1,1,0,1,1,1,1,1,1,1,1,1,0,1,1,1,0,1,1,1,1,1,1,1,1,0,1,1,1,0,1,1,1,1,1,1,1,1,0,0,1,0,0,1,1,1,1,1,1,0,1,1,1,1,0,1,0,1,0,1,0,1,1,0,0,1,0,0,1,1,1,1,0,1,1,1,0,1,1,1,1,1,1,0,0,1,0,1,0,0,0,1,0,0,0,1,1,0,1,0,0,0,1,0,0,1,0,0,1,1,1,0,1,1,0,1,1,0,0,0,0,0,0,1,1,0,0,1,0,0,0,1,0,1,0,1,1,0,0,1,0,0,1,1,0,1,1,0,0,1,1,0,0,1,1,1,1,1,1,1,1,0,0,1,0,0,0,0,0,0,0,1,0,0,1,0,0,1,0,1,1,1,1,0,1,1,1,0,0,1,1,0,1,0,1,0,0,0,0,1,0,1,1,1,1,1,0,0,0,0,0,1,0,0,0,1,0,0,1,1,0,1,1,0,1,0,1,1,1,1,1,0,0,1,0,1,1,1,1,1,1,0,0,1,1,0,1,0,0,0,0,1,0,1,1,1,0,0,1,1,0,0,1,1,0,0,0,0,0,1,0,1,1,1,1,0,0,0,1,1,0,0,0,0,0,0,0,0,0,0,0,0,0,0,0,0,0,0,0,0,0,0,0,0,0,0,0,0,0,0,0,0,0,0,0,0,0,0,0,0,0,0,0,0,0,0,0,0,0,0,0,0,0,0,0,0,0,0,0,0,0,0,0,0,0,0,0,0,0,0,0,0,0,0,0],"id":3,"left_children":[1,3,5,7,9,11,13,15,17,19,21,23,25,27,29,31,33,35,37,39,41,43,45,47,49,51,53,55,-1,57,59,61,63,65,67,69,71,73,75,-1,77,79,81,-1,83,85,-1,87,89,91,93,95,97,99,101,103,-1,105,107,109,-1,111,113,115,117,119,121,123,125,-1,127,129,131,-1,133,135,137,139,141,143,145,147,-1,-1,149,-1,-1,151,153,155,157,159,161,-1,163,165,167,169,-1,171,-1,173,-1,175,-1,177,179,-1,-1,181,-1,-1,183,185,187,189,-1,191,193,195,-1,197,199,201,203,205,207,-1,-1,209,-1,211,-1,-1,-1,213,-1,-1,-1,215,217,-1,219,-1,-1,-1,221,-1,-1,223,-1,-1,225,227,229,-1,231,233,-1,235,237,-1,-1,-1,-1,-1,-1,239,241,-1,-1,243,-1,-1,-1,245,-1,247,-1,249,251,-1,-1,253,-1,-1,255,257,-1,259,261,-1,-1,263,265,-1,-1,267,269,271,273,275,277,279,281,-1,-1,283,-1,-1,-1,-1,-1,-1,-1,285,-1,-1,287,-1,-1,289,-1,291,293,295,297,-1,299,301,303,-1,-1,305,307,-1,309,-1,311,-1,-1,-1,-1,313,-1,315,317,319,321,323,-1,-1,-1,-1,-1,325,-1,-1,-1,327,-1,-1,329,331,-1,333,335,-1,337,-1,339,341,343,345,347,-1,-1,349,-1,351,353,355,357,359,361,-1,-1,363,365,-1,367,-1,-1,-1,-1,369,-1,371,373,375,-1,-1,377,379,-1,-1,381,383,-1,-1,-1,-1,-1,385,-1,387,389,391,393,-1,-1,-1,395,397,-1,-1,-1,-1,-1,-1,-1,-1,-1,-1,-1,-1,-1,-1,-1,-1,-1,-1,-1,-1,-1,-1,-1,-1,-1,-1,-1,-1,-1,-1,-1,-1,-1,-1,-1,-1,-1,-1,-1,-1,-1,-1,-1,-1,-1,-1,-1,-1,-1,-1,-1,-1,-1,-1,-1,-1,-1,-1,-1,-1,-1,-1,-1,-1,-1,-1,-1,-1,-1,-1,-1,-1,-1,-1,-1],"loss_changes":[7.4089844E3,7.502067E3,3.0296094E2,8.946594E2,1.3837158E2,9.035049E2,1.81875E1,9.459082E2,9.774655E1,1.9907892E2,1.4958008E1,8.011449E2,3.0561523E1,2.171875E0,5.453357E1,1.7133882E2,1.1699243E2,1.9275545E1,5.07334E1,1.3376343E1,1.7184753E2,7.182129E0,2.1527061E1,1.2239914E2,5.7295715E1,6.2088684E1,1.6026855E1,1.5896484E1,0E0,5.8707054E1,1.2629395E0,1.20497665E2,2.4420258E1,5.8488823E1,7.69104E1,2.5448456E0,9.309761E0,1.1602478E0,3.0267775E1,0E0,5.824211E1,3.9141106E1,1.55181885E-2,0E0,3.637674E1,1.1022779E1,0E0,6.0063744E1,4.8713654E1,1.01698E1,5.5245556E1,3.111511E1,1.6156921E0,4.9169922E-1,2.3605755E1,2.506543E1,0E0,9.454183E1,8.2437134E-1,2.0709732E1,0E0,1.667857E1,2.5138275E1,7.5627747E0,1.4651596E1,2.3073685E1,3.727423E1,7.759122E1,6.4141846E1,0E0,1.6049615E0,1.01968E0,1.2876638E1,0E0,2.3447287E0,5.649947E0,9.264678E0,1.5346839E1,5.453003E0,1.3394337E0,1.1721153E1,1.4226627E0,0E0,0E0,5.4087917E1,0E0,0E0,3.5995483E0,5.9264854E1,3.3617577E1,1.2061157E1,2.471025E1,9.946289E-1,0E0,2.0479946E0,2.5944424E-1,8.525669E0,2.068773E0,0E0,2.3691284E1,0E0,6.966692E0,0E0,3.218866E1,0E0,1.0486702E1,3.2819252E0,0E0,0E0,6.2150497E0,0E0,0E0,8.045837E0,1.0257736E1,1.1037364E0,1.099955E1,0E0,5.157585E-1,9.182556E0,1.2824445E1,0E0,1.095092E1,2.802654E1,6.238047E1,4.1789917E1,5.202837E-1,3.428955E1,0E0,0E0,7.7094107E0,0E0,3.2021365E0,0E0,0E0,0E0,4.3228E0,0E0,0E0,0E0,2.4805298E0,1.2030462E1,0E0,2.6529238E0,0E0,0E0,0E0,3.8683777E0,0E0,0E0,2.9089739E1,0E0,0E0,3.1437454E0,1.2257492E1,2.361144E1,0E0,2.608203E0,6.940857E0,0E0,2.6722717E-1,5.7846413E0,0E0,0E0,0E0,0E0,0E0,0E0,2.8301888E0,1.2049091E0,0E0,0E0,3.7565613E0,0E0,0E0,0E0,4.1260933E1,0E0,9.790932E0,0E0,7.7757645E-1,4.8387794E0,0E0,0E0,4.6798706E-2,0E0,0E0,5.113632E0,4.723994E0,0E0,3.6232758E-1,6.1496677E0,0E0,0E0,8.625908E0,6.6170845E0,0E0,0E0,3.010827E0,1.1564693E1,3.5054817E1,3.40971E1,1.0019815E1,1.2020355E1,3.6685852E1,2.033063E1,0E0,0E0,1.9634033E1,0E0,0E0,0E0,0E0,0E0,0E0,0E0,6.944656E-2,0E0,0E0,3.9479923E0,0E0,0E0,4.746461E0,0E0,5.136837E0,2.1741009E-1,2.0074997E0,3.319417E0,0E0,8.883354E0,2.67939E0,2.4191317E1,0E0,0E0,1.23404875E1,1.835144E0,0E0,6.258087E-1,0E0,8.33828E-1,0E0,0E0,0E0,0E0,1.2166004E1,0E0,1.4529312E1,2.6170252E1,1.1707277E0,7.0020247E0,5.05043E-1,0E0,0E0,0E0,0E0,0E0,2.6396637E0,0E0,0E0,0E0,7.051014E-1,0E0,0E0,6.842512E0,3.3439379E0,0E0,1.1614178E1,7.237015E0,0E0,5.542252E-1,0E0,6.143757E0,2.6367273E1,1.3789883E1,1.6457016E1,2.600937E-1,0E0,0E0,3.3898544E-1,0E0,1.03665146E2,1.9024414E1,2.1434383E0,5.051534E0,1.7605225E1,2.234077E1,0E0,0E0,1.3345547E0,2.6963744E0,0E0,4.981939E0,0E0,0E0,0E0,0E0,2.8542614E0,0E0,2.9959903E0,3.2326217E0,2.3896942E0,0E0,0E0,6.482277E-1,2.8564812E1,0E0,0E0,1.4553357E1,6.4273987E0,0E0,0E0,0E0,0E0,0E0,3.8350067E0,0E0,8.374284E0,1.6030563E1,2.1976898E1,1.7817902E1,0E0,0E0,0E0,2.1002445E0,4.701425E0,0E0,0E0,0E0,0E0,0E0,0E0,0E0,0E0,0E0,0E0,0E0,0E0,0E0,0E0,0E0,0E0,0E0,0E0,0E0,0E0,0E0,0E0,0E0,0E0,0E0,0E0,0E0,0E0,0E0,0E0,0E0,0E0,0E0,0E0,0E0,0E0,0E0,0E0,0E0,0E0,0E0,0E0,0E0,0E0,0E0,0E0,0E0,0E0,0E0,0E0,0E0,0E0,0E0,0E0,0E0,0E0,0E0,0E0,0E0,0E0,0E0,0E0,0E0,0E0,0E0,0E0,0E0,0E0,0E0,0E0,0E0,0E0,0E0,0E0,0E0],"parents":[2147483647,0,0,1,1,2,2,3,3,4,4,5,5,6,6,7,7,8,8,9,9,10,10,11,11,12,12,13,13,14,14,15,15,16,16,17,17,18,18,19,19,20,20,21,21,22,22,23,23,24,24,25,25,26,26,27,27,29,29,30,30,31,31,32,32,33,33,34,34,35,35,36,36,37,37,38,38,40,40,41,41,42,42,44,44,45,45,47,47,48,48,49,49,50,50,51,51,52,52,53,53,54,54,55,55,57,57,58,58,59,59,61,61,62,62,63,63,64,64,65,65,66,66,67,67,68,68,70,70,71,71,72,72,74,74,75,75,76,76,77,77,78,78,79,79,80,80,81,81,84,84,87,87,88,88,89,89,90,90,91,91,92,92,94,94,95,95,96,96,97,97,99,99,101,101,103,103,105,105,106,106,109,109,112,112,113,113,114,114,115,115,117,117,118,118,119,119,121,121,122,122,123,123,124,124,125,125,126,126,129,129,131,131,135,135,139,139,140,140,142,142,146,146,149,149,152,152,153,153,154,154,156,156,157,157,159,159,160,160,167,167,168,168,171,171,175,175,177,177,179,179,180,180,183,183,186,186,187,187,189,189,190,190,193,193,194,194,197,197,198,198,199,199,200,200,201,201,202,202,203,203,204,204,207,207,215,215,218,218,221,221,223,223,224,224,225,225,226,226,228,228,229,229,230,230,233,233,234,234,236,236,238,238,243,243,245,245,246,246,247,247,248,248,249,249,255,255,259,259,262,262,263,263,265,265,266,266,268,268,270,270,271,271,272,272,273,273,274,274,277,277,279,279,280,280,281,281,282,282,283,283,284,284,287,287,288,288,290,290,295,295,297,297,298,298,299,299,302,302,303,303,306,306,307,307,313,313,315,315,316,316,317,317,318,318,322,322,323,323],"right_children":[2,4,6,8,10,12,14,16,18,20,22,24,26,28,30,32,34,36,38,40,42,44,46,48,50,52,54,56,-1,58,60,62,64,66,68,70,72,74,76,-1,78,80,82,-1,84,86,-1,88,90,92,94,96,98,100,102,104,-1,106,108,110,-1,112,114,116,118,120,122,124,126,-1,128,130,132,-1,134,136,138,140,142,144,146,148,-1,-1,150,-1,-1,152,154,156,158,160,162,-1,164,166,168,170,-1,172,-1,174,-1,176,-1,178,180,-1,-1,182,-1,-1,184,186,188,190,-1,192,194,196,-1,198,200,202,204,206,208,-1,-1,210,-1,212,-1,-1,-1,214,-1,-1,-1,216,218,-1,220,-1,-1,-1,222,-1,-1,224,-1,-1,226,228,230,-1,232,234,-1,236,238,-1,-1,-1,-1,-1,-1,240,242,-1,-1,244,-1,-1,-1,246,-1,248,-1,250,252,-1,-1,254,-1,-1,256,258,-1,260,262,-1,-1,264,266,-1,-1,268,270,272,274,276,278,280,282,-1,-1,284,-1,-1,-1,-1,-1,-1,-1,286,-1,-1,288,-1,-1,290,-1,292,294,296,298,-1,300,302,304,-1,-1,306,308,-1,310,-1,312,-1,-1,-1,-1,314,-1,316,318,320,322,324,-1,-1,-1,-1,-1,326,-1,-1,-1,328,-1,-1,330,332,-1,334,336,-1,338,-1,340,342,344,346,348,-1,-1,350,-1,352,354,356,358,360,362,-1,-1,364,366,-1,368,-1,-1,-1,-1,370,-1,372,374,376,-1,-1,378,380,-1,-1,382,384,-1,-1,-1,-1,-1,386,-1,388,390,392,394,-1,-1,-1,396,398,-1,-1,-1,-1,-1,-1,-1,-1,-1,-1,-1,-1,-1,-1,-1,-1,-1,-1,-1,-1,-1,-1,-1,-1,-1,-1,-1,-1,-1,-1,-1,-1,-1,-1,-1,-1,-1,-1,-1,-1,-1,-1,-1,-1,-1,-1,-1,-1,-1,-1,-1,-1,-1,-1,-1,-1,-1,-1,-1,-1,-1,-1,-1,-1,-1,-1,-1,-1,-1,-1,-1,-1,-1,-1,-1],"split_conditions":[6.533613E-1,6.1605585E-1,1.0950056E0,1.7075508E1,9.0017426E-1,2.3851018E0,4.5758E-2,2.5546753E-1,1.2368101E1,1.3005846E0,3.8294544E0,7.8227735E-1,4.6431837E0,2.268554E0,1.8402474E0,1.3261001E-1,1.7202497E0,3.235069E-3,1.4122324E-2,1.313E-1,5.9101586E0,3.245002E-2,1.2418811E0,8.225704E-3,2.664468E-2,5.269919E-1,6.223122E-2,1.6184988E0,-8.745896E-2,7.317202E0,2.463877E-1,9.454316E-2,1.3492275E0,1.2008725E-1,4.125609E-3,1.0959878E0,8.816012E-3,5.8493824E0,1.3348839E0,-8.654504E-2,1.7995492E0,1.8254526E0,1.3008478E1,-8.717787E-2,1.8820664E-1,4.485709E0,-8.033013E-2,4.552111E0,1.6164885E0,8.75336E-1,1.4698281E0,2.5160728E0,5.874536E-1,1.9617722E1,2.1834457E1,8.826598E-1,-8.672524E-2,1.8056576E1,2.658427E-1,2.4284202E-1,-8.727777E-2,1.2009215E-2,2.7987952E0,3.1882513E-1,1.8022544E0,4.1632935E-2,8.810754E-1,4.5594893E-2,1.8546402E-2,-7.056395E-2,4.5327955E-1,1.3576361E0,4.677874E1,-8.6176656E-2,5.812598E3,2.1021451E-1,2.524724E2,2.8660565E-3,4.2811427E-2,1.0703193E0,1.2429449E-1,2.2295332E0,-8.487922E-2,-8.695904E-2,3.481297E0,6.320053E-2,-5.8398463E-2,4.6826707E-4,8.068681E-1,5.9388323E0,1.3481493E1,4.731266E-3,4.2041332E-1,7.519286E-2,5.8853142E-2,3.0182595E0,5.4362583E0,3.8376977E0,-8.098244E-2,1.9458975E1,-8.748278E-2,1.0122249E-1,-8.027558E-2,6.0118523E0,-8.575656E-2,7.216354E-2,1.2052412E0,-8.579368E-2,-2.2309829E-2,1.95299E0,6.165586E-2,4.039902E-2,3.219875E-2,5.8745427E-5,8.4055275E-2,8.3033435E-2,-8.463263E-2,1.5818822E0,3.8461918E-3,4.6939543E-1,8.099798E-2,5.07424E-1,1.3275524E0,5.51292E-1,7.9390785E1,1.2204822E-1,7.433001E-1,2.788498E-2,-3.3560038E-2,1.0438484E-1,7.950373E-2,2.2048376E1,-6.762236E-2,1.7017707E-2,-5.902655E-2,1.7918816E-1,-7.845833E-2,7.325892E-2,-4.892238E-2,1.344266E0,1.0920265E0,-8.545872E-2,1.4323425E1,-7.6847854E-3,-7.1154065E-2,-5.079134E-2,4.876081E-3,-5.908398E-2,5.0521786E-3,1.8273728E0,-8.394468E-2,8.336218E-3,3.134683E0,1.421503E0,2.3747563E0,-7.9073064E-2,4.43447E-1,2.0503082E0,-5.0269164E-2,6.296907E-4,1.9036064E0,-1.663425E-2,-8.577562E-2,-4.5702313E-3,-7.647063E-2,-2.001076E-2,-7.331838E-2,2.7208693E0,8.152252E0,1.7367978E-2,-5.3566217E-2,3.3714676E-1,6.250925E-2,6.69503E-2,-3.0367909E-2,9.397118E0,-8.606871E-2,2.3910451E-1,-8.2657926E-2,1.6278408E-1,1.5261178E0,1.4072867E-2,-8.338446E-2,6.278599E-1,3.145259E-2,-5.0269164E-2,1.10516876E-1,2.5701149E0,-6.397941E-2,9.2474926E-1,1.3862467E-1,1.27293365E-2,6.657346E-2,3.1332213E-1,2.0646172E0,6.366198E-2,-6.130411E-2,3.2656938E-3,3.758972E-2,1.1900992E0,5.356797E-1,2.0370084E-1,1.40350485E1,1.3419716E0,2.2698355E0,-1.5717346E-2,-7.553135E-2,1.2464354E1,-6.863756E-2,6.939891E-2,-4.95248E-2,-1.7689882E-2,6.3638315E-2,5.215735E-2,-4.7787827E-2,6.794587E-4,6.6388794E-3,-5.5916935E-2,4.575412E-1,2.8225353E-2,-4.8352104E-2,3.893255E-1,8.396499E-2,2.1883628E0,5.5835457E0,1.3896296E0,3.4919405E0,-5.3432673E-2,1.9961661E0,1.3802317E-1,5.8456593E0,7.539796E-2,-5.533927E-3,2.81092E-1,1.6284907E0,-2.3488706E-2,3.668208E0,-3.768636E-2,8.0496144E-1,1.0056537E-4,8.20475E-2,1.01339575E-2,-4.7481593E-2,3.570013E-2,-8.596439E-2,2.0533123E0,3.6932526E0,5.0305195E-2,7.9721296E-1,5.746513E-2,1.5515454E-2,5.2196044E-2,-4.8363388E-2,-8.386346E-2,-3.0310621E-2,1.3496906E-2,-1.4849004E-2,-5.5918057E-2,4.700638E-2,2.513051E-1,-8.430387E-2,5.072094E-2,1.0003406E0,2.4566153E-1,-5.8640994E-2,1.8395531E0,1.9256596E-1,3.0185262E-2,4.5343506E-1,-5.5018913E-2,4.2924494E-1,9.5776856E-1,5.3644407E-1,1.5364156E0,3.2163858E-1,8.121901E-2,-3.9419234E-2,1.1564379E-3,5.2049197E-2,2.553582E-1,4.050157E-3,2.0260164E-1,2.1745777E0,6.46153E-1,1.2561726E1,-2.3660228E-2,-7.283841E-2,4.3311184E-3,1.5407067E-2,7.511967E-2,5.889995E0,-1.1894813E-2,8.05577E-2,-7.1411274E-2,-1.9595435E-2,3.8732204E0,-7.865542E-2,5.867639E-1,7.7214575E-1,5.6487107E0,-3.1828128E-2,2.808397E-3,6.695386E0,8.2402074E-1,-7.332211E-2,8.076876E-2,1.9449426E-2,4.119643E-1,8.499896E-2,-8.254197E-2,-1.9356951E-2,1.0975879E-2,6.992641E-2,5.8855715E0,5.604112E-2,1.2741991E0,1.436718E-2,5.4252073E-3,2.7584478E-2,-7.0191645E-3,-6.5938435E-2,6.994949E-2,2.0460258E0,1.4220912E0,8.2401E-2,2.338707E-2,7.389506E-2,-5.3441055E-2,-4.1072457E-3,3.2095622E-2,-4.7460567E-2,-1.663425E-2,6.9622725E-2,-6.940266E-2,4.1176643E-2,3.1125177E-2,-7.704576E-2,-9.608699E-3,-5.8718372E-2,7.111794E-2,4.2532543E-3,-5.4495778E-2,5.045068E-2,-8.274314E-2,4.447101E-2,8.253945E-2,-3.257953E-3,-7.456771E-2,-2.1118058E-2,-3.4419082E-2,-8.456723E-2,6.890695E-2,-2.4640024E-2,7.702216E-2,-5.321002E-2,-1.605979E-3,-7.609394E-2,7.115125E-2,-2.573203E-2,8.062022E-2,2.5497258E-3,-7.1792014E-2,6.3110285E-2,7.45143E-2,3.3937603E-2,-4.8848983E-2,3.18732E-2,-3.386115E-2,4.4701014E-2,9.844265E-3,-6.106443E-2,-3.0391423E-2,4.690122E-2,-3.3663951E-3,-7.385868E-2,7.5156346E-2,-3.6196804E-4,-2.7426416E-2,-7.542121E-2,5.4796137E-2,-3.58838E-2,-7.0532896E-2,5.1225152E-2,6.660186E-2,-3.6573667E-2,1.2145975E-3,-7.35396E-2,5.5319823E-2,-5.7470676E-2,1.0360754E-2,-7.75648E-2,-7.5591184E-2,2.5722528E-2,-5.1291067E-2,6.5236494E-2,1.5694994E-2,-5.5333495E-2,6.736438E-2,-3.1055117E-2],"split_indices":[3,1,3,0,1,0,4,2,5,2,2,1,0,0,3,1,5,4,4,3,0,4,1,4,4,1,4,3,0,0,1,2,0,1,4,2,4,2,2,0,0,5,0,0,3,2,0,5,2,1,1,2,1,0,0,1,0,5,4,1,0,3,0,1,0,3,5,3,3,0,3,2,0,0,0,3,0,4,4,5,3,2,0,0,0,0,0,4,3,5,2,4,5,0,4,0,2,0,0,0,0,4,0,2,0,4,1,0,0,3,0,0,4,4,3,2,0,0,4,2,0,2,5,2,5,1,4,0,0,1,0,0,0,0,0,1,0,0,0,0,5,0,0,0,0,0,4,0,0,1,0,0,5,2,2,0,1,2,0,4,2,0,0,0,0,0,0,0,2,0,0,1,0,0,0,5,0,0,0,4,3,0,0,0,0,0,3,5,0,5,1,0,0,1,0,0,0,4,3,5,3,1,0,2,2,0,0,0,0,0,0,0,0,0,0,4,0,0,3,0,0,3,0,5,5,5,5,0,0,1,2,0,0,1,5,0,2,0,1,0,0,0,0,4,0,2,2,4,1,4,0,0,0,0,0,3,0,0,0,5,0,0,5,1,0,0,1,0,5,0,3,5,3,5,0,0,0,4,0,3,4,3,0,3,0,0,0,4,4,0,5,0,0,0,0,2,0,0,3,2,0,0,5,0,0,0,4,1,0,0,0,0,0,0,0,3,0,4,0,0,0,0,0,3,0,0,0,0,0,0,0,0,0,0,0,0,0,0,0,0,0,0,0,0,0,0,0,0,0,0,0,0,0,0,0,0,0,0,0,0,0,0,0,0,0,0,0,0,0,0,0,0,0,0,0,0,0,0,0,0,0,0,0,0,0,0,0,0,0,0,0,0,0,0,0,0,0,0,0],"split_type":[0,0,0,0,0,0,0,0,0,0,0,0,0,0,0,0,0,0,0,0,0,0,0,0,0,0,0,0,0,0,0,0,0,0,0,0,0,0,0,0,0,0,0,0,0,0,0,0,0,0,0,0,0,0,0,0,0,0,0,0,0,0,0,0,0,0,0,0,0,0,0,0,0,0,0,0,0,0,0,0,0,0,0,0,0,0,0,0,0,0,0,0,0,0,0,0,0,0,0,0,0,0,0,0,0,0,0,0,0,0,0,0,0,0,0,0,0,0,0,0,0,0,0,0,0,0,0,0,0,0,0,0,0,0,0,0,0,0,0,0,0,0,0,0,0,0,0,0,0,0,0,0,0,0,0,0,0,0,0,0,0,0,0,0,0,0,0,0,0,0,0,0,0,0,0,0,0,0,0,0,0,0,0,0,0,0,0,0,0,0,0,0,0,0,0,0,0,0,0,0,0,0,0,0,0,0,0,0,0,0,0,0,0,0,0,0,0,0,0,0,0,0,0,0,0,0,0,0,0,0,0,0,0,0,0,0,0,0,0,0,0,0,0,0,0,0,0,0,0,0,0,0,0,0,0,0,0,0,0,0,0,0,0,0,0,0,0,0,0,0,0,0,0,0,0,0,0,0,0,0,0,0,0,0,0,0,0,0,0,0,0,0,0,0,0,0,0,0,0,0,0,0,0,0,0,0,0,0,0,0,0,0,0,0,0,0,0,0,0,0,0,0,0,0,0,0,0,0,0,0,0,0,0,0,0,0,0,0,0,0,0,0,0,0,0,0,0,0,0,0,0,0,0,0,0,0,0,0,0,0,0,0,0,0,0,0,0,0,0,0,0,0,0,0,0,0,0,0,0,0,0,0,0,0,0,0,0,0,0,0,0,0,0,0,0,0,0,0,0],"sum_hessian":[2.9864723E4,4.6075586E3,2.5257164E4,2.3342563E3,2.2733022E3,2.5049976E3,2.2752166E4,2.1502651E3,1.8399118E2,3.1289905E2,1.9604033E3,5.859358E2,1.9190616E3,2.2290514E4,4.6165366E2,2.626478E2,1.8876173E3,2.871555E1,1.5527562E2,2.2059917E2,9.229987E1,1.9435812E3,1.6822084E1,3.0701544E2,2.7892035E2,8.0208984E1,1.8388527E3,4.038967E3,1.8251547E4,1.0496604E2,3.5668762E2,9.584576E1,1.6680203E2,1.773855E2,1.7102318E3,5.9286356E0,2.2786915E1,1.3499574E2,2.0279886E1,1.2522341E2,9.5375755E1,6.1206455E1,3.109342E1,1.774892E3,1.6868921E2,6.993091E0,9.828993E0,1.3716061E2,1.6985481E2,2.5479549E2,2.4124857E1,2.054384E1,5.9665142E1,1.8225797E3,1.6272938E1,4.9150546E2,3.5474614E3,5.7463192E1,4.750285E1,3.7132084E1,3.1955554E2,2.9001892E1,6.684387E1,1.3283496E2,3.3967075E1,5.853878E1,1.1884672E2,4.1979712E2,1.2904347E3,3.6639986E0,2.264637E0,1.4424558E1,8.362357E0,1.3221674E2,2.7790117E0,9.974389E0,1.0305496E1,2.4929955E1,7.04458E1,5.4463315E0,5.5760124E1,2.990452E0,2.8102966E1,1.3032358E2,3.836562E1,5.2292194E0,1.7638714E0,3.0838154E1,1.06322464E2,1.4737063E1,1.5511775E2,2.2977337E1,2.3181815E2,1.1361978E1,1.276288E1,6.118794E0,1.4425047E1,2.5321238E0,5.713302E1,1.5587462E2,1.6667051E3,6.5243735E0,9.748565E0,1.9634605E2,