{"learner":{"attributes":{"best_iteration":"99","best_ntree_limit":"100","scikit_learn":"{\"n_estimators\": 100, \"objective\": \"binary:logistic\", \"max_depth\": 10, \"max_leaves\": null, \"max_bin\": null, \"grow_policy\": null, \"learning_rate\": 0.05, \"verbosity\": null, \"booster\": null, \"tree_method\": null, \"gamma\": null, \"min_child_weight\": null, \"max_delta_step\": null, \"subsample\": null, \"sampling_method\": null, \"colsample_bytree\": null, \"colsample_bylevel\": null, \"colsample_bynode\": null, \"reg_alpha\": null, \"reg_lambda\": null, \"scale_pos_weight\": null, \"base_score\": null, \"missing\": NaN, \"num_parallel_tree\": null, \"random_state\": null, \"n_jobs\": null, \"monotone_constraints\": null, \"interaction_constraints\": null, \"importance_type\": null, \"gpu_id\": null, \"validate_parameters\": null, \"predictor\": null, \"enable_categorical\": false, \"feature_types\": null, \"max_cat_to_onehot\": null, \"max_cat_threshold\": null, \"eval_metric\": null, \"early_stopping_rounds\": null, \"callbacks\": null, \"_estimator_type\": \"regressor\"}"},"feature_names":[],"feature_types":[],"gradient_booster":{"model":{"gbtree_model_param":{"num_parallel_tree":"1","num_trees":"100","size_leaf_vector":"0"},"tree_info":[0,0,0,0,0,0,0,0,0,0,0,0,0,0,0,0,0,0,0,0,0,0,0,0,0,0,0,0,0,0,0,0,0,0,0,0,0,0,0,0,0,0,0,0,0,0,0,0,0,0,0,0,0,0,0,0,0,0,0,0,0,0,0,0,0,0,0,0,0,0,0,0,0,0,0,0,0,0,0,0,0,0,0,0,0,0,0,0,0,0,0,0,0,0,0,0,0,0,0,0],"trees":[{"base_weights":[-1.8738996E0,-8.7662834E-1,-1.9777772E0,7.815326E-1,-1.8398249E0,-1.9824253E0,-3.6016655E-1,-1.0838584E0,1.2879937E0,-1.1334891E0,-1.9725676E0,-1.682009E0,-1.9927555E0,1.0839171E0,-1.64126E0,-1.3984519E0,5.3029925E-1,1.4197087E0,-1.6942589E0,-1.5215161E0,8.6979127E-1,-1.9789993E0,-4.1076893E-1,-1.8153732E0,2.2397352E-2,-1.9954145E0,-1.8009595E0,1.7818301E0,-1.1748198E0,-1.8140116E0,-3.3369938E-1,-1.0768011E0,-1.8134413E0,-3.5952678E-1,1.6711551E0,7.110009E-2,1.6206332E0,-1.804277E0,1.234955E0,-1.7645309E0,-2.3431684E-1,-1.4021252E0,1.6635556E0,-1.992167E0,-1.8198005E0,9.740653E-1,-1.6767721E0,-1.2977037E0,-1.9654351E0,1.2149594E0,-1.5720098E0,-1.9167483E0,-1.9976E0,-8.423797E-1,-1.9193217E0,-7.753411E-1,1.8760849E0,-1.761766E0,-1.9959028E-1,-1.8784006E0,3.0129158E-1,1.1282396E0,-1.6172901E0,-1.3435122E0,6.55996E-2,-1.8663412E0,-8.5814357E-1,-1.2506802E0,9.626873E-1,1.7724428E0,-3.4664884E-1,9.223477E-1,-1.2796612E0,-7.749848E-1,1.6650447E0,1.130744E-1,-1.8809599E0,-1.7793989E0,1.0762886E0,5.463307E-1,-1.8948472E0,-1.5745873E0,5.4442054E-1,-3.207943E-1,1.8666338E0,-1.906007E0,-3.616682E-1,-4.8995072E-1,1.5052392E0,-3.3662015E-1,-1.9497027E0,-1.966895E0,-2.9452345E-1,1.6781557E0,-1.4085741E0,-1.932377E0,-3.8338324E-1,-1.555431E0,-1.986681E0,6.870711E-1,-1.6706601E0,-1.615012E0,-1.9702098E0,1.9433389E0,-3.1529492E-1,1.1272483E0,-1.4764456E0,-6.2032247E-1,-1.9007926E0,1.444347E0,1.0624132E-1,-1.470792E0,-2.4609506E-1,9.3417203E-1,-1.4347081E0,4.0095168E-1,-1.618894E0,-1.5467463E0,-1.0262362E-1,-1.2535589E0,1.3604959E0,-1.3099384E-1,1.8599566E0,1.0774184E0,-1.3568276E0,1.2285578E0,-1.3637798E0,6.9290483E-1,-1.623082E0,1.1872889E0,1.8218392E0,4.809504E-1,-3.062322E-1,-1.9075863E0,-6.278194E-1,-1.8879256E0,-1.3902072E0,-1.7784084E0,1.1797583E0,-4.290765E-1,-1.6797547E0,4.6982238E-1,-1.2879071E0,-5.5250227E-2,1.9127569E0,-1.973865E0,-1.4900715E0,7.5049514E-1,-1.6607804E0,-1.4412407E0,5.4595196E-1,-8.199583E-1,-1.958354E0,-1.7242461E0,-1.984445E0,1.5279552E-1,1.8552039E0,-1.7512063E0,1.4302237E-1,7.920701E-1,-1.6325792E0,-1.711743E0,4.4025928E-1,1.4190818E0,-1.5124452E0,-1.8445622E0,2.6787326E-1,-6.012417E-1,-1.8421934E0,-1.5674003E0,-5.632481E-1,-1.1816026E0,1.170166E0,-1.2533404E0,1.3132454E0,-1.6802207E0,6.003476E-1,-6.721908E-1,1.023059E0,-7.717448E-1,-1.7452326E0,7.984121E-1,-9.7116303E-1,3.0607668E-1,1.7680079E0,-5.4570144E-1,1.2525827E0,-1.5270413E0,-1.9402473E-1,-1.5128615E0,1.7980279E-1,-1.108832E0,1.4939971E0,-1.7756488E0,-3.8313234E-1,1.4976143E0,2.6143247E-1,1.2893112E0,1.8860813E0,-1.7009865E0,-1.4150159E-1,-7.317728E-1,1.4188141E0,-1.00895E0,1.300154E0,1.942813E0,3.1191623E-1,1.075756E-1,-1.6781679E0,-1.2019004E0,1.4763932E0,-1.5506089E0,3.9839393E-1,-1.5539043E0,1.1169388E0,-1.9360973E-1,-1.0355598E0,-5.3740567E-1,-1.8984785E0,-9.548096E-1,1.0942192E0,3.753509E-1,1.8829519E0,-1.0297967E0,1.3595876E0,-1.1300128E0,-1.9541644E0,1.3065656E0,-1.5846844E0,5.430801E-1,1.8341829E0,-1.8774772E0,-3.271215E-1,-1.0429796E0,1.0956573E0,-1.6818249E0,1.3448946E0,-8.805116E-1,-1.871496E0,-1.7356359E0,-1.0953435E0,-9.523724E-1,1.0875311E0,-1.6508719E0,-3.415014E-1,-3.565756E-1,1.6065143E0,-7.357285E-1,1.5075082E0,-1.4539942E0,5.569078E-1,1.676345E-1,1.0407825E0,9.9510014E-1,-4.430009E-1,1.1020241E0,-1.0382448E0,-2.7234854E-2,1.4419922E0,-1.0547311E0,-1.7779336E0,6.5042907E-1,-1.0609257E0,1.553798E0,-2.5413656E-1,-2.9761413E-1,1.6029744E0,1.3943131E0,-9.4445124E-2,1.8940433E0,-3.958132E-1,-3.0294204E-1,-1.7686611E0,-1.1832794E0,5.369026E-1,4.0064484E-1,-1.2750654E0,-8.848814E-1,1.5922467E0,-8.5289687E-1,1.1578001E0,-1.1100725E0,-1.8894017E0,-1.6775373E0,-2.764141E-1,1.228658E0,-1.0023278E0,-1.7733142E0,-3.463213E-1,-6.6475E-1,1.4383109E0,-1.5411898E0,7.957299E-2,-1.2112867E0,-1.540889E-1,1.3315058E0,1.972229E-1,6.397386E-1,1.9362481E0,2.3411699E-1,1.5632957E0,-1.7290412E0,-1.6360593E-1,-5.191414E-1,-1.9636627E0,-3.9099714E-1,1.6483641E0,-9.899879E-1,1.1967564E0,-3.8843971E-1,-1.9120557E0,2.3704068E-1,1.578239E0,-1.2835953E0,1.18089624E-1,-7.2584754E-1,-1.7608263E0,6.119655E-1,-1.5383341E0,-1.3223994E0,5.7877797E-1,-1.1861118E0,3.821682E-1,4.6969035E-1,1.7941885E0,3.833869E-1,-1.5036931E0,-1.2298565E0,5.463388E-1,-6.584263E-1,1.5248027E0,-1.3459044E0,2.9990743E-4,-2.916322E-1,-1.8140116E0,1.281465E0,-4.7366958E-2,1.578756E0,-1.1505412E0,4.0798953E-1,-1.3202794E0,5.5411994E-1,-9.124071E-1,1.1000606E-1,1.7226245E0,1.0434296E0,1.7198741E0,-1.1797997E0,8.0304676E-1,1.0280837E0,1.908555E0,-1.1171833E0,5.9337425E-1,-1.0473783E0,3.5860696E-1,-2.6068562E-1,-1.8024185E0,-1.4530647E0,1.3464005E-1,-1.2114313E0,9.85732E-1,3.4311062E-1,1.7542495E0,-1.6210238E0,-3.2998243E-1,-1.8513702E0,-1.2582883E0,1.1541804E0,-1.0454444E0,-7.193671E-1,1.5965164E-1,-1.5918252E0,3.8844877E-1,-7.369306E-1,1.5411578E0,-8.078987E-1,9.0027636E-1,-1.9360973E-1,1.0843791E0,-1.807328E0,9.435443E-2,7.0514745E-1,-9.1275203E-1,1.5275649E0,-4.526175E-2],"categories":[],"categories_nodes":[],"categories_segments":[],"categories_sizes":[],"default_left":[1,1,1,1,1,1,1,1,1,1,1,1,1,1,1,1,1,1,1,1,1,1,1,1,1,1,1,1,1,1,1,1,1,1,1,1,1,1,0,1,1,1,1,0,1,1,0,1,1,1,1,1,0,1,1,0,1,0,1,1,0,1,0,1,1,0,1,1,1,1,0,1,1,1,1,1,1,1,0,1,0,1,0,1,1,1,1,0,0,1,1,1,0,1,1,0,1,1,0,1,1,1,0,0,0,0,0,0,0,0,0,1,1,1,1,1,0,1,1,0,1,0,0,1,1,0,1,1,1,1,1,0,0,0,0,0,1,0,1,0,0,1,0,0,1,0,1,1,0,1,1,1,0,1,0,1,1,0,0,1,0,1,1,1,0,1,1,1,1,1,1,1,1,0,1,0,0,0,0,1,0,1,0,1,0,1,1,0,0,1,1,0,0,0,0,1,1,1,1,1,1,1,1,0,0,0,0,1,1,0,0,1,1,1,1,0,0,1,0,1,1,0,1,0,1,1,1,1,0,1,0,1,0,0,0,0,1,1,0,1,1,1,0,0,1,0,0,0,1,0,0,0,0,0,0,0,1,1,1,1,1,1,0,1,1,1,1,1,1,1,1,1,1,1,1,0,0,0,1,0,0,1,0,1,1,0,0,0,1,1,1,0,1,0,0,0,0,1,0,0,0,1,1,0,0,0,0,0,1,0,0,0,0,0,0,0,0,0,0,0,0,0,0,0,0,0,0,0,0,0,0,0,0,0,0,0,0,0,0,0,0,0,0,0,0,0,0,0,0,0,0,0,0,0,0,0,0,0,0,0,0,0,0,0,0,0,0,0,0,0,0,0,0,0,0,0,0,0,0,0,0,0,0,0,0],"id":0,"left_children":[1,3,5,7,9,11,13,15,17,19,21,23,25,27,29,31,33,35,37,39,41,43,45,47,49,51,53,55,57,59,61,63,65,67,69,71,73,75,-1,77,79,81,83,-1,85,87,-1,89,91,93,95,97,-1,99,101,-1,103,-1,105,107,-1,109,-1,111,113,-1,115,117,119,121,-1,123,125,127,129,131,133,135,-1,137,-1,139,-1,141,143,145,147,-1,-1,149,151,153,-1,155,157,-1,159,161,-1,163,165,167,-1,-1,-1,-1,-1,-1,-1,-1,-1,169,171,173,175,177,-1,179,181,-1,183,-1,-1,185,187,-1,189,191,193,195,197,-1,-1,-1,-1,-1,199,-1,201,-1,-1,203,-1,-1,205,-1,207,209,-1,211,213,215,-1,217,-1,219,221,-1,-1,223,-1,225,227,229,-1,231,233,235,237,239,241,243,245,-1,247,-1,-1,-1,-1,249,-1,251,-1,253,-1,255,257,-1,-1,259,261,-1,-1,-1,-1,263,265,267,269,271,273,275,277,-1,-1,-1,-1,279,281,-1,-1,283,285,287,289,-1,-1,291,-1,293,295,-1,297,-1,299,301,303,305,-1,307,-1,309,-1,-1,-1,-1,311,313,-1,315,317,319,-1,-1,321,-1,-1,-1,323,-1,-1,-1,-1,-1,-1,-1,325,327,329,331,333,335,-1,337,339,341,343,345,347,349,351,353,355,357,359,-1,-1,-1,361,-1,-1,363,-1,365,367,-1,-1,-1,369,371,373,-1,375,-1,-1,-1,-1,377,-1,-1,-1,379,381,-1,-1,-1,-1,-1,383,-1,-1,-1,-1,-1,-1,-1,-1,-1,-1,-1,-1,-1,-1,-1,-1,-1,-1,-1,-1,-1,-1,-1,-1,-1,-1,-1,-1,-1,-1,-1,-1,-1,-1,-1,-1,-1,-1,-1,-1,-1,-1,-1,-1,-1,-1,-1,-1,-1,-1,-1,-1,-1,-1,-1,-1,-1,-1,-1,-1,-1,-1,-1,-1,-1,-1,-1,-1,-1,-1,-1,-1,-1,-1,-1,-1],"loss_changes":[4.966125E3,7.229557E3,3.2582812E2,1.5731028E3,2.6620703E2,1.3104688E2,2.3424818E2,1.8140628E2,5.165315E2,3.552307E2,2.3382812E1,3.2873462E2,1.7765625E1,9.6163216E1,1.4525421E1,3.782782E1,6.0246613E1,3.3968774E2,2.021637E1,1.1900867E2,1.3670816E2,1.4033203E0,2.1165451E1,1.0163037E2,2.0331776E2,3.28125E0,6.44928E1,1.2538254E1,8.056211E0,8.593994E0,1.8793243E1,5.199327E1,4.9006653E0,4.1068085E1,5.9124985E0,1.893542E2,1.1740527E2,8.182159E0,0E0,1.5472839E1,8.112386E1,7.5161858E0,2.3035858E1,0E0,2.3796936E1,5.3670244E0,0E0,1.9004895E2,1.9519043E0,7.668945E1,1.8860825E1,2.5728027E1,0E0,8.453104E1,4.8374023E0,0E0,7.192154E0,0E0,1.2924869E1,4.3621826E-1,0E0,1.4026141E0,0E0,1.8935654E1,4.460052E1,0E0,8.88894E0,6.8586426E0,1.4212958E1,4.3826447E0,0E0,3.714794E1,1.5111946E1,2.6703571E1,7.812744E1,6.143226E-1,5.433197E-1,1.0878662E1,0E0,6.512644E1,0E0,1.505333E0,0E0,5.2099333E0,4.5959625E0,2.2434082E0,1.8740396E1,0E0,0E0,1.2188982E2,1.6442871E-1,9.9316406E-1,0E0,1.387886E1,5.4188213E0,0E0,1.8757603E1,5.988443E1,0E0,4.0517174E1,1.4986465E1,1.7256744E1,0E0,0E0,0E0,0E0,0E0,0E0,0E0,0E0,0E0,9.953674E0,2.1997423E1,1.9582827E1,7.287319E0,3.3858168E0,0E0,1.1669235E0,4.925957E0,0E0,4.833061E0,0E0,0E0,2.7720215E1,1.0644045E0,0E0,1.456041E1,1.3528045E1,1.839859E0,7.652774E1,2.5111572E1,0E0,0E0,0E0,0E0,0E0,2.828357E1,0E0,1.6683777E1,0E0,0E0,6.2801113E0,0E0,0E0,1.775528E0,0E0,9.149239E0,1.1995823E1,0E0,1.1773056E1,8.539567E1,2.1768522E-1,0E0,1.5016022E1,0E0,7.8678937E0,1.2189789E0,0E0,0E0,8.432018E0,0E0,2.2610352E1,2.7618362E1,5.693535E0,0E0,1.3625793E0,5.9304457E0,3.608191E1,1.7410278E-1,6.925659E0,9.6767645E0,3.3263245E0,5.0308046E0,0E0,8.641773E0,0E0,0E0,0E0,0E0,5.455146E0,0E0,3.0740404E-1,0E0,2.8644524E0,0E0,9.226975E0,2.0919373E1,0E0,0E0,5.013748E0,4.40522E0,0E0,0E0,0E0,0E0,2.0108185E1,5.178924E1,1.3183853E1,1.3763672E1,5.0239716E0,1.1758478E1,3.258229E0,1.3703674E1,0E0,0E0,0E0,0E0,5.1064343E0,1.1140213E0,0E0,0E0,8.033318E0,5.775074E0,3.4490013E0,3.270038E1,0E0,0E0,7.134569E0,0E0,5.404427E-1,5.8943844E-1,0E0,1.7949677E0,0E0,9.217329E-1,3.105761E1,6.550598E-1,6.8807735E0,0E0,8.535793E0,0E0,1.2409363E0,0E0,0E0,0E0,0E0,1.2537937E0,1.6812897E0,0E0,7.6275635E-1,2.5078537E1,7.2350664E0,0E0,0E0,3.3854675E0,0E0,0E0,0E0,4.3977013E0,0E0,0E0,0E0,0E0,0E0,0E0,0E0,5.9907045E0,9.008655E0,1.4057877E1,7.1429996E0,1.3197632E0,2.3648388E0,0E0,1.4924927E1,5.5393605E0,2.6235382E1,3.4334145E0,7.750656E0,8.03138E0,7.01001E0,3.0303383E0,2.306081E0,2.372879E0,2.5135345E0,9.213409E0,0E0,0E0,0E0,5.261635E0,0E0,0E0,3.322607E0,0E0,1.1381226E0,7.7600145E0,0E0,0E0,0E0,7.944608E-1,9.558041E0,1.171405E1,0E0,6.5271935E0,0E0,0E0,0E0,0E0,1.4607226E0,0E0,0E0,0E0,4.926422E0,1.484507E1,0E0,0E0,0E0,0E0,0E0,2.3681107E0,0E0,0E0,0E0,0E0,0E0,0E0,0E0,0E0,0E0,0E0,0E0,0E0,0E0,0E0,0E0,0E0,0E0,0E0,0E0,0E0,0E0,0E0,0E0,0E0,0E0,0E0,0E0,0E0,0E0,0E0,0E0,0E0,0E0,0E0,0E0,0E0,0E0,0E0,0E0,0E0,0E0,0E0,0E0,0E0,0E0,0E0,0E0,0E0,0E0,0E0,0E0,0E0,0E0,0E0,0E0,0E0,0E0,0E0,0E0,0E0,0E0,0E0,0E0,0E0,0E0,0E0,0E0,0E0,0E0,0E0,0E0,0E0,0E0,0E0,0E0,0E0],"parents":[2147483647,0,0,1,1,2,2,3,3,4,4,5,5,6,6,7,7,8,8,9,9,10,10,11,11,12,12,13,13,14,14,15,15,16,16,17,17,18,18,19,19,20,20,21,21,22,22,23,23,24,24,25,25,26,26,27,27,28,28,29,29,30,30,31,31,32,32,33,33,34,34,35,35,36,36,37,37,39,39,40,40,41,41,42,42,44,44,45,45,47,47,48,48,49,49,50,50,51,51,53,53,54,54,56,56,58,58,59,59,61,61,63,63,64,64,66,66,67,67,68,68,69,69,71,71,72,72,73,73,74,74,75,75,76,76,77,77,79,79,81,81,83,83,84,84,85,85,86,86,89,89,90,90,91,91,93,93,94,94,96,96,97,97,99,99,100,100,101,101,111,111,112,112,113,113,114,114,115,115,117,117,118,118,120,120,123,123,124,124,126,126,127,127,128,128,129,129,130,130,136,136,138,138,141,141,144,144,146,146,147,147,149,149,150,150,151,151,153,153,155,155,156,156,159,159,161,161,162,162,163,163,165,165,166,166,167,167,168,168,169,169,170,170,171,171,172,172,174,174,179,179,181,181,183,183,185,185,186,186,189,189,190,190,195,195,196,196,197,197,198,198,199,199,200,200,201,201,202,202,207,207,208,208,211,211,212,212,213,213,214,214,217,217,219,219,220,220,222,222,224,224,225,225,226,226,227,227,229,229,231,231,236,236,237,237,239,239,240,240,241,241,244,244,248,248,256,256,257,257,258,258,259,259,260,260,261,261,263,263,264,264,265,265,266,266,267,267,268,268,269,269,270,270,271,271,272,272,273,273,274,274,278,278,281,281,283,283,284,284,288,288,289,289,290,290,292,292,297,297,301,301,302,302,308,308],"right_children":[2,4,6,8,10,12,14,16,18,20,22,24,26,28,30,32,34,36,38,40,42,44,46,48,50,52,54,56,58,60,62,64,66,68,70,72,74,76,-1,78,80,82,84,-1,86,88,-1,90,92,94,96,98,-1,100,102,-1,104,-1,106,108,-1,110,-1,112,114,-1,116,118,120,122,-1,124,126,128,130,132,134,136,-1,138,-1,140,-1,142,144,146,148,-1,-1,150,152,154,-1,156,158,-1,160,162,-1,164,166,168,-1,-1,-1,-1,-1,-1,-1,-1,-1,170,172,174,176,178,-1,180,182,-1,184,-1,-1,186,188,-1,190,192,194,196,198,-1,-1,-1,-1,-1,200,-1,202,-1,-1,204,-1,-1,206,-1,208,210,-1,212,214,216,-1,218,-1,220,222,-1,-1,224,-1,226,228,230,-1,232,234,236,238,240,242,244,246,-1,248,-1,-1,-1,-1,250,-1,252,-1,254,-1,256,258,-1,-1,260,262,-1,-1,-1,-1,264,266,268,270,272,274,276,278,-1,-1,-1,-1,280,282,-1,-1,284,286,288,290,-1,-1,292,-1,294,296,-1,298,-1,300,302,304,306,-1,308,-1,310,-1,-1,-1,-1,312,314,-1,316,318,320,-1,-1,322,-1,-1,-1,324,-1,-1,-1,-1,-1,-1,-1,326,328,330,332,334,336,-1,338,340,342,344,346,348,350,352,354,356,358,360,-1,-1,-1,362,-1,-1,364,-1,366,368,-1,-1,-1,370,372,374,-1,376,-1,-1,-1,-1,378,-1,-1,-1,380,382,-1,-1,-1,-1,-1,384,-1,-1,-1,-1,-1,-1,-1,-1,-1,-1,-1,-1,-1,-1,-1,-1,-1,-1,-1,-1,-1,-1,-1,-1,-1,-1,-1,-1,-1,-1,-1,-1,-1,-1,-1,-1,-1,-1,-1,-1,-1,-1,-1,-1,-1,-1,-1,-1,-1,-1,-1,-1,-1,-1,-1,-1,-1,-1,-1,-1,-1,-1,-1,-1,-1,-1,-1,-1,-1,-1,-1,-1,-1,-1,-1,-1],"split_conditions":[5.48388E-1,4.534744E-1,2.3510551E-1,2.8452654E0,7.7123404E-1,7.852931E-1,1.2977289E0,3.815557E-2,3.750875E1,5.142122E-2,5.5236936E-1,3.0188695E-2,5.457705E-2,8.8247937E-1,5.3944183E1,3.1868036E2,3.0841427E1,3.8792558E-2,1.5438989E-1,1.460067E0,1.3998206E-1,3.5246544E-2,1.3587708E0,2.1209316E0,6.1739576E-1,9.664236E-1,1.2157701E0,2.8817143E0,2.711841E0,1.2113643E0,1.5509451E1,1.2277662E0,2.5378327E0,3.0345745E0,1.1054374E2,1.7167923E-1,1.5401366E-1,-2.131825E0,6.174775E-2,7.70717E-1,1.1364271E1,5.946966E-1,7.273053E-1,-9.9608354E-2,1.423147E0,2.9113998E0,-8.3838604E-2,7.945707E-1,3.140747E0,1.1853811E1,1.8709815E0,1.496374E0,-9.988E-2,1.2316585E0,3.557858E-1,-3.8767055E-2,8.715346E0,-8.80883E-2,2.5501892E2,5.6376137E-2,1.5064579E-2,2.986732E2,-8.086451E-2,3.1126304E0,3.0943713E0,-9.331706E-2,3.8445944E-1,2.5535507E0,3.183424E-1,3.921494E-2,-1.7332442E-2,6.573473E-1,-2.909318E0,2.0265884E2,7.385523E-3,3.0425384E0,3.6190983E-2,8.7081444E-1,5.381443E-2,2.737198E0,-9.474236E-2,4.6984792E-1,2.7221028E-2,1.8273199E0,2.785922E0,2.674208E-1,1.4265218E0,-2.4497537E-2,7.5261965E-2,1.9740825E0,8.3557236E-1,4.866399E0,-1.4726172E-2,3.6940548E0,2.764905E0,-9.661885E-2,1.0316046E0,2.3347985E-2,-9.933405E-2,1.366018E0,4.231619E0,5.1944983E-1,-9.85105E-2,9.716695E-2,-1.5764747E-2,5.6362417E-2,-7.382228E-2,-3.1016124E-2,-9.503963E-2,7.221735E-2,5.312066E-3,2.7701325E0,1.0896315E-2,2.7900698E0,1.582483E-2,3.676474E-1,-8.09447E-2,2.303747E2,2.894282E0,-6.267794E-2,1.19316846E-1,-6.5496922E-3,9.2997834E-2,7.330285E-2,2.2070829E-2,6.142789E-2,6.1037607E-2,1.0283117E-1,1.6046164E1,2.3527382E-1,3.5109968E0,2.404752E-2,-1.5311611E-2,-9.5379315E-2,-3.1390972E-2,-9.4396286E-2,1.2905346E-2,-8.892042E-2,3.6231456E0,-2.1453826E-2,-8.3987735E-2,3.5200053E-1,-6.439536E-2,-2.7625114E-3,1.3601667E1,-9.869325E-2,9.183034E-1,1.2817832E0,-8.303902E-2,1.7482386E0,2.743453E0,2.656006E2,-9.79177E-2,3.3462095E-1,-9.922225E-2,5.8576375E-2,7.844304E-3,-8.756032E-2,7.151119E-3,2.8581343E0,-8.162896E-2,7.25132E-1,9.2577744E-1,3.395594E1,-7.562226E-2,3.5543378E2,3.0072176E0,3.0886623E1,2.093723E-2,7.0618653E-1,1.6870112E0,4.4477116E-3,3.9358675E-1,-6.266702E-2,1.779269E2,-8.401104E-2,3.001738E-2,-3.360954E-2,5.1152952E-2,2.098115E2,-8.726163E-2,6.833036E-1,-4.8558153E-2,9.812969E-2,8.840039E-2,3.0080192E0,1.4088264E-2,-7.635207E-2,-9.701236E-3,2.719648E-1,3.7523682E2,-5.54416E-2,7.469986E-2,-8.8782445E-2,-1.9156618E-2,9.70414E0,1.6328928E0,3.4852164E2,6.617545E2,2.8264143E-2,2.9910884E0,1.5394258E0,1.8704915E-1,-5.04475E-2,6.50077E-2,9.7140655E-2,1.5595811E-2,6.885412E-1,1.5421984E0,-6.009502E-2,7.381966E-2,1.68223E-2,3.07459E0,7.241954E-3,1.2486356E-3,-9.680486E-3,-5.177799E-2,2.7801795E0,-9.492393E-2,2.3961048E0,1.5732983E-1,1.8767545E-2,2.7356958E0,-5.1489837E-2,1.4383282E1,2.9534857E0,7.8764874E-1,5.849783E0,-7.923422E-2,2.798081E0,9.1709144E-2,5.7779778E-2,-1.6356075E-2,-5.214898E-2,5.4782867E-2,-8.4091246E-2,3.0371041E0,9.173108E1,-9.35748E-2,2.4108943E-2,1.8623054E-1,3.5491827E-1,5.4376554E-2,-8.25436E-2,2.583178E0,-1.7828781E-2,8.0325715E-2,-3.6786426E-2,5.028942E0,-7.269971E-2,2.7845388E-2,8.381725E-3,5.2039124E-2,4.9755007E-2,-2.2150045E-2,5.5101205E-2,1.21024735E-2,5.323741E-2,2.9428144E0,3.0705066E-2,2.8955374E0,1.86369E-1,-5.3046286E-2,6.870408E2,3.0633163E0,1.6166514E-1,7.7031283E-3,2.928121E-2,1.5671944E-2,2.444981E-1,5.1913947E-2,1.2580065E-1,-2.3514123E0,1.2722343E0,3.610489E0,2.0032242E-2,-6.375327E-2,-4.424407E-2,4.9457446E-1,-4.2644843E-2,5.7890005E-2,2.9597135E0,-9.447008E-2,3.0334854E0,2.1011084E-2,6.1432898E-2,-5.011639E-2,-8.866572E-2,4.3120604E0,3.0623534E0,1.832151E2,-7.705949E-2,9.095052E0,-6.0564335E-2,-7.704445E-3,6.657529E-2,9.861145E-3,1.19295105E-1,9.6812405E-2,1.1705849E-2,7.8164786E-2,5.615539E1,2.1853917E2,-2.5957068E-2,-9.818314E-2,-1.9549858E-2,8.24182E-2,-4.9499396E-2,1.064325E0,-1.9421985E-2,-9.560279E-2,1.1852034E-2,7.891195E-2,-6.417977E-2,5.9044813E-3,-3.6292378E-2,-8.804132E-2,3.0598274E-2,-7.691671E-2,-6.611997E-2,2.8938899E-2,-5.930559E-2,1.910841E-2,2.3484519E-2,8.970942E-2,1.9169345E-2,-7.518466E-2,-6.1492827E-2,2.7316941E-2,-3.2921314E-2,7.624014E-2,-6.7295216E-2,1.4995372E-5,-1.458161E-2,-9.070058E-2,6.407326E-2,-2.368348E-3,7.89378E-2,-5.752706E-2,2.0399477E-2,-6.601397E-2,2.7705997E-2,-4.5620356E-2,5.500303E-3,8.613123E-2,5.217148E-2,8.599371E-2,-5.8989983E-2,4.0152337E-2,5.1404186E-2,9.542775E-2,-5.5859167E-2,2.9668713E-2,-5.2368917E-2,1.793035E-2,-1.3034281E-2,-9.012093E-2,-7.2653234E-2,6.732003E-3,-6.0571562E-2,4.92866E-2,1.7155532E-2,8.7712474E-2,-8.105119E-2,-1.6499123E-2,-9.256851E-2,-6.2914416E-2,5.770902E-2,-5.227222E-2,-3.5968356E-2,7.982582E-3,-7.959127E-2,1.942244E-2,-3.684653E-2,7.705789E-2,-4.0394936E-2,4.501382E-2,-9.680486E-3,5.4218955E-2,-9.03664E-2,4.7177216E-3,3.5257373E-2,-4.5637604E-2,7.637825E-2,-2.2630875E-3],"split_indices":[7,5,8,2,5,7,7,8,4,8,8,8,8,5,9,0,9,7,8,6,7,8,5,4,5,7,7,3,6,8,4,6,2,3,4,5,6,1,0,5,4,8,6,0,6,2,0,5,2,4,6,4,0,4,5,0,4,0,0,5,0,0,0,3,4,0,4,2,2,7,0,6,1,0,8,3,8,6,0,2,0,5,0,4,3,7,5,0,0,6,5,4,0,9,6,0,5,8,0,5,6,4,0,0,0,0,0,0,0,0,0,2,8,3,8,6,0,0,3,0,7,0,0,6,8,0,8,6,9,5,9,0,0,0,0,0,8,0,9,0,0,6,0,0,4,0,5,2,0,4,2,0,0,5,0,8,5,0,0,2,0,5,5,9,0,9,2,9,5,6,1,8,6,0,0,0,0,0,0,0,0,6,0,5,0,3,7,0,0,5,0,0,0,0,0,4,6,0,0,4,2,6,7,0,0,0,0,1,5,0,0,8,3,8,8,0,0,2,0,2,5,0,2,0,9,2,7,9,0,2,0,8,0,0,0,0,2,9,0,5,7,5,0,0,9,0,0,0,9,0,0,0,0,0,0,0,7,4,2,7,3,6,0,0,3,7,4,8,8,6,7,7,1,6,9,0,0,0,5,0,0,2,0,2,8,0,0,0,6,2,0,0,9,0,0,0,0,4,0,0,0,9,0,0,0,0,0,0,1,0,0,0,0,0,0,0,0,0,0,0,0,0,0,0,0,0,0,0,0,0,0,0,0,0,0,0,0,0,0,0,0,0,0,0,0,0,0,0,0,0,0,0,0,0,0,0,0,0,0,0,0,0,0,0,0,0,0,0,0,0,0,0,0,0,0,0,0,0,0,0,0,0,0,0,0],"split_type":[0,0,0,0,0,0,0,0,0,0,0,0,0,0,0,0,0,0,0,0,0,0,0,0,0,0,0,0,0,0,0,0,0,0,0,0,0,0,0,0,0,0,0,0,0,0,0,0,0,0,0,0,0,0,0,0,0,0,0,0,0,0,0,0,0,0,0,0,0,0,0,0,0,0,0,0,0,0,0,0,0,0,0,0,0,0,0,0,0,0,0,0,0,0,0,0,0,0,0,0,0,0,0,0,0,0,0,0,0,0,0,0,0,0,0,0,0,0,0,0,0,0,0,0,0,0,0,0,0,0,0,0,0,0,0,0,0,0,0,0,0,0,0,0,0,0,0,0,0,0,0,0,0,0,0,0,0,0,0,0,0,0,0,0,0,0,0,0,0,0,0,0,0,0,0,0,0,0,0,0,0,0,0,0,0,0,0,0,0,0,0,0,0,0,0,0,0,0,0,0,0,0,0,0,0,0,0,0,0,0,0,0,0,0,0,0,0,0,0,0,0,0,0,0,0,0,0,0,0,0,0,0,0,0,0,0,0,0,0,0,0,0,0,0,0,0,0,0,0,0,0,0,0,0,0,0,0,0,0,0,0,0,0,0,0,0,0,0,0,0,0,0,0,0,0,0,0,0,0,0,0,0,0,0,0,0,0,0,0,0,0,0,0,0,0,0,0,0,0,0,0,0,0,0,0,0,0,0,0,0,0,0,0,0,0,0,0,0,0,0,0,0,0,0,0,0,0,0,0,0,0,0,0,0,0,0,0,0,0,0,0,0,0,0,0,0,0,0,0,0,0,0,0,0,0,0,0,0,0,0,0,0,0,0,0,0,0,0,0,0,0,0,0,0,0,0,0,0,0,0,0,0,0,0,0],"sum_hessian":[4.795416E4,4.524679E3,4.3429484E4,1.6626259E3,2.8620532E3,4.3304824E4,1.2465861E2,3.547767E2,1.3078492E3,4.5428763E2,2.4077656E3,1.4450361E3,4.185979E4,5.86738E1,6.598481E1,2.9702182E2,5.7754864E1,1.2530314E3,5.4817806E1,3.8077383E2,7.351378E1,2.3976248E3,1.0140839E1,1.3401117E3,1.0492444E2,4.1278117E4,5.8167126E2,4.4985237E1,1.3688566E1,5.7942295E1,8.04251E0,1.6935359E2,1.27668236E2,3.2831978E1,2.4922884E1,1.6265334E2,1.090378E3,5.3203583E1,1.6142251E0,3.199908E2,6.0783028E1,1.8835703E1,5.4678078E1,2.2038264E3,1.9379832E2,4.953254E0,5.1875844E0,3.0333694E2,1.0367747E3,6.0162746E1,4.4761692E1,1.1394905E3,4.0138625E4,6.482116E1,5.168501E2,1.3422939E0,4.3642944E1,8.041963E0,5.6466036E0,5.6339344E1,1.6029536E0,3.8166196E0,4.2258906E0,1.3715631E2,3.2197296E1,1.20065865E2,7.60237E0,1.9645376E1,1.3186601E1,2.3847414E1,1.075471E0,9.9969734E1,6.268361E1,1.9546759E1,1.0708313E3,2.0277574E0,5.1175823E1,3.186965E2,1.294322E0,4.180206E1,1.8980968E1,1.7478235E1,1.3574684E0,5.0224323E0,4.9655647E1,1.8269029E2,1.1108034E1,1.3393527E0,3.6139014E0,1.23219986E2,1.8011696E2,1.0356927E3,1.0819836E0,5.1440964E1,8.72178E0,3.3867912E1,1.0893779E1,1.8855206E2,9.509384E2,2.2831823E1,4.1989334E1,7.873767E1,4.3811243E2,4.245323E1,1.1897094E0,2.8265622E0,2.8200417E0,1.4871627E0,5.485218E1,2.5993686E0,1.2172511E0,1.2259709E2,1.455921E1,2.0630838E1,1.1566456E1,3.0414722E0,4.5608974E0,1.5341712E1,4.3036647E0,1.6793805E0,1.150722E1,1.0263925E0,2.2821022E1,9.409497E1,5.874765E0,1.5925469E0,6.109106E1,7.224888E0,1.2321871E1,2.6671588E2,8.041154E2,1.0018111E0,1.0259463E0,4.9599697E1,1.576127E0,2.4619397E2,7.2502525E1,8.563952E0,3.3238106E1,1.8968782E0,1.5581357E1,3.0462873E0,1.976145E0,1.159115E0,4.8496532E1,1.538455E2,2.8844782E1,6.2121477E0,4.8958864E0,5.4444572E1,6.877541E1,2.096673E0,1.7802028E2,7.655004E1,9.591427E2,5.5435457E0,4.589742E1,7.0387874E0,1.6829923E0,5.8010826E0,5.092696E0,1.7498842E2,1.3563648E1,1.7396873E1,5.4349504E0,3.857713E1,3.4122055E0,1.5082091E1,6.365558E1,1.1014506E2,1.245204E1,8.8674965E0,5.691713E0,2.706449E0,1.792439E1,1.047687E1,1.0895861E0,1.0865884E0,1.9548839E0,4.1247067E0,1.1217005E1,2.1519458E0,2.1517189E0,3.695741E0,7.8114796E0,8.95939E0,8.5135574E1,4.851369E0,1.023396E0,5.5728603E1,5.3624597E0,2.1054254E0,5.1194625E0,1.0587164E1,1.7347069E0,1.9929823E2,6.741765E1,8.8830826E1,7.152846E2,5.776396E1,1.4738561E1,3.465586E0,2.977252E1,1.0180616E0,2.0282257E0,4.7393097E1,1.1034348E0,3.0833774E0,2.5761404E1,1.5059528E0,4.706195E0,5.1537716E1,2.9068592E0,1.4335152E1,5.444026E1,1.0229312E0,1.0737418E0,1.0322104E1,6.6227936E1,2.5404422E0,3.0031035E0,1.1121377E0,4.4785282E1,1.1843789E0,4.6167035E0,5.3137524E1,1.2185089E2,9.748034E0,3.815615E0,6.3353925E0,1.10614805E1,3.7525887E1,1.0512444E0,1.2201108E0,2.1920948E0,9.784889E0,5.2972016E0,2.8003352E0,6.0855244E1,7.9231224E1,3.0913834E1,1.0419108E1,2.0329318E0,5.0702405E0,3.7972562E0,1.3057692E0,4.3859434E0,1.3108635E0,1.6613527E1,2.6629646E0,1.4617422E0,1.066913E0,1.0850328E0,1.7539618E0,1.9417793E0,1.7770697E0,7.1823196E0,1.108587E1,7.4049706E1,2.2250887E1,3.3477715E1,4.2327027E0,1.1297569E0,1.932143E2,6.0839376E0,4.813642E1,1.9281225E1,8.25585E1,6.272321E0,7.1296686E2,2.3177257E0,2.9199147E0,5.4844048E1,5.519082E0,9.219478E0,1.2087263E0,2.2568595E0,1.7972734E0,2.7975248E1,1.7086443E0,1.374733E0,8.677955E0,1.708345E1,4.6581017E1,4.956698E0,1.9021927E0,1.0046666E0,1.1734574E1,2.6005766E0,8.155826E0,4.6284435E1,3.3591015E0,6.9630027E0,1.5357757E0,1.0046666E0,1.9917986E0,1.011305E0,2.3755457E0,4.2409737E1,1.0369453E0,3.5797582E0,3.231678E1,2.0820742E1,1.1671761E0,1.20683716E2,1.6096525E0,8.138381E0,1.7400224E0,4.5953703E0,1.1292921E0,3.639659E1,1.2723378E0,4.0248637E0,1.791718E0,1.0086172E0,2.654077E0,7.657715E1,6.290084E0,2.4623749E1,8.501033E0,1.9180747E0,1.4573398E0,2.3399162E0,4.1669683E0,1.2446558E1,1.8150052E0,5.3673143E0,3.2103903E0,7.8754797E0,2.5450776E0,7.150463E1,1.7222128E1,5.0287595E0,1.0086322E0,3.246908E1,1.7834414E0,2.4492612E0,1.9185985E2,1.3544402E0,4.1339054E0,1.9500326E0,2.0220974E1,2.7915445E1,1.5730057E0,1.770822E1,4.1757774E1,4.080073E1,2.6966536E0,3.5756679E0,1.2935122E1,7.0003174E2,1.2654759E0,1.0522498E0,1.0994692E0,1.8204455E0,1.3918287E0,5.345222E1,4.496151E0,1.0229312E0,1.5362406E0,7.6832376E0,3.5695868E0,2.440566E1,4.5921483E0,4.0858064E0,3.0513367E1,1.606765E1,1.557857E0,3.3988411E0,1.2541568E0,1.3464198E0,4.0656385E0,4.0901866E0,1.8112265E0,4.447321E1,3.3529143E0,3.6100886E0,1.0229312E0,1.3526146E0,3.0994843E1,1.32194E0,9.6679535E0,1.1152788E1,3.447288E0,1.1480821E0],"tree_param":{"num_deleted":"0","num_feature":"10","num_nodes":"385","size_leaf_vector":"0"}},{"base_weights":[-1.784719E0,-8.349585E-1,-1.8836769E0,7.4357927E-1,-1.7524117E0,-1.8881019E0,-3.4428254E-1,-1.0326701E0,1.2258792E0,-1.0313864E0,-1.8705208E0,-1.6079581E0,-1.8981354E0,1.0308249E0,-1.5641026E0,-1.3323354E0,5.0465643E-1,1.3512746E0,-1.6139362E0,-1.5172687E0,5.675598E-1,-1.8773516E0,-2.8315353E-1,-1.7321594E0,2.5020628E-3,-1.9006313E0,-1.7178853E0,1.6974503E0,-1.1249585E0,-1.7289015E0,-3.1775656E-1,-1.0260661E0,-1.727678E0,-3.439981E-1,1.5933567E0,6.652995E-2,1.5427988E0,-1.7198993E0,1.1975435E0,-1.7360314E0,-4.932005E-1,-1.1536865E0,1.5343934E0,-1.5693353E0,-1.8891797E0,1.0186603E0,-1.6088917E0,-1.2439978E0,-1.8721216E0,1.1475855E0,-1.5145729E0,-1.8480576E0,-1.9032953E0,-8.043269E-1,-1.8282079E0,-7.532899E-1,1.7881869E0,-1.4157706E0,4.525469E-1,-1.7906208E0,2.9202494E-1,1.0887082E0,-1.553987E0,-1.2799189E0,6.119964E-2,-1.7776947E0,-8.2349396E-1,-1.1955773E0,9.1952276E-1,1.6907148E0,-3.3768085E-1,8.7656844E-1,-1.2190543E0,-7.4164826E-1,1.5851698E0,1.10313706E-1,-1.7932947E0,-1.8855125E0,-1.5406947E0,3.2416365E-1,-1.754225E0,-1.3278354E0,1.0434642E0,-1.2981731E0,1.7245563E0,-1.834723E0,-1.0073069E0,-1.8941414E0,-1.5820333E0,-4.7596666E-1,1.4978318E0,-3.3387455E-1,-1.8493775E0,-1.8734448E0,-2.868786E-1,1.6032468E0,-1.3710368E0,-1.7589936E0,-1.5137211E-2,-1.6213671E0,-1.8977762E0,6.718043E-1,-1.5886105E0,-1.5391974E0,-1.8765378E0,1.8527483E0,-3.0674025E-1,-1.6639365E0,3.8569567E-1,9.82519E-1,-3.0156705E-1,-6.0186476E-1,-1.8115362E0,1.3935272E0,1.0332552E-1,-1.4007834E0,-2.3793128E-1,8.8930976E-1,-1.3693492E0,-1.8050518E0,-1.119742E0,3.854006E-1,-1.5546277E0,-1.4798117E0,-9.529349E-2,-1.2150339E0,1.3035096E0,-1.27677E-1,1.7745976E0,1.0249323E0,-1.3028729E0,1.1915258E0,-1.30013E0,6.6132265E-1,-1.5525235E0,1.1597621E0,1.7471787E0,4.6895024E-1,-2.9848737E-1,-1.8182098E0,-6.0870695E-1,-1.6509404E0,-8.370116E-1,-1.1724085E0,9.372835E-1,-6.76342E-1,-1.8124193E0,-1.5631776E0,-3.4401953E-1,-7.017895E-1,1.7865652E0,-1.3339754E0,1.0446655E0,-1.8288198E0,-6.618711E-1,-1.6112599E0,3.7050983E-1,-1.6365161E0,-1.8906922E0,1.464889E-1,1.7692971E0,-1.6896691E0,1.3853769E-1,-8.545837E-1,-1.8506063E0,1.0403028E0,-1.3775941E0,-9.20063E-1,-1.799648E0,1.3431644E0,-1.4222826E0,-1.7569737E0,2.552231E-1,-5.7162285E-1,-1.7561605E0,-1.4931242E0,-5.3426474E-1,-1.1361531E0,1.122228E0,-1.2084618E0,1.2533838E0,-1.606159E0,5.847654E-1,1.1304314E-1,-1.4129715E0,-6.5478665E-1,9.896528E-1,-7.424767E-1,-1.6680762E0,7.778507E-1,-9.3839574E-1,-3.3001027E-1,1.4978014E0,-5.1899856E-1,1.1915975E0,-1.4655378E0,-1.8912026E-1,-1.4424961E0,1.722486E-1,-1.0718112E0,1.4332042E0,-1.6976345E0,-3.710027E-1,1.3802472E0,3.053341E-1,1.7644919E0,3.3344567E-1,2.0081155E-2,-1.6703115E0,7.817883E-1,-1.4653281E0,3.07486E-1,-1.5634998E0,-1.2271996E0,1.2969635E0,-8.2814485E-1,-1.7318622E0,7.067268E-1,-1.2562287E0,4.1723105E-1,1.83263E0,-6.010554E-1,-1.7990283E0,-1.2798472E-1,1.430181E0,1.0884062E0,-1.4734958E0,-1.6735147E0,-6.783635E-1,-9.860677E-1,1.0843525E0,-5.1731765E-1,-1.7932075E0,8.9520335E-1,-1.1837983E0,3.1968775E-1,1.798301E0,4.4438612E-1,-1.3736647E0,-1.5488344E-1,1.4201506E0,-1.7226865E0,-2.132286E-1,-1.8198678E0,-4.0989652E-1,4.0348524E-1,1.6982665E0,-9.175096E-1,-1.8476745E0,-1.0147054E0,1.058591E0,-1.6081522E0,1.2933843E0,-8.5224605E-1,-1.7833362E0,-1.7964147E0,-1.2396716E0,-9.0879834E-1,1.051613E0,-1.584217E0,-3.3291423E-1,-3.6180905E-1,1.5495323E0,-7.1500057E-1,1.4406945E0,-1.4025111E0,5.404368E-1,1.6330948E-1,1.0140649E0,1.6591085E0,6.157228E-2,1.0672916E0,-9.9414265E-1,-2.8715715E-2,1.3724155E0,-1.0057498E0,-1.6954308E0,6.299279E-1,-1.0331787E0,1.5790958E0,8.6106324E-1,-2.2360869E-1,1.4745126E0,1.7698119E0,-7.7108157E-1,-1.3168681E0,8.711511E-1,-1.8610077E0,-1.4638875E0,-6.010074E-1,1.2978463E0,-1.6416558E0,-3.6218008E-1,-4.6931273E-1,9.256137E-1,-7.59144E-1,1.5464356E0,-1.5183984E0,4.3769893E-1,-3.5094085E-1,1.2622217E0,4.0106267E-1,1.8739642E0,5.232062E-1,-1.366272E0,2.4609834E-1,1.2962259E0,-3.8211477E-1,-1.6090982E0,-1.7525707E0,-1.0214003E0,4.6925852E-1,-1.3306496E0,-1.1453046E0,7.863626E-1,-4.771675E-1,1.3675305E0,-1.483533E0,7.620614E-2,-1.8117975E0,-4.65442E-1,1.4089159E0,-3.5079098E-1,6.211387E-1,1.8474964E0,-1.7821616E0,-1.04900114E-1,-9.162997E-1,1.023679E0,-1.843268E0,-1.0224625E0,1.22476E0,-1.3878924E0,1.4253256E0,-8.4176767E-1,6.72966E-1,-1.4900271E0,2.3040912E-1,1.5169537E0,1.23713225E-1,-1.2519166E0,-1.8250332E0,-2.3552375E-1,7.648927E-1,-1.3113706E0,-1.264496E0,5.5983454E-1,5.0720096E-1,-1.0154709E0,4.5080188E-1,1.7143947E0,3.710497E-1,-1.4420626E0,-1.1838362E0,5.221874E-1,-6.34917E-1,1.4517289E0,-1.2836988E0,2.8738467E-4,-1.8282629E0,-1.0155452E0,1.2412409E0,-4.5685243E-2,-2.6670605E-1,1.6012527E0,-3.6696655E-1,1.2155578E0,3.147533E-1,-1.091396E0,3.4223977E-2,1.5912417E0,1.1252202E0,1.7902554E0,1.5813481E0,-8.510147E-1,-9.8976296E-1,-1.841579E0,-1.7457493E-1,-9.717705E-1,1.6052736E0,2.849401E-1,-2.8598633E-1,9.800764E-1,-6.53607E-1,1.127995E0,-1.6051694E0,-4.116713E-1,-1.4066801E0,4.2886087E-1,-1.3420898E0,1.0347411E-1,-1.4945818E0,4.7745463E-1,1.48124E0,-5.120368E-1,-7.77032E-1,8.65376E-1,-1.8871695E-1,1.0536591E0,-1.8187509E0,-4.722286E-1,-1.2521448E0,1.16666496E-1,-5.1907873E-1,1.3706639E0,-1.8481065E0,-4.9389353E-1,1.0604987E0,-1.4142425E0,-1.1016058E0,-1.698801E-1],"categories":[],"categories_nodes":[],"categories_segments":[],"categories_sizes":[],"default_left":[1,1,1,1,1,1,1,1,1,1,1,1,1,1,1,1,1,1,1,1,1,1,1,1,1,1,1,1,1,1,1,1,1,1,1,1,1,1,0,1,1,1,1,1,1,1,0,1,1,1,1,1,0,1,1,0,1,1,1,1,0,1,0,1,1,1,1,1,1,1,0,1,1,1,1,1,1,0,1,1,1,1,0,0,1,0,1,0,1,0,0,1,0,1,0,1,1,1,1,1,0,1,1,1,0,0,0,0,0,0,0,0,0,0,0,1,1,1,1,0,1,1,0,1,1,0,1,0,0,1,1,0,1,1,1,1,1,0,0,0,0,1,1,1,1,0,0,1,1,0,1,1,1,0,1,1,1,1,0,1,1,0,0,1,0,1,0,1,1,1,0,1,1,1,1,1,1,1,1,0,1,0,0,0,0,0,0,1,0,1,0,0,1,1,1,0,0,1,1,0,0,0,0,1,1,1,1,0,1,1,1,1,0,0,1,1,0,1,0,0,1,1,0,0,0,1,1,1,1,1,1,1,1,1,0,0,1,0,0,0,0,1,1,1,1,1,0,1,0,0,0,0,1,1,0,1,1,1,0,0,1,0,0,0,1,0,0,0,0,0,0,0,1,1,1,1,1,1,0,1,1,1,1,1,0,0,1,0,1,0,0,0,0,0,0,1,1,0,1,0,0,0,0,1,1,0,0,0,0,0,1,0,0,1,0,1,1,0,1,0,0,0,0,1,0,1,0,1,1,1,1,0,0,0,1,0,0,0,0,0,0,0,0,0,0,0,0,0,0,0,0,0,0,0,0,0,0,0,0,0,0,0,0,0,0,0,0,0,0,0,0,0,0,0,0,0,0,0,0,0,0,0,0,0,0,0,0,0,0,0,0,0,0,0,0,0,0,0,0,0,0,0,0,0,0,0,0,0,0,0,0],"id":1,"left_children":[1,3,5,7,9,11,13,15,17,19,21,23,25,27,29,31,33,35,37,39,41,43,45,47,49,51,53,55,57,59,61,63,65,67,69,71,73,75,-1,77,79,81,83,85,87,89,-1,91,93,95,97,99,-1,101,103,-1,105,107,109,111,-1,113,-1,115,117,119,121,123,125,127,-1,129,131,133,135,137,139,-1,141,143,145,147,-1,-1,149,-1,151,-1,153,-1,-1,155,-1,157,-1,159,161,163,165,167,-1,169,171,173,-1,-1,-1,-1,-1,-1,-1,-1,-1,-1,-1,175,177,179,181,-1,183,185,-1,187,189,-1,191,-1,-1,193,195,-1,197,199,201,203,205,-1,-1,-1,-1,207,209,211,213,-1,-1,215,217,-1,219,221,223,-1,225,227,229,231,-1,233,235,-1,-1,237,-1,239,-1,241,243,245,-1,247,249,251,253,255,257,259,261,-1,263,-1,-1,-1,-1,-1,-1,265,-1,267,-1,-1,269,271,273,-1,-1,275,277,-1,-1,-1,-1,279,281,283,285,-1,287,289,291,293,-1,-1,295,297,-1,299,-1,-1,301,303,-1,-1,-1,305,307,309,311,313,315,317,319,321,-1,-1,323,-1,-1,-1,-1,325,327,329,331,333,-1,335,-1,-1,-1,-1,337,339,-1,341,343,345,-1,-1,347,-1,-1,-1,349,-1,-1,-1,-1,-1,-1,-1,351,353,355,357,359,361,-1,363,365,367,369,371,-1,-1,373,-1,375,-1,-1,-1,-1,-1,-1,377,379,-1,381,-1,-1,-1,-1,383,385,-1,-1,-1,-1,-1,387,-1,-1,389,-1,391,393,-1,395,-1,-1,-1,-1,397,-1,399,-1,401,403,405,407,-1,-1,-1,409,-1,-1,-1,-1,-1,-1,-1,-1,-1,-1,-1,-1,-1,-1,-1,-1,-1,-1,-1,-1,-1,-1,-1,-1,-1,-1,-1,-1,-1,-1,-1,-1,-1,-1,-1,-1,-1,-1,-1,-1,-1,-1,-1,-1,-1,-1,-1,-1,-1,-1,-1,-1,-1,-1,-1,-1,-1,-1,-1,-1,-1,-1,-1,-1,-1,-1,-1,-1,-1,-1,-1,-1,-1,-1,-1,-1],"loss_changes":[4.4945156E3,6.5412344E3,2.9446875E2,1.4238569E3,2.4130469E2,1.18390625E2,2.1195941E2,1.6428363E2,4.673993E2,3.1491904E2,2.6066406E1,3.0007935E2,1.546875E1,8.749102E1,1.31814575E1,3.424768E1,5.4746002E1,3.0789575E2,1.8654327E1,6.866089E1,1.5976482E2,5.9345703E0,2.1810835E1,9.283301E1,1.9007193E2,2.265625E0,5.697534E1,1.1550491E1,7.369257E0,7.859329E0,1.739628E1,4.7024338E1,4.3428345E0,3.745336E1,5.4352036E0,1.7126828E2,1.0661279E2,7.463745E0,0E0,4.5491943E0,5.8306E1,1.4669807E1,3.5215652E1,1.2504135E1,5.7910156E-1,5.374933E0,0E0,1.7201956E2,1.7287598E0,7.375369E1,1.7221786E1,1.966211E1,0E0,7.547228E1,4.327881E0,0E0,6.5927887E0,6.286455E0,1.5115589E0,3.322296E-1,0E0,1.3017297E0,0E0,1.703891E1,4.0488873E1,1.5322876E-1,8.19448E0,6.3071003E0,1.3196812E1,4.009079E0,0E0,3.3943466E1,1.397776E1,2.4367573E1,7.1701904E1,5.8384824E-1,4.2982483E-1,0E0,7.6278687E0,3.305919E1,1.6580963E-1,7.012184E0,0E0,0E0,9.949997E0,0E0,2.3567875E1,0E0,8.640823E0,0E0,0E0,1.1431322E2,0E0,1.3168945E0,0E0,1.2623932E1,5.087902E0,1.7707062E0,1.2369243E1,4.457715E1,0E0,3.424855E1,1.3569656E1,1.5702042E1,0E0,0E0,0E0,0E0,0E0,0E0,0E0,0E0,0E0,0E0,0E0,9.076035E0,2.0262968E1,1.8013184E1,6.745737E0,0E0,2.8551207E0,3.187224E0,0E0,1.0264626E0,4.632736E0,0E0,4.4585686E0,0E0,0E0,2.5057838E1,9.670439E-1,0E0,1.3245171E1,1.2527458E1,1.6506348E0,5.5721313E1,1.8325684E1,0E0,0E0,0E0,0E0,3.2504272E0,1.9208649E1,6.596616E0,2.1260366E1,0E0,0E0,1.7934074E0,8.150187E0,0E0,2.808197E0,8.795254E0,2.4903817E0,0E0,1.6862854E1,1.4844742E0,8.074379E1,1.32213745E1,0E0,7.5735087E0,1.4314117E0,0E0,0E0,4.3723907E0,0E0,2.4241457E0,0E0,4.3313805E1,7.5094604E0,5.29842E0,0E0,1.2633667E0,5.5730543E0,3.312322E1,6.5078735E-2,6.3023834E0,8.939093E0,3.0202837E0,4.7995405E0,0E0,7.9979153E0,0E0,0E0,0E0,0E0,0E0,0E0,5.094184E0,0E0,2.9183125E-1,0E0,0E0,2.525837E0,8.560741E0,1.9021591E1,0E0,0E0,4.5520096E0,4.1595416E0,0E0,0E0,0E0,0E0,2.3066956E1,3.892752E1,1.1659424E1,1.0537527E1,0E0,1.14328E0,4.788825E0,1.961626E0,1.8962309E0,0E0,0E0,1.2535824E1,6.584591E0,0E0,2.8876755E0,0E0,0E0,2.4734802E0,1.1684076E1,0E0,0E0,0E0,3.7736702E-1,5.340748E-1,3.5476685E-1,3.9956563E0,9.054693E0,2.4700909E1,6.6012716E0,8.9360046E-1,3.5372393E0,0E0,0E0,1.5492096E0,0E0,0E0,0E0,0E0,3.2685623E0,3.75339E1,3.5131226E0,1.0498576E1,9.126692E0,0E0,6.261693E0,0E0,0E0,0E0,0E0,1.145505E0,1.636523E0,0E0,1.7271271E0,1.0154335E1,6.668066E0,0E0,0E0,3.2650633E0,0E0,0E0,0E0,3.9923134E0,0E0,0E0,0E0,0E0,0E0,0E0,0E0,5.533805E0,8.306278E0,1.2853622E1,6.4964943E0,1.2509918E0,2.217114E0,0E0,7.374695E0,2.9927876E1,2.0824987E1,3.2361298E0,8.025391E0,0E0,0E0,1.1843876E1,0E0,7.465149E0,0E0,0E0,0E0,0E0,0E0,0E0,2.1162653E-1,1.0332298E0,0E0,1.5233998E0,0E0,0E0,0E0,0E0,4.9270873E0,1.1324949E0,0E0,0E0,0E0,0E0,0E0,4.4560585E0,0E0,0E0,6.7533417E0,0E0,9.542137E0,1.065284E1,0E0,6.03216E0,0E0,0E0,0E0,0E0,1.3808697E0,0E0,7.9841614E-1,0E0,9.637247E0,9.128387E0,9.138794E-1,1.006248E1,0E0,0E0,0E0,4.12822E-1,0E0,0E0,0E0,0E0,0E0,0E0,0E0,0E0,0E0,0E0,0E0,0E0,0E0,0E0,0E0,0E0,0E0,0E0,0E0,0E0,0E0,0E0,0E0,0E0,0E0,0E0,0E0,0E0,0E0,0E0,0E0,0E0,0E0,0E0,0E0,0E0,0E0,0E0,0E0,0E0,0E0,0E0,0E0,0E0,0E0,0E0,0E0,0E0,0E0,0E0,0E0,0E0,0E0,0E0,0E0,0E0,0E0,0E0,0E0,0E0,0E0,0E0,0E0,0E0,0E0,0E0,0E0,0E0,0E0,0E0,0E0,0E0,0E0,0E0,0E0,0E0],"parents":[2147483647,0,0,1,1,2,2,3,3,4,4,5,5,6,6,7,7,8,8,9,9,10,10,11,11,12,12,13,13,14,14,15,15,16,16,17,17,18,18,19,19,20,20,21,21,22,22,23,23,24,24,25,25,26,26,27,27,28,28,29,29,30,30,31,31,32,32,33,33,34,34,35,35,36,36,37,37,39,39,40,40,41,41,42,42,43,43,44,44,45,45,47,47,48,48,49,49,50,50,51,51,53,53,54,54,56,56,57,57,58,58,59,59,61,61,63,63,64,64,65,65,66,66,67,67,68,68,69,69,71,71,72,72,73,73,74,74,75,75,76,76,78,78,79,79,80,80,81,81,84,84,86,86,88,88,91,91,93,93,95,95,96,96,97,97,98,98,99,99,101,101,102,102,103,103,115,115,116,116,117,117,118,118,120,120,121,121,123,123,124,124,126,126,129,129,130,130,132,132,133,133,134,134,135,135,136,136,141,141,142,142,143,143,144,144,147,147,148,148,150,150,151,151,152,152,154,154,155,155,156,156,157,157,159,159,160,160,163,163,165,165,167,167,168,168,169,169,171,171,172,172,173,173,174,174,175,175,176,176,177,177,178,178,180,180,187,187,189,189,192,192,193,193,194,194,197,197,198,198,203,203,204,204,205,205,206,206,208,208,209,209,210,210,211,211,214,214,215,215,217,217,220,220,221,221,225,225,226,226,227,227,228,228,229,229,230,230,231,231,232,232,233,233,236,236,241,241,242,242,243,243,244,244,245,245,247,247,252,252,253,253,255,255,256,256,257,257,260,260,264,264,272,272,273,273,274,274,275,275,276,276,277,277,279,279,280,280,281,281,282,282,283,283,286,286,288,288,295,295,296,296,298,298,303,303,304,304,310,310,313,313,315,315,316,316,318,318,323,323,325,325,327,327,328,328,329,329,330,330,334,334],"right_children":[2,4,6,8,10,12,14,16,18,20,22,24,26,28,30,32,34,36,38,40,42,44,46,48,50,52,54,56,58,60,62,64,66,68,70,72,74,76,-1,78,80,82,84,86,88,90,-1,92,94,96,98,100,-1,102,104,-1,106,108,110,112,-1,114,-1,116,118,120,122,124,126,128,-1,130,132,134,136,138,140,-1,142,144,146,148,-1,-1,150,-1,152,-1,154,-1,-1,156,-1,158,-1,160,162,164,166,168,-1,170,172,174,-1,-1,-1,-1,-1,-1,-1,-1,-1,-1,-1,176,178,180,182,-1,184,186,-1,188,190,-1,192,-1,-1,194,196,-1,198,200,202,204,206,-1,-1,-1,-1,208,210,212,214,-1,-1,216,218,-1,220,222,224,-1,226,228,230,232,-1,234,236,-1,-1,238,-1,240,-1,242,244,246,-1,248,250,252,254,256,258,260,262,-1,264,-1,-1,-1,-1,-1,-1,266,-1,268,-1,-1,270,272,274,-1,-1,276,278,-1,-1,-1,-1,280,282,284,286,-1,288,290,292,294,-1,-1,296,298,-1,300,-1,-1,302,304,-1,-1,-1,306,308,310,312,314,316,318,320,322,-1,-1,324,-1,-1,-1,-1,326,328,330,332,334,-1,336,-1,-1,-1,-1,338,340,-1,342,344,346,-1,-1,348,-1,-1,-1,350,-1,-1,-1,-1,-1,-1,-1,352,354,356,358,360,362,-1,364,366,368,370,372,-1,-1,374,-1,376,-1,-1,-1,-1,-1,-1,378,380,-1,382,-1,-1,-1,-1,384,386,-1,-1,-1,-1,-1,388,-1,-1,390,-1,392,394,-1,396,-1,-1,-1,-1,398,-1,400,-1,402,404,406,408,-1,-1,-1,410,-1,-1,-1,-1,-1,-1,-1,-1,-1,-1,-1,-1,-1,-1,-1,-1,-1,-1,-1,-1,-1,-1,-1,-1,-1,-1,-1,-1,-1,-1,-1,-1,-1,-1,-1,-1,-1,-1,-1,-1,-1,-1,-1,-1,-1,-1,-1,-1,-1,-1,-1,-1,-1,-1,-1,-1,-1,-1,-1,-1,-1,-1,-1,-1,-1,-1,-1,-1,-1,-1,-1,-1,-1,-1,-1,-1],"split_conditions":[5.48388E-1,4.534744E-1,2.3510551E-1,2.8452654E0,7.247392E-1,7.949625E-1,1.2977289E0,3.815557E-2,3.750875E1,2.8284352E-2,5.5236936E-1,3.0188695E-2,5.457705E-2,8.8247937E-1,5.3944183E1,3.1868036E2,3.0841427E1,3.8792558E-2,1.5438989E-1,1.330448E0,7.748244E-1,8.054702E-1,1.3587708E0,2.1209316E0,6.333715E-1,1.0903367E0,1.2157701E0,2.8817143E0,8.261565E1,1.2113643E0,1.5509451E1,1.2277662E0,2.5378327E0,3.0345745E0,1.1054374E2,1.7167923E-1,1.5401366E-1,-2.131825E0,5.9877176E-2,2.755229E0,7.495355E0,4.9876636E-1,1.3210958E-1,3.4567815E-1,1.5093619E-1,2.8968596E0,-8.044459E-2,7.945707E-1,3.140747E0,1.1853811E1,2.3499484E0,2.093806E0,-9.516477E-2,1.2316585E0,3.557858E-1,-3.7664495E-2,8.715346E0,8.147582E-1,1.3226123E0,5.6376137E-2,1.4601247E-2,2.986732E2,-7.7699356E-2,3.1126304E0,3.0943713E0,3.1218262E0,3.8445944E-1,2.5535507E0,3.183424E-1,3.921494E-2,-1.6884042E-2,6.573473E-1,-2.909318E0,2.0265884E2,6.5480127E0,3.0425384E0,3.6190983E-2,-9.427562E-2,9.721732E-1,4.7296E0,1.6493295E2,5.322281E-1,5.217321E-2,-6.490865E-2,2.7500346E0,-9.173615E-2,3.0830003E-2,-9.470707E-2,2.2193341E-1,-2.3798333E-2,7.489159E-2,2.8930154E0,-9.246888E-2,4.866399E0,-1.43439295E-2,3.6940548E0,2.764905E0,6.0578346E-1,1.0186806E0,4.4328704E-1,-9.4888814E-2,1.366018E0,4.231619E0,5.1944983E-1,-9.382689E-2,9.263741E-2,-1.5337013E-2,-8.319683E-2,1.9284783E-2,4.912595E-2,-1.5078353E-2,-3.0093238E-2,-9.057681E-2,6.967636E-2,5.1662764E-3,2.7701325E0,1.0896315E-2,2.7900698E0,1.582483E-2,-9.025259E-2,3.5469342E2,3.676474E-1,-7.7731386E-2,2.303747E2,2.894282E0,-6.0751695E-2,5.6903455E-2,-6.38385E-3,8.872988E-2,7.330285E-2,2.2070829E-2,5.957629E-2,6.1037607E-2,1.0283117E-1,1.6046164E1,2.665956E-1,1.3923849E1,2.3447512E-2,-1.4924369E-2,-9.091049E-2,-3.0435348E-2,2.7746437E0,5.7788336E-1,2.3344174E2,1.7802909E-1,-3.38171E-2,-9.0620965E-2,4.992395E-1,1.2508465E0,-3.5089474E-2,3.3531478E-1,2.515689E0,1.0524409E0,-9.144099E-2,1.199266E0,1.5623471E-2,1.9740825E0,3.3462095E-1,-9.453461E-2,2.4699372E-1,7.844304E-3,-8.448346E-2,6.9268844E-3,1.8770334E2,-9.253032E-2,2.982088E0,-6.887971E-2,2.8477328E0,2.7421923E0,2.5841632E0,-7.111413E-2,3.2247245E-1,3.0072176E0,3.0886623E1,2.093723E-2,2.8975534E0,1.6870112E0,4.4477116E-3,5.816927E-2,-6.0423087E-2,1.779269E2,-8.030795E-2,2.9238269E-2,5.652157E-3,-7.064857E-2,-3.2739334E-2,4.948264E-2,2.098115E2,-8.340381E-2,6.833036E-1,-4.691979E-2,-1.6500514E-2,2.1567356E1,3.0080192E0,1.4088264E-2,-7.327689E-2,-9.456013E-3,2.719648E-1,3.7523682E2,-5.3590562E-2,7.166021E-2,-8.488172E-2,-1.8550135E-2,2.760072E-1,1.3162799E0,8.542091E2,6.766092E-1,1.0040578E-3,8.627249E-2,5.6074494E-3,1.199173E0,6.6724876E-3,-7.817499E-2,-6.135998E-2,2.7128181E0,2.9266033E0,-8.6593114E-2,1.027622E-1,-6.2811434E-2,2.0861553E-2,2.6149883E0,2.1963148E2,-8.995142E-2,-6.399236E-3,7.1509056E-2,3.4465986E-1,1.5426153E-1,2.7191072E0,2.0752069E-2,1.8312417E0,1.2486356E-3,2.7801795E0,7.874277E-1,1.7281595E0,-5.9189916E-2,1.5984388E-2,2.7356958E0,2.2219306E-2,-6.868324E-2,-7.744172E-3,7.1007535E-2,3.751097E-2,1.0135179E1,2.907908E-2,7.397565E-1,7.398699E-2,8.491333E-2,7.22613E0,-9.238373E-2,-5.0735272E-2,5.292955E-2,-8.040761E-2,3.0371041E0,3.076878E0,-8.916681E-2,2.7260463E0,2.8995812E0,3.5491827E-1,5.258065E-2,-7.921085E-2,7.4291397E-3,-1.8090453E-2,7.747661E-2,-3.5750028E-2,5.028942E0,-7.012556E-2,2.702184E-2,8.165474E-3,5.0703246E-2,8.295543E-2,3.0786141E-3,5.3364582E-2,1.21024735E-2,5.323741E-2,2.9428144E0,3.0705066E-2,5.9977645E-1,1.86369E-1,-5.1658936E-2,1.4506918E2,1.0623139E0,2.6359247E2,4.419061E-4,1.2074355E-3,-3.855408E-2,-6.58434E-2,3.7569445E-1,-9.305038E-2,3.4046955E0,-3.005037E-2,6.4892314E-2,-8.208279E-2,-1.8109005E-2,-2.3465637E-2,4.6280686E-2,2.4697736E2,3.3662763E0,-7.591992E-2,6.4440295E-2,-1.7547043E-2,6.311109E-2,2.0053133E-2,9.369821E-2,-4.9312434E-1,3.0106077E0,1.2304917E-2,6.48113E-2,-1.9105738E-2,-8.045491E-2,-8.7628536E-2,2.4141774E0,2.3462927E-2,-6.6532485E-2,1.5954634E-2,3.931813E-2,3.0623534E0,7.266838E0,-7.4176654E-2,9.095052E0,-9.058987E-2,-2.32721E-2,7.04458E-2,-1.753955E-2,1.19295105E-1,9.2374824E-2,5.7225662E1,-5.2450057E-3,2.812131E-1,5.613875E-3,2.0633366E0,2.9149741E-2,6.1238002E-2,-6.939462E-2,7.1266286E-2,1.8805944E0,3.36483E-2,-7.450136E-2,1.1520456E-2,7.5847685E-2,6.1856615E-3,-6.259584E-2,-9.1251664E-2,-1.1776187E-2,3.8244635E-2,-6.556853E-2,-6.32248E-2,2.7991727E-2,2.5360048E-2,-5.0773542E-2,2.2540094E-2,8.5719734E-2,1.8552486E-2,-7.2103135E-2,-5.919181E-2,2.6109371E-2,-3.174585E-2,7.258645E-2,-6.418494E-2,1.4369233E-5,-9.141315E-2,-5.0777264E-2,6.2062044E-2,-2.284262E-3,-1.33353025E-2,8.0062635E-2,-1.8348327E-2,6.077789E-2,1.5737666E-2,-5.45698E-2,1.711199E-3,7.956209E-2,5.626101E-2,8.951277E-2,7.90674E-2,-4.2550735E-2,-4.948815E-2,-9.207895E-2,-8.728746E-3,-4.8588526E-2,8.026368E-2,1.4247005E-2,-1.4299317E-2,4.900382E-2,-3.268035E-2,5.639975E-2,-8.0258474E-2,-2.0583566E-2,-7.033401E-2,2.1443045E-2,-6.710449E-2,5.1737055E-3,-7.472909E-2,2.3872731E-2,7.4062005E-2,-2.560184E-2,-3.88516E-2,4.32688E-2,-9.435847E-3,5.2682955E-2,-9.093755E-2,-2.361143E-2,-6.260724E-2,5.833325E-3,-2.5953937E-2,6.85332E-2,-9.240533E-2,-2.4694677E-2,5.3024936E-2,-7.071213E-2,-5.508029E-2,-8.494006E-3],"split_indices":[7,5,8,2,5,7,7,8,4,8,8,8,8,5,9,0,9,7,8,6,6,5,5,4,5,7,7,3,9,8,4,6,2,3,4,5,6,1,0,2,4,8,7,7,8,2,0,5,2,4,6,4,0,4,5,0,4,8,5,5,0,0,0,3,4,3,4,2,2,7,0,6,1,0,9,3,8,0,6,9,0,6,0,0,3,0,8,0,7,0,0,2,0,4,0,9,6,4,5,5,0,5,6,4,0,0,0,0,0,0,0,0,0,0,0,2,8,3,8,0,0,6,0,0,3,0,7,0,0,6,8,0,8,6,9,5,4,0,0,0,0,2,4,0,7,0,0,5,4,0,2,4,6,0,5,8,6,5,0,5,5,0,0,0,0,2,0,2,1,6,0,5,2,9,5,3,1,8,7,0,0,0,0,0,0,0,0,0,0,6,0,0,9,3,7,0,0,5,0,0,0,0,0,7,6,0,6,0,7,8,1,8,0,0,2,2,0,7,0,0,9,0,0,0,0,4,4,2,8,4,8,2,7,9,0,0,2,0,0,0,0,8,9,8,5,8,0,4,0,0,0,0,2,3,0,2,3,5,0,0,8,0,0,0,9,0,0,0,0,0,0,0,7,4,2,7,4,6,0,0,6,0,8,8,0,0,7,0,4,0,0,0,0,0,0,0,4,0,8,0,0,0,0,1,2,0,0,0,0,0,6,0,0,8,0,2,6,0,9,0,0,0,0,4,0,9,0,5,8,4,8,0,0,0,6,0,0,0,0,0,0,0,0,0,0,0,0,0,0,0,0,0,0,0,0,0,0,0,0,0,0,0,0,0,0,0,0,0,0,0,0,0,0,0,0,0,0,0,0,0,0,0,0,0,0,0,0,0,0,0,0,0,0,0,0,0,0,0,0,0,0,0,0,0,0,0,0,0,0,0,0],"split_type":[0,0,0,0,0,0,0,0,0,0,0,0,0,0,0,0,0,0,0,0,0,0,0,0,0,0,0,0,0,0,0,0,0,0,0,0,0,0,0,0,0,0,0,0,0,0,0,0,0,0,0,0,0,0,0,0,0,0,0,0,0,0,0,0,0,0,0,0,0,0,0,0,0,0,0,0,0,0,0,0,0,0,0,0,0,0,0,0,0,0,0,0,0,0,0,0,0,0,0,0,0,0,0,0,0,0,0,0,0,0,0,0,0,0,0,0,0,0,0,0,0,0,0,0,0,0,0,0,0,0,0,0,0,0,0,0,0,0,0,0,0,0,0,0,0,0,0,0,0,0,0,0,0,0,0,0,0,0,0,0,0,0,0,0,0,0,0,0,0,0,0,0,0,0,0,0,0,0,0,0,0,0,0,0,0,0,0,0,0,0,0,0,0,0,0,0,0,0,0,0,0,0,0,0,0,0,0,0,0,0,0,0,0,0,0,0,0,0,0,0,0,0,0,0,0,0,0,0,0,0,0,0,0,0,0,0,0,0,0,0,0,0,0,0,0,0,0,0,0,0,0,0,0,0,0,0,0,0,0,0,0,0,0,0,0,0,0,0,0,0,0,0,0,0,0,0,0,0,0,0,0,0,0,0,0,0,0,0,0,0,0,0,0,0,0,0,0,0,0,0,0,0,0,0,0,0,0,0,0,0,0,0,0,0,0,0,0,0,0,0,0,0,0,0,0,0,0,0,0,0,0,0,0,0,0,0,0,0,0,0,0,0,0,0,0,0,0,0,0,0,0,0,0,0,0,0,0,0,0,0,0,0,0,0,0,0,0,0,0,0,0,0,0,0,0,0,0,0,0,0,0,0,0,0,0,0,0,0,0,0,0,0,0,0,0,0,0,0,0,0,0,0,0,0,0,0,0,0,0,0,0],"sum_hessian":[4.7836676E4,4.5147954E3,4.3321883E4,1.6595763E3,2.855219E3,4.319748E4,1.244019E2,3.541491E2,1.3054271E3,4.0324512E2,2.4519739E3,1.4992164E3,4.169826E4,5.8551514E1,6.585039E1,2.9648895E2,5.766014E1,1.2507241E3,5.4703045E1,3.0930548E2,9.393962E1,2.441286E3,1.068801E1,1.3918027E3,1.074137E2,4.1119363E4,5.788999E2,4.4884613E1,1.3666904E1,5.7818172E1,8.032215E0,1.6909079E2,1.2739817E2,3.278662E1,2.4873522E1,1.6243782E2,1.0882864E3,5.309036E1,1.6126875E0,2.5428877E2,5.501672E1,3.3718166E1,6.022145E1,9.522369E1,2.346062E3,5.509532E0,5.1784787E0,3.123329E2,1.0794698E3,6.135026E1,4.6063435E1,2.0165999E3,3.910276E4,6.3269405E1,5.156305E2,1.3417896E0,4.354282E1,1.1626156E1,2.0407484E0,5.621531E1,1.6028626E0,3.8132248E0,4.21899E0,1.3694089E2,3.2149902E1,1.1980485E2,7.5933223E0,1.961823E1,1.3168388E1,2.379813E1,1.0753903E0,9.984455E1,6.2593258E1,1.9517012E1,1.0687693E3,2.0275524E0,5.1062805E1,1.3915105E2,1.15137726E2,3.3831158E1,2.1185562E1,3.1608496E1,2.1096723E0,3.4220312E0,5.679942E1,6.3143234E1,3.2080452E1,2.3036804E3,4.238166E1,1.3391517E0,4.17038E0,1.25383606E2,1.8694928E2,1.078388E3,1.0819249E0,5.2259144E1,9.091119E0,3.9458294E1,6.6051407E0,3.6877762E2,1.6478223E3,2.2001997E1,4.126741E1,7.8579216E1,4.3705127E2,4.2353188E1,1.1896355E0,1.0285581E1,1.3405751E0,1.0206107E0,1.0201378E0,1.4868052E0,5.4728504E1,2.5959823E0,1.2172425E0,1.2239897E2,1.4541918E1,2.0602158E1,1.1547747E1,1.1334848E2,6.4563675E0,3.0398872E0,4.553435E0,1.53165865E1,4.301644E0,1.6777321E0,1.1490657E1,1.0263816E0,2.277175E1,9.3976875E1,5.8676777E0,1.5910455E0,6.1002213E1,7.2161355E0,1.2300877E1,2.9701562E2,7.7175366E2,1.0016663E0,1.0258862E0,4.948707E1,1.575739E0,9.837866E1,1.6759064E1,9.566926E0,2.426423E1,1.7317605E0,1.9453802E1,2.5031683E1,6.5768113E0,1.1583116E0,5.564111E1,2.7976564E1,4.1038885E0,3.264012E1,9.741541E0,4.4107735E1,8.127587E1,7.968162E1,9.9870636E2,5.5398936E0,4.671925E1,7.4081483E0,1.6829709E0,4.579292E0,3.4879E1,3.8551576E0,2.7499828E0,7.599532E1,2.927823E2,1.6932169E1,5.069828E0,3.7857677E1,3.4097323E0,1.505851E1,6.3520706E1,1.0995812E2,1.2440852E1,8.857375E0,5.684542E0,2.7037933E0,1.7898363E1,1.04584055E1,1.0893407E0,1.358692E0,5.0976753E0,1.0862815E0,1.9536057E0,4.120908E0,1.1195679E1,2.151193E0,2.150451E0,1.1471759E0,1.034348E1,8.950296E0,8.502658E1,4.8443055E0,1.0233719E0,5.564238E1,5.3598323E0,2.1038082E0,5.1123276E0,1.0566328E1,1.7345477E0,2.356029E2,6.141272E1,7.6217163E2,9.582061E0,1.1269538E0,9.72517E1,4.617707E0,1.2141357E1,2.044456E0,7.52247E0,3.1138387E0,2.1150393E1,5.7753577E0,1.9256325E1,3.161004E0,3.4158075E0,2.1381931E0,5.3502914E1,1.17504225E1,1.6226141E1,1.180647E0,2.9232414E0,2.9781365E0,6.7634044E0,4.0604214E1,3.503523E0,2.7890936E1,5.3384933E1,1.0313928E1,6.936769E1,3.7540777E0,1.785816E0,1.1522493E0,4.5567E1,1.3485425E0,3.2307494E0,1.0725722E0,2.7825854E0,3.4913364E1,4.108196E1,2.8827856E2,4.503728E0,5.229636E0,1.1702532E1,4.7754226E0,3.3082256E1,1.2192816E0,2.1904507E0,9.767612E0,5.290898E0,2.7984827E0,6.072222E1,4.728612E1,6.2672E1,1.0409422E1,2.0314298E0,5.0616136E0,3.795762E0,1.3051172E0,4.3794246E0,1.3104202E0,1.6587944E1,2.659449E0,1.4614588E0,1.0668943E0,1.0842986E0,9.159559E0,1.1839211E0,1.7757214E0,7.174575E0,1.1081368E1,7.394521E1,2.2231403E1,3.3410976E1,4.2308702E0,1.1289625E0,1.6887999E2,6.6722916E1,4.2840286E1,1.8572433E1,7.6087726E2,1.294396E0,1.998686E0,7.5833745E0,4.6385212E1,5.0866493E1,1.2102329E0,3.4074738E0,1.0047245E1,2.0941122E0,1.0126339E0,1.031822E0,2.0674896E0,1.9082903E1,3.6082797E0,2.1670783E0,1.2152996E0,1.9457043E0,1.8018106E0,5.1701107E1,4.886867E0,6.863555E0,1.0216224E0,1.9565141E0,1.1694137E0,5.5939903E0,3.470892E1,5.895294E0,1.3713628E0,2.1321602E0,2.5916405E1,1.9745324E0,8.089911E0,4.529502E1,3.3541195E0,6.959808E0,6.805038E1,1.3173103E0,2.5655622E0,1.1885152E0,2.3745282E0,4.319247E1,3.3577347E1,1.3360178E0,2.6358635E1,1.4723321E1,2.787859E2,9.492675E0,1.5914336E0,2.9122941E0,2.7930684E0,2.4365675E0,1.2175555E0,3.557867E0,1.2722931E0,4.0186048E0,1.0136656E0,1.7848172E0,4.6268574E1,1.017546E0,1.8303679E0,6.0841633E1,8.491749E0,1.9176732E0,1.8166606E0,1.9791013E0,4.1663938E0,1.242155E1,1.8148384E0,5.3597364E0,3.2073572E0,7.874011E0,2.5443883E0,7.1400826E1,1.7202644E1,5.0287595E0,2.6537214E1,6.873763E0,1.7816123E0,2.4492579E0,1.8722556E0,1.6700774E2,1.4938436E1,5.1784477E1,2.6831638E1,1.6008648E1,1.4893198E0,1.7083115E1,2.511244E1,7.357648E2,5.427088E0,2.156287E0,2.4159325E1,2.6707169E1,1.0371413E0,1.0303482E0,1.7972137E1,1.1107647E0,1.1308804E0,1.0361979E0,1.6315117E0,3.2553556E0,4.944612E0,1.9189429E0,4.681616E0,1.2136784E0,2.2323845E1,3.5925603E0,3.642351E0,4.4475603E0,4.291093E1,2.384091E0,3.3515472E0,3.6082604E0,1.0229071E0,1.351621E0,3.2287067E1,1.2902771E0,1.9731281E1,6.627355E0,2.6123538E0,1.2110968E1,2.7742154E2,1.3643568E0,1.2325819E0,8.260094E0,1.2958548E0,1.1407127E0],"tree_param":{"num_deleted":"0","num_feature":"10","num_nodes":"411","size_leaf_vector":"0"}},{"base_weights":[-1.7075301E0,-7.98534E-1,-1.8023261E0,7.2430384E-1,-1.6681983E0,-1.8065643E0,-3.297697E-1,-9.786318E-1,1.1796242E0,-9.630556E-1,-1.7896645E0,-1.5381469E0,-1.8161826E0,9.851658E-1,-1.4961711E0,-1.2690601E0,5.4433125E-1,1.3010558E0,-1.4843934E0,-1.4319755E0,5.1204705E-1,-1.7962092E0,-2.7256876E-1,-1.6570135E0,1.6836332E-3,-1.8185756E0,-1.6434314E0,1.6236618E0,-1.0748376E0,-1.6542681E0,-3.0320805E-1,-9.6958673E-1,-1.6506484E0,-2.413132E-1,1.5171303E0,8.069407E-2,1.4823391E0,-1.7203395E0,-7.203239E-2,-1.648808E0,-4.290499E-1,-1.1400946E0,1.4699295E0,-1.5016193E0,-1.8075308E0,9.7846055E-1,-1.5480661E0,-1.1894739E0,-1.7912296E0,1.0973877E0,-1.4501427E0,-1.7483988E0,-1.8204262E0,-7.6987964E-1,-1.7490603E0,-7.321741E-1,1.7115414E0,-1.6277179E0,-1.625032E-1,-1.7138416E0,2.8306252E-1,1.0519998E0,-1.4969128E0,-1.2081894E0,3.5173986E-2,-1.6988063E0,-7.918598E-1,-1.1014827E0,1.0079792E0,1.6133217E0,-3.289701E-1,8.304652E-1,-1.1426811E0,-1.0278966E0,1.5167949E0,-1.2975198E-1,-1.7581218E0,-6.814879E-1,8.456259E-1,-1.805118E0,-1.4484646E0,3.5609567E-1,-1.6852973E0,-1.4726557E0,-4.0800616E-2,-1.2553416E0,1.6416979E0,-1.7557156E0,-9.643145E-1,-1.8122672E0,-1.51432E0,-4.6245953E-1,1.4425634E0,-3.2009944E-1,-1.7692395E0,-1.7924944E0,-2.7944782E-1,1.5345893E0,-1.3155314E0,-1.68466E0,-1.5162183E-2,-1.4250648E0,-1.8124318E0,6.419039E-1,-1.5209296E0,-1.4723797E0,-1.7953646E0,1.7739736E0,-2.9843736E-1,1.0783564E0,-1.3669626E0,-5.8412015E-1,-1.7336022E0,1.3469265E0,1.00490384E-1,-1.3280853E0,-1.7042322E-1,8.297735E-1,-1.3105985E0,-1.7251776E0,-1.0555139E0,3.7070957E-1,-1.4967189E0,-1.3853537E0,-8.837707E-2,-1.1156275E0,1.3567551E0,-1.2444548E-1,1.6961777E0,9.730801E-1,-1.2535325E0,-1.393147E0,-2.579784E-1,-1.3978916E0,7.0847446E-1,1.1049732E0,1.6749073E0,9.6146524E-1,-1.46559E0,1.275867E0,-1.452954E-1,-1.5630486E0,-7.219763E-1,-1.1226075E0,9.1601914E-1,-6.5781957E-1,-1.742514E0,-1.6021827E0,-4.444996E-1,8.5585785E-1,-1.2483675E0,-6.8327755E-1,1.6972442E0,-1.278953E0,1.0077281E0,-1.7513239E0,-6.329554E-1,-1.5425103E0,3.528848E-1,-1.5660267E0,-1.8089888E0,1.3844566E-1,1.6944236E0,-1.6231178E0,1.341957E-1,-8.2215565E-1,-1.7720677E0,1.0035805E0,-1.3310511E0,-1.5697501E0,5.655954E-1,1.2867457E0,-1.3674905E0,-1.6826314E0,2.4336413E-1,-5.449359E-1,-1.68065E0,-1.1514491E0,-1.7893792E0,-1.0485092E0,1.0781245E0,-1.3104784E0,1.1589324E0,-1.5400026E0,5.6971914E-1,1.0977077E-1,-1.3433169E0,-6.380177E-1,9.581391E-1,-1.5765723E0,-4.8229527E-1,7.5817907E-1,-9.074383E-1,4.8024493E-1,1.6306026E0,-4.9440747E-1,1.1323844E0,-1.4097326E0,-1.8434419E-1,-9.2216754E-1,-1.6900192E0,3.0708092E-1,-1.2267245E0,-1.5867355E0,2.929126E-1,3.0505516E-2,1.0273236E0,1.3166124E0,2.542817E-1,1.6887094E0,3.7456912E-1,-2.1588987E-1,-1.5999358E0,8.141741E-1,-1.3569165E0,2.9980108E-1,-1.5000453E0,-1.1832834E0,1.2358956E0,-9.9792E-1,-1.7264184E0,9.5285624E-1,-1.1296868E0,-4.213508E-1,1.2454994E0,4.1656518E-1,1.737497E0,-5.7842124E-1,-1.7246729E0,-1.2451865E-1,1.3813971E0,1.0547116E0,-1.4180938E0,-1.601705E0,-6.548799E-1,-9.402462E-1,1.0338365E0,-4.9868047E-1,-1.715951E0,8.6294025E-1,-1.1471977E0,3.111698E-1,1.7221307E0,4.3166983E-1,-1.3252841E0,-1.5087613E-1,1.3718507E0,-1.0436498E0,-1.8033086E0,1.4136342E0,-1.4314826E0,3.853807E-1,1.6282773E0,-1.4876626E0,-4.2892426E-1,-1.713591E0,-2.9371434E-1,-9.879213E-1,1.0237952E0,-1.5423384E0,1.2462393E0,-1.2634585E0,-1.7707418E0,-1.4082367E0,-4.102076E-1,-1.491896E0,-3.217708E-1,-3.5156652E-1,1.4917833E0,-3.9294055E-1,1.4329901E0,-1.6745086E0,-3.1560758E-1,5.953784E-1,-1.1304547E0,1.5909891E-1,9.887187E-1,8.7790924E-1,-3.2415554E-1,1.0140457E0,-9.610361E-1,-9.8958604E-2,1.3095789E0,-8.282059E-2,-1.2481967E0,-1.7493919E0,-8.2612656E-2,-6.337757E-1,9.3103135E-1,-2.0719121E-1,-1.4315811E0,1.4390496E0,5.5913633E-1,-2.3492241E-1,1.3843087E0,1.6938869E0,-7.498389E-1,-4.5870435E-1,1.4229678E0,-1.0844094E0,7.348018E-1,-1.7859137E0,-1.393671E0,-5.850707E-1,1.2925704E0,-4.3969357E-1,-1.6269459E0,-4.577272E-1,9.025676E-1,-5.697613E-1,1.502483E0,-1.4077448E0,6.2790796E-2,1.424225E0,3.7531513E-1,5.720988E-1,1.772927E0,5.014961E-1,-1.3149005E0,2.3989502E-1,1.2554224E0,-3.7197185E-1,-1.5476214E0,-1.6768998E0,-9.803544E-1,4.5571068E-1,-1.2877283E0,-1.0936038E0,7.6086545E-1,-4.5985037E-1,1.3052411E0,-1.4311517E0,7.30382E-2,-1.1468731E0,-1.7883009E0,1.3609892E0,-3.4130022E-1,6.0344183E-1,1.7688096E0,-1.5088426E0,-1.4309725E-1,1.0939014E-1,1.5528996E0,1.3766387E0,-8.1882286E-1,-3.5076597E-1,-1.7460961E0,-5.9020305E-1,-1.645476E0,2.2397155E-1,1.4615064E0,-3.2183078E-1,-1.656947E0,-1.750692E0,-1.0770556E0,-1.207051E0,3.594383E-1,-9.569569E-1,5.3934836E-1,-1.0603945E0,4.383293E-1,-8.111898E-2,1.5555285E0,3.8482E-1,-1.4027414E0,-1.1411072E0,4.2973152E-1,-6.12476E-1,1.3858392E0,-5.6093943E-1,9.066866E-1,-1.4428196E0,7.8190446E-2,6.1014754E-1,-1.1444913E0,1.2599789E0,-7.975442E-2,1.4850694E0,3.0593926E-1,-6.1105233E-1,1.0324173E0,3.6106378E-1,-9.921216E-1,3.3200696E-2,1.5014654E0,1.4669234E0,1.7556031E0,3.3081248E-1,-1.2491503E0,-9.59243E-1,-1.7592652E0,4.4510078E-1,-1.165128E0,-1.1484625E0,3.4953645E-1,1.5562133E0,2.7751955E-1,1.0108728E0,-1.6796367E-1,1.7956617E0,3.267207E-1,-6.337462E-1,1.0856891E0,-1.5444195E0,-3.9833573E-1,-1.712207E0,-6.65877E-1,-1.3534584E0,4.172197E-1,-1.2822686E0,9.942387E-2,-1.440988E0,4.5811313E-1,1.4388283E0,-2.4272314E-1,-7.477929E-1,8.3245695E-1,-1.5293858E0,5.360856E-1,-1.8395196E-1,1.0246552E0,-1.5837946E0,1.925173E-1,4.858514E-1,-1.2159425E0,-1.0718273E0,-1.6534422E-1,-1.1448718E0,8.8323337E-1],"categories":[],"categories_nodes":[],"categories_segments":[],"categories_sizes":[],"default_left":[1,1,1,1,1,1,1,1,1,1,1,1,1,1,1,1,1,1,1,1,1,1,1,1,1,1,1,1,1,1,1,1,1,1,1,1,1,1,1,1,1,1,1,1,1,1,0,1,1,1,1,1,0,1,1,0,1,0,1,1,0,1,0,1,1,1,1,1,1,1,0,1,1,1,1,0,0,1,1,0,1,1,1,1,1,0,1,0,1,0,1,0,0,1,0,1,0,1,1,1,1,1,0,1,1,1,0,0,0,0,0,0,0,0,0,1,1,1,1,0,1,1,0,1,1,0,1,0,0,1,1,1,1,1,1,1,1,0,0,0,0,1,1,1,1,0,0,1,1,1,0,0,1,1,1,0,1,1,1,1,0,1,1,0,0,1,0,1,0,1,1,1,1,1,1,1,1,1,0,1,1,0,1,0,0,0,0,0,0,1,1,1,0,1,0,1,1,0,0,1,1,1,1,0,0,0,0,1,1,1,1,1,1,1,1,1,0,0,1,1,0,0,0,0,1,0,1,1,0,0,0,1,1,1,1,1,1,1,1,1,0,0,1,0,0,0,0,1,0,1,0,1,0,0,0,1,0,0,0,1,1,1,0,1,1,0,1,0,0,1,1,0,0,0,0,0,0,0,0,0,1,1,1,1,1,0,0,1,1,0,0,1,1,1,1,1,0,1,0,0,0,0,1,0,0,1,0,0,0,1,1,0,0,0,0,1,1,1,1,0,0,0,0,1,1,0,0,1,0,1,1,0,1,1,0,0,0,1,0,1,1,0,0,0,1,0,0,0,0,0,0,1,0,0,0,0,0,0,0,0,0,0,0,0,0,0,0,0,0,0,0,0,0,0,0,0,0,0,0,0,0,0,0,0,0,0,0,0,0,0,0,0,0,0,0,0,0,0,0,0,0,0,0,0,0,0,0,0,0,0,0,0,0,0,0,0,0,0,0,0,0,0,0,0,0,0,0,0,0],"id":2,"left_children":[1,3,5,7,9,11,13,15,17,19,21,23,25,27,29,31,33,35,37,39,41,43,45,47,49,51,53,55,57,59,61,63,65,67,69,71,73,75,77,79,81,83,85,87,89,91,-1,93,95,97,99,101,-1,103,105,-1,107,-1,109,111,-1,113,-1,115,117,119,121,123,125,127,-1,129,131,133,135,-1,-1,137,139,-1,141,143,145,147,149,-1,151,-1,153,-1,155,-1,-1,157,-1,159,-1,161,163,165,167,169,-1,171,173,175,-1,-1,-1,-1,-1,-1,-1,-1,-1,177,179,181,183,-1,185,187,-1,189,191,-1,193,-1,-1,195,197,199,201,203,205,207,209,-1,-1,-1,-1,211,213,215,217,-1,-1,219,221,223,-1,-1,225,227,229,-1,231,233,235,237,-1,239,241,-1,-1,243,-1,245,-1,247,249,251,253,255,257,259,261,263,-1,265,267,-1,269,-1,-1,-1,-1,-1,-1,271,273,275,-1,277,-1,279,281,-1,-1,283,285,287,289,-1,-1,-1,-1,291,293,295,297,299,301,303,305,307,-1,-1,309,311,-1,-1,-1,-1,313,-1,315,317,-1,-1,-1,319,321,323,325,327,329,331,333,335,-1,-1,337,-1,-1,-1,-1,339,-1,341,-1,343,-1,-1,-1,345,-1,-1,-1,347,349,351,-1,353,355,-1,357,-1,-1,359,361,-1,-1,-1,-1,-1,-1,-1,-1,-1,363,365,367,369,371,-1,-1,373,375,-1,-1,377,379,381,383,385,-1,387,-1,-1,-1,-1,389,-1,-1,391,-1,-1,-1,393,395,-1,-1,-1,-1,397,399,401,403,-1,-1,-1,-1,405,407,-1,-1,409,-1,411,413,-1,415,417,-1,-1,-1,419,-1,421,423,-1,-1,-1,425,-1,-1,-1,-1,-1,-1,427,-1,-1,-1,-1,-1,-1,-1,-1,-1,-1,-1,-1,-1,-1,-1,-1,-1,-1,-1,-1,-1,-1,-1,-1,-1,-1,-1,-1,-1,-1,-1,-1,-1,-1,-1,-1,-1,-1,-1,-1,-1,-1,-1,-1,-1,-1,-1,-1,-1,-1,-1,-1,-1,-1,-1,-1,-1,-1,-1,-1,-1,-1,-1,-1,-1,-1,-1,-1,-1,-1,-1,-1,-1,-1,-1,-1,-1],"loss_changes":[4.0924375E3,5.945625E3,2.6789062E2,1.2667765E3,2.430039E2,1.07984375E2,1.9271559E2,1.5324356E2,4.1871033E2,2.926513E2,2.3700195E1,2.7282715E2,1.4125E1,7.963187E1,1.2035629E1,3.1534973E1,4.3118057E1,2.725979E2,1.8748543E1,6.8989136E1,1.6394208E2,5.3754883E0,2.0094381E1,8.470117E1,1.7310301E2,2.140625E0,5.1817017E1,1.0694336E1,7.106365E0,7.233444E0,1.6139046E1,3.9571594E1,3.8690186E0,3.5291843E1,4.993191E0,1.4816188E2,9.4385254E1,2.685501E0,5.693854E0,5.626526E0,5.8127968E1,1.39027405E1,3.264795E1,1.1369553E1,4.9267578E-1,5.007855E0,0E0,1.564945E2,1.5510254E0,6.7438774E1,1.5725014E1,1.9662598E1,0E0,6.877257E1,3.9316406E0,0E0,6.0838165E0,0E0,1.137537E1,2.5689697E-1,0E0,1.2126441E0,0E0,1.6355759E1,3.5962364E1,1.8948364E-1,7.575585E0,5.4326515E0,1.1507141E1,3.6745262E0,0E0,3.0966599E1,1.324752E1,1.0709278E1,6.711182E1,0E0,0E0,9.205972E0,1.9325397E0,0E0,8.894043E0,3.142927E1,1.827774E-1,3.1890411E0,1.178708E1,0E0,9.153687E0,0E0,2.1726141E1,0E0,7.9022217E0,0E0,0E0,1.04107475E2,0E0,1.171875E0,0E0,1.1584038E1,4.6997833E0,1.5752106E0,1.1502031E1,5.339038E1,0E0,3.144034E1,1.2401085E1,1.437001E1,0E0,0E0,0E0,0E0,0E0,0E0,0E0,0E0,0E0,7.6620636E0,1.7520287E1,1.6396059E1,6.2671585E0,0E0,2.576579E0,3.002473E0,0E0,1.8333149E0,4.360035E0,0E0,2.1069946E0,0E0,0E0,2.2590881E1,8.837261E-1,5.101219E0,8.465127E0,4.5540123E0,6.86551E-1,5.3093414E1,1.3067627E1,0E0,0E0,0E0,0E0,4.779846E0,1.891599E1,6.105195E0,1.9716757E1,0E0,0E0,2.014389E-1,5.539604E0,3.6471782E0,0E0,0E0,2.4075623E0,8.009453E0,2.326119E0,0E0,1.5683684E1,1.3094177E0,7.3181E1,1.1982208E1,0E0,7.071725E0,1.2820282E0,0E0,0E0,4.0835514E0,0E0,2.2666478E0,0E0,1.9031525E1,2.4186852E1,4.869526E0,4.4262886E-2,1.1578217E0,5.2420692E0,3.0492224E1,1.7364502E-1,1.6379372E1,0E0,2.511485E0,4.4666247E0,0E0,8.573149E0,0E0,0E0,0E0,0E0,0E0,0E0,9.4784355E-1,3.5127573E0,2.7761173E-1,0E0,1.6548755E0,0E0,7.960282E0,1.874424E1,0E0,0E0,5.538265E0,2.5290375E0,6.538224E0,8.821373E-1,0E0,0E0,0E0,0E0,2.1212402E1,3.369301E1,1.0803223E1,8.779193E0,4.0209956E0,1.3560486E0,4.7495074E0,2.5776615E0,1.8023741E0,0E0,0E0,1.244659E1,3.0188007E0,0E0,0E0,0E0,0E0,2.524724E-1,0E0,1.4043427E0,1.077734E1,0E0,0E0,0E0,3.4861803E-1,4.7233677E-1,2.89711E-1,3.7480292E0,8.348114E0,2.2569702E1,6.12372E0,8.2847595E-1,3.3114865E0,0E0,0E0,1.3493805E0,0E0,0E0,0E0,0E0,2.2700714E1,0E0,1.5899925E0,0E0,8.548074E0,0E0,0E0,0E0,1.05233E0,0E0,0E0,0E0,8.145332E-2,1.0531092E0,4.9809647E0,0E0,5.5719757E0,1.5356822E1,0E0,3.137703E0,0E0,0E0,2.4686437E0,3.135994E0,0E0,0E0,0E0,0E0,0E0,0E0,0E0,0E0,0E0,5.35098E0,6.9160438E0,1.1791107E1,3.7440014E0,3.9275455E0,0E0,0E0,3.642971E0,2.2607732E0,0E0,0E0,1.0169189E1,1.9831322E1,1.9753716E1,2.8597183E0,7.982666E0,0E0,4.119649E0,0E0,0E0,0E0,0E0,6.5836716E0,0E0,0E0,3.339131E0,0E0,0E0,0E0,2.4350824E0,9.671211E-1,0E0,0E0,0E0,0E0,1.2104188E0,1.2667542E0,4.5890045E0,1.0340004E0,0E0,0E0,0E0,0E0,1.2750244E-1,4.14974E0,0E0,0E0,6.1683006E0,0E0,8.831103E0,9.886452E0,0E0,5.5786223E0,7.6928396E0,0E0,0E0,0E0,1.3067132E0,0E0,4.8912277E0,1.39088E1,0E0,0E0,0E0,3.9052415E-1,0E0,0E0,0E0,0E0,0E0,0E0,6.5923705E0,0E0,0E0,0E0,0E0,0E0,0E0,0E0,0E0,0E0,0E0,0E0,0E0,0E0,0E0,0E0,0E0,0E0,0E0,0E0,0E0,0E0,0E0,0E0,0E0,0E0,0E0,0E0,0E0,0E0,0E0,0E0,0E0,0E0,0E0,0E0,0E0,0E0,0E0,0E0,0E0,0E0,0E0,0E0,0E0,0E0,0E0,0E0,0E0,0E0,0E0,0E0,0E0,0E0,0E0,0E0,0E0,0E0,0E0,0E0,0E0,0E0,0E0,0E0,0E0,0E0,0E0,0E0,0E0,0E0,0E0,0E0,0E0,0E0,0E0,0E0,0E0,0E0],"parents":[2147483647,0,0,1,1,2,2,3,3,4,4,5,5,6,6,7,7,8,8,9,9,10,10,11,11,12,12,13,13,14,14,15,15,16,16,17,17,18,18,19,19,20,20,21,21,22,22,23,23,24,24,25,25,26,26,27,27,28,28,29,29,30,30,31,31,32,32,33,33,34,34,35,35,36,36,37,37,38,38,39,39,40,40,41,41,42,42,43,43,44,44,45,45,47,47,48,48,49,49,50,50,51,51,53,53,54,54,56,56,58,58,59,59,61,61,63,63,64,64,65,65,66,66,67,67,68,68,69,69,71,71,72,72,73,73,74,74,77,77,78,78,80,80,81,81,82,82,83,83,84,84,86,86,88,88,90,90,93,93,95,95,97,97,98,98,99,99,100,100,101,101,103,103,104,104,105,105,115,115,116,116,117,117,118,118,120,120,121,121,123,123,124,124,126,126,129,129,130,130,131,131,132,132,133,133,134,134,135,135,136,136,141,141,142,142,143,143,144,144,147,147,148,148,149,149,152,152,153,153,154,154,156,156,157,157,158,158,159,159,161,161,162,162,165,165,167,167,169,169,170,170,171,171,172,172,173,173,174,174,175,175,176,176,177,177,179,179,180,180,182,182,189,189,190,190,191,191,193,193,195,195,196,196,199,199,200,200,201,201,202,202,207,207,208,208,209,209,210,210,211,211,212,212,213,213,214,214,215,215,218,218,219,219,224,224,226,226,227,227,231,231,232,232,233,233,234,234,235,235,236,236,237,237,238,238,239,239,242,242,247,247,249,249,251,251,255,255,259,259,260,260,261,261,263,263,264,264,266,266,269,269,270,270,280,280,281,281,282,282,283,283,284,284,287,287,288,288,291,291,292,292,293,293,294,294,295,295,297,297,302,302,305,305,309,309,310,310,315,315,316,316,317,317,318,318,323,323,324,324,327,327,329,329,330,330,332,332,333,333,337,337,339,339,340,340,344,344,351,351],"right_children":[2,4,6,8,10,12,14,16,18,20,22,24,26,28,30,32,34,36,38,40,42,44,46,48,50,52,54,56,58,60,62,64,66,68,70,72,74,76,78,80,82,84,86,88,90,92,-1,94,96,98,100,102,-1,104,106,-1,108,-1,110,112,-1,114,-1,116,118,120,122,124,126,128,-1,130,132,134,136,-1,-1,138,140,-1,142,144,146,148,150,-1,152,-1,154,-1,156,-1,-1,158,-1,160,-1,162,164,166,168,170,-1,172,174,176,-1,-1,-1,-1,-1,-1,-1,-1,-1,178,180,182,184,-1,186,188,-1,190,192,-1,194,-1,-1,196,198,200,202,204,206,208,210,-1,-1,-1,-1,212,214,216,218,-1,-1,220,222,224,-1,-1,226,228,230,-1,232,234,236,238,-1,240,242,-1,-1,244,-1,246,-1,248,250,252,254,256,258,260,262,264,-1,266,268,-1,270,-1,-1,-1,-1,-1,-1,272,274,276,-1,278,-1,280,282,-1,-1,284,286,288,290,-1,-1,-1,-1,292,294,296,298,300,302,304,306,308,-1,-1,310,312,-1,-1,-1,-1,314,-1,316,318,-1,-1,-1,320,322,324,326,328,330,332,334,336,-1,-1,338,-1,-1,-1,-1,340,-1,342,-1,344,-1,-1,-1,346,-1,-1,-1,348,350,352,-1,354,356,-1,358,-1,-1,360,362,-1,-1,-1,-1,-1,-1,-1,-1,-1,364,366,368,370,372,-1,-1,374,376,-1,-1,378,380,382,384,386,-1,388,-1,-1,-1,-1,390,-1,-1,392,-1,-1,-1,394,396,-1,-1,-1,-1,398,400,402,404,-1,-1,-1,-1,406,408,-1,-1,410,-1,412,414,-1,416,418,-1,-1,-1,420,-1,422,424,-1,-1,-1,426,-1,-1,-1,-1,-1,-1,428,-1,-1,-1,-1,-1,-1,-1,-1,-1,-1,-1,-1,-1,-1,-1,-1,-1,-1,-1,-1,-1,-1,-1,-1,-1,-1,-1,-1,-1,-1,-1,-1,-1,-1,-1,-1,-1,-1,-1,-1,-1,-1,-1,-1,-1,-1,-1,-1,-1,-1,-1,-1,-1,-1,-1,-1,-1,-1,-1,-1,-1,-1,-1,-1,-1,-1,-1,-1,-1,-1,-1,-1,-1,-1,-1,-1,-1],"split_conditions":[5.48388E-1,4.404809E-1,2.3510551E-1,2.8452654E0,7.247392E-1,7.949625E-1,1.2977289E0,3.815557E-2,2.8761772E1,2.8284352E-2,5.5236936E-1,3.0188695E-2,5.457705E-2,8.8247937E-1,5.3944183E1,3.1868036E2,3.0841427E1,3.8792558E-2,1.4390335E-2,1.327847E0,7.748244E-1,8.054702E-1,1.3587708E0,2.1209316E0,6.333715E-1,9.664236E-1,1.2157701E0,2.8817143E0,2.711841E0,1.2113643E0,1.5509451E1,1.2277662E0,2.5378327E0,3.0345745E0,1.1054374E2,1.7167923E-1,1.4340937E-1,3.484694E1,1.2190361E0,2.755229E0,7.495355E0,5.194224E-1,1.3210958E-1,3.4567815E-1,1.5093619E-1,2.8968596E0,-7.740331E-2,7.945707E-1,3.140747E0,1.1853811E1,2.3499484E0,1.570888E0,-9.1021314E-2,1.2316585E0,3.557858E-1,-3.6608707E-2,8.715346E0,-8.1385896E-2,2.5501892E2,5.6376137E-2,1.4153126E-2,2.986732E2,-7.484564E-2,3.1126304E0,3.0943713E0,3.1218262E0,3.8445944E-1,2.5535507E0,3.183424E-1,3.921494E-2,-1.6448505E-2,6.573473E-1,6.3340366E-1,1.7538992E0,6.5480127E0,-6.487599E-3,-8.790609E-2,1.600189E-1,4.6404317E-1,-9.02559E-2,9.721732E-1,4.7296E0,1.118077E1,3.0813637E0,1.744735E0,-6.276708E-2,2.7500346E0,-8.778578E-2,3.0830003E-2,-9.061336E-2,2.2193341E-1,-2.3122977E-2,7.212817E-2,2.8930154E0,-8.846198E-2,4.866399E0,-1.3972391E-2,3.6940548E0,2.764905E0,6.0578346E-1,1.0186806E0,2.3347985E-2,-9.062159E-2,1.366018E0,4.231619E0,5.1944983E-1,-8.976823E-2,8.869868E-2,-1.4921868E-2,5.391782E-2,-6.834813E-2,-2.9206008E-2,-8.668011E-2,6.734633E-2,5.0245193E-3,6.442117E0,1.0896315E-2,2.72727E0,1.582483E-2,-8.625888E-2,3.5469342E2,3.676474E-1,-7.483595E-2,2.950634E0,2.894282E0,-5.5781376E-2,1.19316846E-1,-6.222274E-3,8.4808886E-2,7.330285E-2,2.2070829E-2,2.719648E-1,3.397508E-1,6.997795E-2,1.4537029E0,2.665956E-1,1.3923849E1,4.8073262E-2,-7.32795E-2,6.3793354E-2,-7.26477E-3,1.24168686E2,5.7788336E-1,2.3344174E2,1.7802909E-1,-3.289098E-2,-8.71257E-2,3.9527442E0,5.079874E-1,7.53759E-2,-6.241838E-2,-3.4163877E-2,3.3531478E-1,2.515689E0,1.0524409E0,-8.75662E-2,1.199266E0,1.5623471E-2,1.9740825E0,3.3462095E-1,-9.0449445E-2,2.4699372E-1,7.844304E-3,-8.115589E-2,6.709785E-3,1.8770334E2,-8.8603385E-2,2.982088E0,-6.655256E-2,7.594656E-1,9.2577744E-1,2.5841632E0,2.3036903E1,3.5543378E2,3.0072176E0,3.0886623E1,1.8430591E0,8.725505E0,-8.946896E-2,4.4477116E-3,5.816927E-2,-6.552392E-2,1.889082E2,-7.700013E-2,2.8485958E-2,5.4885386E-3,-6.7165844E-2,-3.1900886E-2,4.7906958E-2,1.8158658E0,6.7408857E0,6.833036E-1,-4.5371916E-2,8.589047E-2,8.153013E-2,3.012851E0,1.4088264E-2,-7.048663E-2,-9.217209E-3,3.2691307E0,1.4147478E-1,8.853771E-3,1.3899384E0,-7.933678E-2,1.46456305E-2,1.5252758E-3,5.136618E-2,3.8644698E-1,1.3162799E0,8.542091E2,1.9552771E-2,1.0692253E2,8.6003855E-2,5.6074494E-3,1.6886445E0,6.6724876E-3,-7.500227E-2,-5.9164174E-2,2.7128181E0,8.082745E-1,-8.632092E-2,4.7642812E-2,-5.648434E-2,-2.1067541E-2,1.1805835E0,2.082826E-2,2.6149883E0,2.1963148E2,-8.6233646E-2,-6.2259324E-3,6.9069855E-2,3.4465986E-1,1.5426153E-1,2.7191072E0,2.0752069E-2,1.8312417E0,1.2486356E-3,2.7801795E0,5.194976E-1,1.7281595E0,-5.7359885E-2,1.55584905E-2,2.7356958E0,2.1583492E-2,-6.6264205E-2,-7.543807E-3,6.859254E-2,3.0054002E0,-9.016543E-2,5.849783E0,-7.157413E-2,7.398699E-2,8.1413865E-2,-7.438313E-2,-2.1446213E-2,5.7779778E-2,-1.4685717E-2,-4.9396064E-2,5.118976E-2,1.4034631E0,3.0371041E0,1.2242809E1,-8.853709E-2,2.218454E-1,3.6620203E-2,-7.45948E-2,1.1945215E1,-1.7578326E-2,7.458916E-2,5.8059654E0,1.1192383E-1,-8.372543E-2,-1.578038E-2,2.976892E-2,-5.6522734E-2,7.954946E-3,4.9435936E-2,4.3895464E-2,-1.6207777E-2,5.0702285E-2,1.21024735E-2,5.323741E-2,2.9428144E0,2.145757E0,2.6061224E-2,-8.74696E-2,-4.130633E-3,2.2253516E-1,2.7979977E2,-1.0359561E-2,-7.157906E-2,3.9895877E2,1.5090175E0,2.0497894E-1,4.419061E-4,1.15748085E-2,-3.7491944E-2,3.994817E1,7.114839E-2,-5.4220468E-2,3.674009E-2,-8.9295685E-2,3.4046955E0,-2.9253537E-2,6.462852E-2,2.3954103E2,-8.1347294E-2,-2.288636E-2,4.5128383E-2,5.778274E-3,3.3662763E0,-7.038724E-2,3.1395399E-3,7.121125E-2,1.8765757E-2,5.0428092E-2,5.427725E-1,-4.9312434E-1,3.0106077E0,1.1994751E-2,6.277112E-2,-1.8598592E-2,-7.738107E-2,3.1269226E0,2.4141774E0,2.2785535E-2,-6.438642E-2,1.5954634E-2,3.804327E-2,3.0623534E0,6.689559E0,-7.155759E-2,9.095052E0,1.173346E1,-8.941504E-2,6.804946E-2,-1.7065011E-2,1.19295105E-1,8.844048E-2,5.3914925E1,2.4838062E2,5.469507E-3,7.764498E-2,6.8831936E-2,1.8805944E0,-1.75383E-2,-8.730481E-2,-2.9510153E-2,-8.22738E-2,1.11985775E-2,7.307532E-2,3.9296917E1,-8.284735E-2,-8.75346E-2,-5.3852778E-2,-6.0352553E-2,1.7971916E-2,-4.784785E-2,2.696742E-2,-5.301973E-2,2.1916466E-2,-4.055949E-3,7.7776425E-2,1.9241001E-2,-7.0137076E-2,-5.705536E-2,2.1486577E-2,-3.06238E-2,6.9291964E-2,-2.8046971E-2,4.533433E-2,-7.2140984E-2,3.909522E-3,3.0507376E-2,-5.7224568E-2,6.299894E-2,-3.987721E-3,7.425347E-2,1.5296963E-2,-3.0552616E-2,5.1620867E-2,1.8053189E-2,-4.960608E-2,1.6600349E-3,7.507327E-2,7.334617E-2,8.7780155E-2,1.6540624E-2,-6.2457513E-2,-4.796215E-2,-8.796326E-2,2.2255039E-2,-5.82564E-2,-5.7423126E-2,1.7476823E-2,7.781067E-2,1.3875978E-2,5.0543644E-2,-8.398184E-3,8.978309E-2,1.6336037E-2,-3.168731E-2,5.4284453E-2,-7.722098E-2,-1.9916786E-2,-8.561035E-2,-3.329385E-2,-6.767292E-2,2.0860985E-2,-6.411343E-2,4.9711936E-3,-7.20494E-2,2.2905657E-2,7.194142E-2,-1.2136157E-2,-3.7389647E-2,4.1622847E-2,-7.6469295E-2,2.6804281E-2,-9.197598E-3,5.1232763E-2,-7.918973E-2,9.625865E-3,2.4292571E-2,-6.0797125E-2,-5.3591367E-2,-8.267212E-3,-5.7243593E-2,4.416167E-2],"split_indices":[7,5,8,2,5,7,7,8,4,8,8,8,8,5,9,0,9,7,8,6,6,5,5,4,5,7,7,3,6,8,4,6,2,3,4,5,6,4,6,2,4,6,7,7,8,2,0,5,2,4,6,4,0,4,5,0,4,0,0,5,0,0,0,3,4,3,4,2,2,7,0,6,4,1,9,0,0,7,7,0,6,9,4,2,4,0,3,0,8,0,7,0,0,2,0,4,0,9,6,4,5,8,0,5,6,4,0,0,0,0,0,0,0,0,0,4,8,3,8,0,0,6,0,3,3,0,7,0,0,6,8,5,6,7,4,5,4,0,0,0,0,0,4,0,7,0,0,9,5,7,0,0,2,4,6,0,5,8,6,5,0,5,5,0,0,0,0,2,0,5,5,6,9,9,2,9,7,9,0,8,7,0,0,0,0,0,0,0,0,1,9,6,0,7,0,3,7,0,0,9,8,8,4,0,0,0,0,7,6,0,8,0,7,8,4,8,0,0,2,1,0,0,0,0,1,0,9,0,0,0,0,4,4,2,8,4,8,2,5,9,0,0,2,0,0,0,0,2,0,9,0,8,0,0,0,8,0,0,0,7,2,4,0,6,7,0,9,0,0,9,7,0,0,0,0,0,0,0,0,0,7,4,2,9,8,0,0,5,0,0,0,0,6,7,8,8,0,9,0,0,0,0,4,0,0,0,0,0,0,8,4,0,0,0,0,4,7,1,2,0,0,0,0,3,6,0,0,8,0,2,6,0,9,9,0,0,0,4,0,9,0,0,0,0,6,0,0,0,0,0,0,9,0,0,0,0,0,0,0,0,0,0,0,0,0,0,0,0,0,0,0,0,0,0,0,0,0,0,0,0,0,0,0,0,0,0,0,0,0,0,0,0,0,0,0,0,0,0,0,0,0,0,0,0,0,0,0,0,0,0,0,0,0,0,0,0,0,0,0,0,0,0,0,0,0,0,0,0,0],"split_type":[0,0,0,0,0,0,0,0,0,0,0,0,0,0,0,0,0,0,0,0,0,0,0,0,0,0,0,0,0,0,0,0,0,0,0,0,0,0,0,0,0,0,0,0,0,0,0,0,0,0,0,0,0,0,0,0,0,0,0,0,0,0,0,0,0,0,0,0,0,0,0,0,0,0,0,0,0,0,0,0,0,0,0,0,0,0,0,0,0,0,0,0,0,0,0,0,0,0,0,0,0,0,0,0,0,0,0,0,0,0,0,0,0,0,0,0,0,0,0,0,0,0,0,0,0,0,0,0,0,0,0,0,0,0,0,0,0,0,0,0,0,0,0,0,0,0,0,0,0,0,0,0,0,0,0,0,0,0,0,0,0,0,0,0,0,0,0,0,0,0,0,0,0,0,0,0,0,0,0,0,0,0,0,0,0,0,0,0,0,0,0,0,0,0,0,0,0,0,0,0,0,0,0,0,0,0,0,0,0,0,0,0,0,0,0,0,0,0,0,0,0,0,0,0,0,0,0,0,0,0,0,0,0,0,0,0,0,0,0,0,0,0,0,0,0,0,0,0,0,0,0,0,0,0,0,0,0,0,0,0,0,0,0,0,0,0,0,0,0,0,0,0,0,0,0,0,0,0,0,0,0,0,0,0,0,0,0,0,0,0,0,0,0,0,0,0,0,0,0,0,0,0,0,0,0,0,0,0,0,0,0,0,0,0,0,0,0,0,0,0,0,0,0,0,0,0,0,0,0,0,0,0,0,0,0,0,0,0,0,0,0,0,0,0,0,0,0,0,0,0,0,0,0,0,0,0,0,0,0,0,0,0,0,0,0,0,0,0,0,0,0,0,0,0,0,0,0,0,0,0,0,0,0,0,0,0,0,0,0,0,0,0,0,0,0,0,0,0,0,0,0,0,0,0,0,0,0,0,0,0,0,0,0,0,0,0,0,0,0,0,0,0,0,0,0,0,0,0,0],"sum_hessian":[4.7508848E4,4.4875273E3,4.302132E4,1.6312578E3,2.8562695E3,4.2897633E4,1.23689514E2,3.4389877E2,1.287359E3,4.210269E2,2.4352427E3,1.4895608E3,4.140807E4,5.821574E1,6.547378E1,2.889608E2,5.493798E1,1.231726E3,5.5633076E1,3.194927E2,1.0153418E2,2.4245989E3,1.0643692E1,1.3827441E3,1.068166E2,4.083291E4,5.75161E2,4.4602924E1,1.3612816E1,5.747079E1,8.002985E0,1.6388414E2,1.25076645E2,3.0808552E1,2.4129427E1,1.5949355E2,1.0722324E3,4.7482662E1,8.150415E0,2.6216797E2,5.732473E1,3.719337E1,6.434081E1,9.467773E1,2.3299211E3,5.490953E0,5.1527395E0,3.1060794E2,1.0721362E3,6.101344E1,4.5803158E1,1.0734445E3,3.9759465E4,6.2939453E1,5.1222156E2,1.3403355E0,4.326259E1,7.987946E0,5.62487E0,5.5868187E1,1.6026008E0,3.8035462E0,4.199439E0,1.32271E2,3.1613136E1,1.17509E2,7.567645E0,1.8315903E1,1.249265E1,2.3054272E1,1.0751563E0,9.9087105E1,6.040644E1,1.4127915E1,1.0581045E3,1.2046036E0,4.6278057E1,5.052319E0,3.0980961E0,1.4276845E2,1.19399536E2,3.571786E1,2.1606869E1,2.8294125E1,8.899243E0,3.4408054E0,6.0900005E1,6.2739857E1,3.193787E1,2.2877844E3,4.2136894E1,1.3385719E0,4.152381E0,1.2488765E2,1.8572029E2,1.0710544E3,1.0817549E0,5.19623E1,9.05114E0,3.921956E1,6.5836015E0,1.8128815E2,8.921564E2,2.1906364E1,4.103309E1,7.813612E1,4.3408545E2,4.2073166E1,1.1894219E0,2.8221388E0,2.8027308E0,1.4857752E0,5.4382412E1,2.5863285E0,1.2172176E0,1.1832127E2,1.3949723E1,2.011804E1,1.1495097E1,1.11265945E2,6.2430573E0,3.0353363E0,4.532309E0,1.4020065E1,4.2958374E0,1.452156E0,1.1040494E1,1.0263495E0,2.2027922E1,9.323949E1,5.847618E0,4.663034E1,1.3776099E1,1.1806962E1,2.320954E0,2.957578E2,7.6234674E2,1.5591613E0,3.4931576E0,1.95968E0,1.1384162E0,1.0213843E2,1.7261108E1,9.534156E0,2.6183706E1,1.7989523E0,1.9807917E1,2.4632605E1,3.661521E0,5.274217E0,3.6250267E0,1.1573242E0,5.974268E1,2.7846441E1,4.0914283E0,3.2429386E1,9.707505E0,4.3884197E1,8.100345E1,7.9226234E1,9.9182825E2,5.529407E0,4.643289E1,7.3682313E0,1.6829089E0,4.5663757E0,3.4653183E1,3.8445456E0,2.739056E0,1.6920166E2,1.208648E1,1.6856516E1,5.049848E0,3.7630455E1,3.4026365E0,1.4992017E1,6.3144108E1,8.808745E1,3.0233826E1,8.283953E0,5.66577E0,2.2842352E0,1.7833805E1,1.04064665E1,1.0886302E0,1.3590393E0,4.884018E0,1.0853934E0,1.9499427E0,1.0954652E1,3.0654132E0,2.1490145E0,2.1468227E0,3.2837644E0,7.75673E0,8.924523E0,8.4314964E1,4.824316E0,1.0233022E0,1.9616152E1,2.7014189E1,9.132324E0,4.6437755E0,1.067611E1,1.1308511E0,1.0928663E0,1.2280878E0,2.3639787E2,5.9359924E1,7.540445E2,8.30225E0,2.904798E0,9.923363E1,4.965494E0,1.2295613E1,2.0425007E0,7.4916553E0,3.1052463E0,2.307846E1,5.7411313E0,1.8891474E1,1.0761642E0,2.5853567E0,1.2138731E0,4.0603437E0,2.166372E0,5.757631E1,1.1721559E1,1.6124884E1,1.1806704E0,2.910758E0,2.973207E0,6.734298E0,4.038642E1,3.497778E0,2.7810457E1,5.3192993E1,1.0290686E1,6.893555E1,3.746782E0,1.7826251E0,1.1519824E0,4.528091E1,1.3483176E0,3.218058E0,1.0725666E0,2.7719789E0,5.3702667E1,1.15499E2,8.688953E0,3.397527E0,5.216802E0,1.1639714E1,3.958033E0,1.0918152E0,3.658128E1,1.0491719E0,1.2168877E0,2.1857488E0,9.718992E0,5.2730246E0,1.3882406E1,4.92617E1,6.475471E1,2.3332745E1,4.4910655E0,3.7928872E0,1.3051172E0,4.360653E0,2.6116035E0,1.5222201E1,9.860826E0,1.093826E0,1.1818393E0,1.8835739E0,1.06684E0,1.0821745E0,2.1362848E0,1.1474795E0,1.8313271E0,7.093196E0,1.0662397E1,7.3652565E1,5.8387046E0,1.3777447E1,2.5966726E1,1.047462E0,3.6351397E0,5.4971843E0,1.1134982E0,3.5302773E0,2.0272923E2,3.366864E1,4.197883E1,1.7381098E1,7.527516E2,1.2928771E0,4.9390974E0,3.3631527E0,1.4444995E0,1.4602985E0,4.8155777E1,5.107785E1,1.2083243E0,3.75717E0,3.3943071E0,8.901306E0,1.0116854E0,1.0308154E0,2.8226647E0,2.0255795E1,3.905139E0,1.8359922E0,2.8402884E0,1.2200556E0,2.2046947E0,5.5371613E1,4.882011E0,6.8395476E0,1.0214992E0,1.9517077E0,1.1685258E0,5.5657725E0,3.451114E1,5.875283E0,1.3712558E0,2.1265223E0,2.5838228E1,1.972229E0,8.072316E0,4.5120678E1,3.3399668E0,6.9507194E0,9.676386E0,5.9259163E1,2.5584826E0,1.1882995E0,2.3715954E0,4.2909313E1,3.4965363E1,1.8737305E1,1.0105411E0,7.678412E0,2.7828574E0,2.4339447E0,1.1268682E0,3.5454414E1,1.6069154E0,8.112077E0,1.272164E0,4.0008607E0,4.6272273E0,9.255179E0,2.9728241E1,3.5026466E1,1.1184593E1,1.2148151E1,2.1187456E0,1.6741419E0,1.2956507E0,1.3159529E0,1.1650183E0,1.4057183E1,1.7845473E0,5.3086486E0,3.198729E0,7.463669E0,2.5424187E0,7.1110146E1,4.228603E0,1.6101016E0,1.1937985E1,1.8394617E0,1.0013973E0,2.6337423E0,3.9614472E0,1.5357372E0,1.9451852E2,8.210717E0,9.611953E0,2.4056686E1,2.378275E1,1.8196077E1,1.4892896E0,1.58918085E1,1.6622449E2,5.865271E2,2.761915E0,2.1771824E0,2.4997555E1,2.6080296E1,1.7032866E0,1.6910206E0,1.579243E0,1.2434217E0,1.9145601E1,1.1101947E0,1.1543598E0,1.0503349E0,5.4276737E1,1.0948774E0,1.6298859E0,3.252125E0,4.922008E0,1.9175396E0,3.2676464E1,1.834674E0,4.662202E0,1.2130809E0,2.224553E1,3.5926988E0,3.6264882E0,4.4458284E0,4.1601067E1,3.5196126E0,3.3476558E0,3.6030636E0,7.9587307E0,1.7176552E0,1.0228378E0,1.3487575E0,3.355617E1,1.4091889E0,1.2157301E1,6.580003E0,1.29311E0,1.1408348E0,2.7790956E0,1.8481318E0],"tree_param":{"num_deleted":"0","num_feature":"10","num_nodes":"429","size_leaf_vector":"0"}},{"base_weights":[-1.6401151E0,-7.663791E-1,-1.7313634E0,6.792059E-1,-1.6102004E0,-1.7354401E0,-3.1746808E-1,-9.4668686E-1,1.120967E0,-9.4788665E-1,-1.7190291E0,-1.4768642E0,-1.7447132E0,9.4355357E-1,-1.4358476E0,-1.2211039E0,4.601151E-1,1.2356331E0,-1.4809306E0,-1.3130847E0,8.452107E-1,-1.7253352E0,-2.629876E-1,-1.591101E0,9.340589E-4,-1.7470216E0,-1.5781943E0,1.5585642E0,-1.0342743E0,-1.522711E0,4.0640432E-1,-9.391159E-1,-1.586826E0,-3.1871617E-1,1.463492E0,5.774239E-2,1.4119235E0,-1.5810449E0,1.1378603E0,-1.5796175E0,-3.485286E-1,-1.1413866E0,1.4745694E0,-1.4416407E0,-1.736253E0,9.414485E-1,-1.493231E0,-1.1410455E0,-1.7205423E0,1.0527413E0,-1.3929734E0,-1.6974627E0,-1.749536E0,-8.435365E-1,-1.694916E0,-7.1193075E-1,1.6441202E0,-1.5670596E0,-1.5722072E-1,-6.41136E-1,-1.6558865E0,1.1254206E0,-5.6097364E-1,-1.1708173E0,5.3420305E-2,-1.6325551E0,-7.6283985E-1,-1.1005526E0,8.4154004E-1,1.5550338E0,-3.2050732E-1,7.971031E-1,-1.1166039E0,-6.9323057E-1,1.4511485E0,1.23994686E-1,-1.650783E0,-1.7325267E0,-1.3931794E0,3.4193236E-1,-1.6399786E0,-1.3232874E0,5.465421E-1,-2.448703E-1,1.6524718E0,-1.6862887E0,-9.255819E-1,-1.7408117E0,-1.4542438E0,-4.4940647E-1,1.3922236E0,-3.077824E-1,-1.6989472E0,-1.7217623E0,-2.7222365E-1,1.4737092E0,-1.2652853E0,-1.7035635E-1,-1.6526235E0,-1.4962273E0,-1.7476215E0,4.3569332E-1,-1.5825089E0,-1.5368229E0,-1.7345774E0,1.7048757E0,-2.9037735E-1,1.0405506E0,-1.3230727E0,-1.5005183E0,7.8853303E-1,-1.2847407E0,-2.4596025E-1,8.1097704E-1,-1.2574147E0,-1.6484529E0,-8.1030744E-1,3.568064E-1,-1.444241E0,-1.2982746E0,1.9182011E-1,-1.1452706E0,1.2014439E0,-1.2129708E-1,1.63367E0,9.3383926E-1,-1.2081779E0,1.1332319E0,-1.1930115E0,6.233855E-1,-1.4553871E0,1.0905355E0,1.6257219E0,4.6277064E-1,-2.7214614E-1,-1.703349E0,-9.3168676E-1,-1.7078345E0,-1.1436968E0,-1.4971104E0,8.8675994E-1,-6.22207E-1,-1.688526E0,-3.6792344E-1,-1.4280071E0,-1.0334945E0,6.5018636E-1,-5.851636E-2,1.6965259E0,-1.2295867E0,9.7343695E-1,-1.6831633E0,-6.064478E-1,-1.4818242E0,3.3691418E-1,-7.4405664E-1,-1.7066988E0,-1.5038133E0,-1.7376548E0,1.309696E-1,1.6283756E0,-1.5636327E0,1.2999184E-1,1.0742826E0,-1.427891E0,-1.7015353E0,-6.441631E-1,-1.0502838E0,-1.7389791E0,1.3567407E0,-8.235555E-1,-6.175273E-1,-1.7046317E0,-9.522847E-1,-1.6402401E0,1.2781677E0,-1.2710193E-1,-1.3739372E0,-4.6142846E-1,-9.847469E-1,1.12827E0,-1.2695007E0,1.1243967E0,-1.4804775E0,5.5518174E-1,2.0581837E-1,-1.2087725E0,-6.2184864E-1,9.283423E-1,-5.577168E-1,-1.5003968E0,-5.4389334E-1,9.616823E-1,-1.6546881E-1,1.4295179E0,-4.717287E-1,1.0858501E0,-1.3588134E0,-1.7969264E-1,-1.3262014E0,1.7198901E-1,-9.920329E-1,1.3426017E0,-1.5942228E0,-3.4005103E-1,1.289157E0,2.2695741E-1,1.633131E0,-5.789709E-1,-1.3577112E0,1.8000177E-1,-5.337621E-1,-1.7025383E0,-1.9414036E-1,-1.6073166E0,-4.3332192E-1,1.2614546E0,6.0253844E-2,9.403369E-1,1.7243527E0,2.6774144E-1,-4.3387222E-1,-1.5866884E0,-1.2114784E-1,1.3366373E0,1.0230995E0,-1.3677343E0,-1.5385294E0,-6.32907E-1,-8.9797056E-1,9.8795587E-1,-9.9895376E-1,-8.9121625E-2,-4.813262E-1,-1.648226E0,-8.9274454E-1,1.0052975E0,3.0289882E-1,1.6550672E0,-1.5608901E-1,1.4081235E0,-1.0715556E0,1.7857656E-1,-1.6065377E0,-5.400598E-1,1.4563084E-1,1.573569E0,-1.4292659E0,1.10295184E-1,6.5029275E-1,-1.4034659E0,-1.6032771E0,1.240115E0,-1.2613355E0,-1.7171776E0,-1.5363898E0,-9.241912E-1,-8.216148E-1,1.0387919E0,-1.3955917E0,-2.764993E-1,-1.9470818E-1,1.4314253E0,-3.8228837E-1,1.38528E0,1.3109548E-1,-9.3533427E-1,1.5900067E0,1.8793444E-1,1.0044395E0,-9.1655236E-1,-2.9921267E-2,1.2524027E0,-9.232912E-1,-1.5613483E0,6.1389726E-1,-9.9434274E-1,1.4681994E0,8.5735935E-1,-3.398785E-1,1.1855447E0,1.063369E0,1.6646948E0,2.1105981E-1,-1.0638374E0,-9.296343E-1,3.9900532E-1,5.019043E-1,-1.2840364E0,3.640342E-1,1.6689292E0,-1.2599049E0,1.0630933E0,-7.5263625E-1,-1.6654472E0,2.396123E-1,1.2237185E0,-1.4991386E0,-3.5724106E-1,-4.126601E-1,-1.5583661E0,-1.2609725E0,4.4807103E-1,-1.0459719E0,7.3655325E-1,2.7896848E-1,1.5446359E0,-1.3833324E0,7.0051186E-2,-1.6656698E0,-4.209755E-1,-1.4111213E-1,-1.1342034E0,1.2230877E0,1.8159907E-1,5.865828E-1,1.6997503E0,-1.660218E0,-6.4895827E-1,-9.857982E-1,6.184443E-1,1.0423082E0,-7.422286E-1,4.876092E-1,1.6236367E0,-1.5390929E0,-4.6540663E-1,1.2907631E0,-1.1770303E0,-2.461461E-1,1.1281424E0,-1.6283007E0,-4.5760036E-1,-1.1732098E0,-1.6383213E0,6.6937387E-1,-1.3487779E0,-1.1602157E0,5.536913E-1,-1.0253558E0,5.9696853E-1,-1.0316135E0,4.2606544E-1,-7.892502E-2,1.5014832E0,-2.3181216E-1,-1.1190003E0,3.4652188E-1,-1.3348314E0,4.9791333E-1,-1.120694E0,-5.9102845E-1,1.3259724E0,-1.18676E0,2.0464677E-2,-2.1637097E-1,-1.5956893E0,1.1875783E0,-2.5792267E-2,1.4867628E0,-5.8445036E-1,-5.343795E-1,1.2242336E0,2.235501E-1,-1.1966641E0,1.332812E0,-9.420837E-2,5.107315E-1,1.460625E0,7.766546E-1,1.679883E0,-1.1947929E0,6.102955E-2,-7.9655194E-1,9.6417993E-1,-6.5174794E-1,9.936582E-1,-4.619347E-1,1.1125284E0,-9.341703E-2,-1.502822E0,-9.7828823E-1,-1.9361019E-1,-1.2119071E0,1.8427435E-1,7.363635E-1,-8.818792E-1,7.4171804E-2,1.6079109E0,-7.200411E-1,8.013322E-1,-1.7931147E-1,9.972193E-1,-1.6792787E0,-3.0442673E-1,-1.3300655E0,6.6202116E-1,-6.4369357E-1,-1.5772645E0,-5.775006E-1,1.1030043E0,1.3568782E0,-1.3089093E0],"categories":[],"categories_nodes":[],"categories_segments":[],"categories_sizes":[],"default_left":[1,1,1,1,1,1,1,1,1,1,1,1,1,1,1,1,1,1,1,1,1,1,1,1,1,1,1,1,1,1,1,1,1,1,1,1,1,1,0,1,1,1,1,1,1,1,0,1,1,1,1,1,0,1,1,0,1,0,1,1,0,0,0,1,1,1,1,1,1,1,0,1,1,1,1,1,1,0,1,1,1,1,0,1,1,0,1,0,1,0,0,1,1,1,0,1,1,1,1,1,0,1,1,1,0,0,0,0,0,0,1,1,1,1,1,0,1,1,0,1,1,0,1,0,0,1,1,0,1,1,1,1,1,0,0,0,1,0,1,1,1,0,0,0,0,0,1,0,1,1,1,0,1,1,1,1,0,1,0,1,1,0,0,1,0,0,1,1,0,1,1,1,0,1,1,0,0,1,1,1,1,0,1,0,0,0,0,0,0,1,0,0,0,0,1,1,1,0,0,1,1,0,0,0,0,1,1,1,1,0,0,1,0,0,0,1,1,0,0,0,0,1,1,0,0,1,1,1,1,1,1,0,0,1,1,1,1,0,1,0,0,0,0,1,1,1,1,1,1,1,0,0,0,1,0,1,1,1,0,0,1,0,0,1,1,0,1,0,0,0,1,1,1,1,1,1,0,1,1,1,1,1,1,0,0,1,1,1,0,1,0,1,0,1,0,0,0,0,0,0,0,0,0,1,0,1,1,0,1,0,0,0,0,0,0,1,0,1,1,1,1,0,0,0,0,0,0,0,0,0,0,0,1,0,0,0,0,0,0,0,0,0,0,0,0,0,0,0,0,0,0,0,0,0,0,0,0,0,0,0,0,0,0,0,0,0,0,0,0,0,0,0,0,0,0,0,0,0,0,0,0,0,0,0,0,0,0,0,0,0,0,0,0,0,0,0,0,0,0,0,0,0,0],"id":3,"left_children":[1,3,5,7,9,11,13,15,17,19,21,23,25,27,29,31,33,35,37,39,41,43,45,47,49,51,53,55,57,59,61,63,65,67,69,71,73,75,-1,77,79,81,83,85,87,89,-1,91,93,95,97,99,-1,101,103,-1,105,-1,107,109,-1,-1,-1,111,113,115,117,119,121,123,-1,125,127,129,131,133,135,-1,137,139,141,143,-1,145,147,-1,149,-1,151,-1,-1,153,155,157,-1,159,161,163,165,167,-1,169,171,173,-1,-1,-1,-1,-1,-1,175,177,179,181,183,-1,185,187,-1,189,191,-1,193,-1,-1,195,197,-1,199,201,203,205,207,-1,-1,-1,209,-1,211,213,215,-1,-1,-1,-1,-1,217,-1,219,221,223,-1,225,227,229,231,-1,233,-1,235,237,-1,-1,239,-1,-1,241,243,-1,245,247,249,-1,251,253,-1,-1,255,257,259,261,-1,263,-1,-1,-1,-1,-1,-1,265,-1,-1,-1,-1,267,269,271,-1,-1,273,275,-1,-1,-1,-1,277,279,281,283,-1,-1,285,-1,-1,-1,287,289,-1,-1,-1,-1,291,293,-1,-1,295,297,299,301,303,305,-1,-1,307,309,311,313,-1,315,-1,-1,-1,-1,317,319,321,323,325,327,329,-1,-1,-1,331,-1,333,335,337,-1,-1,339,-1,-1,341,343,-1,345,-1,-1,-1,347,349,351,353,355,357,-1,359,361,363,365,367,369,-1,-1,371,373,375,-1,377,-1,379,-1,381,-1,-1,-1,-1,-1,-1,-1,-1,-1,383,-1,385,387,-1,389,-1,-1,-1,-1,-1,-1,391,-1,393,395,397,399,-1,-1,-1,-1,-1,-1,-1,-1,-1,-1,-1,401,-1,-1,-1,-1,-1,-1,-1,-1,-1,-1,-1,-1,-1,-1,-1,-1,-1,-1,-1,-1,-1,-1,-1,-1,-1,-1,-1,-1,-1,-1,-1,-1,-1,-1,-1,-1,-1,-1,-1,-1,-1,-1,-1,-1,-1,-1,-1,-1,-1,-1,-1,-1,-1,-1,-1,-1,-1,-1,-1,-1,-1,-1,-1,-1,-1,-1,-1,-1,-1,-1],"loss_changes":[3.746164E3,5.4249736E3,2.4475E2,1.1786926E3,2.0076074E2,9.917969E1,1.7564125E2,1.3600443E2,3.866194E2,2.620614E2,2.167871E1,2.4912329E2,1.2984375E1,7.300128E1,1.116304E1,2.8814209E1,4.5785316E1,2.565404E2,1.6191109E1,8.4663574E1,8.674869E1,4.930664E0,1.8556229E1,7.783496E1,1.5817566E2,2.078125E0,4.7481934E1,9.944504E0,6.5395117E0,6.350662E0,3.2440364E0,3.8782578E1,3.5204468E0,3.1288475E1,4.6663666E0,1.4148512E2,8.976611E1,6.5413666E0,0E0,4.9817505E0,6.569483E1,5.9220695E0,1.6343086E1,1.0411346E1,4.326172E-1,4.677034E0,0E0,1.4309515E2,1.407959E0,6.186609E1,1.4447754E1,1.7412598E1,0E0,7.649463E1,4.1418457E-1,0E0,5.6464157E0,0E0,1.0592392E1,1.3368335E1,0E0,0E0,0E0,1.4070908E1,3.361311E1,2.1920776E-1,7.0211053E0,5.4694233E0,1.1416243E1,3.420765E0,0E0,2.8533855E1,1.21779785E1,2.1316711E1,6.467871E1,5.317934E-1,3.5092163E-1,0E0,7.6237335E0,4.984761E1,2.1527863E-1,1.0330582E0,0E0,4.7352605E0,3.668213E0,0E0,2.0082882E1,0E0,7.2775803E0,0E0,0E0,9.519867E1,9.820557E-2,1.060791E0,0E0,1.0689781E1,4.3612423E0,1.6000221E1,7.859802E-1,4.1780396E1,0E0,3.6081642E1,4.962715E0,4.923645E0,0E0,0E0,0E0,0E0,0E0,0E0,2.1256416E0,8.276428E0,1.7570375E1,1.5387292E1,5.8409157E0,0E0,1.9586661E0,2.8303576E0,0E0,1.8346748E0,2.5519423E0,0E0,4.0947685E0,0E0,0E0,2.0624908E1,8.118515E-1,0E0,1.139003E1,1.080915E1,1.4990616E0,5.928763E1,1.2530518E1,0E0,0E0,0E0,2.943821E0,0E0,2.33171E1,1.3306026E0,1.933537E1,0E0,0E0,0E0,0E0,0E0,5.099335E-1,0E0,1.3748932E0,7.450016E0,2.1784964E0,0E0,1.4616119E1,1.1700974E0,6.6473915E1,4.5540106E-1,0E0,1.0949188E1,0E0,6.72448E0,1.1611328E0,0E0,0E0,2.3621578E0,0E0,0E0,1.3778398E0,4.014679E1,0E0,4.4422493E0,7.713068E0,8.18882E0,0E0,2.8409454E1,4.512024E-1,0E0,0E0,6.5415955E0,8.075905E0,2.837473E0,2.738977E0,0E0,8.051405E0,0E0,0E0,0E0,0E0,0E0,0E0,1.5319726E0,0E0,0E0,0E0,0E0,1.835226E0,7.41081E0,1.58797455E1,0E0,0E0,3.8689728E0,3.8798254E0,0E0,0E0,0E0,0E0,2.0557343E1,3.635498E1,1.0945923E1,1.417252E0,0E0,0E0,1.3457348E1,0E0,0E0,0E0,7.918322E0,1.0305386E1,0E0,0E0,0E0,0E0,1.4011974E1,2.0412445E-2,0E0,0E0,3.2993078E-1,4.854784E-1,2.7368164E-1,3.6116283E0,7.709881E0,2.0839748E1,0E0,0E0,5.694132E0,7.817383E-1,4.8033953E-1,4.9216604E-1,0E0,1.1914291E0,0E0,0E0,0E0,0E0,2.4504395E0,4.0310112E1,3.8014278E0,2.3094177E-2,1.4894867E-1,1.0916007E1,1.7674512E0,0E0,0E0,0E0,4.835005E0,0E0,9.855194E-1,2.2165497E1,5.921629E0,0E0,0E0,4.087947E0,0E0,0E0,2.3333762E0,2.9306698E0,0E0,2.0869851E-1,0E0,0E0,0E0,4.7515125E0,7.495269E0,1.0846779E1,5.769163E0,1.2227173E0,1.9457295E0,0E0,8.416412E0,4.411371E1,2.0714516E1,4.801319E0,8.010132E0,7.70813E0,0E0,0E0,6.687479E0,8.375787E0,3.5261035E0,0E0,7.065943E0,0E0,1.8606472E0,0E0,2.518208E-1,0E0,0E0,0E0,0E0,0E0,0E0,0E0,0E0,0E0,5.6774464E0,0E0,1.3883428E1,2.6691742E0,0E0,5.1625032E0,0E0,0E0,0E0,0E0,0E0,0E0,1.2377231E0,0E0,1.1516418E0,5.599451E0,1.0296726E1,1.3372118E1,0E0,0E0,0E0,0E0,0E0,0E0,0E0,0E0,0E0,0E0,0E0,1.3085088E1,0E0,0E0,0E0,0E0,0E0,0E0,0E0,0E0,0E0,0E0,0E0,0E0,0E0,0E0,0E0,0E0,0E0,0E0,0E0,0E0,0E0,0E0,0E0,0E0,0E0,0E0,0E0,0E0,0E0,0E0,0E0,0E0,0E0,0E0,0E0,0E0,0E0,0E0,0E0,0E0,0E0,0E0,0E0,0E0,0E0,0E0,0E0,0E0,0E0,0E0,0E0,0E0,0E0,0E0,0E0,0E0,0E0,0E0,0E0,0E0,0E0,0E0,0E0,0E0,0E0,0E0,0E0,0E0,0E0,0E0],"parents":[2147483647,0,0,1,1,2,2,3,3,4,4,5,5,6,6,7,7,8,8,9,9,10,10,11,11,12,12,13,13,14,14,15,15,16,16,17,17,18,18,19,19,20,20,21,21,22,22,23,23,24,24,25,25,26,26,27,27,28,28,29,29,30,30,31,31,32,32,33,33,34,34,35,35,36,36,37,37,39,39,40,40,41,41,42,42,43,43,44,44,45,45,47,47,48,48,49,49,50,50,51,51,53,53,54,54,56,56,58,58,59,59,63,63,64,64,65,65,66,66,67,67,68,68,69,69,71,71,72,72,73,73,74,74,75,75,76,76,78,78,79,79,80,80,81,81,83,83,84,84,86,86,88,88,91,91,92,92,93,93,95,95,96,96,97,97,98,98,99,99,101,101,102,102,103,103,110,110,111,111,112,112,113,113,114,114,116,116,117,117,119,119,120,120,122,122,125,125,126,126,128,128,129,129,130,130,131,131,132,132,136,136,138,138,139,139,140,140,146,146,148,148,149,149,150,150,152,152,153,153,154,154,155,155,157,157,159,159,160,160,163,163,166,166,167,167,169,169,170,170,171,171,173,173,174,174,177,177,178,178,179,179,180,180,182,182,189,189,194,194,195,195,196,196,199,199,200,200,205,205,206,206,207,207,208,208,211,211,215,215,216,216,221,221,222,222,225,225,226,226,227,227,228,228,229,229,230,230,233,233,234,234,235,235,236,236,238,238,243,243,244,244,245,245,246,246,247,247,248,248,249,249,253,253,255,255,256,256,257,257,260,260,263,263,264,264,266,266,270,270,271,271,272,272,273,273,274,274,275,275,277,277,278,278,279,279,280,280,281,281,282,282,285,285,286,286,287,287,289,289,291,291,293,293,303,303,305,305,306,306,308,308,315,315,317,317,318,318,319,319,320,320,332,332],"right_children":[2,4,6,8,10,12,14,16,18,20,22,24,26,28,30,32,34,36,38,40,42,44,46,48,50,52,54,56,58,60,62,64,66,68,70,72,74,76,-1,78,80,82,84,86,88,90,-1,92,94,96,98,100,-1,102,104,-1,106,-1,108,110,-1,-1,-1,112,114,116,118,120,122,124,-1,126,128,130,132,134,136,-1,138,140,142,144,-1,146,148,-1,150,-1,152,-1,-1,154,156,158,-1,160,162,164,166,168,-1,170,172,174,-1,-1,-1,-1,-1,-1,176,178,180,182,184,-1,186,188,-1,190,192,-1,194,-1,-1,196,198,-1,200,202,204,206,208,-1,-1,-1,210,-1,212,214,216,-1,-1,-1,-1,-1,218,-1,220,222,224,-1,226,228,230,232,-1,234,-1,236,238,-1,-1,240,-1,-1,242,244,-1,246,248,250,-1,252,254,-1,-1,256,258,260,262,-1,264,-1,-1,-1,-1,-1,-1,266,-1,-1,-1,-1,268,270,272,-1,-1,274,276,-1,-1,-1,-1,278,280,282,284,-1,-1,286,-1,-1,-1,288,290,-1,-1,-1,-1,292,294,-1,-1,296,298,300,302,304,306,-1,-1,308,310,312,314,-1,316,-1,-1,-1,-1,318,320,322,324,326,328,330,-1,-1,-1,332,-1,334,336,338,-1,-1,340,-1,-1,342,344,-1,346,-1,-1,-1,348,350,352,354,356,358,-1,360,362,364,366,368,370,-1,-1,372,374,376,-1,378,-1,380,-1,382,-1,-1,-1,-1,-1,-1,-1,-1,-1,384,-1,386,388,-1,390,-1,-1,-1,-1,-1,-1,392,-1,394,396,398,400,-1,-1,-1,-1,-1,-1,-1,-1,-1,-1,-1,402,-1,-1,-1,-1,-1,-1,-1,-1,-1,-1,-1,-1,-1,-1,-1,-1,-1,-1,-1,-1,-1,-1,-1,-1,-1,-1,-1,-1,-1,-1,-1,-1,-1,-1,-1,-1,-1,-1,-1,-1,-1,-1,-1,-1,-1,-1,-1,-1,-1,-1,-1,-1,-1,-1,-1,-1,-1,-1,-1,-1,-1,-1,-1,-1,-1,-1,-1,-1,-1,-1],"split_conditions":[5.48388E-1,4.534744E-1,2.3510551E-1,2.8452654E0,7.247392E-1,7.950115E-1,1.2977289E0,3.815557E-2,3.750875E1,5.142122E-2,5.5236936E-1,3.0188695E-2,5.457705E-2,8.8247937E-1,1.1843524E2,3.1868036E2,3.0841427E1,3.8792558E-2,1.5438989E-1,1.2237098E0,1.3998206E-1,8.054702E-1,1.3587708E0,2.1209316E0,6.333715E-1,1.090432E0,1.3200375E0,2.8817143E0,2.711841E0,1.5027732E-1,5.887914E-1,1.2277662E0,2.5378327E0,3.0345745E0,1.1054374E2,1.7167923E-1,1.5401366E-1,-2.131825E0,5.6893017E-2,2.755229E0,7.604084E0,5.946966E-1,7.273053E-1,3.4567815E-1,1.5093619E-1,2.8968596E0,-7.466155E-2,7.945707E-1,3.140747E0,1.1853811E1,5.6934726E-1,2.9278207E0,-8.7476805E-2,2.312477E0,5.858336E-1,-3.559654E-2,8.715346E0,-7.835298E-2,2.5501892E2,7.284937E0,-8.279433E-2,5.6271028E-2,-2.8048683E-2,3.1091027E0,3.0943713E0,2.9181842E-2,3.8445944E-1,3.030662E-1,3.183424E-1,3.921494E-2,-1.6025366E-2,6.573473E-1,-2.909318E0,2.0265884E2,1.15748085E-2,3.0425384E0,1.4390335E-2,-8.6626336E-2,8.627249E-2,2.7432127E0,1.6493295E2,4.6984792E-1,2.7327105E-2,3.0674677E0,2.785922E0,-8.4314436E-2,3.0830003E-2,-8.704059E-2,2.2193341E-1,-2.2470323E-2,6.9611184E-2,2.8930154E0,8.3557236E-1,4.866399E0,-1.3611183E-2,3.6940548E0,2.764905E0,1.0339875E0,2.8865767E0,8.8037276E-1,-8.738108E-2,5.780748E-1,2.2248414E-1,4.5095593E-1,-8.672887E-2,8.5243784E-2,-1.4518867E-2,5.202753E-2,-6.615364E-2,-7.5025916E-2,2.2929248E2,2.7693725E0,1.2730713E-2,2.72727E0,1.582483E-2,-8.2422644E-2,3.7251892E2,3.676474E-1,-7.2212055E-2,5.4524012E-2,1.6533303E-1,-5.726353E-2,5.2199923E-2,-6.064854E-3,8.16835E-2,7.330285E-2,2.2070829E-2,5.6661595E-2,6.1037607E-2,1.0283117E-1,1.6046164E1,2.8076172E-1,6.617545E2,2.3138532E-2,-1.3607307E-2,-8.516745E-2,1.4157138E0,-8.539172E-2,4.317749E0,3.493826E-2,2.4343468E-3,-3.111035E-2,-8.4426306E-2,-1.8396173E-2,-7.140036E-2,-5.1674724E-2,1.7533831E-1,-2.925818E-3,1.3601667E1,4.4296837E0,1.0524409E0,-8.415817E-2,1.199266E0,1.5623471E-2,1.9740825E0,4.383195E0,-8.533494E-2,3.3462095E-1,-8.688274E-2,5.8576375E-2,7.844304E-3,-7.818164E-2,6.499592E-3,1.6114754E1,-7.1394555E-2,-8.507677E-2,2.6082623E2,2.7898512E0,-8.694895E-2,2.5841632E0,2.9319155E0,9.914204E0,-8.523159E-2,3.0886623E1,1.8395286E0,6.390839E-2,-6.3550966E-3,7.0618653E-1,1.6870112E0,4.4524493E-3,3.7215567E-1,-6.3475035E-2,1.889082E2,-7.402387E-2,2.7759088E-2,1.0290919E-2,-6.043863E-2,-3.1092433E-2,4.6417113E-2,6.273164E-2,-7.5019844E-2,-2.7194668E-2,4.8084117E-2,-8.27344E-3,2.1567356E1,3.0080192E0,1.4088264E-2,-6.7940675E-2,-8.984632E-3,2.719648E-1,3.7523682E2,-4.9601644E-2,6.713008E-2,-7.971114E-2,-1.700255E-2,2.7198344E-1,1.3162799E0,2.163536E0,9.8608196E-2,-6.788556E-2,9.000088E-3,1.4734364E-2,-8.5126914E-2,-9.707018E-3,-8.036583E-2,2.554214E2,8.384956E0,3.0126923E-3,4.7016844E-2,8.6217634E-2,1.3387072E-2,3.861968E0,1.0547957E0,-6.0573923E-3,6.6831864E-2,7.00051E-1,2.9809098E0,5.5677384E-1,1.7470362E0,1.8312417E0,5.816334E-3,-4.994769E-2,-4.4560814E-3,2.7801795E0,7.874277E-1,3.3618746E0,1.5732983E-1,1.5144941E-2,2.7356958E0,-7.8044506E-3,7.0406176E-2,-5.357778E-2,8.928828E-3,3.3693886E1,1.2345323E1,6.769803E-2,2.7253675E0,3.0841E0,1.3522913E0,2.7135746E1,-7.017329E-2,-8.016386E-2,6.2005755E-2,4.1233032E1,-8.585888E-2,1.0611412E-1,1.8623054E-1,3.5491827E-1,5.1939595E-2,-6.977959E-2,4.0955913E-1,-9.735409E-3,7.157127E-2,5.8059654E0,1.1192383E-1,6.5547745E-3,7.6591187E0,7.950034E-2,9.396723E-3,5.0221976E-2,1.21024735E-2,1.2722743E0,2.9428144E0,3.0705066E-2,2.8955374E0,1.86369E-1,-4.971714E-2,2.8202195E0,1.2000964E0,2.2027135E-1,4.3189144E-1,3.730634E-2,2.444981E-1,1.055299E-2,-5.319187E-2,4.9998522E-1,4.8815554E-1,2.2934446E-1,-6.4201824E-2,1.2134526E-2,8.3446465E-2,1.4345793E-3,5.3154666E-2,4.546886E-1,-8.327236E-2,1.1980615E-2,6.1185926E-2,-7.495693E-2,-1.7862054E-2,-2.0633005E-2,-7.7918306E-2,-6.304862E-2,2.2403551E-2,1.6790628E-2,3.6827665E-2,3.9476905E0,1.9458041E2,-6.916662E-2,9.095052E0,-8.328349E-2,-2.1048775E-2,-7.0556067E-3,-5.6710172E-2,6.1154384E-2,9.079954E-3,1.19295105E-1,8.498751E-2,8.501344E-1,2.711066E0,2.579381E2,5.848623E-3,5.211541E-2,-3.711143E-2,2.438046E-2,8.118184E-2,-7.695465E-2,-2.3270331E-2,6.453816E-2,-5.8851518E-2,-1.2307305E-2,5.640712E-2,-8.1415035E-2,8.080336E0,-5.866049E-2,-8.1916064E-2,3.3468693E-2,-6.743889E-2,-5.8010787E-2,2.7684567E-2,-5.126779E-2,2.9848427E-2,-5.1580675E-2,2.1303272E-2,-3.9462512E-3,7.507416E-2,-1.1590608E-2,-5.5950016E-2,1.7326094E-2,-6.674157E-2,2.4895666E-2,-5.6034703E-2,-2.9551422E-2,6.629863E-2,-5.9338E-2,1.0232339E-3,-1.08185485E-2,-7.978447E-2,5.937892E-2,-1.2896134E-3,7.433814E-2,-2.9222518E-2,-2.6718974E-2,6.1211683E-2,1.1177505E-2,-5.9833206E-2,6.66406E-2,-4.7104186E-3,2.5536576E-2,7.3031254E-2,3.883273E-2,8.399415E-2,-5.9739646E-2,3.0514775E-3,-3.9827596E-2,4.8208997E-2,-3.2587398E-2,4.968291E-2,-2.3096735E-2,5.5626422E-2,-4.670852E-3,-7.51411E-2,-4.8914414E-2,-9.68051E-3,-6.059536E-2,9.213718E-3,3.6818173E-2,-4.4093963E-2,3.7085903E-3,8.039554E-2,-3.6002055E-2,4.006661E-2,-8.965573E-3,4.9860965E-2,-8.396394E-2,-1.5221337E-2,-6.650328E-2,3.310106E-2,-3.218468E-2,-7.8863226E-2,-2.8875029E-2,5.515022E-2,6.784391E-2,-6.544547E-2],"split_indices":[7,5,8,2,5,7,7,8,4,8,8,8,8,5,9,0,9,7,8,6,7,5,5,4,5,7,7,3,6,4,5,6,2,3,4,5,6,1,0,2,4,8,6,7,8,2,0,5,2,4,4,4,0,4,5,0,4,0,0,9,0,0,0,3,4,8,4,8,2,7,0,6,1,0,8,3,8,0,7,2,0,5,0,2,3,0,8,0,7,0,0,2,5,4,0,9,6,5,6,5,0,5,5,4,0,0,0,0,0,0,0,2,8,3,8,0,0,6,0,4,4,0,4,0,0,6,8,0,8,6,9,5,0,0,0,0,6,0,4,4,8,0,0,0,0,0,7,0,4,9,6,0,5,8,6,9,0,5,0,8,5,0,0,9,0,0,0,2,0,6,2,4,0,9,7,0,0,6,1,8,6,0,0,0,0,0,0,0,0,8,0,0,0,0,9,3,7,0,0,5,0,0,0,0,0,7,6,9,5,0,0,8,0,0,0,0,9,0,0,0,0,9,4,0,0,1,2,7,6,4,8,0,0,2,7,6,5,0,2,0,0,0,0,9,9,8,9,6,5,9,0,0,0,9,0,5,7,5,0,0,6,0,0,9,7,0,9,0,0,0,7,1,2,7,3,6,0,1,6,7,5,8,6,0,0,1,6,7,0,8,0,8,0,7,0,0,0,0,0,0,0,0,0,8,0,6,0,0,9,0,0,0,0,0,0,4,0,5,6,0,8,0,0,0,0,0,0,0,0,0,0,0,4,0,0,0,0,0,0,0,0,0,0,0,0,0,0,0,0,0,0,0,0,0,0,0,0,0,0,0,0,0,0,0,0,0,0,0,0,0,0,0,0,0,0,0,0,0,0,0,0,0,0,0,0,0,0,0,0,0,0,0,0,0,0,0,0,0,0,0,0,0,0],"split_type":[0,0,0,0,0,0,0,0,0,0,0,0,0,0,0,0,0,0,0,0,0,0,0,0,0,0,0,0,0,0,0,0,0,0,0,0,0,0,0,0,0,0,0,0,0,0,0,0,0,0,0,0,0,0,0,0,0,0,0,0,0,0,0,0,0,0,0,0,0,0,0,0,0,0,0,0,0,0,0,0,0,0,0,0,0,0,0,0,0,0,0,0,0,0,0,0,0,0,0,0,0,0,0,0,0,0,0,0,0,0,0,0,0,0,0,0,0,0,0,0,0,0,0,0,0,0,0,0,0,0,0,0,0,0,0,0,0,0,0,0,0,0,0,0,0,0,0,0,0,0,0,0,0,0,0,0,0,0,0,0,0,0,0,0,0,0,0,0,0,0,0,0,0,0,0,0,0,0,0,0,0,0,0,0,0,0,0,0,0,0,0,0,0,0,0,0,0,0,0,0,0,0,0,0,0,0,0,0,0,0,0,0,0,0,0,0,0,0,0,0,0,0,0,0,0,0,0,0,0,0,0,0,0,0,0,0,0,0,0,0,0,0,0,0,0,0,0,0,0,0,0,0,0,0,0,0,0,0,0,0,0,0,0,0,0,0,0,0,0,0,0,0,0,0,0,0,0,0,0,0,0,0,0,0,0,0,0,0,0,0,0,0,0,0,0,0,0,0,0,0,0,0,0,0,0,0,0,0,0,0,0,0,0,0,0,0,0,0,0,0,0,0,0,0,0,0,0,0,0,0,0,0,0,0,0,0,0,0,0,0,0,0,0,0,0,0,0,0,0,0,0,0,0,0,0,0,0,0,0,0,0,0,0,0,0,0,0,0,0,0,0,0,0,0,0,0,0,0,0,0,0,0,0,0,0,0,0,0,0,0,0,0,0,0,0,0,0,0,0,0,0,0,0],"sum_hessian":[4.700317E4,4.445476E3,4.2557695E4,1.63857E3,2.8069062E3,4.2435113E4,1.2258103E2,3.4984167E2,1.2887281E3,3.974992E2,2.4094072E3,1.4746765E3,4.0960438E4,5.7689705E1,6.489133E1,2.928492E2,5.6992477E1,1.234834E3,5.3894264E1,3.3046207E2,6.703714E1,2.3988328E3,1.0574445E1,1.3687897E3,1.05886894E2,4.0391043E4,5.6939465E2,4.4167645E1,1.352206E1,6.213507E1,2.7562585E0,1.6736848E2,1.25480736E2,3.247073E1,2.4521748E1,1.6092636E2,1.0739076E3,5.229147E1,1.6027944E0,2.584169E2,7.2045166E1,1.5932372E1,5.110477E1,9.3826935E1,2.3050056E3,5.461883E0,5.112561E0,3.079366E2,1.060853E3,6.0488537E1,4.539836E1,1.9830817E3,3.840796E4,7.9190315E1,4.9020435E2,1.3380151E0,4.282963E1,7.9225836E0,5.5994763E0,8.917635E0,5.3217434E1,1.4873754E0,1.2688832E0,1.355464E2,3.1822083E1,1.1795334E2,7.527394E0,1.9429592E1,1.3041136E1,2.3446966E1,1.0747812E0,9.8949585E1,6.197678E1,1.9338919E1,1.0545686E3,2.0241666E0,5.0267303E1,1.3741872E2,1.2099819E2,4.7425064E1,2.4620106E1,1.4577452E1,1.3549198E0,4.7564917E0,4.6348278E1,6.2113274E1,3.1713663E1,2.2632478E3,4.1757908E1,1.3376461E0,4.124237E0,1.2411474E2,1.8382188E2,1.0597715E3,1.0814826E0,5.150005E1,8.988489E0,8.242574E0,3.7155785E1,4.0182065E2,1.581261E3,2.9146105E1,5.004421E1,1.062868E2,3.8391754E2,4.164055E1,1.1890796E0,2.814942E0,2.7845347E0,5.5387216E0,3.3789136E0,1.20334526E2,1.5211874E1,2.0408783E1,1.14133E1,1.1473028E2,3.223062E0,3.02811E0,4.499284E0,1.68475E1,2.582092E0,1.665387E0,1.1375749E1,1.0262983E0,2.2420668E1,9.313332E1,5.816267E0,1.581383E0,6.0395397E1,7.157134E0,1.2181784E1,3.4635553E2,7.0821313E2,1.0004197E0,1.023747E0,4.556757E1,4.699734E0,5.0924786E1,7.00734E1,1.043941E1,3.6985653E1,1.7499409E0,2.2870165E1,1.8858801E0,1.2691572E1,2.4463613E0,2.3101304E0,1.1551709E0,4.5193108E1,2.7641226E1,4.0724373E0,3.210395E1,9.653957E0,4.3535248E1,8.057949E1,2.2612062E0,1.8156067E2,7.852411E1,9.8124744E2,5.5101714E0,4.5989876E1,7.3056784E0,1.6828105E0,4.215764E0,4.026809E0,3.478157E1,2.3742156E0,1.4351157E2,2.5830908E2,1.6788868E1,1.2357236E1,6.3022346E0,4.3741974E1,1.7512156E1,8.877464E1,1.9436259E0,1.4352877E0,1.0796856E2,1.2365967E1,1.0077582E1,5.1342916E0,2.272626E0,1.8136156E1,1.0325808E1,1.0874918E0,1.0440646E0,2.1789973E0,1.0839702E0,1.9441398E0,4.418353E0,1.2429148E1,1.470417E0,1.1116751E0,1.6659185E0,9.70983E0,8.88402E0,8.42493E1,4.793077E0,1.0231901E0,5.5052113E1,5.343281E0,